{"inputSize":784,"outSize":10,"studyRate":0.005,"hiddens":[64,64],"weights":[[[-0.8585985704820416,-0.7780030030947476,0.9174783751284763,-0.6986897484809418,0.8071797840035291,0.8464235308780268,0.6997050617335379,0.07728490804823562,0.13831225775436828,-0.48435993461000426,-0.4820367581715699,-0.7171934092640282,-0.05287571284083348,0.5606615068124399,-0.24016960905347817,-0.8080720392015728,0.9475750043293747,-0.19685777295339535,0.22236781563131136,-0.8223761545459556,0.02436096828960821,0.09143442946290858,-0.9170152802873617,0.4390283156351238,0.6940075101980037,-0.5153563861584456,0.7820470056750783,-0.47071365583979863,-0.7942365441150507,-0.48850028595719097,0.28946049029639687,0.1743170792857418,-0.0804334707340657,0.8234409392972413,0.9481598718135629,-0.45338922902341405,-0.6496988240665271,0.5163854616475434,-0.6293603774425882,0.8945116320702888,-0.4179774869538708,0.41324406681048864,0.7103644993782892,-0.7737331064242816,0.6327747951136844,0.6793054090134962,0.03810128630981957,0.6094487975014244,-0.2099161922705346,0.28520297286978247,0.5239167593564116,0.5701867454816623,-0.06084196084684623,-0.9627486667482619,0.6587891854027284,-0.937026968185737,0.470284213389375,-0.8374820170610384,0.8454844394252434,0.5306346879021515,-0.5211414566015586,-0.23392612920030253,0.3465509602745507,-0.31460807181429695],[0.6609452696890243,0.8704451519466962,0.7979899076644765,0.8157514393382972,0.5592101020677287,-0.7976341832738807,0.2803620847660684,0.6603116358768777,-0.37147339313656724,-0.5904900199261356,0.28479346493882174,0.18838409578546744,-0.032491041670735576,-0.03004064462914835,0.819547027857858,0.9886646827736072,-0.498323871323588,0.6997414698886111,0.3735301156384956,-0.6089852321640299,0.9059062781598335,0.46884999205375544,-0.5136903462144307,-0.06725748156361644,-0.3817067679857262,-0.49626086562408944,-0.7300878339099808,-0.6703995911599065,0.9244699418646751,0.4843598438283332,-0.6141139068653172,0.7230457280707707,-0.719083006271036,0.536385662265997,-0.2981898431926575,-0.3508637630812874,-0.2022725465136488,0.1743527758923109,0.13463177524618075,-0.08923616780161003,0.11575215686353868,-0.7309823733089356,0.0339244633899487,-0.6662447197194612,0.7900030572805099,0.19231369890406258,-0.13364416036640936,0.24869778635215267,-0.2693547805983292,0.4358663624293102,-0.06663961483765846,-0.5358234768569761,-0.7451389746011836,-0.7958955904910192,-0.612784921321166,-0.5165631577438299,0.8673233533659732,0.7505823663412079,-0.09358107774888325,0.7653144350297354,-0.9860318685488112,-0.4437907420998397,0.0494797799411546,-0.05839647443607032],[0.7432084425056689,0.8406545862978592,0.5269161048975033,-0.9231383098090387,-0.5393125023949681,0.3532819667350562,-0.5855158581128019,0.29297784027220763,-0.22188125711902829,-0.0924614954507279,-0.32365720742048265,0.37965841126332656,0.8337163083529637,-0.2971930104593903,-0.7249258172805193,-0.6266857388307923,-0.5988290834792906,-0.879696081103575,0.6161781494683161,-0.4893401815790164,-0.3939199296549538,0.38468767170165896,-0.8921354206850596,0.4496632949866537,-0.8668054896731245,0.25061619350450615,0.2126685498801255,-0.8006848139995146,0.4347956878995982,-0.29642636641035125,0.5256179967007424,0.8110107990852939,-0.3600279672660054,0.5568630301106039,-0.8656146264319311,0.5581701815669999,-0.3834838024986258,0.7817396836299424,0.800059045433605,0.06704685324470416,0.9516161787563466,-0.5747609735540431,0.34287283356765963,0.6605056533167444,-0.505530822418552,-0.9496705293737058,0.02543480308324675,-0.9621228501305672,-0.4566023013423608,0.7756008623875803,0.6967000563995072,-0.6621751337225039,-0.23799801018803124,0.19677521456530256,0.9931356018081516,-0.3825106610676936,0.473335833405208,-0.2600943958232036,0.9892280060000349,-0.16999826833858478,0.10804537647180879,0.3262075447832731,-0.6523126225256832,0.49378653300771425],[-0.7281361266298243,0.6210442072602669,0.24040563509653334,0.420902998407511,-0.8501908487384409,-0.40533379642697676,0.09442867135757105,0.10800096005865734,0.7788824041855817,-0.3601165915543718,0.5629061385194083,0.6922963999250269,-0.9019786557888825,-0.9280741621718465,-0.9708150343118771,0.7362997458129639,0.6235128409273956,0.4783277750029422,-0.5770830677912733,0.5288573525460445,0.10002407612232678,-0.9082522588895543,0.16025226688618943,0.07639594750290435,-0.45813628977769794,-0.8737849731017393,0.615895469204301,0.5070869884601237,0.7060383129514545,-0.15262836537254043,0.6930028710671052,-0.7780235815277436,-0.7718780910818641,-0.9601432574827791,-0.2223970184431907,0.8009535384939943,-0.5960901035945398,-0.5099414269765881,-0.35257413358530476,0.40776011716337424,0.9142818012522078,0.12003710212897345,0.7507295260478934,0.2370702796427906,0.6676498207207036,-0.5115014580702371,0.6789144874374431,0.4079984250871507,0.37382451726385435,-0.48271796723189864,-0.3725779200699708,-0.36777836941783115,-0.5349193696425967,-0.49310546646682996,0.17261309922365942,-0.028769493856862116,-0.4553399687356152,0.7722116024999264,-0.21197148676886002,0.046050714375928115,0.6699021022935943,0.5595359965549829,0.18163618002991977,0.17410591264264874],[-0.5333559000113011,0.29878765521783257,-0.24363014561299456,-0.9182796260601724,0.3234880131460818,-0.3003259421524509,0.2794721250224603,-0.9229124550920897,-0.27101672000832244,0.7182696978507741,0.1918533926243775,0.8673604975402209,0.19172722930795238,5.1100967014861E-4,0.8968839861860627,0.5648459926083567,0.12283996980317213,-0.9483089539692402,0.8387391977706191,-0.14888625580366743,-0.4377790945710214,0.08611650455331032,-0.7863804907158831,-0.24583998126397488,0.6944501748640513,0.2786681655926784,0.7528723177907235,-0.9574072800201103,0.7271488059110545,-0.029916973679859904,-0.8247562697261941,-0.14786651577575638,0.8940664026931262,-0.7296445009216876,-0.37380675037131117,-0.16643967744809451,-0.9028829139120331,0.45973297486527964,-0.294594267899118,-0.15245758387086839,-0.9839616881983888,0.6043581632739479,0.5293396142063549,-0.9693532331336738,-0.6087001525929359,-0.1163095451992322,-0.316147220425508,0.9181247376511166,-0.37465646329390223,0.2694153284940666,0.8926505731742402,-0.7670853035440512,-0.15081255596794385,0.40062931580788486,0.7605037759732312,-0.0633755593338039,-0.8341186427398153,-0.23233343866760214,-0.954112470784912,-0.8129139726592243,0.9092533932485103,0.6470106391123742,-0.42410508364382604,0.9584035088056919],[0.4458411727197469,-0.3776864905408548,0.13698284120975646,-0.7467582051362369,-0.7001470286005915,-0.018377932711686196,-0.5416900866362635,0.07343350586467379,-0.8045407912787981,-0.20151011926208406,-0.24987018705589592,-0.3861914538140041,0.9876656308543896,0.084731322441842,0.16790723834844634,-0.49452044356748326,0.3924748960471187,-0.9548483070901794,0.04352525453282419,-0.641356572085237,0.9289939770133357,0.16966650369510616,0.7581571261494995,-0.6587105767126913,0.550600394062011,-0.3341994177945087,-0.2729213349995756,-0.9209701126300074,0.06923148555141134,0.5646355239228007,-0.8750998842010682,-0.22740038131396823,0.6663149510123973,0.7258527580801004,-0.29960088832210774,0.10339758237515406,0.5358119224236302,-0.0774025296232439,0.3133409334557262,-0.766228224367123,-0.9807029176643451,-0.7955341291085163,0.6713734227215611,0.007578224362997155,0.46995254252793206,-0.1830017657502132,0.1532888789080744,0.3178710523448378,-0.47819289146206656,-0.9013638139986462,-0.4243527994536045,0.5324099811067522,0.44250374642277945,0.9811826126689727,-0.7070421188098153,-0.14600030831118227,-0.18766772617356287,0.9873791804859005,0.1173221681720833,0.5415028642217397,-0.10078226706574367,-0.05070392246423272,-0.7983611401311896,0.028697732326815606],[-0.21119320665875296,-0.9361947444188201,-0.7488185692200442,-0.8480217209090222,0.5807486631359025,-0.6435120472328852,0.21155629094719108,-0.06577599175541726,-0.22327995145021307,-0.8570961550376315,-0.07324420804990295,0.6709940745749681,0.36269644140259394,-0.3437708503485175,0.16922228449383492,-0.5734712371519373,0.027424816713113698,-0.3471524923258451,0.9145432284173032,-0.5291312679047535,-0.5389925216121094,0.5125563359844416,0.7665997302171239,-0.3242678383075801,-0.25804212518137826,0.11762956893340393,-0.9653055905044867,-0.5643837450307048,-0.551956099123774,0.6250555843895758,-0.8776120179940536,-0.7080807597335752,0.31568642851026807,0.13884703173182178,-0.39152379890340083,-0.8882947365240457,0.024634498853561837,-0.7556020731676858,0.6837428015701119,-0.5909345334111251,-9.085005831486193E-4,0.38444129427963114,-0.5471736167801566,0.19585342439525366,0.99341942609084,-0.8637614356685557,0.018743510660109264,-0.3900959042102543,-0.3299977570499064,-0.4077901583693777,-0.7616886132724567,-0.50732866855059,-0.6211983385382049,-0.7487064255137861,0.5699195935406045,-0.9254510847125299,-0.08740759552113775,0.09590041834946672,0.5307999355563602,0.9749669206854303,0.13881690456275142,-0.14059447690292814,0.9391496842960807,-0.16431603993360988],[0.09845218559670732,0.8817012826953308,-0.6628349590702152,-0.9204761333261886,-0.585764476196422,-0.5945893844961003,-0.22575537069994978,-0.47686657586325176,0.6650478757784626,-0.3170612339393801,0.4753269207969526,0.8711659525346078,-0.23979214199160603,0.8446204777509976,-0.17247203824240587,-0.5193762797897055,0.28688146316063934,0.12079620007488168,-0.41105111126817206,-0.7920799598985071,-0.6942335252059633,-0.28426925873331976,0.2567260001933005,0.6375505411448457,0.13466328009593975,0.3988648837697355,0.12709951567488997,-0.4599095770033683,-0.7135030003107263,0.7089683141726904,0.7384797604049462,0.018563486138481133,-0.08219062432402446,0.5593414959415679,-0.8908071743707262,-0.5239435710322358,0.8956906275244445,-0.012708833059824176,-0.5352084366927536,-0.7262199825580546,0.9055770732038708,-0.19131712157240321,-0.004480692847139256,0.7476064863939971,0.8992904217928388,-0.9815482444517789,-0.4072812482965682,-0.8875576612499343,-0.3778495504856807,-0.07946858175968696,-0.5163197084801856,-0.2923793445778502,-0.04005588881785571,0.17573759693728896,-0.7823729741200449,0.022829095151200463,0.41098837455891,-0.776276242683595,-0.44876159511275104,0.9929143469018356,0.11547598071558629,0.8652008500704651,0.4403155577423381,0.161234159592186],[-0.43625182564236487,0.1831947316218301,0.5648958853813053,-0.5149444574944904,0.35708983654419657,-0.5628100445411357,-0.4016729360602802,-0.20717459588440423,0.20909658715891744,0.08158934287494213,-0.22348606562567808,0.2019685521260448,-0.24738356840862297,0.6399950225513156,-0.7682453152282698,0.16719624236742026,-0.3432788495851202,0.8093953351815943,0.026285652826591344,0.2531358023742072,0.06011680955055265,0.8734206287922963,0.8538585065985427,-0.7885787229899435,-0.6081458198474894,0.2714085986988415,-0.026625743250564327,-0.5087887861907683,0.27715505874521007,9.737702152379235E-5,0.0968042749023077,0.9234302839513517,0.4156218992021603,0.41734440475483225,-0.32566999816839903,0.9928571226608665,0.0710520972648847,0.9723453236762116,0.3028364055639179,-0.15148883332998486,-0.8734685727930094,-0.5955936183828685,-0.17040205658062235,-0.9983828725156487,-0.46456627243334214,-0.967598138734225,-0.8688016965606915,0.5217560082400121,-0.5615921836542221,-0.10037407758731987,-0.48157130470625353,0.4656379042914671,-0.7816150455152469,0.743826079795231,-0.7488877998926293,0.2592614950841856,-0.6699061096038206,0.02978490296710956,-0.25749456897795464,0.8030518192561593,0.8675233130994746,-0.38810737725925404,0.691130998333038,0.18089713970514665],[0.5222250859720219,-0.013266209880994806,0.5985987697868174,-0.9721665727586482,-0.162696248248958,-0.4492128632406138,0.9151747970536213,-0.15254705104729593,0.4763923664861085,-0.204082473461477,0.40056292457978215,-0.13105809123712597,0.6038669970856976,-0.04458398218785975,-0.8044357880970756,-0.6050200498252838,0.4120048265268166,0.25592236039071636,-0.4290152304352428,-0.9844375706710091,-0.6672547869816567,0.6356430446205825,0.3533638058311461,-0.4508648526951695,-0.463834600073312,-0.4431448434932095,0.622798951177725,0.12125813104474936,-0.055264356297299644,-0.6292349492067124,-0.5636531343334117,0.4023442745305068,0.18187166174031733,0.585368789537317,0.05118145972709898,0.6998463513672397,0.6252563653176415,-0.6579604605332505,-0.5951044902705684,0.3365940239029206,-0.9501458907703855,0.42414502164017365,0.4560334300567126,0.5458104957789232,0.2224958351384807,0.20107643650039608,0.39614713882618124,0.9746670698286573,0.2493650594631609,0.053648241659824514,-0.2846308771458139,0.8120609357477075,0.4796687086729816,-0.9680933374469627,-0.36329885877076307,0.5426315817059575,0.33322969926154666,0.7639620494959924,0.5299189163940456,0.37785658225833707,0.5466907607202831,-0.035460086204566865,-0.4258029125123928,0.5263984433372928],[0.02247294663605115,0.28452142186840934,0.15926127519940425,0.6397004615802979,0.716585157615081,-0.3021756237101998,0.2980779233418709,-0.9948418166945812,-0.1841666236695112,0.1395527262977545,0.6697949575452569,0.3580214650974469,0.8319328122071399,0.689420391261919,0.8198498883277248,0.5445101941947532,-0.8205221164852536,0.2370346324338557,0.5148649961535241,0.6924543034635373,-0.6933208566557212,0.270701139023362,0.2831522958121906,-0.9679026971723288,-0.4877712594288144,-0.801008542605637,0.7673542951481851,-0.9414689262947675,-0.7913904309224504,0.44439234386834703,0.6739492447735285,0.33855691339189664,-0.41838412834375194,-0.5590674246097436,-0.17494644194323516,0.9385961566123968,0.34780675571133335,-0.37723588759378024,-0.8988441224717125,0.18660287341334625,0.6260669089492696,0.5082494134002382,0.9091220604787713,-0.7202426387010696,0.8164016389926854,0.06418671393897113,0.21801174545485869,-0.8889507602528726,0.8185473933348448,0.6773832012343692,-0.824048241310066,-0.3883142951738061,-0.07506916276870057,-0.734137016788877,-0.1454862073911658,0.8925890365585969,-0.713036271865769,-0.6704242422917726,-0.2372528267029732,-0.48292371816370516,0.9806132326036487,0.07055051014705405,-0.5687787042378769,-0.6518596403410846],[0.38664120392864976,-0.894984487307535,0.5871337031249029,-0.412417253802271,0.8528577890897053,0.7450851197113655,-0.7752544759191402,0.8605724870333358,-0.5798101926018953,-0.6548082826887018,0.2211064657238202,-0.5019618870696119,-0.22868469121000912,0.7885187320015512,-0.9447636473340653,0.5306241562115579,-0.4999295846593661,0.8312693847815147,-0.3403670395713905,-0.6682261489305312,-0.6982130449694179,0.7276841338886975,-0.533821540939269,0.33382707064974415,-0.2508269115821833,0.32629676677611763,-0.6957789903921605,0.7898505568805736,0.9453011264167326,0.657998783739997,0.9668096498742762,0.16524636363985423,-0.46527863780752154,-0.07094139184122938,0.9817654379472991,-0.5829883732574213,0.3056724788182139,0.7873205530678318,-0.5925263961023046,-0.8451487243690154,-0.06918645035016557,0.7473874767114803,-0.6810147416696619,-0.5228261103371856,0.27085424731336194,-0.2593324286573051,0.058220040798162564,-0.8636718837949164,0.10491463984363358,0.8987455017308488,-0.7072354589626741,-0.3887338431948699,-0.846602469035519,0.8836149735065759,-0.5390360091793693,0.6521479768301834,0.8236108052363427,0.345888952225782,-0.7232914290860091,-0.08977084374292232,0.2353291841899101,-0.5778191792677898,0.6255174875059257,0.37770205539505874],[-0.22914899598210844,-0.424551488689357,-0.5957545961805855,-0.46378110276344225,-0.3372492130960839,-0.4629860420766953,-0.3601936201323576,-0.6509459244909283,-0.11085898365436327,-0.3729478076447342,-0.4315137135301469,0.5232230953001332,0.13562936309343268,-0.6903498092993317,0.264528314237236,-0.13503902416402092,0.39138766480345116,-0.5197486356231902,-0.12102347945641907,-0.10497607391518324,0.3372526895756756,-0.30103415868829264,-0.41668438722860585,-0.5176467765627777,0.7232430720950587,-0.689425934604785,0.8984910843127583,0.7230790614000423,0.5510311893823033,0.32014233024762573,0.2749829475541552,0.9280187802013873,0.07813044908459363,0.6247736516167327,-0.5298511009331343,-0.7281694853255033,-0.5940296363424867,-0.6825778561104214,-0.4121376444691278,-0.6284695024477379,-0.27264039656308425,0.7450371616516905,0.4741191367055959,-0.15180086046159624,-0.8028233032775889,0.9911409546908481,-0.4283186009683043,0.8840812938505951,-0.17219319235308367,-0.2571056862983077,-0.6877324030846965,-0.4979854015349028,-0.2551137206106761,-0.40238142015523076,-0.3483793722056761,0.5501861745667005,0.9037331229406028,0.21060614893793375,0.45628851276388066,-0.8008960905364954,-0.8222198733199548,-0.08072659769713612,-0.8966703469315176,0.9902004929033653],[0.7351844640885884,0.984257042698591,-0.1231134251064903,0.6098373984570405,0.6841321895564334,-0.04178371484319444,-0.48269154858802044,0.8029609857319268,-0.21014099755296134,0.24353927878886864,-0.33447077749237236,0.13569090876006593,0.580038085270782,-0.5173033500413512,-0.21474957865463162,0.7184611235310794,0.9102155179830068,0.05582390962021822,-0.3181403202816568,0.3185566926051725,-0.30590468299308726,0.6827056882023329,0.7345261206166753,-0.0769079205205468,-0.47948600884656717,0.8433107672643799,-0.4550749281205351,-0.7504560728333642,0.5040745970991172,-0.30989684378975807,0.9238806052274549,-0.6525960355292842,0.9292049504274851,0.7956102074530567,0.764548392137109,-0.8688771290825292,0.957812053336515,0.2661913820329793,-0.28296596777523847,-0.6093510049327114,0.029092699153721903,-0.3200079462584758,-0.6162832711895906,-0.3973008267493321,0.4363380326980018,-0.719453128751226,0.1692866706504739,-0.12182118414541118,-0.9793171762625218,-0.8110526244363809,-0.10356733756516284,-0.017898501922114902,-0.17769452535919095,0.45736596822174386,0.8224195295821233,0.7639468192667785,-0.6213602153787785,0.16237637449715794,-0.20199651725835535,-0.9597401558729453,0.0383113569378807,0.9306976284159862,-0.03945276511188613,0.2673002778654255],[0.8000684229566326,-0.1563612147867186,0.5780141141473962,-0.5446735189788154,0.13859204865387145,-0.004041244907825599,0.42321324285376344,0.019221921375463594,0.2210472147957347,0.559609858857648,-0.5322771971652006,0.5679531696631486,0.2631631127377347,-0.22663382522190204,-0.5074977735339046,0.9838661851218498,0.7150913496635305,-0.08122082060668542,0.7761499042607686,-0.42295682647027655,-0.5221570945312439,0.045360641769299735,-0.9975930674639079,0.5810333808172877,0.39749931325815313,0.9869018346761748,0.13102059243978986,-0.19339989983761136,0.9273424626474552,0.025883888660517967,-0.8332314743892768,-0.11864105416926377,0.047524924346480646,-0.535890794518058,-0.572678863093755,-0.8232046759043073,-0.7646614283151612,0.3206622280448231,0.24286544529027576,0.2614757186065048,0.6620243226062933,-0.6310872101179932,0.8403142093754479,0.5120956732274619,-0.38630046704812093,0.8405368371942904,0.5804081375023392,-0.6044240369701466,0.6007460184478705,-0.7628092346578981,0.6859976742514465,-0.18084742927191286,0.614151598720655,0.9118853785777598,0.13319675484722163,0.9815371403476242,0.5528863842346669,-0.656709320095569,0.471990082858639,-0.8324733315032851,0.9731713022359576,0.358270536971813,-0.9982261291236064,-0.9407343221269694],[-0.9999039291451706,0.9521350141703403,0.9499351618196574,-0.6943094025554304,-0.5061118999284944,0.8026698454406653,-0.9220945812761655,0.32907331968206294,-0.6222998149428496,-0.8909206561889264,-0.5047682856160058,-0.35456199381513737,-0.5893856548787466,0.9450902243041882,-0.6391635436496714,0.3382208513449694,0.628686055032513,0.975973635776264,-0.3724400542472127,-0.25264203662708423,-0.8192716316878512,0.08416457075456076,0.01629067745147777,-0.07719013060348925,-0.6540492051174084,0.22102527682790754,4.290500176634611E-4,0.9402203987988507,0.15109816166407114,0.6286755267562671,0.7472707378025066,0.7877727424591922,0.19642862069896846,0.47031180311956544,0.6713370085797841,-0.7929142095944582,0.040974783627539556,0.8642830736339973,-0.4511483966778152,-0.3924538278974812,-0.17271357092372863,-0.6712627027113484,0.9824950962326764,0.9709558405884047,-0.3095623776322065,-0.26817864079539105,0.41539942106848277,0.5292315692718349,-0.0583600084530359,0.9783066677511809,-0.1361126311519186,-0.08724625662502364,-0.9829858380190929,-0.12775888162667096,-0.9282914848931266,0.4644269371550117,-0.2532238882498267,-0.13862124079758673,-0.11595394912706349,-0.545495448674665,0.627011213369553,-0.3003406354234643,0.2979260506291873,0.046917645027896346],[0.465691556571596,0.45695043193391216,0.8667914832046646,0.04044516386477337,0.026528185558594597,-0.24156176185861278,0.9186934573184029,-0.3553708980424666,-0.8912926302004167,0.657547215065643,-0.6045074310791683,0.8489473871052613,-0.12248634175219197,-0.8785568302493574,-0.9732533615006065,0.3053714219647192,-0.7997043382795253,0.7546750190750191,-0.9763436219664312,0.06803265598176234,0.24418290990287028,0.08962791014583793,0.5113547772617548,0.020166694622123726,0.6564156886250403,0.5405980925432678,0.5135670271418948,0.3672971373761229,-0.72489714671036,-0.05169139956782631,0.461869266425162,0.18695565046458706,-0.49232441489162193,-0.46573730652547285,-0.07752143106561427,0.6990610938963862,-0.7337415803299219,-0.9605900318937344,-0.48329048152613696,-0.3425905737408239,0.6636317382461188,-0.16082131886975404,0.8569353393643688,0.06155453472500705,-0.4495868943960819,0.9070053673862193,-0.2719042590571059,0.24968769479120678,-0.5864616062515016,-0.3589286313481357,-0.2845046293226281,-0.6430486642457618,0.15807570120204928,0.774033842382782,-0.9871588211781552,0.10995200829510177,-0.14114013571078154,-0.1468832175396022,-0.7598304521758092,-0.0229356862417196,0.6953861847014342,-0.8919935759476763,-0.24048345006168992,-0.19455379674496553],[0.9728580156798101,0.9165722003722634,0.1968894316621006,0.24951437265114107,-0.6157670885853967,-0.4664858524561113,-0.33770112970805033,0.5319566754252121,-0.5174323753961596,-0.7353854369229973,-0.49468445269093064,-0.6228146129840721,-0.2900860223845856,0.8493502243984885,-0.6481822917743238,0.31846543077718814,-0.7315285359821873,-0.5428001918920218,-0.361700834638377,-0.996222193155929,0.6216547235013516,-0.5919408606650607,-0.10668945713574862,0.6118075738346482,-0.5228114705030369,0.4947547523762177,0.6113097468702513,-0.9617262635450332,0.7312943899045019,0.6157249123653203,-0.27759948097344944,0.12414642222512229,0.04248736694093336,-0.681485233886421,0.3821411244864885,0.8711249963195793,-0.5445458537887791,0.8098111618639046,-0.9111912044175823,-0.6739215993526169,-0.19006320266956522,-0.9946804651523335,-0.0187920798766974,-0.38502202125906293,0.5464991912382426,-0.7271345969522653,0.5783136618732831,-0.5318195886543291,0.9605073251532279,-0.33532117394867944,0.19274570367660537,-0.49725329819306663,-0.042393108794493095,0.6399000833822439,0.7832695281382951,0.5138119683999482,-0.07156523376868829,0.5459219726994284,-0.8927732045191348,-0.924152768181564,0.48725459532661075,0.4572628936782235,0.6919978602570123,0.8659848674291342],[-0.4913405141242244,0.3632423198236232,0.36530451669205877,-0.7045945700489231,0.14843809477935888,-0.8491910989029807,0.8673626432097661,0.2711126035107183,-0.650846993381373,-0.6535502050453463,0.4135981031953331,0.20925138706882795,-0.2920654705099053,0.16118678951052057,-0.01515703489261866,-0.21754779539443092,0.5234449145120499,-0.9747556166374038,-0.4073690766821634,0.30751189150011915,-0.6590783229302397,0.504052066357209,-0.19958470870979883,-0.833949053388918,0.37866258320362567,0.2548218063395429,0.37723491529866804,-0.8003857212065528,0.8462659829227346,0.5130191787141183,0.11855758821443207,0.6320105428256766,0.3543959742257239,0.49062556924292666,0.589732618197701,0.7455141258503202,0.36779226424419753,0.023166008673588312,-0.1693119396591476,0.2738810802326874,-0.032299892786604945,-0.17994345656633448,-0.09378917021767741,0.2739587824468166,-0.9331528361949946,0.7529018413784729,0.5943512408891829,-0.9010025407005617,0.6595478608203247,-0.24104701777141035,0.4761969223471352,0.020599485663666872,-0.3085306988590115,-0.8579872920616423,0.22346317149303996,0.03257056499605371,-0.30195479369113376,-0.6793460917604888,0.976051417871985,-0.5812350109907065,-0.5125219966694436,0.4036956287141269,-0.6400709476312931,-0.22165402956671465],[0.8337220263220289,-0.6345423155663654,-0.0836114461720534,-0.6242915764244072,0.3967939653088801,-0.9516050411611463,-0.5030546784499439,0.918642415725069,0.9022103078890509,0.7382888105957983,0.5238380983099138,0.167140486923667,-0.011696620824173332,-0.3627474746248682,0.9242986954366725,0.13658290817856833,0.069622549248052,0.20238498104465896,0.017459922288012075,-0.917138682210775,-0.9334213708738281,0.022985041098879666,-0.33402493201933536,0.943330224481431,-0.08405677248016064,0.6768175495914404,0.6001248409762217,0.4563032731363452,0.40376841766261684,-0.16399982861464513,0.9803902196139278,-0.20685972806338326,0.05174478100837088,0.7856569756573608,-0.014826246348931482,-0.7892023041937779,-0.4600315621343054,-0.5264349180858834,-0.5064450498807147,0.9690451341180084,0.4635420707490363,-0.773403259734931,-0.22133285149386261,-0.4446227812626695,-0.9026131568109164,-0.6501613798487487,0.5354880021575812,0.12197846823562353,-0.7169035974487652,-0.03315244086005875,0.5375385068925442,0.9629276923814347,0.553615674257895,-0.33541944400574564,-0.24981247299099607,0.8461558693451781,0.17598261222040934,0.7741145918750258,0.823963271199768,0.06349995508852802,-0.08067859364631191,-0.5516499372820005,0.5494755768278041,-0.826477474035884],[0.04473126378149317,0.09047017475006736,0.0762560613607941,-0.4144035281417169,0.26566677544157735,0.14200583542707013,-0.5189735505255086,-0.6299191432653406,0.2418584054064894,-0.2430652387427672,-0.38339131659552095,-0.021756804658447093,0.5467768825104122,-0.531679331097187,0.08089261026545169,0.9169104973994757,0.9880956630250308,-0.4034221620352496,0.6159818385565052,-0.1533393536906229,0.6625613317500461,-0.14647751028096345,0.2808398064656148,-0.9413068957868966,-0.8088670177898063,0.3639526769628201,0.33646216734100376,-0.16565419573058393,-0.7927942549366263,0.1565750370437471,0.9408045475211482,-0.19744540362553242,0.3601867238126073,0.06867572394752708,0.4713978203062761,-0.9156223419421472,0.8486442445243885,-0.035990036516576396,-0.4232140308108412,0.7500373781094358,-0.18829497839622134,-0.8190354721093984,-0.09637496080711805,-0.08724087532622526,0.7843262601810981,0.20812326726516295,-0.14551517757229404,-0.35498523934260584,0.8615238673608969,0.7269461587401684,0.7020976139641766,0.826607247410921,0.21858974655286612,0.36634876588635135,-0.08099796266321868,-0.9796397709010809,0.19878557833429378,-0.218451634928563,0.6772326084883975,0.5200048434898057,-0.6930470417730341,0.9996203453354615,-0.8690906205038618,-0.17381549556457387],[-0.8630675580224252,-0.6332134940827605,0.3152841755889011,-0.019674353644448583,0.5126383729211905,0.88753633576356,-0.7209953957128534,-0.5775480717292192,-0.06291171933363637,0.263258225575312,0.4120581836993966,0.337845531699156,-0.17936026477442546,0.5181380904368311,0.8400638500619726,-0.18121035795360663,0.8991398521171587,0.7426589801280259,-0.773719734397682,0.5914523939081717,-0.24535369887161096,0.19011515027422865,-0.6440966669794499,0.5443015203134605,0.4158314987845064,0.7291302503610146,0.4729295495511858,-0.15673263368735268,0.642135390649917,-0.5147501990425447,-0.5019366918239376,-0.9698006981862506,0.6851842913957311,-0.602746554491721,-0.02314906342515788,-0.8250106888176219,-0.9270529842352166,-0.6310865801814547,0.8904265827868187,-0.11193597475799799,0.2765534524304569,-0.28549832476308223,-0.6930420392530119,0.7987757049749924,0.9966518250468006,0.6764270171608977,0.2600841145015711,0.9665493640951643,-0.7543641737551956,-0.06403773981137983,-0.7886609186822497,0.6154722173199485,-0.5959741509049596,-0.7569015562751613,0.9867599656949917,0.5693402208012628,0.9937397064325375,0.5591420243806144,0.17357972661276588,0.8130029916508787,-0.9620556538424645,0.435749130889562,-0.37889121300970996,0.7171785172598357],[-0.4333696482550291,-0.2533317751179509,-0.08938710610697131,-0.3622648372322623,-0.9209934220175675,0.3435421945725925,-0.5578027777228214,-0.16323112856550948,-0.4117371097856988,0.7246972663766273,0.13241016314499254,-0.02837096190409749,-0.7487949776929466,-0.6140746792384169,-0.3755169510279015,0.7593768272863939,0.5247155404708246,-0.8351556608504647,-0.616173638872157,0.8479870457900058,-0.7070491628864726,0.5954996526919876,-0.9153965392699259,0.41193171674165274,-0.5263646285606576,-0.9425542444195436,-0.7110900130328206,0.538613994036742,0.23876811448597435,-0.6663710530283982,0.5782855165935645,0.08344689548720541,-0.8254904556936216,0.08396669154703451,0.0179918160581507,0.345200686721983,0.4569699759942767,-0.3034006008983481,-0.882308778229872,-0.35042960013634805,0.4350739748214487,-0.003632655383041472,-0.702135446473493,0.7277438123454694,-0.11137189133373182,-0.6298553409848358,-0.7204903171210224,-0.36192288737924416,0.669172374725169,0.011239276659877673,-0.21463453772770813,-0.09718538671558496,0.43314928521169827,-0.809853041377065,0.4741086985501175,-0.48188336780654684,0.7413776848732434,-0.27347524095777764,0.12467520937366694,-0.4555118354954779,0.9257703632516667,0.1673278438077137,-0.2539413396501875,-0.903972051834733],[0.8136893505874419,0.5686318268092965,-0.4913552186302115,0.7207471248254111,-0.3477150653121388,-0.7662595091606403,0.1763406927824065,0.4005342980130957,0.3896173938201657,-0.7222427807322176,0.06446325026422972,-0.3018292383411536,-0.15368594126155344,-0.5311235709006616,-0.5434477201287304,-0.05986969382192919,0.2509675224252481,-0.5607702207374226,-0.11602099927291132,-0.25227687277208477,0.11443313218784956,-0.9368010369883044,-0.2945780058554919,-0.284525889995797,0.48263833542972123,-0.43131301970057967,0.018986589389669017,-0.41554775483200945,0.23446794132489668,-0.22308434686711753,0.09794676924331025,-0.13040332210236172,-0.7192558357553798,0.7588969004874841,-0.7382080787843226,-0.42608705127874247,-0.7277279465753252,0.15180293905911202,0.3774632872750787,0.3587411881610161,-0.26062483994748353,-0.6039618514593736,-0.968631415604922,-0.6618742490337295,-0.5377017802804542,-0.7661053170416674,-0.17903318217890596,-0.4733553410454099,0.31130809280404925,0.95325046314282,-0.8145830292378946,0.8938844329978097,-0.20272385857022046,-0.9351522389110145,0.7279894224475698,-0.034925346864878914,-0.862020691851628,-0.6307319710195396,0.07863972353815218,-0.043775284402660875,-0.22769074410192625,0.6997964672114674,0.003350220879909216,0.5434329951044605],[0.9440333524332649,-0.980051366921574,0.6875450648952224,0.5398667450128198,0.22870290929958736,-0.9904907424141813,0.9040903628459236,-0.009760125238200024,-0.3082411239873917,0.7905107792483921,-0.877908559167456,0.49144326664986204,0.7428365282682718,0.024659318339495195,-0.47909503038585055,-0.09069003723288094,0.6907252504911563,0.256290915710798,0.3444848421469362,0.08532712626380157,-0.4946077983853876,-0.9199779472349281,-0.9356153852727846,-0.3865665199238668,0.35793119721992417,0.47983419009998984,0.4154427009255155,0.31586918269314057,0.13625226957439907,0.5164117590932764,-0.4736209897122483,-0.34162533448186205,0.3237793246081244,0.43213036537330196,-0.9117645915830435,0.018860286625099976,0.38037813804854737,0.19817016416752642,0.7867950659654384,-0.5399996689426871,-0.9208122625454864,0.5458079979092074,-0.929180869807525,-0.5449706815954443,0.12998346661655158,0.6040192176758226,-0.2638577595975753,0.8773503375612715,0.8591523029397039,-0.5919010863533429,0.776371635004997,0.48838973238305083,0.7183133070336569,0.7490903504301716,0.48413727767991377,0.14446355988593074,-0.041928622767773316,0.10138574082403129,-0.11745573808527787,-0.007752579616978839,-0.06965740568592271,-0.30405640027280945,-0.7753188557849859,-0.9662294666494431],[-0.827854182609316,-0.8008550326965058,-0.4802581536023285,-0.3843179413481399,-0.3242942987792068,0.9123877472976241,-0.1724794879296112,0.6338667527434103,-0.435833366142258,-0.07490182326895045,-0.5912562550934108,-0.4566853534271622,-0.23082961624154685,-0.7660846651855777,0.7269060825051716,-0.3755224075855692,-0.7539972344984092,-0.516616590022555,0.7679781511298187,0.3811736846295595,-0.2360321566089294,0.6885640749961386,0.17756097491818035,-0.5685712559104206,-0.6258981161564092,-0.9324400531398438,0.31076184503972315,-0.19852758323108577,-0.7167082581572772,-0.05798229628856699,-0.5517293445519613,-0.8555663374960805,0.05331585906154168,-0.4437417391235001,-0.8471809270064501,-0.9208901322187337,-0.20472113722157803,0.620758461673693,0.02340782409633002,-0.41948908288974573,-0.6556355946450971,0.40328821843069185,0.9503902843679963,-0.8472921822792268,-0.7232165037358584,0.2710839084048462,-0.6172958928325782,0.37584423636142406,-0.9297512680235027,-0.2699822627791053,0.08924500413566339,0.3429965482927122,-0.28874144677244407,0.2118005699817671,0.42958145235044864,0.4888969954336746,-0.38307219145380444,0.12783421530985062,-0.7550900904086391,0.36136160753882907,-0.13394482710591116,-0.9615934280986125,0.13835565438237096,0.997594276615902],[0.42356989051497496,-0.821498115681701,0.13442572008420006,-0.2586356467582158,0.29445438176279515,-0.9634236602768054,-0.5093756427253606,-0.4266148377969823,-0.642308101506307,0.2002268171194892,-0.2200554210889598,0.3260484468739029,0.007742015753704923,-0.7372404662736078,-0.7288479942541366,0.5149966754847091,0.6704986863673583,-0.7727573012294988,-0.8955191641273441,0.943845222424079,0.7626406876085738,-0.4502936683350689,0.7935646729883001,0.7246932366618866,-0.2722647461547638,0.7307292251691389,-0.8198722111833019,0.9058899678175878,-0.5905895566896555,0.1947325520610279,-0.8738334033393682,0.5098532131948716,-0.7886359275219763,-0.9111233892988622,0.9490524731049492,0.45756184954756285,-0.7540693769954421,0.5885361807774168,0.8881917823685221,0.5926754628401396,-0.012619940748212821,-0.6860924819765153,0.7375815788695905,-0.18293987081950158,-0.17692374598076266,0.542378212163664,-0.8131980150152234,-0.7891717613587912,0.33507582872589725,-0.9561302428618557,0.3836904210832064,0.9338289404185389,-0.8532996559229293,0.5714401572783356,0.7651449486112409,-0.30814719721246675,-0.2669304060881208,0.3070121248844335,-0.7017919725939172,0.5996431114681435,0.72153520858132,-0.10782882481416811,0.9317843198423916,-0.6158653300500492],[-0.10259178725003815,0.06655540580099228,0.28005010492275173,0.04516773353155701,0.38232579449352855,-0.6085634311179335,0.3418141167549482,-0.6727453071039085,0.26705809310695305,-0.9463283047528672,-0.5942066171349845,0.6548037664555875,0.3575059740160831,-0.674719442855676,0.19997058389378108,0.5445324192559837,-0.3679038597721611,0.8964841104380041,0.8139026901020465,-0.06736760274472453,0.5107322160103394,0.005116211248885616,0.9560531980913507,-0.6594256654273896,0.09991338505892666,0.052899469138063315,-0.29607560139475075,0.3522704276457995,-0.7944143469331524,0.2291540522414386,0.0629681471292709,0.4866396440250724,0.09474390950860756,-0.4449135363967103,-0.6290421848141012,0.2234493615967177,0.7387557749666549,0.7168829874654095,0.8677060609803973,-0.32336437318617395,-0.41416842704689594,0.07341195422011482,0.5957174821609892,0.20813051374536973,0.7870180628512458,0.30441503732974873,-0.7944330250866785,-0.8634440542474511,-0.7604535144989746,0.30764783592570044,0.21049893782077977,-0.3810310562060033,-0.18668193531680366,-0.841492841507725,0.7679448555406396,0.7701731264922353,-0.30923529910042324,-0.7867394792877491,0.1613601075919333,-0.8670617155923426,0.8772742412162655,-0.23292792362388925,0.8139841475522331,-0.27620118756050593],[-0.37117708931653093,-0.9294036017291782,0.8868311002871532,-0.9470706279543701,0.7954126343999666,0.963991030863959,0.29642092553466926,-0.24707584281593897,-0.10663938592842515,0.9047750349552537,-0.6665351961473756,0.7501351803770488,0.09644522550133883,0.7460408100237506,0.9719210639144775,0.2735518892360951,-0.7246371583865967,0.2641029515810467,0.42854101030069036,-0.5799663008852312,-0.2830953674623844,0.13974727535583842,0.5662281435368588,-0.5189660840944521,0.2187152961428298,-0.13517964881258582,-0.6697641765108653,0.7847829417494183,0.8824480722849537,0.875978513374488,-0.43556692421608956,0.41922598622301566,-0.8824151152669755,0.10999350316688505,0.2755700182076539,0.8748386670351864,-0.8798575831069522,0.13008950408945408,-0.30332119650614553,-0.6172276292364667,0.4049379373436901,0.9903650505825579,0.3464478807154765,0.5226089232035069,-0.15295644650713358,0.08543106867136308,0.6896115678470311,0.5353327786272906,0.1275082364883655,-0.6250253956493272,0.9740992604175551,0.7009566405061092,-0.5196181082715103,0.5780356276166259,0.35389211538130905,-0.8734356646717161,-0.7974716393930394,0.1993628596840824,0.5022378678405699,-0.660636080872397,0.5146669742805445,-0.41970769182182277,-0.42192135277294196,0.19067076733907506],[-0.9484641454763256,0.5591706895034536,-0.37075259879324185,0.7505695807957771,-0.4889765623564284,0.7814235300464192,0.29919481021852956,0.10933166174615416,0.8065669995185578,0.21694649491526463,0.04970881988886866,-0.6995072182364119,-0.5559289750949208,0.022576129587303262,-0.9797058107549173,0.92182381265363,-0.21594891779913383,0.5299742360389075,-0.8844191314150982,-0.5457442692940204,0.35166106170139,0.844339166523091,0.945334824016522,-0.23485210468122864,-0.5782828550490773,0.3069340076716467,-0.16265364906793645,0.8311170426068046,0.7327816053597178,-0.09549904817791144,0.3016755821350092,0.32697210712809444,-0.6261739275848501,-0.3987914185484551,0.04543674813691556,-0.598871063908234,0.6389444085584808,-0.47614239540434,0.9205070324793099,-0.30579414751525236,0.960040160733765,0.9486476150943337,-0.9677523037576867,0.4563305950441905,-0.09563440540910295,-0.8821134738649856,-0.35447029122371987,0.4800158706751074,-0.3367568717060747,0.057602667242273586,0.4950578431023043,-0.5107099176043148,-0.5397471273605108,-0.22790413791031616,-0.35980847180315734,0.6120971238261177,0.8716226997866596,0.45904494201840507,-0.8998367738434487,-0.388192560147121,0.17851159247789705,0.7188637134492186,-0.8362022832126441,-0.33498881325200713],[-0.4396716501686633,-0.8754211428792531,0.4885405116393171,0.6465914061557774,0.19018251171110312,0.973578927289241,-0.1131951871414707,-0.8805955591273438,-0.8919832001179897,0.560163165834751,-0.9566495236446453,-0.47527783588847994,0.12392305342983234,-0.11210383003906355,-0.6843878849560503,0.43091870977440494,0.9435977503712591,-0.6166469304747257,0.23959505775657886,0.1217130705397087,0.20984547873319515,0.8779177842373771,0.3971626974933362,-0.7083933764179866,-0.7815078115138778,-0.10812499371710427,0.8962405306435981,-0.8350171295977402,-0.3059763821151189,-0.9148850904216603,-0.1263337288721782,0.9666646030885042,-0.8002839633461885,-0.36865282024319024,-0.8488817264191681,-0.6544476523682445,-0.4910184601465062,0.22780026271888487,-0.542243286223046,0.08929558695502782,0.5791014076259944,0.46995788637815017,0.47891715856424955,-0.733223548004754,-0.35452453872437895,0.4009653408654197,0.39839674183981066,0.796514109693016,-0.6060321114873766,-0.8120856079184049,0.5725787141060761,0.3629253627691562,-0.8291172336694457,-0.9177057490105804,0.5078421141562435,-0.4112936842429529,0.7545569690202896,0.08947502767671467,0.40840830551395135,-0.579573324048335,-0.6604903975219749,0.1021667635897534,-0.7800222039728308,-0.2042424974685706],[-0.9264586641084953,0.6453764940176889,-0.6847853700816979,-0.16541888219423462,0.7401300145770351,-0.16453671384788882,0.7503388764012675,-0.9674408036023505,0.9929216868638908,-0.32653058134810986,0.3677900098661955,-0.7654354771976646,-0.07393085968040336,0.37298410135673543,-0.07187155735041095,-0.47329112379366234,0.7036242911629604,0.06537422960176276,0.9250440363551704,-0.3904717447609898,-0.5268575092756949,-0.06970498608000786,-0.22945492816501645,-0.2987854281416855,-0.14688928694891001,0.5669702538500425,-0.3668969995781679,0.5686110361216075,-0.08923525240561148,-0.7481873101058598,0.3697323068106224,-0.10498321823388501,0.7363130893591416,-0.37947011733466884,-0.2863124103471002,0.8676741310664722,0.4715393715282612,-0.7320584210089125,-0.8373371792419888,-0.3958597501750589,-0.03479322014531361,0.7763115010996136,0.8580816016578818,-0.164427154090663,0.10464273550929115,-0.23692496679775066,-0.8457304360070419,0.12628812017024638,0.3123336472628382,-0.3185778553737808,0.5470037187373895,0.8327765689011253,0.698314271377896,-0.6877267575628121,0.1641365519464133,0.9916911444613494,0.923587502671583,-0.8462363750466986,0.1166953491060041,-0.6248499769457723,0.9567657332650763,-0.7555695634596244,0.6670616030498038,-0.936976001967712],[0.5954585544447297,-0.6511245757324716,-0.6084620131536429,-0.9442914435239992,-0.12317811162887334,0.8897448425303449,0.2978038788717349,-0.3127740003690278,-0.6868468755721384,0.5274771103757306,0.2035028782664879,0.8971563994728048,-0.73039515066912,-0.13070321825819795,-0.409671769727696,-0.21812325627110699,-0.2595633036548577,0.4315526076639308,-0.3812425917357063,0.26803194068517044,-0.7274222594575818,-0.315431083960013,0.021859165810662464,-0.7606094476024212,0.8666397904433659,0.7767389024232462,0.1918187003733594,-0.004747312002050935,-0.7027504680434336,-0.6353150108894837,-0.06794265359177847,-0.4688312185385528,0.49198485329798014,-0.13111466014010018,-0.9327695770982651,0.805892536146333,-0.6421307093032104,0.4292167828029937,0.38758771815810394,0.8950778705792607,-0.24093636584566022,0.8525414911705971,0.24970742018637537,0.730991100783814,-0.7736289572976374,0.9243464946991335,-0.43731359626896643,-0.011149275556972944,-0.5810737112150344,-0.4007318316882835,0.8623097625002571,-0.3957842045088882,-0.6408192328223699,0.7902115504302117,0.7051616234688555,0.3922149963741686,0.029204632874219948,0.7434637558627654,0.7136969371203785,-0.711823723749626,0.04020887631549601,-0.6827674430408931,-0.740418642423083,0.8405958864902325],[0.7791662266480818,0.8737679153334118,0.9940173704882436,0.7612254246130722,-0.3125700870808019,-0.050748380227767446,-0.7833742418792142,0.5733377383936332,0.13878995412257986,0.38686540061340857,0.42053829445984237,-0.30247006736675647,-0.2349717182558274,0.1911985157797482,-0.7405658784537718,-0.32153429213815593,0.019525712014694455,0.014215737418615834,-0.3475408826426266,0.6732629304523314,0.2510175955195359,0.8796237172437609,-0.22254979612396708,0.8186656580636117,-0.3412492895100061,0.525009821400806,-0.7035194825936907,0.6316794529333588,0.09987466008204499,-0.4275785957672322,0.3181813487220323,-0.7808125652181526,-0.09509098012252995,0.619043958754642,-0.6786548050106798,0.7399388182787469,-0.3483088605503884,-0.6820277022004604,-0.45434080482157324,0.301256797187268,-0.8984987667826416,0.5087981655644674,0.20454945954529133,0.27044631172438865,0.4280304632056302,0.5591348391011942,0.2791643792356795,0.8442714441493593,0.2847661440245709,-0.7892755099365604,0.6286174761141687,0.6395742385614708,0.2632002532080422,0.43132391279196985,0.6782987121866831,0.05980551579166289,-0.13740559975935918,0.04107080439953625,-0.9505134535256616,0.23647491005204876,0.21335020569438112,0.21235698521707524,-0.8512854107926102,-0.5416779163383213],[0.48792034938933554,-0.666668043202303,0.9585881868628492,-0.8249495753046026,0.19284085020187328,0.1794805573289772,-0.9638507868021747,0.8978385008299895,-0.6764668906270723,-0.12711565208324016,0.14098223385912517,-0.3988872103132449,0.776484586067499,-0.36292358672248526,-0.31994381748292067,0.6707372115490177,-0.6419297205173732,-0.9161638033244359,0.8033987557432075,-0.3105091109349126,-0.8743310811430978,0.37262980053389727,0.896085914855508,0.08107949233262987,0.04510558292663798,0.43306157209094426,-0.18562463880748653,-0.03931533961223706,-0.540122022215993,0.2748070182462538,0.46358354142038516,-0.7094334672876701,-0.0943552920577463,-0.8807643638160607,0.9236429114024004,-0.9466222646403717,-0.9469100735407286,0.42450309785177903,0.6732030481612525,-0.08958693462126263,0.19596873295851766,-0.5569488021980115,-0.6932979020362875,0.5829508161082297,-0.8381540030753849,-0.6414809414989012,0.5277013563621906,0.1557207198621431,-0.38611773720984355,0.05569877175017502,-0.8155750408955225,-0.779347753645746,0.8744505351868951,0.8003614427322056,0.645279160266898,-0.9751453413201675,-0.0822760591591699,-0.6174776118868285,-0.10156163488421766,0.6242857031222373,0.2755268074032246,-0.39288231300299,0.4446914389302197,0.26312124302572265],[-0.6392857882169508,0.37533404190434966,0.23505607963091912,0.3561314700125743,-0.08986617548660275,-0.838038458921963,-0.30986216504354047,-0.3624886576198101,-0.9395334921202345,0.025840159903492824,-0.6990021949333581,-0.583750812431222,-0.013801990183071468,0.05709864114291242,0.9457545063377552,-0.7517631622273623,-0.01259011754754411,-0.2836836660327894,0.8620261414379962,0.5316640007626583,-0.7493794521607021,0.2015280918017765,0.032229204821330265,-0.5389649093484845,0.8430254999844017,0.819386943834673,0.31678337420802816,-0.1754105032741103,-0.02275111393668081,-0.8147661328154236,0.04402610954383486,-0.8732605331214127,-0.52058022539074,0.6838335172734741,0.22224746939061893,0.996183631609122,0.03655624408732729,0.18541166226977313,0.9918810921508419,-0.3897110001060024,0.8709977380060686,0.30358307291102715,0.7380483834537538,-0.32822015798937376,-0.5215050850742659,-0.9072029292530193,-0.33670877688739675,0.451784092016359,-0.1944343766574586,0.007217001078876735,-0.3398620013502724,0.011174418524787129,-0.42184237265212277,-0.8258898091846194,0.742947939459247,-0.858865037107594,-0.04504273769379402,-0.6803011851195931,-0.4794630763681413,0.24561875827345875,0.7643426222838182,0.014511820099742697,0.7773261592340647,-0.3131811175635722],[0.3722921068178102,0.24561631973625572,-0.5450352175579263,0.2610671299641316,0.4149520044655453,-0.04591033530023985,-0.9207271277697051,-0.39003950384472635,0.45145558024783466,-0.6323246739429161,0.21488292798449557,0.8566312014498842,-0.04556123308995371,-0.0895188850777209,0.06290573768392195,0.9924902072768524,-0.8844752860290105,0.8503905329422135,-0.8077965632733677,0.8282505708871216,-0.8204932915972412,0.6475688157753151,0.19830822240867105,0.24742818022173288,0.40853224924553205,0.7474270899933169,0.6442861162723422,0.4850281911891661,0.2684863369523222,0.39315898605013905,-0.9622765273844964,-0.7783596478804612,0.22869488677706973,-0.24249213852413729,-0.9717042603039838,0.747087420451401,0.41644323439956155,0.04626764605586762,0.4720856366796007,-0.8394188897273959,-0.8571935655328011,-0.24850495817406687,-0.16577015314238414,-0.5237773801226121,0.5872951915356501,-0.3260174493530893,0.734402286237535,-0.6104260794243533,-0.48180898115264975,0.3339301645949022,0.5388782264998795,-0.8806284100661356,0.23876470164447286,0.6038908396624723,0.24812561142303977,-0.8517578273520527,0.5642058589839679,-0.31708124244385977,-0.774369443450967,0.3467544565732043,0.5179513655954177,-0.14337574696538916,0.8655243363278364,-0.6957320572309823],[0.39095314612370874,0.8539437781073917,0.500709556614599,0.8059737358490486,0.9046655985205586,0.15251231454515304,0.633652460028596,-0.4614301279045559,0.06859107341454922,0.9634452286574205,-0.8621585850208426,0.6039040535736814,0.682283526911172,-0.6727617994429228,0.5135590244810492,0.6492050015320558,-0.5099785236914788,-0.6512240245507855,0.2901845038814435,0.6822485359318959,-0.7733598618223666,-0.7022607778564623,0.32437124295431335,0.6463256336930534,-0.798219653654884,-0.9220911960231949,-0.5333563571479935,0.6870639935161619,-0.46860990101034566,-0.5730543875397401,-0.7106074275540977,-0.7560512443394194,0.9360642400561243,0.9787312273213055,0.1784360030745921,-0.5241464921829966,-0.08758338379352001,-0.47588623707900424,-0.6057009024865333,0.2618806749701524,-0.22224373174574089,-0.4767608521886681,-0.3454256996475813,-0.06349583749684035,-0.5760057840415,0.21830562701098383,0.045441855961710576,-0.18394547955953955,0.22686627673953752,0.7625290379519752,-0.7787754298248764,0.16033719767991322,0.7621581330708084,0.9780864606265405,-0.8638665670190544,0.7349524834262797,-0.2762396512873052,0.6436307884711924,0.9348400882244049,-0.31125540635990095,-0.7613332934212743,0.5370177394318636,0.07177455459474323,-0.1084442507971784],[0.7450452062410485,0.8324826748253011,0.05913984659854384,-0.06961330660866094,0.759009163625353,0.9610918847420931,0.8753088330183055,0.10993199997412247,0.5211132233994789,-0.51331815555677,-0.1776308064637717,0.37059983920544465,0.17571477728724277,-0.8261528904840607,-0.18379771651693405,0.18101978968041338,-0.04031536777324273,-0.9342933251880402,-0.6546429917123536,0.7360915381200099,0.0332049612349865,0.10739016489383181,0.8254113795564426,-0.15698449216888777,0.3484007222560386,-0.45149532615146776,-0.15356166028261314,-0.27648774147555455,0.11584247660338146,0.3085419962924656,0.0711842656781618,0.0995799264803755,0.1262918010365431,0.24054243376673434,-0.9026704933424041,-0.593364352086867,0.7099989215310228,-0.7301461164406371,-0.08748451701300142,0.6036498702137746,0.8547159898658393,-0.5069790766400303,0.5465739057872719,-0.9496790156217975,-0.7963904098902764,0.10794986535149144,0.7193452587394334,-0.16876885365200434,0.793985232633498,0.5406894961924652,-0.4170577550084095,0.318805102624807,-0.34035431255668247,0.08456435315867092,-0.3496983901599576,0.598792442466506,-0.6341981920197274,-0.22388368169417242,0.7423348522059333,0.6098368054301385,0.05531407804591571,-0.512131436162732,-0.035578554451444706,-0.504243059495502],[-0.20246179187606236,0.6001031583465276,-0.8110594289631748,-0.3397635077255826,0.10576397478617518,0.24831287633682167,0.9806786781224756,0.0362167664577241,0.9912255660643731,0.278780043858981,-0.9146846418895402,0.9620646293686214,-0.9929834752568734,0.11384105637517211,-0.9119385654700178,0.8429262703643507,0.037185378489681446,-0.09116989539413572,-0.18684896464036557,0.2328894555777019,-0.8762099753188385,0.46294471758723016,-0.8400881584841899,0.06545437341555403,0.2388707134619979,-0.16533148049884416,0.7991756881035265,-0.5058208094863728,0.07241132906637814,0.64152496483172,-0.35572958110822617,-0.005011180555195983,0.6290023200028925,-0.2466473974648664,-0.6398519585385923,-0.1203360257594263,0.02097488408287913,0.13087129051664742,-0.38364695462463916,-0.06714677998100167,0.3278568705668552,0.7353647802290069,-0.30996229782741924,0.9443474022006246,-7.278245389227886E-4,0.05581368387622965,0.260113478166664,0.8517204116974813,0.026295776519915822,-0.5004173843197139,-0.45440612070767544,0.4113301789687346,0.6120412044763484,0.6731731295398475,-0.14147694142617726,0.5125365253503334,-0.060256757421509294,-0.8788343049214133,0.4795588487411815,-0.9117028500670853,0.08360927338250786,-0.7711126377679846,-0.1099551912973872,-0.5006275783580955],[-0.5036415351688375,-0.5732863093976978,0.8661775556780968,0.16662398857659208,0.38340870898391444,-0.3961236824517362,0.3420670776386907,0.11554353423906256,-0.15364583218793865,0.41197379003766915,0.372858249604883,0.33533615010736273,0.8772156954554522,-0.32651290022614077,0.6093679452719736,-0.7708749244815334,0.46265055737716343,0.8942749273703553,0.9707581914067553,-0.9208262986271013,-0.5240981702424334,0.24340545154493962,-0.6048705592550445,0.6460269004275347,-0.96530858267816,0.5984636199373633,0.8588815312684074,0.5681254868175142,-0.2852477996741003,0.6449467740464305,0.823968332996558,0.4995756543168947,0.14030655433208836,-0.8950551305275524,0.25508051994426456,-0.5861910977334074,0.6431513417471838,0.21325450166340074,-0.9090018986946465,0.11751746553512941,0.5890563641605993,0.5876490366334979,0.6807419145114361,-0.07607113741256451,-0.7158281620883576,-0.8313807079335048,0.11507508996093442,-0.33095668503473885,-0.7580849001277198,-0.8821666253582298,0.6335920850695809,0.9486972051596031,-0.961997909218662,-0.48147724387212626,-0.7823882052585248,-0.6157583002854365,0.9719167988872087,0.2483481217744857,-0.7238033233709905,0.8044188321926456,0.9909006336369147,0.4277967089683968,0.5195904890219892,0.6786806741123415],[-0.06659010616778617,0.4869291297055836,-0.4369803790889418,-0.17404251320882083,0.8942725044647303,-0.5922585910593782,0.13338769810159815,-0.7084927048078636,-0.8533457132686795,-0.2468891447211662,-0.658529902033967,-0.32923359106490907,-0.8198191244691633,-0.6964067784677125,-0.6147397192917299,-0.6502571141163394,-0.2348081234580347,-0.7723368926676545,-0.519333754264805,-0.09373267040343557,0.07397991792651283,0.8834300873332077,-0.2345162564773655,0.08398462718131039,-0.740648335790735,0.5977081860551267,-0.35510789889804517,0.25323113011404486,0.19493267164824982,0.21809194492444176,0.5382863161924433,0.6050836141557613,-0.21354296740775705,0.32972788698096755,0.34558374503973005,-0.23022582823860438,-0.46953433679027,-0.05539165634459885,-0.5110613673413801,-0.7956003006673409,-0.9703605751059721,-0.28732158470274183,-0.9057606016632775,0.5616622730544288,0.5101733577815445,7.336875763618719E-5,-0.7624647666946844,0.520898858326799,0.8167495583407598,-0.42714562273135465,-0.46374324629349717,0.19935600932085973,0.6307882552369793,0.48209868736967654,0.1337926325802291,-0.6800476566351864,-0.37275284777586987,-0.6828524458824534,-0.8730195277683818,-0.7966770173023888,-0.4425956892327884,0.9925709497925846,-0.5652814886760036,-0.7381782524327828],[-0.09265310797019724,-0.06692093891103215,0.820543246142852,-0.7038067775467067,-0.6194400452542647,-0.09416492326101399,0.871457352831889,0.7322753605922812,-0.7696521912405085,0.030731864599314186,-0.6368156737208344,-0.5721930046418788,-0.44010061882261986,-0.5663538969410866,0.7108189160200079,0.6795843659815977,0.8280021884835529,-0.6621257214100899,0.9505947371041694,0.13279425482867652,0.4803446401462003,0.43911396615152126,0.2456312115085633,0.10854203250537091,0.35774998415650194,-0.31898060029939923,-0.5815058117874394,0.6522257331105279,0.06823977947563407,0.02460872275465142,-0.6011552268856472,0.792725776959388,0.6883859507138725,0.9635476134389733,-0.9662522423541131,0.011600661716168534,0.35319898709328734,-0.8631160630805818,0.08004033755797355,-0.5140303377329669,0.6042179101513429,-0.839118160675531,0.028147085860634885,-0.26933880282280287,-0.34044192798435385,-0.36435328531766925,-0.35062224230088884,-0.8557744249392424,0.7719666158663592,0.8188003030064543,-0.3303131056157107,0.2525759127465846,-0.04610885416082899,-0.424901615669614,-0.46649198847757,-0.3124377300666195,-0.7238622548490045,0.14115650031018784,0.44515388431595393,-0.4402209798968383,0.2392198158467089,-0.8851053876771476,0.6781518655386815,-1.0027445832617217],[-0.506293525301189,-0.04519785952119737,0.8281315249082436,-0.43098937611587707,0.5783856669051533,0.24623855056492105,-0.027282085982188564,-0.11018670947916401,-0.6774728436758395,-0.11416670889228706,-0.8603798192154716,-0.592457882341767,0.48185468390629144,0.5484619431120162,-0.2775259862684617,0.23063085386777454,-0.5608493325693669,-0.033014337546722894,-0.5153952864450079,0.03038997338967799,-0.6036551709426401,0.6396481183097235,0.09887096427361411,-0.25564261679729855,-0.7382848293447741,-0.1288076524449717,0.6411331478466501,0.7155336401067164,-0.1542474849583823,0.5504801025140054,-0.746006273203123,-0.9055007074529229,0.518687746194241,-0.8850067002915941,0.12187360620350456,0.5682987257293801,0.05711366186791674,0.04613017669400195,-0.17449171788091059,-0.4156811856206518,0.3924683306425522,-0.5671230472880008,-0.3298267935198726,0.684538276543088,-0.18649653904402053,0.7129831569684228,0.0035139398189355854,0.8405947123131399,-0.6741701689958554,-0.3483143774585842,0.742904116617312,-0.9256769854536395,-1.0076842876709207,0.02024338769502718,0.4053631524375399,-0.8231051651812304,0.05695867588123987,-0.7486035502938051,-0.36824613592981614,-0.9678160053250324,-0.2696774569714491,0.3135095340698703,0.2959498141152759,-0.7821255976763046],[0.6241547627520222,-0.16266154421847415,-0.09941403526005349,0.031042152886085958,0.785659227219117,-0.44724520745682517,-0.6771167234459099,0.535940249246995,0.011066512271697169,-0.059907542700428924,0.26087985141629616,0.8161875114041279,-0.20833811275722902,0.2371174831804299,0.9810591056103564,0.6135262348289124,0.8703790685291642,-0.7775244047012948,-0.7062829156098863,0.7830118744198455,-0.7766996400571688,-0.03854575756642755,-0.554585446323338,-0.6372318187131245,0.9504111643482864,0.46161235564873493,-0.4582442578382376,0.3289374559035495,0.5469767102293215,-0.8678298531595005,0.7553957686866559,-0.8467914463946743,0.06944762118789508,0.5174946327906618,-0.6249482485780886,-0.6989836485525918,-0.5721400615235411,0.4405845499447656,0.9303636867192271,0.462023294645123,0.16147642132953646,-0.45752427866679174,0.881429768239579,-0.9052990736075089,-0.2862043419695817,0.5282002072109706,-0.8537877989268416,0.540700709199488,-0.5649874101468051,0.7523828655198079,0.3137070863028629,0.5763590039547348,-0.29588033754991633,-0.6847983909800692,-0.6129103650937299,-0.13559448020914813,-0.5652381625302316,0.9537399724520188,0.6413433172991009,0.7327515642732096,-0.4690069910043787,0.5195593273023748,-0.0754517936904451,0.8966782713564906],[-0.4301156046413549,-0.9680586957187522,0.10684329666234259,0.5298222751553119,0.4193300244255528,0.013984615667830422,0.838179152807953,0.8679955510417657,-0.12089537160880866,-0.1368639568712602,0.7363111722284482,0.32850006968963974,-0.7292186563809887,0.2673642218914749,0.012132418997075053,0.09847634683320797,0.44140303094110334,-0.3706447239779518,0.19784380459014753,0.5502157285696667,0.619722757597573,0.6999213507819305,0.8166468109747016,0.7520518429667576,0.9983275533254325,-0.9481238935933178,-0.32156742639642377,0.36732430113167636,0.27584726010410077,-0.9712113772770878,0.916724975480664,0.2865859936478361,-0.18884543102411674,-0.4013416667278854,0.08403667759799201,-0.4378401144009042,-0.3478655362980057,0.660717429494321,0.39965537202307333,-0.4742762759305832,0.9285159178586386,0.07888960941740523,0.7563009462330298,-0.8891266134120439,0.3273040465389961,0.09068719766272604,-0.32026372383816204,0.8686477833002861,-0.6039877307875492,-0.23787136771358453,-0.6347845711662636,0.6854279377245882,0.5855986204865418,0.2946469293792002,0.32345167769945543,-0.7229434646016032,0.764544360051839,0.3948937990002281,0.534409343564467,-0.20433148296857664,0.49970609032468205,-0.8596632557528581,0.33877860008459526,0.6998818487237579],[-0.3874281202465285,0.21248236638037638,0.8436602990006694,-0.5662111084945304,0.5775302800276688,-0.115491451130889,0.025932204504261872,-0.4790071255637589,0.025555959295225687,-0.5701498090643773,0.5921024937383944,0.14996848439200894,-0.794003326751036,-0.3607461053317493,0.8805871464124164,0.6740482174018618,0.05912170886382457,-0.7941397076511859,-0.7830866711813614,0.5295569046235985,-0.9355229006049075,-3.9958446748531237E-4,0.7487706822219797,-0.8103504587640855,0.1902378730653627,0.5997126807299178,-0.48769040667908015,0.732895496003328,0.7859643919394426,0.5562371740245297,0.6841502030828934,-0.4495826933025243,0.4570148667401258,0.540857313149244,0.6274258228703445,0.2557502676392053,0.883574296749692,0.6782507071175398,-0.36905999228176933,0.6806201649072887,-0.47645147699717905,0.26862931794981476,0.13238810928994035,-0.49083639004812507,-0.5923649786151841,-0.8301447688643725,-0.47507819348610064,0.198148993790292,-0.6101737229862858,0.34338377511196205,-0.14454055398305185,-0.6104517782132974,-0.7577287941435358,0.19317452041714495,-0.1845997254170971,0.44957193787274957,-0.14203834529128248,0.6305897282183085,-0.9532252826461501,-0.5724637062178921,-0.5806935497126158,0.12126758377020054,-0.9568332349154406,-0.9204130078148355],[-0.43625497747537967,0.33687027207061226,0.38431052751209993,-0.30186465198934753,-0.39316256429073027,0.6042161577938913,-0.451900988672456,-0.33163970051085423,0.6504427053822499,-0.41716851548788514,-0.5894023877752239,0.07913570901358893,0.9512119630259368,-0.3483028336430623,-0.24644165236890572,0.11560645029497132,0.7999716710187414,0.5250901181650737,0.1310830016590294,-0.9804704852372013,-0.5688169984917135,0.9384301085219828,-0.6868292775637617,-0.5054847801328904,-0.981904718741061,0.5149325466168081,-0.04859170099924954,0.44129191119594546,0.0463293897390855,0.06923937624147929,0.4948958362498424,-0.19937373485099408,-0.476355349563127,0.3449105692782923,0.03444838597813235,-0.09944984036663798,0.8040943313438215,-0.8407298854388764,-0.0507094046305575,0.387511205831569,-0.8484487263571882,-0.9612144821959322,-0.7795254236531385,-0.33720130150535077,0.05109386041760154,-0.6436710027595717,-0.5165240364748402,0.7191754722191446,0.034575996393399144,-0.7582980787436275,0.28422913593642224,0.8109001078874138,0.9510568794659999,-0.29353591579634103,0.7882164708716797,-0.008199679913716817,-0.4664408538934805,-0.32237772978169915,0.1517365721874317,0.9724427647916937,-0.43774326164508104,0.9880206432988486,-0.1975307587318186,0.3148954106399088],[0.30083679164635774,-0.2883567003107343,-0.5871312617425425,0.9261994643415101,-0.3372650258020075,-0.15964643493046116,0.78331082512356,-0.9270445547456734,-0.39917042753392074,-0.5001740007387419,-0.08621479188657764,-0.43096488688986356,-0.5087804802877027,0.9624802502604013,0.4589614495327925,0.04461006906324021,-0.5324922698378516,-0.22856325655856877,-0.9542756123675744,-0.5182762063819991,0.5405702103811977,-0.40412202066069436,-0.31440162590738363,0.0820010893050894,0.2767053613735532,-0.30784419454650763,-0.07921362621453508,-0.3176825780459427,0.7736421964110259,-0.9594022513768492,-0.16534026876684227,-0.24511651314913174,-0.10249214385693853,-0.10895644705203167,-0.4524978169808288,0.6962069969621626,-0.8167680583195708,0.5322305341600657,0.17792060457865388,-0.27523424710021316,-0.0447767172040551,0.07930951302459666,-0.8713576207088539,-0.3774296128389536,-0.7286656726095855,-0.8614905733085304,0.8006640277158517,0.5008512828655596,0.9575891666801858,-0.6517169777846447,-0.7475892326913303,-0.7339168208877724,-0.7790509203901606,0.05548414215794558,0.05832977638441952,0.14638390181562283,0.1932599583477967,-0.4164248831819117,-0.379960700643924,-0.020455820760463032,-0.7446336624227156,-0.07117759044651695,0.2221095679547997,0.5820410625837552],[-0.6476711397646308,-0.9448083406779562,0.608627350159457,-0.5700181150851993,-0.7279397479988171,0.547161978710915,-0.6103704263050012,0.14869913329376466,0.9424036870359355,-0.3488226658892051,-0.4940538163918902,-0.20898064955848755,0.0012246318216504446,0.6531717511858702,0.05110257226703632,-0.007981222777808631,-0.8457331104060766,-0.19094574363602496,-0.04625132756409475,0.6035735780007304,-0.2751315243897283,0.10292875313918932,-0.28937967156201855,-0.9613368095429801,-0.37756328323278404,-0.4059796863630921,-0.07140430747820978,-0.12089214681961463,-0.97245920184183,-0.8651094312074524,0.8071879964256247,0.056046445461377443,0.3931630085440792,-0.9981513651694642,0.18446346891587226,0.5846805070794423,0.44362209194545793,0.04565070314400027,0.20013161859840858,0.4507776652494469,-0.42264583476211903,0.905430134090481,-0.5602978982253106,0.18988477538676263,0.5496143546970981,0.9583297820854175,0.7277091479238494,-0.4486015012565871,-0.6456762099816706,0.762485894629437,-0.9699863976894793,-0.6712421526793146,0.3513605416619427,0.04806231425182127,-0.10594250348828277,0.857137615929514,0.3820210397508009,-0.5138545951262946,0.5855563971318628,0.2624849517605283,0.4360319840080649,0.8534591636311792,-0.7011603679174097,0.01337910745574439],[-0.542097612345791,0.5607687764498392,0.21531680224608393,0.29428749899019885,-0.10260684897480767,0.03453249471531191,0.8671324736493373,0.02477541957779127,-0.4639293232989136,0.8622775249331486,-0.16382727055169685,-0.30315589138459204,0.4101258092983028,-0.7073373837596523,0.3690093571732375,-0.5405576974322991,-0.19555119707107438,-0.760896768589756,0.2930773483635112,0.36062517618536116,-0.6089383726116203,-0.29011506096775413,-0.5325210251542339,0.18043721983749472,0.12298370608742666,-0.696802519555365,-0.37392143511311227,-0.24978533044678308,0.7697443716561503,-0.7291434021952212,-0.30563346507178607,-0.66546528590309,0.31929481634486506,-0.495219640848084,0.3011544548124063,-0.6891388418698796,0.22449613262495538,0.8310651049231648,0.5227668048669893,-0.9222552824635821,-0.276658272978351,-0.07980587430909618,-0.22435130438894493,0.977938865142114,0.3974154871064355,0.27438459274396015,0.08430910063189179,-0.11826877995601634,0.5563700099674681,-0.14569821820696202,-0.8882453057834723,-0.10796152754077061,-0.004737007389380695,-0.8584821068629246,-0.4218152366032027,-0.1702296262896315,-0.6533085952214739,0.6760597640432995,-0.8918499500295316,-0.03764370824099502,-0.7840907228197233,0.45523373570859826,0.9842308000549213,0.7515005682822521],[-0.8688763662241892,0.9560690798794462,-0.40350862165924134,-0.5599872792933543,0.4953894298928172,-0.9726340180585165,0.12029633148134593,0.6067847226989608,-0.4192620856873013,-0.6214931953570365,0.3739673262007148,0.08116067152286786,-0.03641825376412146,-0.0034863019341598994,-0.39737094176463367,-0.016103516148148787,0.7763126551479291,-0.5352234924492656,0.5092026243923258,0.07917135500252619,-0.4173101571060766,-0.1528419706680105,0.8320663728785606,-0.8845588037865738,0.8323872376998722,0.5856210505326056,-0.6334321828533153,-0.6244898746003057,0.41337415824158324,0.6773136316218783,0.5169290670663261,0.2705847081421945,0.03653411563181049,0.2948408973694417,-0.8461366543948021,0.48597546046465095,-0.05835313048801309,0.9701864662570596,-0.1611068522405492,0.9229498212961498,0.7237084218660076,-0.5230358457901814,-0.6487422957658299,0.47819110843323903,0.9316007564554158,0.6245908586045088,0.8211547649869833,-0.43000527542952494,0.5902769619450785,0.32683336209581504,-0.21427173919629397,0.23099821345935456,-0.2748525896159529,0.505211421237854,0.9690323629046594,0.5914703885239023,-0.4005345248268272,-0.34006049206076966,-0.269906241712156,-0.390989643442022,0.4487807506536625,-0.7311320672883339,-0.24473484972558165,-0.9766771589122325],[-0.7770888936821714,0.5683296819708881,0.7936426324277255,-0.31483982954937373,0.0777723239445971,0.7253135010667251,-0.9794929317815346,0.6373680462519633,-0.8165031332332213,-0.07370809049237748,-0.031744131047426905,-0.35598411180006195,-0.21372938587360335,-0.5096977892512844,-0.14571334510920253,-0.7998099609292997,-0.5951572336816875,-0.245280228796541,-0.3779715528516656,0.49870355419422996,0.5426229443430104,-0.8119015093434143,-0.9635606703450439,-0.693619119853748,-0.6387031908418048,0.9517898345438838,-0.22671969604953524,0.25423901728194664,-0.6112235426814205,-0.037841413542808455,0.599394704931608,-0.3431392574211829,-0.4762472058858713,0.3977926814530859,0.4619248295949858,-0.34991657789308284,-0.6489286279453792,0.5511823241641882,0.5876017608645883,0.1724545944782938,0.09660604343112467,0.9419208253908615,0.5389454995436544,0.11473503341349511,0.4272577604336394,0.6885598426717057,-0.4175815934913656,0.8230564221134857,0.7411591139302924,0.27882702707354157,-0.3057245879260977,0.06516966747461161,-0.4048814462967729,0.0829947717091013,0.06305957298680531,0.5555489535534963,-0.5192095134032637,-0.7772345306458517,-0.9566069352819964,0.1839421855900112,0.2880118829197591,0.7381166025993551,0.17391823350977642,-0.7967097761132156],[-0.5168018645931043,0.3871287360847271,0.09294586244252301,0.8067614822502005,0.2826442257536377,-0.13110487413647465,-0.03142979387657774,-0.24001979189975886,0.915030986342176,0.7771925935600572,0.4057151228861755,-0.9466480257436589,-0.5556118359102322,-0.8273311663123517,0.7007768211524941,0.900720069697817,-0.43577928125782384,0.303881266045954,0.7852339076343777,-0.165586527951344,-0.7245438198782679,0.7126001463933376,0.23279644331725402,0.1330758057284256,0.4253257725549444,0.7263658745436168,-0.6996291660989866,-0.6325078137861608,0.7112433864025165,0.17137024009697432,0.13131861756648777,0.4609597452734848,0.9432010716200128,0.03130814914794722,-0.029807716619542957,0.33457533156932273,-0.8898479370371104,0.7329249190884359,0.5213324097490444,-0.05585836263966226,-0.88969471816184,-0.24343754331967493,0.4294153132741936,0.3142221264983771,-0.11779031003376872,-0.6499144530893715,-0.7317579891872521,0.036202234008950285,0.11295796697424132,-0.7328519993659772,-0.6052360902275034,-0.37895690140906657,0.7017938407492332,-0.3441639822652247,0.5585419356120529,-0.9162581952672955,-0.27814012344265326,-0.5086956605791211,-0.7474588278824374,-0.8146592822184777,0.7497755194091353,0.2760996479022759,0.44936403564709804,-0.1303440929446018],[-0.8778117631136926,-0.8755577561298213,-0.41227036460511046,-0.39427641903639965,-0.06960552830030231,-0.19818277745216872,-0.5427905534229267,0.5832910430803635,0.378579519645593,0.8088023992184341,-0.02506739669863811,-0.9924932330596883,-0.491821782690655,0.1781397940525815,0.7561773471038498,-0.8997070709948309,0.23031297474992884,-0.7033648800695744,0.8514685351240583,-0.16028913118698584,0.1102172743012344,0.7685478099686613,-0.9439966628556011,0.9549593370655636,0.4120062843355905,0.10471243520078066,-0.20706829909505386,-0.7565279604544466,-0.46089008178706425,-0.14829005635349612,-0.26977998775746914,-0.11208950987813227,-0.804863449989103,-0.33201367557593575,-0.9884694023174798,0.12467560250910537,-0.6581122305962608,0.8088932499097801,0.26475184178389743,0.35188934090049906,-0.6543006439081518,0.500204296569883,0.3975176239076108,0.5636263525071072,-0.4197643445445929,0.759737825294208,0.5972574793077581,-0.14149583523912534,0.19331743710421878,-0.6307038923478634,0.9240219668604139,-0.3054334059321835,-0.25268210841942595,-0.09579167464798188,-0.5824686408402884,-0.4512739188775605,0.007112482039593804,0.9953430337463389,-0.26440191742111696,0.6878559812771776,0.27652351687377763,0.3285343413465758,-7.226051454936044E-4,-0.13004602287445466],[-0.6263479940219914,0.2789429125988556,0.7408028407126193,-0.03237515331053453,-0.41255708751861064,-0.46704698298093206,-0.3664326066476433,0.7424592847481606,0.7722837635822388,0.5677829226249433,-0.9708867481235928,0.297713548768781,0.1143882650196193,0.43906553522272596,-0.7657034613181246,0.09802304024864661,0.0431707526634888,-0.03076667275940137,-0.06750243320452998,-0.13128953582797598,-0.7372292367471374,0.13462063158907478,0.18594809717705707,-0.8264218609074183,-0.056661626647309005,0.21677363178446174,0.051952305566517865,0.018901318239191722,-0.26135353017908103,0.11353713755070771,0.00398063653457692,-0.5573315149230316,0.48604713380387476,-0.9019351868915431,0.06931748478602784,0.7219416902400866,0.19674377092851425,-0.7310214838300171,0.8781496874414203,0.5675385875597365,-0.7411968912862528,-0.04752079679613597,-0.33531741403133664,-0.5259336744835665,-0.34771525188299,-0.6027085323960513,-0.3309237093870794,-0.7453350074165057,-0.5846815760031465,0.24590086737763883,-0.6403038858474392,-0.28635354968143845,-0.3980869676949823,-0.5293786260602058,0.4283753265666983,-0.6034569130997256,-0.4632657429774747,-0.269390675055621,0.60709079837607,-0.594091472239445,0.29904037990968013,-0.5639830268444788,-0.9873442121494829,0.3825408842036504],[0.057419653933104,-0.8019416348360171,-0.053263030001707845,0.9256267384777919,0.12892520178758793,0.7988368382250361,-0.13829430266554787,0.9616329898482605,-0.5493427919629885,-0.6676368210805685,-0.4514627714695525,-0.12939888060649962,-0.47120571357070795,-0.2517299339764809,-0.48882588459255016,0.5398266662874989,-0.1304702498376522,-0.3276920984085536,0.9624738133633235,0.9387351193932054,-0.6016782024874259,-0.9172161734419226,-0.0899374030380311,0.2950931806082502,0.43831908006342046,0.18968593825826674,-0.6038776874015179,-0.4984766420757172,0.4457765637310107,-0.30669013574484816,-0.8866612652781258,0.9926160434690439,0.8897302192136367,0.4917862544620628,0.33994335088589134,0.006763926464784298,0.4151511300553876,0.8619831829749733,-0.5800155074760167,0.8831695145355982,0.7432535104781843,0.1558373331179792,0.8606653957373422,0.8433060635822316,0.6395846761292698,-0.8657552170328842,-0.473208586234529,-0.43256064375083914,-0.28002360902896006,0.20322163808061622,0.383070547735733,-0.19935306742106795,-0.13360757840991133,0.022121040687516302,-0.23178472548291618,0.209098451062395,-0.4108416592185331,0.2212732833217408,0.2804964392084215,0.756189479833931,-0.2009860928608782,-0.7035075807451274,0.012603175485198959,0.9794497855188591],[0.14188090838034406,0.14047104787946196,0.0943663004998212,0.7229735978208687,-0.6988072139471151,-0.8738357952250866,0.2851048823634603,-0.8835505687880068,0.4870852574090476,0.17483953984078804,0.7030599160800934,0.8906938375105578,0.7087005000581474,0.8215511367465926,0.6875813044489001,-0.5190781975177634,-0.6346898361586564,0.9333706048143213,-0.7395621574505071,-0.20718450819379752,0.1939164891642582,0.44078882149379384,-0.3141772295705363,-0.007220253617612027,0.6754425058896669,0.2102781248817085,-0.7756685829398762,-0.7673980182043167,0.6285771752645384,0.016084795214395653,0.3343889630377237,0.8300622067058314,0.909792952128823,-0.5381019796374547,-0.7046886694539833,0.10086571019554125,-0.10999325837054275,-0.3418791708107345,0.509383812227634,0.7736015854740592,-0.3071904392392586,-0.5219537125430334,-0.4139534656759365,-0.2817448799440119,0.05614127755109677,0.2963198056790233,-0.28052274672740607,0.5801335883816015,-0.881258585651965,-0.7443522963355154,-0.1584328663747694,0.8348903764213138,-0.5653399595814819,-0.6872107810128569,-0.43451340190129395,-0.23333800948081906,0.08356486882953784,0.5824475125026682,-0.9692575743290248,0.9201603643115415,-0.12846484883620568,-0.1722458317187625,-0.5811700224055358,-0.3111094126674434],[0.306490931393312,-0.6613790479743785,0.12930550685146303,0.8754928991790286,0.28431301089069316,0.8944735279085858,-0.610835590514961,0.2965354914428642,-0.7636739546045399,-0.9759242351641217,0.41461186560262814,0.8029114541170921,-0.13456052726158627,0.36017987872768675,-0.8484791182636122,0.448328129887775,-0.46188308261325944,0.5193277050257593,0.09281864200643872,0.9621906102880384,0.9009416631766098,0.6546731621384917,-0.29675175322013975,0.16952727044807872,-0.644800167184077,0.5875720972425068,0.578169617435617,0.5494215690511431,-0.3500751708234613,0.2580174077187346,-0.3789175162213289,-0.265244976969233,0.0421518011280828,0.12609811450784902,0.24533781492865103,-0.5701964802746586,0.22917476122950828,0.11151613583924236,-0.11135925597292932,0.9588953305820297,0.5638523368953312,-0.32530901002866563,-0.02526805261803602,0.45746849624693436,0.9511111794179526,0.7259620443346207,-0.13531031472011398,0.5791058530223313,0.2559981356677428,0.1881984093691099,-0.6887543690228147,0.5151570508861548,-0.9437891516065787,0.2462440540540302,-0.5374984104043984,0.1103675656918535,0.14238101603566758,-0.4173130906081481,0.5567066341322529,0.9065532300805245,0.2875944689377672,0.22994435012532982,-0.8900598996056265,-0.9422500952887429],[-0.49575915213235194,0.0611924849707658,0.6172122963444807,0.23409521358290505,0.25456897449595217,0.3982658202366979,-0.43629569584488465,0.8680037587576832,0.8970076361093047,-0.27179842232277746,0.919698798929655,-0.6049306367784029,-0.9731527469623503,0.11340137086177093,0.1391195296213326,-0.49668146254608053,-0.6902607413128762,0.4994961010898235,0.235929927068783,0.8288068288162032,0.9072609923249909,0.8513613728475471,0.4474035483363582,-0.9796604686104644,-0.3363618721702144,0.8152808495762497,-0.29557476701443425,0.6477542892188833,-0.17070723140366528,0.4093667536072241,-0.8322731504809897,-0.9636797439224183,-0.6625574509492047,0.1698066189802199,-0.09955081809926933,0.7854588014375851,-0.6823957756275695,0.12271131353118486,-0.014269826665161292,-0.5331570011477328,0.9378850672919904,0.9516738033694033,0.25633297005251804,0.7936470543966164,0.4719416158498359,0.8448432914104873,-0.7890338824010983,0.41639406105014287,0.9715657011687359,-0.38097774212485835,-0.3406971865794207,-0.577840824422409,-0.10137000922334487,-0.06186066457577908,0.17753116599887883,-0.3953074503191444,0.6537814893209051,-0.2935130744286632,-0.45628646505422443,0.6138707274872791,0.05660086359035474,0.04805292192996434,-0.013022825950020956,0.213923710005709],[-0.47663859986720597,-0.32427927569651316,-0.6969053331733567,-0.9527146621831278,0.9469590170001815,0.9089103999544046,0.6654577302731206,0.5363958512707051,-0.9255996340624237,-0.8837536839363938,0.33146123122764903,0.8603783853552804,0.5998677478618281,-0.059229258269054105,-0.695721565666422,-0.695858720740752,0.07923897985826804,-0.6943225955554484,-0.4616152869609241,-0.3121810635575045,0.30131708816966774,-0.09927984704899157,0.2609545254676937,-0.9051655326089849,-0.17033557324810192,0.6342661924845227,-0.38238714097066695,0.6445372925853269,-0.9934796420779671,0.33476719873787053,0.9713095559130576,0.6768840890292301,-0.03614470010038135,-0.09186430237050353,-0.06570170294628955,-0.6114268183736842,-0.1183066417635972,0.10105800392517565,-0.5233189509163302,-0.3043247128051337,0.08402846691357084,-0.9722782547377634,0.3192203775283588,-0.10389468746205045,0.4254149098983876,0.7163495827432103,0.2003246414393381,-0.42834041545682644,0.8632027801296259,-0.9372939303012096,0.6065441740865237,-0.9188440428860687,0.11009412490925397,0.7786525194803441,-0.9319150226541777,-0.9999439249038083,0.8341330557210576,0.21679614234264477,-0.7738862708426922,0.8928841186179318,-0.011491015542980914,0.23444763891734746,-0.4661392581996896,0.9296010672802606],[-0.44665204864849,0.7111161184212117,0.6778599118057899,-0.9763858022794156,-0.7823108784278442,-0.2605620584913341,-0.4194163133660587,0.4073505048907348,0.3420179766756206,0.06158482303882895,0.20417429026438758,-0.14005404257687595,-0.06733652081767498,0.8756199936469437,0.2695153798637502,-0.8315538947112027,0.28277645362123793,0.798252560836131,0.48378885858855,-0.18990912305803118,0.4320804553801764,-0.5212305806580845,0.9062210134332662,-0.6402761383924401,-0.30443557918446523,-0.9071513178410887,-0.33735125950906003,-0.35933861380939663,-0.8962588192893639,0.8390187409329233,0.39472335291030275,-0.7265495069117108,-0.23065439540335983,-0.651113905634975,0.5454135759286939,0.9511950897911999,0.04841698832460887,0.027597450904143388,0.8484946339419316,0.4765488391804393,-0.478459854137184,0.19685331244196116,-0.7279132610551814,0.43338129460793173,-0.15789107851177928,-0.8920636214576748,0.030754575461080104,0.21556693355298195,-0.15091373584887433,-0.01089496169979184,0.2900638284358359,0.02430457199279526,-0.6181413609150608,-0.5049548835146248,-0.30685451229117294,-0.5050293427247948,0.7905578614992984,0.21748556211451264,0.9495618984464937,-0.39094875262769324,-0.7423593825853284,0.2119701006812557,-0.6184557407636495,-0.3185409355911182],[0.7413198154760071,-0.07827511205258506,-0.45602205373779425,-0.6056649635160022,-0.39331626916450424,-0.6934929064085986,-0.21304324509895356,-0.9433553674289944,0.8074883716541541,0.5450412256824001,-0.9080725922633723,-0.4147172819305633,-0.12267578965414956,0.18358757521744934,0.19600254743115475,-0.8640139555109444,-0.039768366023531426,-0.6748034338632258,-0.25088401665049,-0.49528695012497737,0.47302988520602335,-0.8702520854495792,-0.8712554071385101,-0.7389474769721238,-0.7340008403906715,-0.39129276877684716,-0.9224613762200555,0.7815063035610076,0.6907225942956494,0.7266140201421822,-0.27174083935479065,0.18046651343138218,-0.15568237409637103,-0.74466177067469,0.02078599744496912,-0.26089748854732614,-0.08631978215051028,0.5174371224272896,-0.03857347318597359,0.14003173740839706,-0.4177244236216361,0.3909368810355492,-0.9933934220508915,0.6362606791496055,-0.46357641820743056,0.5540887315101118,0.21870718355738833,-0.728156469946344,0.7304148321130131,0.8920395135727663,0.8248291807221595,-0.14651443005611808,-0.4902207207193261,0.21405634023269224,-0.6246380499597122,0.7992360168138051,0.08311444135092787,-0.28385060351449415,-0.2656003138194879,-0.29494221895459033,-0.03790466688685836,0.9369196605564832,0.8700917391333813,-0.28845100311159144],[0.7588846346164722,-0.6534636127840598,0.5712936363042961,0.9760961011767473,0.9000157532849361,0.19795087802401765,0.9175241831467528,0.5825816169373619,0.6726529870452918,0.7160165985504086,0.11024310559978853,-0.17918092163699992,-0.6465149320758183,0.4323335794124982,-0.6553816839723381,0.03441819594976802,-0.6845211733594747,0.7869191967587286,-0.22544646474958244,-0.8185070277891425,-0.014910064234864545,-0.6715947802487297,0.21946750426419148,0.7872815782073425,-0.7063992707905461,-0.959206819638816,0.5569474501403493,-0.6776659908500451,-0.45831122543784847,-0.13522926028940707,-0.24754275274081622,-0.4478302279866497,-0.9162531428496116,0.20774389817504882,0.298338752715188,0.6351924862169774,0.09504719799504593,-0.11861156393901556,-0.3889778159067162,0.5737219569976336,-0.02731298948812294,0.24221529421499072,-0.23616069418079993,0.3590021151623081,0.6711586380547173,0.41827641387691494,0.1610349959816405,0.4794940248031666,-0.2451833626698711,0.34698117011276053,-0.1323843806308823,-0.6981111690795156,0.9588439340250664,-0.4755200781266503,0.7636010882399147,-0.8051944794537027,0.2886646532885171,0.6857742672571095,-0.1644039630696908,-0.7363005952539351,-0.3102882340138812,-0.041868529431468994,0.6116768369253363,-0.8986654383630281],[0.3778156033664322,-0.6288391987940852,-0.14536767649973253,0.23246893949584388,0.6924793931365634,0.2055026549606322,0.32144773840259694,0.6656548957334151,0.7984231726369042,-0.04679703999865998,0.5124805409253325,-0.9936681780538814,-0.0881728272172556,0.5476518001506494,0.6415687318971511,-0.466785146641605,-0.7219659775420701,-0.2982733961041403,0.33176566885073283,-0.5862608806596453,-0.5217653636119939,0.5431725609067587,-0.4195438826197881,0.5312751618136508,-0.17538176429930272,0.758054951314998,-0.19063198015801008,0.6937102212297814,-0.8063383468644236,0.2511666439113932,-0.6975882605759006,0.4047631896413128,0.7489756290987297,-0.33410811196689744,0.5303699932085888,-0.7980596379122907,0.30225641376143486,-0.8140049404129142,-0.9069658232362474,-0.7250878230767688,0.336075361053079,0.14557247929077327,-0.3122359063247845,-0.8560537468706566,-0.6843713796791862,-0.0457051881071581,0.6997875178118106,0.4564665175096342,-0.8217179737094911,0.07160667563107476,0.17900016199816507,0.2973597439763842,-0.575441793658084,-0.4613966639312646,-0.6037340379853531,-0.3936344163802322,-0.44127822968965486,0.12860864215324078,0.310013528131158,-0.43042060499460294,0.07999779877866782,0.47761704690758,0.05383546746443313,0.8309461013123044],[-0.013958486332077944,-0.20866994464393715,0.4818758686416432,-0.6616823455816527,-0.05030022878562089,-0.5703933975345921,0.6273034872777002,0.649284906640946,-0.7425700743966525,-0.06907744673028403,-0.7662869159190985,0.2994016063818166,0.2918295462239018,0.8798260718382468,-0.760090206817612,0.2131079806810362,0.07033235787386828,0.2593039852308463,0.061570273679194355,0.9993172288986153,0.9760359248440644,0.2974755878533938,0.2790570384142036,-0.2478790285560832,0.7674503434681333,-0.3175510479706557,-0.8674776220533763,0.557997912477473,-0.470895123223529,-0.9369658911392641,0.8291721208851793,0.6795057571472314,-0.9683578488427752,-0.9652588463642273,0.6415800301359188,-0.25875627321576883,-0.10000826691725714,-0.6735084882370528,-0.24090032834381356,-0.570149712932378,0.8146325481372954,-0.6783663281198593,0.4054849408885236,0.2615131722685461,-0.9809977845796752,-0.6342569664382578,-0.31878216252959046,0.7602130222606408,-0.17365339131088964,0.0026087823099614923,-0.8158658832727221,0.02463466207917284,0.39374341917922584,0.9581004712264741,-0.7380170979184711,-0.3476690642915977,-0.8153826155410762,-0.8642596073047182,0.5754075919209517,-0.8295214484088491,-0.6090020706754049,0.4201578733032997,-0.9650704023932829,0.8133874560422342],[0.18377441107996326,0.8897828480735925,0.11654401903518949,0.23930267709998793,-0.4318634878804871,-0.6582764735756088,-0.6945482381586021,-0.4219700644141971,-0.09236003671980365,-0.31832655430008855,0.44128904912312905,-0.3598760424783858,0.9784278958070046,0.26616798966615335,0.06642285693482357,-0.39206338816185604,-0.23623977419904474,-0.6057391591839197,0.0565378034604867,-0.9752522964617462,0.5824457761186789,0.23491830983128686,0.6069767075144796,0.44487849763814785,0.43262426327656284,-0.6811906387484015,0.9460925448255322,0.8627111371671876,-0.6817413460946165,-0.2626477816145062,-0.04722220253794553,-0.6909933093813927,-0.38394521157610945,0.7221361943424265,0.8919877717830141,-0.6453575641785921,0.46147711475276565,0.08121522788291372,0.5856394505677849,-0.025693772093309183,0.6254476005368587,0.8782001666310782,0.5502565155247998,0.815588438573562,-0.6449408885698856,0.8884746862600099,-0.47913757140122126,-0.046903843831975545,-0.3442857376384159,-0.6492318108231415,0.5456338769902277,0.9894100658347985,-0.28695954367198356,0.13182988522365047,0.36463310909493984,-0.3040297121072338,0.1774638346681586,-0.04200107898228409,-0.03877326242243356,-0.053490242083904876,-0.9601539451276359,-0.47793590979258543,-0.650619109271653,-0.02182353609511408],[0.37861488412689465,0.4764390259124771,0.5415731504490364,0.726117519557922,0.947232814956863,-0.20795996155980437,0.22893922718791299,0.27629752018506043,0.9408151031609171,0.6483419589116165,-0.8512371991383884,-0.19180874651868476,0.7838555760616188,-0.9067992141617628,-0.595588184594848,0.3137960967456601,0.8388325402479314,-0.1507793260840741,-0.5677663176153711,0.9279387718545947,1.014408615904402,-0.8239463012969194,-0.3437971868862757,-0.61231590993459,0.17573689157775468,0.8870881717079542,-0.6096010758353543,-0.076746096852011,0.7902579286957953,-0.9343390620324613,-0.959526669835471,0.2704985187238088,0.24377575699089843,-0.7988735365673139,-0.5521802488447038,0.01179140723569422,0.3266825346236497,-0.8323578515355792,-0.26761006021255707,-0.3771742472022719,0.5988199269889157,0.8750598378220379,-0.6357361711126864,-0.18413670865020912,0.5215432349458508,-0.16551138794180775,0.7655886835477347,-0.34443566165230544,0.3257691303619882,-0.3415013860259767,-0.29733362488475806,-0.9215946340622404,0.14727665646496338,0.12466599059204546,0.28126372310481024,0.9424268449384032,-0.1958960314918336,-0.9481587561793671,-0.6949265572526021,-0.8347450284357227,0.19493362388220775,0.31232487179006735,0.3223501213571916,0.35736228002690745],[-0.6821644521735772,0.9493234412844674,-0.8378855597527073,0.4681237591622,0.5433029826057432,0.09796750594637305,-0.7598007125683286,-0.5620663601198449,-0.524501561801697,-0.23110551072069047,0.730823120707037,0.48813170611334394,-0.5975419437593815,0.3509711168218555,0.4482010622559763,0.02667900993616589,0.7536094776294475,-0.7929091290394322,0.8532045487176301,0.5603698650164632,0.19834334754158423,0.18766405535768596,0.8841789608638453,0.22112189724306666,0.8401110048053015,0.37198272772706764,-0.127598847230867,0.4731543434463439,0.17121272330836937,0.12408321420975113,0.7639901283996995,0.654908704692134,-0.7308859001690734,0.07538215757319101,-0.05871186682155669,0.6212140724488615,-0.7904306879187186,-0.688978984176754,0.11125579050739631,1.0129357688438667,-0.2564800352281038,-0.6173224170476327,0.26190138029769805,0.13273893126407346,-0.12162255549402576,-0.349550516803296,-0.3436260146064649,0.6233924036702475,-0.2501998381197015,-0.17226152209664022,-0.5436575177587312,-0.3745757492855302,-0.057644539281329454,-0.22639089882974825,-0.2721739352796916,-0.5033926765898292,0.14084309149293947,0.16159853447300201,0.4795822206653644,-0.45463649765670705,0.3202466646580432,-0.7520766159580333,0.37040810458236517,-0.8422649707087173],[-0.4319809952565752,0.37563016157714,0.6699848946502907,-0.9062903978496717,0.43278016766784067,0.17861247537003136,-0.2880588348244216,-0.3812846395451213,0.02311280864489543,0.5276214031851075,0.5462264678056664,0.33319672011438667,-0.041617156635038115,0.7020672960509726,0.8840201414691987,-0.4259127297789961,0.5263032591644361,-1.0034068116314219,0.1373738699199719,0.25019377601416226,-0.159415694931112,-0.3549155807768906,-0.3314625052080121,-0.5084536066842272,-0.6229372140300571,-0.4214781152991559,0.6214062962793937,-0.2764323965192343,0.3088980662437057,-0.5498951630090311,-0.3397497841934737,0.7269395474521251,0.2254337999195298,-0.8575667204938429,-0.9779937988203122,-0.9194869429689653,0.7133427490955293,-0.6719979452753949,0.9363610513378531,0.6695483630152799,-0.15382350736639033,-0.4548718690206431,0.40824722662664203,0.6544563694663622,0.45414305523332515,0.968709066794947,-0.3147153259388101,0.8090100975372431,0.653928018177042,-0.7773242602317849,-0.4702613258533314,-0.5381147935038033,-0.6283920683769043,0.7498438892968846,0.12538836572674353,0.3763755427769918,0.6651813451519639,-0.6340741105929376,-0.02170764660510664,-0.6839959643299567,-0.25333622518163107,-0.2340345881020144,0.5379982615703565,0.7500412750301351],[0.2654837526592316,-0.45966380053069555,0.5753594319271518,0.26706256465001704,0.8787216210428488,-0.43904549899519535,0.1174585090173938,-0.6676674396676393,-0.7950900267007672,0.0056849121163269345,-0.5583111760328556,-0.9702439571430198,-0.40585474413781325,-0.4360713701101228,0.42828769745099426,1.0117293362580109,-0.751296052138935,-0.26437272303680837,-0.20213840550440884,0.8620606209527619,-0.03669917270978936,0.2887515214156552,0.867754967988533,0.7328703504797104,-0.5636410862987793,-0.8526791592066401,0.2750908356501423,-0.5625899726761652,-0.8311111758981842,0.13403389228760912,-0.30269087608187045,-0.0053011759714226055,0.4041912081577719,-0.5464528308659643,-0.07027757095230439,0.3296564434446745,0.8984714670817441,-0.8438265697547785,-0.6835353103680036,-0.8656928479459532,-0.016385042994184692,0.6481380364238137,0.1703972428823509,0.4180111366290168,-0.4052053896863041,0.7425657324264264,-0.8330030419068388,-0.5950541137706099,-0.8525523126264143,0.7469294067368363,0.11710572185815854,0.9977089314135288,-0.6795397411196994,0.6190014369920243,-0.8435467423469705,-0.35451399983439896,0.8111119217308383,0.15008397814005137,0.4577318304893924,0.2952568585626327,0.2416656903836002,-0.6671956921548595,0.13011255425260534,0.8044802353440377],[-0.4185484587190649,1.0122010885119583,0.7646588443868256,-0.255110625796155,0.8776664336618939,0.348733300662776,-0.43396199922577816,1.10655826187552,0.2316825543356017,-0.042471627335577466,-0.7239827990925718,-0.6438287145258714,0.02153564308381237,0.11158440056120651,0.3808172125666276,-0.30744404909841616,0.6771682430288892,7.512222822491295E-4,0.630560688977185,-0.14331772844062696,-0.5375642747844291,0.28709156714871786,0.378037853253515,0.5261823664929974,-0.105841426343402,-0.3758845138363925,-0.5749709854716772,-0.041846423069381466,0.4286481226456998,0.8726240137892399,-0.16914605153143916,-0.7406593513660436,-0.6211797857359831,0.3753276699957993,0.06295597208656863,0.42901771304558917,0.8588519796166395,0.9140193887532423,-0.18526367433524568,1.012752917553649,-0.8947926059249967,-0.823662731785107,0.7874269451693806,0.6064062664255103,-0.5298078689843831,-0.8116069392748408,0.7967178096327584,0.9199588141749651,-0.7207955155222607,-0.07376148471432543,-0.5671896672630969,0.2695060943070006,-0.13711768403519414,-0.07544803231239254,0.3247515679444854,0.3994951434924584,0.5654959654328002,0.4659280748929504,0.31413676110164945,-0.07241741009451383,-0.437494875446209,0.4890652178235859,0.17822459991954898,0.2932395843140688],[-0.7717101374357018,0.22986924871873912,1.0502480418031852,-0.579225086390705,0.7532247737713856,0.3966981262711844,-0.6064788326059581,-0.3891489239404335,-0.4954794707913385,-0.1273605962102353,0.5028929232688354,-0.7528396383225565,0.061338617936468796,0.3995411567314587,-0.7765158761690133,0.3171636175826898,-0.1897742905572065,-0.5275839368301416,-0.7846834630459182,-0.6333612950769625,0.6949262420401391,0.295989808053846,0.7159179139144533,0.5515753179419948,-0.5898966365937993,0.6118324180648114,0.16849251273565785,0.3687509670656115,0.02388490469757753,0.8880865084588523,-0.4371025456972523,0.6883380776327263,-0.4004849881691543,0.6656577874659573,0.5243832048451393,0.623180585200189,-0.7174190047610787,-0.003040604286564806,-0.054801204708596216,1.0177487670627872,0.6119942743712372,-0.12199753414845495,-0.03420112584568389,0.4415382645916063,-0.30652072006762215,0.9289666268920586,-0.7799365355118155,-0.749295799100341,-0.4052107229195118,-0.08794616110622328,-0.6740959256117571,1.0120094528744452,0.7956297269036469,-0.7759944770110472,0.522549227703515,0.8985735847033772,-1.0396961219658014,-0.21071085745150706,-0.7564179770557161,-0.6402726282107545,6.881724542380887E-4,-0.022086851785496832,-0.9941809250349305,-0.4399227245362858],[-1.052533188175486,0.5408039932966653,0.7288447623340439,-0.5971108517899195,0.684402419857524,0.34779797071897967,0.7090355691251553,-0.3487377686437444,1.1008541233071336,0.014586582862334434,-0.13280918541322417,-0.15098243546286677,0.22843463468525663,0.4317058505101257,0.1432126795593194,1.003763538826323,-0.5439772435097884,0.016495062974659542,-0.48593412862556934,0.248108595885904,0.046226649959170446,0.5507580589738649,0.5470777981250496,-0.35577685603548287,-1.0476698616823847,-0.2339624816623772,-0.3154997700363003,0.49298021646508206,0.7321826877112002,-0.9279235306910301,0.5039913934299869,-0.1261184808918905,0.9463472983612291,-0.48075736513971684,-0.30584371619527095,-0.6023662903077366,0.9779423401513435,0.1152382969465196,-0.23912374181297563,0.05284676673087456,0.9073292839134703,0.8257302175483331,-0.7179318152915155,-0.6016119214682573,-0.12168026571861457,0.06537982169319506,0.5787342950844268,-0.266611157556782,-0.27469198209114015,0.5245845113496677,0.8112255015793136,0.7159909044154618,0.22657082871819337,0.1644256109154365,-0.40455005106100134,0.6018403927820821,0.6486300854850251,0.19231042077825466,-0.19229013873166975,-0.48576017046895553,-1.0298858822916361,-0.28046335468046824,-0.13745750523941516,0.41827453249526697],[-0.7228761136231131,0.26007862368755164,0.13140655076611685,0.06667915767035099,-0.7050565275595044,0.750792652278952,-0.02336054460795244,0.2683359301717555,-0.612942017591135,0.5162047067027686,-0.1772744824402187,-0.4044875021103153,-0.7059191803861659,-0.8182544936859353,0.6248572077570435,-0.6887302447736127,0.7439233895285063,0.6957313502434791,0.46316975450172976,0.14388656920847198,0.44690408383376473,-0.10593047389929476,0.28170045824185236,-0.11350007856780688,0.5432366782394773,-0.1457684541384105,-0.20394340267168998,0.8881780788554993,0.7669811629221353,-0.8837409638103123,-0.04032182495398737,-0.10835913725998762,-0.7059194715472236,-0.3635660018904464,0.7885743341677404,0.5432541973381532,-0.4962943525950608,0.3669590958531346,-0.515420528501083,-0.7519465039279591,-0.055752165397820276,0.48180294111846333,-0.07856448029706466,-0.7385988802930641,0.15206388431309847,-0.7673059790467502,0.08711799801663733,-0.8013569291060032,0.9953722459466813,-0.6366048515256544,-0.38028282909983346,0.6891161696519265,-0.9296488378034051,0.5409218320226925,-0.08421661965444491,0.24740255117350954,0.4948795901416175,-0.6072052146883342,0.9852654958699273,-0.8531278130817045,-0.4476404053155066,-0.08376132589334898,0.48238547871795995,0.22581723401208398],[0.08473779599574982,-0.26160936346824376,0.21078611323502705,0.1237725361164129,0.19629389321674032,1.0554634822733064,0.5547472068849946,0.7357306510032394,-0.49031243179809597,0.4198200063076132,0.14436110345020997,0.2621418277877501,0.8489080155916209,-0.3293478609361146,-0.009084168499983189,0.33593065840950553,-0.29902963265375876,0.9067330080910964,-0.5031761695522801,-0.45974492232191666,-0.03372833325502093,0.8321520508208484,-0.37690099661186194,0.6548283344602113,-0.35015966165633283,-0.19452681859945561,0.5346748523176034,0.9454759827841285,0.26443557475635476,0.544833691415971,0.4681207769124248,-0.6326615507156328,-0.9250356196889706,0.2801516988614275,-0.5896135903609635,-0.7959425090894643,-0.34397886560940144,0.2957237751077412,-0.9812448881515835,0.046614575060168,-0.20048953611947742,0.7559033135458532,0.16733773399617233,0.34077164737874216,-0.2699598225857731,0.6188032020801852,-0.4148860366908786,0.04651939483431352,0.8948353195086244,0.8949380155593651,-0.2217012121756693,0.13033953671784526,-0.34820338438178194,-0.634729276856151,-0.06747489575549216,-0.15669611599792552,0.1531805361543076,-0.16577364677999534,-0.2590584320987885,0.8849285200652847,-0.9391962387107108,0.1408001948307968,0.6634637540727801,-0.09690045403755919],[-0.9375709423105335,0.42174961056215654,0.14272981675225496,0.6828806020475361,0.5691265771944135,0.6879048415919855,0.26943155015625664,0.6875913649814537,0.04985280605388989,0.7848050394422319,-0.5016368437703568,-0.9729323836306232,-0.12242126319387452,0.012655502331787706,0.9815886124420916,0.8010551091222521,-0.18016729576700094,-0.5695774691626764,0.1209727202589057,-0.15401563761263892,0.38066602257101056,0.6425079270555059,-0.8679937574432531,0.6729217004838814,-0.22812285074719513,-0.181772704997433,-0.30661688023473826,1.0158665398953735,-0.15936158295162267,-0.2141065696060239,-0.6279802920619244,0.5416261485366173,-0.17117887049683678,0.3477790054260764,-0.8523294861264111,-0.03882254598638282,0.10543943324113926,0.9544837809091501,-0.4795321954253408,0.28424300277274017,-0.7449467556671642,0.07171351808368703,0.9482868124480006,-0.669047743898356,-0.5046102442477136,-0.9370373226696666,-0.8894808808689443,0.3050350002800588,-0.37800268519650104,-0.525894195291207,-0.8424407326528063,0.1716665495009223,0.3336245740275301,-0.07282896151728416,-0.27603689945854054,0.8001918531497171,0.5776359029350717,-0.2542721920971446,0.5984083160573722,-0.6797618155197608,-0.3892442450496116,0.3603963484348538,-0.2513610190625977,0.025551979991351118],[0.23718071144739233,-0.0780431629984065,0.848382830966903,-0.6862050075352788,-0.29707834533916133,0.132086634872499,0.9712298732483423,0.16019701297572933,-0.3756488744372864,-0.3178476849684821,0.917289631335557,0.5377917124751593,-0.7091206481528679,0.5064043799809075,-0.6799779034854209,-0.9278471093250621,0.7093741605508253,-0.543661515460388,-0.5440446514574103,-0.5556286029169253,-0.2703728209164501,0.38058750523834195,-0.19630196429735014,0.08022728000287799,0.951475278434336,0.39963939643602253,0.41020660999007513,0.4452185324917753,-0.735974662563778,-0.8831153233275828,0.3824458513560127,-0.6603227451498218,0.7771600879078351,-0.5795832907956401,-0.8921046658112448,0.8928104519922144,-0.0708896636729997,-0.025474152179454063,0.9500664227685718,0.219816918352196,0.32492354505936205,0.4283948960548062,-0.6123731867658718,-0.6822589312685857,0.4942713937880584,-0.92143481555787,0.4570911311601388,-0.30307463442305604,0.7121534611407105,0.4091487545624583,-0.9338478650531103,-0.03941321783108739,-0.004445060074757401,0.8352684352258566,0.5704746160850823,0.021595014965086604,0.6290755000323103,0.17530383717647802,-0.8135798228431559,-0.9458816614778632,0.6852671121049072,0.028774855175950225,0.1501077596451149,0.8671394027323945],[0.6687939370276175,-0.9350187809843247,0.5338473792531886,0.10849635006002516,-0.42091625421706097,-0.09729432834673972,0.11559401824936222,-0.3652069170805969,-0.6568678700365901,-0.7154865734176075,-0.48478690711431477,0.9722518453536629,0.5051375359088119,0.6865054449105593,-0.7202979853841484,-0.7547569723313334,0.548960823444975,-0.3280286328903153,-0.14608350762777303,-0.2436529167015342,0.8762870100216475,-0.01588229834462349,0.6073977242026654,0.4898767171805411,0.42245325928204386,-0.5698891140489529,0.7066985260895278,-0.3968335292937918,-0.08763892499489351,-0.1390412263662849,-0.8577706667778058,-0.5920776747706848,-0.6106842130008565,0.841295499624044,-0.4997749064967248,-0.37468103383896006,-0.8253439064006663,0.5999260422443616,-0.3680243020711876,0.5998858363499795,0.8413123125167615,0.46286351317273283,0.3950737864749322,0.02158406680300261,0.6025470783180895,-0.0360921237017508,0.7384375449143565,-0.3065274891498666,-0.4108281093621076,-0.9918909274660571,-0.22747900914753152,0.7079339281340273,0.6322022170617828,-0.8887582266953812,0.5091101246122776,-0.11317022871573752,