{"inputSize":676,"outSize":10,"studyRate":0.005,"hiddens":[120,120],"weights":[[[-0.7512262644862452,-0.4021704118037044,-0.8944785194178335,-0.19082083935088673,-0.3196137431636672,0.6544611908524586,-0.02046080328839051,-0.9337435711682595,-0.5174380777999624,0.05959954926701357,-0.6412442161025416,0.09063929967323957,-0.6274950688127963,0.4240506196648658,-0.43018375340769743,0.42621831223089846,0.6064104764556764,0.2635749386386325,0.034363541087749326,0.9418658905062244,-0.20579100295406053,0.780895994513425,-0.22394629536124666,-0.0767970252783789,-0.1700930346916336,0.8775754653503617,0.4613798328566432,0.9617125377764643,-0.5684402524225454,0.8225077295467024,0.24808750412652925,-0.9757113389389007,-0.9181872343458554,0.218666755502047,-0.04261520185080611,-0.7840888736342925,0.3670833198797568,-0.9360282962078688,-0.4375253038991951,0.36680754392297726,-0.7548245370974302,-0.7896665424199197,-0.9387220371825444,-0.9542038655144375,0.5039203941598395,-0.5140566060632374,0.4618442892361606,0.27896660408953877,-0.11291826489543712,0.871596279862572,-0.5843847467806833,-0.3725166143727873,-0.6135072660034577,-0.8240385394789734,-0.7964318647469588,-0.48166945599330685,-0.7412516062279629,-0.3090898225641121,-0.7801239959263817,-0.7467761407522954,0.1733261382149554,-0.40243101368018075,-0.0630377021394297,-0.3895480595197551,0.643437309954383,0.7313721024400192,-0.10387582609479756,-0.5011869771986441,0.8953465389431058,0.7413868085747196,0.5439236945044987,-0.48282362561033704,0.5813983612263962,0.8352311626640078,0.06925527271021228,-0.28924899456458136,-0.2806336800033813,-0.682121077134366,0.19625883371628952,-0.8787764006736867,-0.05969808559470958,0.9441998347567291,-0.14839884783400856,0.5922798206379332,0.5846852187475576,0.5637225652654156,-0.2829094481102564,0.7546086039946135,0.45049612355957375,0.6578077444316175,0.6457125933656259,-0.29360930077889413,-0.7859729466983215,0.29607765326807817,-0.12638082764499559,0.819403590567741,-0.8907873709350674,-0.7085770151550345,-0.4869829216986402,-0.24047559846671002,0.6232950247474494,0.2422810953423618,-0.10712518779590154,-0.9017870083629677,-0.6020415379542483,-0.7836190297993675,-0.5671368580477016,-0.0807313360007498,-0.9730133696904494,0.5068547458036872,0.503953223018454,-0.2721335484159563,0.8373033434481987,-0.6906740282043479,0.7529738216040476,0.8972181653292969,0.15320392444909625,-0.7181667994977867,0.4284594907682473,-0.5874839769384498],[-0.5440853156547232,0.6982884791184176,0.6827111279707679,-0.5026940966356023,0.6074361958702096,0.32540777427827283,-0.39987075036405056,0.4752925383472674,0.9689211900708105,-0.12561931329146192,0.4886990217026134,-0.9465165057151586,0.5907666928900557,-0.8008120641275158,-0.00931808140215339,-0.8228337197696762,0.3545608227419353,0.6838880133779491,-0.9148675071066577,-0.9084754509361492,-0.5930550896094766,0.2984902628932952,0.45224982254612944,-0.19911332260930287,-0.904093332254948,0.3050307169539448,0.6989548955130365,0.8442311572516391,0.27710326844807154,0.4621519330941158,-0.9334873810265538,0.4210684621475098,0.36957936581633066,-0.9745931910310347,-0.5799120572220766,0.6578745455651493,-0.7236579618919599,0.21035360564587763,0.6290501621978001,0.6300642363508189,0.5146559576595254,-0.8995663817006623,0.21616266263690198,0.19610446950807142,0.9357465075877132,0.8065710954418267,-0.42418081909890165,-0.2559023799970429,-0.2831172454009461,-0.5226094030810785,0.6827375502455478,-0.4818331873857044,0.7242280767741287,0.129591142335802,-0.442613159744193,-0.18675644287952156,0.5276079448851982,0.9090439581774612,0.7527023941339851,0.5109817099157181,0.36138443442729135,0.346532648714555,-0.2919515015121978,0.7630464055314913,0.36892836153059766,-0.6440976644550825,0.5897582842584335,-0.7078266811393765,0.889100927811985,0.7764359340174394,-0.691757550222888,-0.3194677376712191,0.7636090217556691,-0.9526198782854849,-0.8102772333821472,0.5971279972021508,-0.5734062256062596,0.1421276959319149,-0.9635816232606917,0.25015019553096235,0.4210645789645186,-0.12883552478781518,-0.7763858735389154,0.29518672747906155,-0.3832522194230164,-0.609092324772263,-0.7039232089057337,-0.8115451608912572,-0.5940035939392498,-0.15857239209189924,-0.17470565474055344,0.5717023241672184,-0.5250497921171526,-0.6762713799120383,-0.20898746650988959,-0.8774768363459052,-0.9472617706239951,0.29245189168848335,0.9543220918218352,-0.14817966466630936,0.5333091839110083,-0.49647230489037203,-0.9395555838135136,0.8768007844052392,-0.6685185701167966,-0.9325582517552637,0.862195700373962,-0.4275686967549804,-0.30243583162593185,-0.30400589379723975,0.5996938082159379,-0.9609325577484432,-0.21410427490077322,-0.9831487890361723,0.966371608164558,-0.4700630747171551,0.7135691298896891,-0.311410343948181,1.0307824736096356,-0.6210180472135409],[0.5131329486995403,-0.33697881272921604,0.9612450482782765,-0.23834239331102303,-0.8355123958764317,-0.7457718282519376,0.6215789963230451,-0.28412780353787614,0.47628368752162076,0.2889616471466672,0.7685610158429638,-0.15646790900761584,-0.4871035953722982,0.8554301170972924,0.4633505122653819,-0.32419386392061006,0.1674300596879282,-0.06530211549966651,-0.0456319376937159,-0.2375179308118809,0.5543995941171508,0.8050056049576348,0.3033276997028033,-0.16408550113774076,-0.3730862217980514,0.15697062355609215,-0.2586577708212561,-0.986153325834859,-0.5327386633537081,-0.20925860505099217,0.48276106416566306,-0.8982209173229726,-0.8019244985094137,0.9507166408451754,-0.2760537740463231,0.6942263860752209,0.8882067430061777,-0.42246990912951127,-0.016491446793594954,0.8517705694108156,-0.5577304043321503,-0.5652279423557283,0.30581248854975995,0.35587799600488873,0.864426865636888,-0.3471072813519519,-0.21324546697097124,0.9442256195664754,0.28481044958827306,0.35307057465223,-0.7566143352475115,-0.6385328396463356,-0.41959374447578074,0.002927393519242324,-0.721345187582228,0.2605291644148465,-0.9715708299356498,0.4355282436358933,0.20123876403639254,-0.32513332901912917,0.08279923566223693,0.7759690584724241,-0.8842624852902808,0.05648931286217145,0.3288504560084655,-0.6333468898844485,-0.45856330702000725,0.3479430710967623,-0.2738778118457374,-0.41471476845341154,-0.9425803106771414,-0.15824784690193822,0.5532804906989219,0.9293855951499626,-0.7948248335169769,-0.07724564131527605,-0.4524933429763174,0.28246826509178535,0.7931493410645588,-0.5849045580329514,0.6484884771417305,0.2126404040861502,0.9918397133757305,0.8452030279064343,-0.9615304609617766,-0.35883630353082313,0.8870985199172168,-0.8186469373566071,-0.589953302331122,-0.9505611638020027,0.8412994233688914,-0.706832072478228,-0.2839971658646149,-0.018167197245091575,-0.8347385788545801,-0.4959131797192622,-0.5238599638053397,0.8951649578273643,0.9142468959155989,0.9170137412769633,0.9563207798929869,-0.5390117677209082,0.30148926083641714,0.48055021344077,-0.4837097247676378,0.11822193975948035,0.07198358701221291,0.6727118941987993,0.5855323546549653,-0.952330750838032,-0.07081784948153012,0.07584385307201325,-0.04265069432156238,0.15590948780430364,0.7064462297451216,0.08992026127207242,0.7439020005251998,-0.933899267063646,0.8158543909710384,0.3274979813788378],[0.288434007011776,0.12045607429098845,0.3970832417550713,0.8367107185778019,-0.8286294565657487,-0.792283563343516,-0.026447917789210684,0.9752412749730058,0.8145683440453728,-0.2439489102347772,-0.08529399351438217,-0.67070195006954,0.8036832732221147,-0.3364815970051266,-0.39191130803721547,-0.9872169548408338,-0.7726723558902392,-0.8053442661932785,0.7012394344384711,0.5862532909238921,0.4235096480435748,0.5439937504997511,0.8671691498792773,-0.7005652544357799,0.42265927875754816,-0.44763125497760253,-0.5017687314835474,-0.03513115225913766,-0.8553283488024224,0.3803941013835736,-0.8423020319554777,0.6469306415337249,-0.49301131601734544,-0.2270878103913796,-0.12443383919823972,-0.9360556023918731,0.2518567722158963,-0.3514879144354084,0.35960892172913983,-0.37307316694783577,-0.697549728459136,0.8924048359745366,0.3776128183752875,-0.9355435763256155,-0.2991837813061744,0.9272385463562383,0.7409945612888839,0.6616720855707227,-0.12255335335381708,0.7437868915941694,0.7228150023833583,0.6303854034375637,0.0882456869000931,0.8048002160751317,-0.6124816013464291,0.5050838645503426,0.48546628845712786,-0.4811761775877699,0.8237389112982073,0.5684297450110444,0.7568837545362804,0.5470072024610947,-0.48855409995785876,0.8323928784445428,-0.47602170193361837,0.12090799586736331,0.09454713489447653,-0.03604906799816631,-0.7225133790898286,-0.8169301082490121,-0.24887161156157675,0.1979395711570411,-0.16566021822535057,0.7114112022878344,-0.7524064757664871,0.44126628849023464,0.2692643474555627,0.6672224455690479,0.6385593080226019,0.46877403143489826,0.40070581360405216,-0.15326878255049342,-0.6872719966928118,0.2251424296557269,-0.7248728106389047,0.9351283898049101,0.4101936783680068,0.19895464366068924,0.01599502409063852,-0.37411250790443584,-0.0264667330744554,-0.13116500988278226,0.41544925472493216,0.11389692537064965,0.6206004118248476,0.5687913937199466,-0.7209257103471859,-0.7129282227726601,0.41586929022927893,0.713225526716365,-0.3954986576538126,-0.07048605287344259,-0.538793782589458,-0.9813257191693455,-0.25399476514618924,0.4385958062392558,0.1380910822110381,-0.036610921919017554,-0.34020100203348597,-0.06109414370312378,-0.9178790495352175,-0.8330752802227265,-0.6373480464996262,0.5310817169372851,-0.13971633435216085,-0.3788415486380652,-0.7518808963185148,0.9819540135881888,-0.04794921942566159,0.6826910646328435],[-0.6894071386089693,-0.2069192390859397,-0.20828103722644567,0.9358438919705087,-0.15930362983251564,0.4203310789977813,-0.1356958418092114,0.9335481375998115,-0.8156567187704207,0.3733209041428137,-0.7162162639467439,-0.6284952427900626,0.1729390211285939,-0.8204270050525584,-0.8089906611040754,-0.490949390270542,-0.3131672307176588,0.08047088020197919,-0.8207852802905993,-0.9149799489834044,0.6064177695304472,0.7557363314709389,0.4497679772114396,0.2702543994412945,-0.8286620635544161,0.6258626550110105,-0.7543599511915045,-0.11998193887231973,0.9082565728548851,0.6553311775972307,-0.7230424551299527,0.8758779055451891,-0.10518148449382109,0.22519937801709058,0.959960940788116,-0.5451030614298831,0.8367766111022913,-0.5584416045953976,-0.2903248513385841,-0.8981289711894925,-0.420702846674405,0.499762212775545,0.4339645697217708,0.3865645466408734,0.8372087690872623,-0.5977565300050276,-0.998910042755696,0.7304704452811401,0.7990918693441273,0.763309451655162,-0.23730477048667953,0.7039034663561111,0.16522996716131721,0.22809159926132996,-0.8626093339412343,-0.4469364585806363,0.4406923890816216,-0.4653595212025162,-0.3873067014393355,0.31010552789343604,-0.7899523651562261,0.40331468506158413,-0.6082389603803122,0.12468693476750889,0.3371667052159965,0.23745426180899032,-0.9385460911079545,-0.19211968032216323,0.6523266290789961,-0.5901527226784439,0.6966706089750907,0.6719421461294478,-0.15083571360871564,0.7290420822651086,-0.2196310830555948,-0.5753496447086289,-0.1303857400967576,0.2285362411824309,0.702030253466971,-0.1998964461991894,0.6188580728344335,-0.26012950416887454,-0.01913159056978786,-0.9352764644340044,0.3971178445891252,0.9128869810026154,-0.05068853927932127,-0.555366307876412,-0.9340199479960105,0.03698374190245671,0.6480667544911782,-0.16893178085250704,0.6325087503558019,0.9269415148080684,-0.8054381163491402,0.24514108058237333,-0.03397988905912495,-0.7342718418349169,-0.5189115594994425,0.1497282200692689,0.4765300158159903,0.23517154594004924,0.8855870954606226,-0.11320727078410159,0.4692149898518784,0.21207140971171265,-0.8967560578915619,-0.7331739881343652,0.37879302172204066,-0.03116892068850561,-0.8504597561856857,0.04417950193125412,-0.4036357706514735,-0.44542167145975364,-0.6667685776355158,-0.7439361418428984,0.43438665664379367,-0.3357888274339286,0.12401706411645057,0.6791138501059778],[-0.8510006749162025,0.8051567233562278,0.28106816070906754,-0.6287387195524795,-0.20203580342597832,-0.8692421320485411,0.3094908905641302,0.48173897508106023,-0.14301980555548557,0.4627386828680906,-0.17526824761602522,-0.8582951425845672,-0.09981833382089414,0.25315196780510973,-0.19424652037874254,-0.04968227298007472,-0.024995965914622498,0.8804950779476114,-0.2964630790171863,0.04654454753093122,-0.517754894544831,-0.12037090394000863,0.24869642970752667,-0.20873985927422445,-0.9922341374010037,0.10504044322874398,-0.20147509253690987,0.07751689239420502,0.6751712625853146,-0.8081949952462583,-0.5747768342625709,0.05044248638368334,-0.3835652742399558,-0.47263996729061397,-0.5993751866990465,-0.5101135280466866,0.5471728889183194,-0.9551530359045168,-0.32189792508180076,-0.36065281256791415,-0.8070296274535187,0.897929565682956,-0.3061453644369048,-0.19008890749179705,-0.638605907272694,0.03460043932182357,0.5181136781323078,0.6152132963088549,-0.0793190550889665,-0.9465879018084794,-0.8730516401525794,0.2583334845594739,0.4986762650740714,-0.8335215586838773,-0.14525107731070605,-0.16800450508841377,-0.49938588384200683,0.7694612070183754,-0.8072606988742922,0.22577090291731036,-0.7752864967287066,0.014828721945170376,0.3649502335016311,-0.7159013830234168,0.09411240113758479,0.32192749523256814,0.46834609100937075,0.35368436335187187,-0.8955002626171753,0.2284483386495381,0.4833926187933371,0.766287669693395,-0.06665576365711966,0.23905305427839543,-0.17117380208156138,-0.5443236124808654,-0.7794742268805471,0.5956402168050903,0.8583304397570475,-0.45536530874631653,0.7381848386682185,0.6374399620985031,0.16586015049613645,-0.569625499817538,-0.31368754351721356,0.19276934747780164,0.30052027184306934,-0.7719843122255378,-0.0012292477500464778,-0.3874252442032819,0.013042466542775237,0.5197350537320048,-0.9508087455062683,0.913777597039249,0.3516528258793799,-0.491850173703,0.145666375298316,-0.3428991605968087,0.49942555802882505,-0.7927594675186761,0.5966061196582139,0.11648431836209841,-0.8476635058617487,0.5838361704035873,-0.6215493690588908,-0.3113086978688836,-0.5762331560955696,0.9400115535984122,0.39654916007638286,0.025699104091102463,0.5573577842567069,-0.9803503570418918,0.24948239648916154,-0.11731171228758454,-0.22807801006307696,0.9618593239498443,0.1768527103006946,0.24096054983961815,0.2545224556668476,-0.35904392333252066],[0.25386003248003175,0.4374197300093447,-0.6548192602202019,-0.6139570626937539,0.538789751330697,-0.758421798493133,0.3702811292908289,-0.45785674845528795,0.49568780534590845,-0.8626305906961225,-0.6122175469425883,-0.4333369053766609,-0.7554776733842056,-0.3382767888357858,-0.49735704124801483,0.245159372827878,0.15384334062917238,-0.299611553674927,-0.2801017590094126,-0.9996740657607285,0.0013605361814391463,0.6819838301016254,-0.5720419190993824,0.13194371095647256,-0.9556463258370118,-0.14559524460743,-0.0645915515698487,-0.6712785242659557,0.13936746709587786,-0.12153592025032352,0.570962354873638,0.04042567751379024,-0.34134651426920115,0.9797408068889252,-0.3272735460704313,0.9690825213302113,0.48664935476641313,0.09385007722196985,-0.6586223427693757,0.4941679958233429,-0.9992018486622087,0.11592771921196111,-0.775561912630912,0.7535010899335921,0.9177196490887981,-0.20582248791120264,0.5002638569556566,0.632665643065662,-0.06038806541953607,0.2126593489173106,0.5962916183019816,0.5511973768923,-0.3627075686011317,0.9343913187436437,-0.5647365759314226,0.4592112996840704,-0.7491278905947137,-0.31482052412833067,0.7654777954677884,-0.522697154084211,0.926151209252623,-0.08576415984292617,0.47210102407176185,0.38863046933186474,0.6607105024025922,-0.9209925034713546,-0.48838324344676526,0.4966406425255341,-0.8894990912898351,-0.1656599949676431,-0.8959546782753812,-0.21669592919440644,-0.45924093970234076,-0.49600748588735727,-0.16563316242571105,0.06694830738346468,-0.5771424307108627,0.8112079679303813,-0.3372636522786538,-0.30384117433657243,0.5225741245436712,-0.8216255110756389,-0.48596441055667006,0.3587050520185832,-0.32770575667894053,-0.641155189060803,-0.08965193571373974,-0.6297419883562091,-0.5941200833617091,0.5092965483832087,-0.7277981858579557,-0.18617752788737402,0.21562492783432305,0.5319305640269851,-0.369862220722,-0.8232740864892372,0.28766311504389497,-0.4730641301073966,0.18743579200395477,0.27468065596196667,0.2708948393962298,0.44371376934899903,-0.8942581559498347,0.7651942073681678,-0.18036196728933476,-0.38195226256648857,-0.4297464952634141,-0.6867792361183593,-0.01793778975746966,-0.299392183816658,-0.5578635153681485,0.552303586625363,0.5226082883687535,-0.25157242258854723,0.25354703391067723,0.41702025970052864,-0.687912690720824,-0.6816561654628261,0.686418510369419,0.9049296527211862],[0.3970874439842951,-0.5685709529959352,-0.755335432776654,0.6011922669074886,0.4176212429555404,0.7731620837452756,0.5668583666814867,-0.0445826488697341,0.9089296744293011,-0.35133787668351385,-0.20666664464664125,-0.37337906737128707,-0.12460765747620632,-0.26094761691629426,0.6124836466441909,-0.5257634373611645,-0.0619938176176786,0.8301975875668097,0.8246168293485665,-0.4394065627894984,0.046023103675126,0.27330795199090474,-0.056047916209728744,0.24666305302257363,0.49737618498984504,-0.1464226850712457,-0.40348816099656953,0.19405960909195116,0.4189160303037385,0.24691026606637492,0.11291252411440977,-0.6395700378572273,0.5852931648848033,0.6510279056569627,-0.0043297746740798265,-0.9408935938835223,-0.5083354140753324,0.004878220073806784,-0.9368629936968269,-0.10656693100056013,0.15279718328978042,0.9441026252585165,0.9476467491231809,-0.2522362063485056,0.16585302135895594,0.7505976628979161,0.3146121284286134,-0.5163278694080219,-0.3152359790161541,0.12432351213136773,0.7451550575064162,0.9968067220539698,-0.3491949522051579,-0.24194362331118835,0.505288568038107,0.7343688261109057,-0.2801600208172248,0.1423337821201652,0.47524278538427467,0.9290995456479145,-0.3275273566911095,-0.674038919592122,-0.6990951226127873,-0.12871746897192107,-0.8985217776903835,0.4089667115892371,0.47733652843568936,-0.7183858195821385,-0.0754416922431738,-0.6483710250484346,0.8304850425757518,-0.17610519846207104,-0.08880859527461885,-0.4050046632030989,-0.5396885025969457,0.5338227214909828,-0.3444034618866179,-0.1728685335525981,-0.8105895412137175,0.8186453718651642,-0.6144924360437124,-0.5675436357836842,-0.34578221130727727,0.851564967736455,-0.2254543077371651,-0.10131298438964945,0.8589683335003941,0.4889689442070708,0.7475124084018188,0.991768452209318,0.3746035467719676,-0.49805910527890424,-0.4823045864639398,-0.06849422032330199,-0.6130463246025327,0.8070905724166965,0.8751558574473483,0.8541837992088296,0.48109718896687736,-0.8223785429266228,0.8267516060469982,-0.29599062392540354,0.37879062889229426,0.8835110265388222,-0.5963289920999385,-0.5611719488834379,-0.37147443270958797,-0.23972626601736788,0.8478975414182859,-0.9265795933697836,-0.48494219638624614,-0.5790108517909228,0.4057038747150224,0.8439392829005712,0.06535776564318731,-0.10121133237419988,-0.14878867220941303,0.35198214356427976,0.3114826136777028,0.8405294891496322],[-0.5267803931316817,-0.6030733114857604,-0.7049319976947078,-0.33069987824015556,0.5017141865618214,-0.6088985791071637,0.536585019666727,-0.46560769657381773,-0.3888084029150714,0.2093920097834047,0.013855434582407965,-0.19071998819057126,0.0879853522318354,-0.37283371231958284,0.6390426158649475,0.18808936519850084,0.6026969340577779,0.8805528895066017,-0.7708177575446334,-0.9089871981585559,0.5658512161898828,-0.8449971510201228,0.7374387763959829,-0.49538714103714404,0.6877599468681621,-0.40409354548303594,0.916086750275271,-0.4621053328814926,-0.057126377878887614,0.8884677344155107,-0.6312845071750388,-0.0709109575877704,-0.08167157793679733,0.610127075514563,0.3056802697748764,-0.25829128927343,-0.09071585869381496,-0.3536226318852864,-0.1422053513984205,-0.9162654591170956,-0.5207205275473225,-0.17654403519330839,-0.9634166022743597,0.4692161002023348,0.44393200671959765,-0.5782563626776344,0.8939612335906266,0.7892579386909346,0.28249918629770066,-0.4264188150947263,0.4581091301704014,0.4834997942389241,0.746238592523561,0.9194469332340004,-0.4826687235212635,0.4745007044885594,0.8612652599698462,0.5981720887421281,0.9000709149481488,-0.9313823595101809,0.4139819850852416,0.06281800449692718,-0.12270653161749615,0.5111257406858232,-0.5311789272447983,0.34615145274587705,-0.5782140430008645,0.12993955159830273,0.5376453665913237,-0.5416356281113879,0.1878387023451601,-0.08968627105502826,-0.12267014342962246,0.9349467696429798,0.3479147347321558,0.6016970058095171,-0.1582970272720454,-0.16998247634198782,-0.8814007657531142,-0.5564313972640526,-0.3384794634749227,0.0024890018722228922,-0.09843070752280166,-0.5994346244915201,-0.18431482847566644,-0.7815631470076991,0.30375722129825333,-0.9113395634447489,0.527416357083513,0.5012586231733307,0.4417677913321912,0.26364535228189734,0.9405959000649671,0.1629836012040148,0.483931702553309,-0.8874933565046039,-0.1841262102087984,-0.6537053029093192,0.9499697283393488,0.3489466974437707,-0.7873581841237813,-0.3245292238633757,0.40557522289591214,0.7597214695086797,0.7261575617738169,0.8023157605908317,0.373630590634953,-0.11703365125635667,0.5039708960927354,-0.11798454959248465,-0.7346747761591503,0.04630358555506742,0.36800673028658043,0.9128839920903938,-0.369415218664139,-0.5354102288982575,0.7513517625467123,-0.6660577544438507,0.6338525184207734,0.5058608653274344],[-0.9068228604882463,-0.8296898817509347,-0.25687732728709645,-0.3065298257804538,0.6583397075919106,0.1962776211141093,-0.9014316684325541,0.6547654582950454,-0.1952115375065875,0.40010797502601625,0.41143269104293106,0.0032190880537489312,-0.30512509672952326,-0.5346452154414951,-0.6760588973580448,-0.4511115125721697,-0.7022200441952885,0.7594495317999543,0.013473185049878184,-0.5036658783908389,-0.8657727744930838,0.0888995784323647,1.0035436377060825,0.5739176892612882,-0.2568564722260735,0.42815831425451895,-0.8138532533487797,-0.5800123460744225,-0.8762633793059983,-0.05396087175057247,0.5470505846464151,-0.523825596054623,-0.5130726048670299,0.7241184870915669,-0.870300486611134,1.0124349361734497,0.6752620753764723,-0.43685341133597116,0.9484123284565432,-0.07660112054148407,-1.052079697800813,0.471947559428884,0.45289340712914017,-0.288204016740908,-0.22473125061937238,-0.4798148314317619,-0.3791895557187647,0.2876058839322686,0.47817709518622736,-0.7883227985876454,-0.20812339286345616,0.43667154289791005,-0.3065510180041535,-0.8780918617877853,0.9366636931671319,-0.6399492981109423,-0.9083942341596973,-0.2524171770848306,0.7611249056618079,0.4138890146092892,0.20846382746119757,0.7053908045600803,0.6732087163560929,0.5918702988314823,-0.3193321529162748,0.05348878092025593,0.7574215177806294,-0.42382922164522835,0.7966673139606448,0.5514300890991489,-0.7897483210441321,0.3328940934919143,0.041842882580061816,0.04994841760387895,-0.6732670612756655,-1.0320799087077546,-0.9537500044511515,-0.45207034889107345,-0.6999398569430039,-0.6233644698002955,0.030556490535578115,0.5495353599511515,-0.6673073285674536,0.5211662805837605,-0.8936856841064978,0.557450920327177,-0.057164253903110716,0.688933097675821,-0.2388526701497055,0.0313779985507377,-0.6416357847682934,-0.171360370886599,0.2156228901333825,0.056822002534363314,-0.5306624411553855,0.5760618581514343,-0.45525243075259353,0.6478936207962062,-0.0140875526344612,0.3173656772646191,-0.27652412960621653,-1.0286804870459747,-0.8746481623522409,-0.25779730351159413,0.5117615335561271,0.272168770121256,-0.12104246093457202,0.49855243614909694,-0.47483761059635904,-0.7647241289333334,-0.16995819181729716,0.16645521757660087,0.708208553076183,-0.8336913225209096,0.5742402793248493,-0.41046152798777513,0.28606386316722765,0.13273086902804693,-0.12981561508754372,-1.0078214805255952],[-0.26597824841826606,0.732876624694446,0.28118279139663155,0.3790781576931824,0.2194853021959371,-0.8017182430393381,-0.21834079475032925,-0.1590250075894652,-0.6359661708431665,0.34801020449261244,0.03239543817577066,-0.5585491645382802,0.036932140032815926,-0.7823089450945,-0.21447288909512585,-0.1599215119551703,0.755822050802825,-0.060885595565971146,-0.15048130765144077,0.5151621616823355,0.36750943344451326,-0.07229989014086766,-0.8571927931788047,0.7126574470065477,-0.7127195067988998,-0.21373170295276192,-0.4833860631415076,-0.755055987959195,0.855830167809127,-0.5297405045459119,0.928922000335823,0.3020746260763841,-0.5873707910978222,-0.4989344789979065,-0.4929049179743799,-0.52262887740177,0.5267196299524197,0.4177697108513554,0.26438169700588376,0.5713102700274968,-0.4363880366462034,-0.03745389542377731,-0.2675801319600644,0.4514217496911922,-0.8121509409987789,-0.061555013365790744,-0.16042418894851915,0.46047939540251054,0.8831041324327688,-0.6927150172851839,-0.7093979862714062,-0.00825645558906115,0.14091234009898437,0.5257304502579419,0.7378189928556558,1.0033602500267371,0.691364418225161,-0.37868815569631137,-0.4063371675234998,-0.8580030463444764,-0.2655937986125129,0.7952026648772299,-0.21949493733208722,-0.08322307625496714,0.7210209132693786,-0.3673542536921512,-0.43005647350211,0.40283958268658626,-0.5942915017813022,0.7047357087865199,0.5857693332065516,0.6235231155530123,0.640536330484785,0.5379965124455316,0.10210724911310835,0.7497603573298477,0.8419128647625242,-0.7688121535975436,-0.8898911816971257,0.1205034247122663,-0.8391146674276533,-0.09781549912087696,-0.1703593392650596,0.42057287548804384,0.19222678286119552,0.9121089477255967,-0.7804636872123076,-0.802576183663818,-0.07749448455974632,0.39691441894693524,0.868291672767933,-0.326072784695896,0.32727023040879605,-0.5640184665490293,0.3003141814637234,-0.6044544743036206,0.26989745678883076,0.6383274855945333,0.3615033770709973,-0.5759302600710515,0.6957895260047169,-0.9666057228084305,0.9010723953850123,0.014438198454465624,-0.8072170622683225,0.2523315973417024,0.9206608432945264,0.8143739284499971,-0.15827227145174194,-0.6337384433034191,0.41880475451684795,0.40158034328181513,0.4197685378278576,-0.5196977499343758,-0.41034357391650345,0.17559821944823978,0.3763312730283408,0.12628862154321097,0.5058142897655761,0.8758115898656813],[0.6204971280470958,-0.41172057312117644,0.42598002977624777,-0.2339218280830879,0.3463670576820996,0.7245282783913367,0.34454385238540813,0.5784931132278146,-0.6245601712016944,-0.8834377582885501,-0.18707228726175534,-0.3230465298934555,-0.5824553013119605,0.39784396716984277,-0.32811528047165234,-0.4148540702568418,-0.8231985601221541,0.865579357355333,-0.6492277950347619,-0.5092816725263921,0.2848307650965467,0.3146796453350325,0.2546381510866863,-0.6667809380489457,0.93232571457602,0.855796543071019,0.7643640480696732,0.5302226552616479,0.4625496469044475,-0.9479277145698994,-0.5555343794961967,-0.4331960965885401,0.587336066714638,0.9761434012114928,-0.05468956442094762,-0.3056360979191941,0.03979055703222257,0.8438056308031147,-0.8268241105677979,-0.37498814584435497,-0.24252365002618062,0.008349491085870419,-0.20264865057653714,-0.8733669003158377,0.23251930376143878,0.494695866534757,-0.8583528492926706,-0.6862777088059828,-0.47955429183130555,0.33577897979347543,0.5270446572079253,0.0273302919627814,0.08515715491338939,0.04129127769091274,0.3149096593832457,0.5739070951967665,0.31119034421171926,-0.3996526577225412,-0.5183652263162792,-0.5064429103388817,-0.3742242589182728,-0.16431412994115283,-0.48000626604488367,0.7892906851716427,-0.9294242768165848,-0.8042501623576648,-0.21766141419938365,0.24245583806264695,0.7720060849103761,0.30321915011059075,-0.1617436194379744,0.29209145022542204,-0.568286835823331,0.7491414026123021,0.15096626847129582,-0.8438557692802845,0.297949034225357,-0.4057805540773683,-0.8661929787317144,0.8377114475598268,-0.42311201559157396,-0.6558382664495145,-0.6726392820034818,0.7530532954501934,0.08031216011996363,0.8851107855116319,0.3021122867809292,0.051345891977219206,-0.7192356605186732,0.33106370254808887,-0.11632008035459922,-0.9501791809138377,-0.9848105721757993,-0.7346503611421513,-0.4458246482876145,0.3177786562448361,-0.756151956056048,0.9788040092457407,-0.6227167965503242,-0.76614237618362,0.6319974415465776,0.9279326724775041,-0.7209972321270959,0.7273462777930891,0.42738771146295623,-0.7155943373345596,-0.7906048325987143,-0.9912818818167705,0.731917418842071,0.14089392789694324,0.515444667287147,-0.16260987508385502,-0.10641704271009654,-0.8426919959415032,0.8738972177057551,0.19688710335770412,-0.712035346620035,0.6802965157777384,0.4291224510784103,-0.04867652405917285],[0.3448632987353393,-0.7703737443337806,-0.7929767925696065,-0.3978260509398781,-0.44527347297684944,-0.9743539864879834,0.3833438261578535,0.9921486269332983,0.6764940984891095,-0.8498057825117491,0.13299797566423266,0.5943849129867906,-0.3432470122660837,-0.5611706447859226,-0.30557752936947097,0.004423765214403755,0.4597767509135671,-0.8907932310535619,0.773915461545221,-0.24257907264425088,0.32534336884031523,-0.6428059592869976,-0.36737335152736184,0.8397099153739926,0.8899942774185415,-0.3819663963970151,0.22542834774836684,0.2796245386943312,-0.9655033447708317,0.2379010636405531,0.6766128450504322,0.5520021331088768,0.8450352106461345,-0.8775976103189036,0.8772500531048999,0.29601171423871686,0.019951994486659172,0.6716948922854107,0.24731756842226377,-0.45489711913737874,0.5984238634260124,0.5813468945105875,0.9269210126689079,0.3972490062704998,0.5331439396695454,0.9183238230546045,-0.041442885572301205,-0.18206292906595484,-0.578941443225172,0.8508851017166879,-0.054309222993319584,-0.477077350163359,-0.05887031909283992,0.17441085928097833,0.04967520912472526,0.9226397228630518,0.5249221499334575,-0.5965788403829209,-0.40152490802582574,0.6865269704843655,-0.569552514465347,-0.32117960680724006,0.5781673729279759,0.817691344693293,0.43864147376116397,-0.8110643506670503,0.5817551998171052,0.48136325389089885,-0.39585761897041355,0.38565808231285914,0.7633566322656348,0.707019561770356,-0.3688455839348013,-0.850579251397966,0.12170366680852375,0.9320149852582063,-0.9393185680581334,-0.5611694711121867,-0.672508264400161,-0.2607696340715676,-0.3114807559485226,-0.14645601145557105,-0.97690243768558,0.72190891980883,-0.5610139366832344,0.6277763873440009,0.9365933967596816,-0.547338892414265,0.02368691667834384,-0.7314956552274774,-0.9892045877092189,-0.8332581638412034,0.2829306450549126,0.6128768187686395,-0.44439364434651435,-0.3654102366558254,-0.787554591195898,-0.9663507695969646,0.35588440132975,-0.7829436263258754,-0.8607848174214844,0.987432131873677,-0.8153340858384472,-0.7467005193657973,-0.2860008899172175,0.8312579689975473,-0.08910800574629318,-0.23472182632652808,-0.6312456545971549,0.604770969312845,0.40087606926703445,0.3262375124329634,0.26943399708259674,0.561350596548524,0.10633565613497989,0.14035363829924935,0.9570430898743942,-0.19082444801594262,-0.4204753670726527,0.8312337479209682],[0.4276347360536379,-0.4953799873743853,0.6812664638852686,0.7202482840114642,0.66765780514227,-0.514514486488469,-0.40561427210864265,-0.6497173394769838,0.19470630395922242,-0.6347299718639612,-0.34690682735571876,-0.4518100955032915,0.5823657404537906,-0.05358023710625842,-0.4297188564570471,0.8149314473769632,-0.8262948519093287,-0.40375147196486316,-0.7089444701208154,0.7492748136378697,-0.05034488691318266,-0.9482260667563941,0.07642852222972746,-0.8283353234720991,-0.531529324387955,-0.20521630335949398,0.16134272817731965,-0.8687344750542988,0.8226680444917537,0.30834871925465523,0.4418783670430104,-0.793534741032995,-0.530404928518057,-0.200338299068231,0.2600599307997501,-0.8672173417408822,0.8843506159435396,-0.8444049244893732,0.6905922783786348,-0.2029544724343716,0.3968671146274527,-0.9368688957736613,0.5029619910579121,0.9296424832949306,-0.8233211773478247,0.2532708069074207,-0.11011614031866217,0.9682781950718632,-0.3865240997833673,-0.3729792450095283,-0.34695567143831385,-0.0970025041061674,-0.3784884915262409,0.17865375033088676,0.6597694853991711,-0.8529944406899296,0.43040895161353027,-0.545661106602611,0.8717379027874417,0.6624498058663949,-0.0916426200497348,-0.8214032153829335,-0.9840557368965954,0.03938541432799635,0.9521633181331758,-0.08336875669153179,0.7638717409007698,0.7840648754136594,0.8719144993536863,0.662319226467064,0.140719355665247,-0.9577514532277448,0.4631186442598776,0.8731018790279899,-0.6233455969010502,0.6048810779269301,0.13622669409444738,-0.6664136769517286,-0.02722874001234995,-0.8819004584218182,-0.4893797391336781,-0.02025272531982104,0.5194255238427304,-0.24300310595750585,0.2179243865617824,0.5101346460108773,0.3876323569002774,-0.8729661692599943,0.635717601373337,0.9849879825520795,0.13099870580442155,0.7118781264546222,0.4774845746993417,-0.6440710286082117,-0.2943635327827587,0.1469118822460161,0.7889325725930493,0.605298118113459,0.4791277108257313,-0.5607488518933436,-0.6353899502102047,0.10596525595720116,-0.38377749622121116,0.24515953170821866,0.5567400790316122,-0.560773870360291,-0.4121463157055065,-0.7397107579055688,-0.3820609457209611,-0.9191455823453397,0.11159758146376945,0.5036521015380213,0.7031015223310921,-0.03226425454421354,0.21630457026928096,0.1561354171853616,0.09201195294160412,0.44379268019261436,-0.3305902667386318,-0.3627919712497601],[0.604995662517491,-0.4898177480694328,-0.7697124117783887,0.12907898234241935,-0.4638748814881511,-0.4857423805452199,0.7172902712708584,-1.4443221340103496E-4,-0.6852770928970253,-0.9484011649418885,-0.08555916017699146,-0.7824317936275368,-0.8169020744214172,-0.4480778254414644,-0.8518479562386629,-0.3582787698428408,0.9400370599184911,0.0218185165044968,0.04911428939096658,-0.9271587143563895,0.45919479537149316,-0.26907207706523456,-0.3331941006664861,-0.7998281674774033,0.8055088155498701,0.680010816879625,0.6554703490302836,-0.7214846138591008,-0.33647862076483276,-0.3586841804187219,0.03535582402095195,0.43575857422510467,0.32941443506432855,0.7012738183792725,-0.46223969294703704,-0.9664261750516631,0.7620207369109949,0.7555108629455187,-0.9224722305127798,0.9268094755307332,0.23051032693991347,-0.9000400809871375,0.7970385397763988,0.06151432467659983,-0.6293933611791289,0.7122826069314907,0.7283499879861847,0.11491351323415763,-0.7869298808636804,-0.378818257578084,0.5775481425149883,0.33785232368514473,0.27009192242259833,0.7490972852042035,0.6176306069548588,-0.9003952753328684,0.5437769238412167,-0.32766132850814395,-1.0052125914906385,-0.2385611593489057,-0.32244437471682125,0.7744347637646126,0.04343474713172648,0.8793532639176224,0.7319569367054809,0.2206377034936751,0.38147140265406854,-0.17305600980210084,0.717939454356113,-0.8007418831361152,0.12309534533421124,0.4360732092174939,0.1541680343143416,-0.5263272348834287,-0.031113459003040172,-0.22171897383176062,-0.4122717068401986,0.8287505772576595,0.24668170404346493,0.27221488666581556,-0.3552387397332076,0.505077248395049,-0.1725677629117323,0.8147549672366573,-0.1427878950480428,-0.053867014498560746,-0.5298042600607692,-0.28190995798245416,-0.780802855657663,-0.747838244177671,-0.78201396424816,0.8316553664531258,-0.028378253851585964,-0.04014383176204846,0.8449206767440708,0.9196102493896235,-0.5441724667233266,-0.4281572409059561,0.8202660542734322,0.4635483079319646,-0.07906085336357221,-0.2980372663385768,0.03700990465442431,0.11533887214527262,0.2838420098761903,0.9175180930709758,-0.5219344018104314,0.6413717922965487,-0.856190337154562,-0.554756898429301,-0.6106350783474477,-0.7835300047397731,-0.6915255549344672,0.4663037910096107,-0.4161053038907771,-0.7122620555208974,0.6272281869903993,-0.8644992873604402,-0.38160113400339857,0.5010122113984279],[-0.8166603934057187,-0.029251602212357182,-0.9592573117933814,-0.9162027275344758,0.6940355058869975,-0.7122966097762822,0.9270773561303762,0.3405508863776511,-0.8525985375089653,0.4295962121220909,0.5006153437162949,0.4490484056400342,0.06746579063675233,-0.33810440069465697,0.16347043206979686,0.3185768043281445,-0.9050188655806259,-0.28493972709011695,-0.6922663722680947,0.4122993215816849,0.4769866856809394,-0.7022069122607073,0.7049750697271226,0.3663258536576517,0.6104601421666951,-0.6648121748838807,-0.5063264925285781,-0.44585195517681303,0.04329797636434408,0.45542136398673766,0.005725592695393013,-0.6286502788744035,0.27781656097768376,0.33043283094244086,0.5088413115233881,-0.29414235614150586,0.07671197658773053,0.5888359145791707,-0.7903325464438524,0.640458218905676,0.2588215594173861,-0.4116611847087335,0.48893016610793105,-0.7357026700204236,-0.16519565939639883,-0.41681856002958834,0.17845040503475024,0.8910410146830193,-0.9027418794189849,-0.3194770132783311,0.5504851409131749,-0.2672837241694909,-0.8269049675365197,-0.019661882917283702,0.6486209244336414,-0.6400201298313525,0.3647561101719812,0.20694403277209977,0.6235909141027204,-0.6330252385955704,-0.27898094675489904,0.879185535267411,-0.9015262693316131,0.0630265773823759,0.9967783071097356,-0.9618734599567609,-0.23696503242196246,0.36789834795642984,0.5626384425568667,0.781972449998985,0.16003776662251323,-0.6426742467155078,0.33631902656266294,0.3293651264640977,-0.8967829937646046,-0.8029150211963997,-0.5989304540010998,-0.3106072123335654,-0.03686787450774299,0.9585361218005028,0.3395230667639787,0.6003937700231259,-0.8041506927526147,0.3977393229394807,0.23595794345303067,-0.006876669205346292,-0.418820539980087,0.8177237165334621,-0.6526572415539686,0.9885801182746837,0.9506435417927489,-0.5428362567602208,0.08379416064456599,-0.4308910821011757,0.1543228651592485,-0.1837437720268461,0.37761319058123316,-0.22179435380320528,0.6868280535695459,-0.428432566390352,-0.2872185947880513,0.49883017871628216,0.4363802481957635,0.8643221911601774,-0.16282094755410978,0.24310232057905387,-0.21615152945506597,0.7399060744170352,-0.738626916695549,-0.07291082178358929,-0.5388684866794091,0.45382663463238554,0.28456373075350727,-0.6986683181187574,0.27925704374025107,-0.31841328026182647,-0.43721220222404245,-0.7412540592307465,-0.12802975073534345,-0.6520205909773691],[0.23805308756220053,0.5932148545989264,0.008853271656816264,-0.8282122901256569,-0.5642971818005442,-0.5797013681292738,-0.04108456498111816,-0.34953772451951265,-0.026421062494581038,0.32485372501059273,-0.3983156396314008,-0.7880050524089546,-0.6447961120369462,0.7802591201928754,0.8774254554959319,-0.12920176399103567,0.4066195164980028,-0.3483721908916225,-0.23751138993663945,0.6753916827200316,-0.5153115433203009,-0.6537920227992433,-0.5974943268520875,-0.9989096325528191,0.23477489040722316,-0.8296460069120398,0.5182395759955867,-0.54162620045999,0.8259033940309611,0.2913878754051685,0.5902767970052191,-0.8283287463536765,0.40467440488878353,-0.5404949250244768,-0.4770629042240745,0.7048863103788194,-0.32080180455538476,-0.6395593126938904,-0.33207284278305677,0.9370321227780146,0.5506753978689334,0.6999663534422754,0.048732084945714405,-0.03835578570947383,-0.767171457839241,0.4324355872638069,-0.1519667396418481,-0.8565834726741539,-0.1928646356747433,0.5378932743475525,-0.8325740822004875,0.2339409016918499,-0.27520868014186783,0.8365556437201654,0.6594118218752791,0.7082098383711422,0.2768576289274606,0.022634595475351085,-0.2312868550469954,-0.29445960975812546,-0.10201252939382545,-0.3746277209533053,-0.9174180963500451,0.10555350418463491,0.65859387030136,0.816522051467569,0.9358018711882832,-0.43185383532631677,0.19270029876184316,0.9682576285810088,0.050228333446611685,0.829465581405489,-0.5307062512381501,0.718817261225987,0.35168199331328664,-0.7999465029320105,-0.6566763027719736,-0.2442029686223752,0.3656013041020311,-0.12443584424712195,0.8729926256136542,-0.27615487392644145,0.6127988640142288,0.17322863926303986,-0.6198146476670899,0.04202984811940926,-0.41359115370041405,-0.4258454004856684,0.8001403568295,0.7489159235613139,0.36143324599687576,0.6021800914510819,-0.8418913329945281,-0.06120453927762328,0.44034182694477597,0.2707529221099239,-0.967931117950034,0.26611761000734263,0.9460593576249793,0.11865078224477334,0.8050201280832467,-0.23338655186932133,-0.36182427982199356,-0.14011859706275095,-0.12593248413078267,-0.49552510348436274,-0.3937593220727847,-0.9975982420235582,0.6828829386208937,-0.9502602064957174,0.6862241334654988,0.4030338173784082,-0.22689663870470642,-0.9678854780858359,-0.8868528758457647,0.08568133918156229,0.7999805955322882,0.6698990085940764,0.36429120101486345,-0.2506554352701477],[0.09288056080449382,0.3197513781491048,-0.39435797156203745,-1.0182883461323313,0.514841013344447,0.7225779130693515,-0.04648250680828652,-0.4807866628673907,0.6961103513947142,-0.18080305798849938,0.1561978364459264,0.7312640914679649,0.6058189693029125,0.7072149816380426,0.8837534852037761,0.01684498970369036,-0.4541080372650579,0.2251069826165231,0.05473876334517135,-0.7767339196503469,0.4718743795725434,-0.8627939551255258,0.24202245618078203,-0.09740942408683467,-0.12800324870115398,-0.6294889899484442,0.8128580560508812,0.43708011656070656,0.19376725541279138,0.6259209334650058,-0.4712907061942651,-0.5604447568535753,-0.6967435516597048,-0.9042085389218909,0.35746385781672463,-0.5041381568116924,0.92322462502957,-0.8574085192330425,-0.36977175725182726,0.07600508685279854,0.4718960047644891,0.659196643587528,-0.451498978766621,0.47712580239774444,-0.5767370961112563,0.6173871362275232,-0.6593914797891909,-0.1124194767832707,-0.9659764671388423,0.02732326193357265,-0.21366805164118557,0.5906015854300581,-0.05045463339906075,0.9317967517509347,-0.8551158937044657,-0.11826450651858013,0.8043136264405263,-0.09890953297535411,0.18600136771586492,0.888553527561054,-0.10499743152348805,0.18556633165709982,-0.8470201680726863,0.5242526752381009,0.6551194798434476,-0.8682288498027434,0.23509385238587013,-0.04534376368341848,0.207031342851135,-0.2958123170413997,-0.21197148131839863,-0.25499981335233735,0.44652909864649026,0.060337902361443756,0.23765836925536443,-0.6719465224548126,0.6023359615579719,0.7834979704748806,0.44929543410656897,-0.7400467523052469,0.9816161080402193,0.3081318166940803,-0.9592728469123214,0.47124434493465106,0.24014316472589806,-0.7761386957005832,-0.686009770418499,0.6846145016518025,-0.019241590405844947,-0.7991448740059307,-0.6941359415656569,-0.8926291367859951,0.49236455713489047,-0.5765991311336615,0.5163341915460358,-0.4169178762196122,-0.30207113281974624,0.2701055370122659,-0.5307908852119835,-0.4528373028037469,-0.03252148840779596,0.4069808341747795,0.685063990585224,-0.30362103353530984,0.2587391741337236,-0.6064858757455168,-0.931879774865885,-0.3874075422761156,0.762155046747366,0.004572645521489498,0.30626820521713694,-0.22621512103395813,-0.13057815723363234,-0.38085805316786714,1.0267356026396945,-0.5030532938906261,-0.17754705818314412,0.770222955593257,0.8367277249763875,0.4483711789542772],[-0.468689794338549,-0.8678640234824452,0.16095808963646027,0.32604786186376405,-0.29234089553980397,0.9011788797168635,0.32413504026346096,0.235757567176133,0.5360378761906466,-0.19125253305499101,0.7378560126500818,0.9143294665927729,-0.1459253215791216,-0.7004416889712558,0.5652489994904722,0.05007144400321187,0.4876095331687297,-0.13762733560818824,0.8206507893693314,-0.44519392177902795,-0.346205823813292,0.4442281936540637,-0.7623327487281533,-0.13827862479707953,0.18236305628193075,0.18043745515170578,-0.7889974181364505,-0.30761996969278715,0.9033881414197774,-0.584216216968428,0.13377812175591106,0.020201745189188276,-0.2503135279826064,-0.5794071189988678,-0.7655159460161025,-0.5276002586304911,-0.04769964043979136,0.45075194547263137,0.978562213968453,-0.8552995545130476,0.5611358723863481,-0.8269056293192096,0.4381198305701602,0.14380810376825437,0.05031958301635052,-0.7067574222171235,-0.7546376730300095,-0.6796122166038326,0.5175867273155146,-0.8777996669826055,-0.9616233764411122,-0.6415248021886192,-0.8713737629167302,-0.24885433931168663,-0.6519795394002187,0.5826852946248201,-1.1201253787383774,0.8254042741224187,-0.20512196628449197,0.40657560125134573,-0.14449594467999619,-0.764317446114477,-0.8417747291670182,-0.656315519866044,0.779549982226321,0.3376583726663489,0.3381810829425396,0.6981780026110692,-0.12408644140496677,0.7419220250252251,0.21524427495791576,-0.7538951348791006,-0.492062990540087,0.2898363608621905,-0.6958003738097484,-0.6719850363043407,0.05134576969011423,-0.19640874890091387,-0.24423446825125741,0.25197355813715416,-0.3065037916261267,0.8995511312411715,0.11452974377693093,-0.023357586367142892,-0.35447116280027957,-0.08639187939051754,-0.6579946383033454,0.43071536927170945,-0.6195675932018958,0.2383480226806529,-0.2703919242955881,-0.3039544792956267,-0.9240659087633417,0.19479668871752354,-0.8679333772600516,-0.5611326811066295,0.9816646760378749,0.20516096363038183,0.5418247909629016,-0.455934917105711,0.8264486394040916,-0.8866119987446185,0.6599140693572257,-0.7798058225296329,0.27849119446703025,0.5615614603962998,0.4055343529913221,-0.6872491432924263,0.13457138605512267,-0.7024490976636921,-0.11679500028528195,0.9079217909925769,0.7200676301959079,0.316058476002944,-0.19862358631995786,0.4602875092293212,-0.8086269621544251,0.07290216149965573,1.0015926876232697,0.9688576804335444],[-0.4325135979446731,0.23662189937010278,-0.010191249756895357,0.8309818371396189,-0.1673659570654209,-0.9397027351033593,0.1253216680984092,-0.5781732229558436,-0.09042214385919171,-0.7670066879364655,-0.04060657895450371,-0.6620732911812343,0.23225260046945156,0.13907923933961353,-0.5120613906816848,-0.13140688923927277,-0.20195142550028136,-0.7960598919356144,-0.4220337353385509,-0.6721524223624931,0.0677750689153541,-0.8372611382631102,-0.6486590416224277,-0.690251930377085,0.17398349317928571,-0.46098091713250894,0.6230909548941772,-0.9401817272107915,-0.653319421192286,0.6473655604580036,0.9833782045563381,-0.9064789823342929,-0.19342972406768166,0.7276495950359069,0.552620680372291,-0.8880487137376389,-0.47014900157924505,-0.5738280358133807,-0.14767714369699728,-0.18797515657352487,0.8258913158140019,-0.4201381965604136,0.51145724592003,-0.5218568623290463,-0.011826303484319095,0.45123983743682816,-0.34443775395790527,-0.48587109166725256,0.6620435505883322,0.6354563804433888,-0.6847274443106001,-0.8374314237374041,0.12234596204652357,-0.8218334588133753,-0.7316945553377568,-0.6409905585372256,0.44004531621251597,-0.7543477295384284,0.04066911629736423,-0.05504810103443769,-0.0268249221972788,-0.7957692398242522,-0.10322848429929637,-0.07654588352397877,0.3129384094170876,-0.2617100736876683,1.02735940512878,0.6297563155849467,-0.6450297990450461,-0.5375627026183982,0.5870717900103034,0.37540439478123167,0.14570939358276344,0.8922866801094075,1.0040566546982064,-0.1602035175660466,1.040581553089424,0.49829588485975745,0.6157628266396382,0.04676298272552169,0.3593463231952717,-0.6207252817945486,-0.47666545447762076,-0.39376006062823954,-0.07037555075099265,-0.9674468654309176,0.6309914897335066,0.6443423027524412,-0.22280045019394162,-0.7561172702985793,0.5290959317420226,-0.3670939070487182,0.7649492577840685,-0.6570449609735819,0.26769767340588957,-0.26301963739506123,-0.7734851083812896,-0.5843441630070209,0.1906123901027604,-0.9505693746524586,0.5558609792171426,-0.13071415556513769,0.9492947146753501,0.13929180898891205,-0.7987554491260423,-0.6607471099923724,0.41747298749179595,0.1908924286000205,-0.582942747968509,-0.2900097246811108,0.4861333685420346,-0.03544817349083595,0.66350522761225,-0.2733294875095985,-0.7988215165574355,-0.3178567630185168,0.39489034029438047,0.2178512638150599,0.7039880372223911,-0.5036108980060274],[0.07546677972162386,0.19285470262472115,0.5502350412244416,0.027853322851012576,0.01399237648473151,-0.20373776110241287,-0.4500498823700307,0.11511566164994894,-0.4016813653287788,-0.9141063619489445,0.11327693818066759,0.5741430840674896,-0.7909566547485727,-0.3639118568280759,-0.6755361107853662,-0.7162163322369709,-0.1458037957651529,1.0203528358073013,0.5579521952275031,0.03296997053629668,-0.44089643347540497,-0.0712518970518111,-0.6781393646131055,0.1182728515577928,-0.3903665956776167,-0.9582486487275784,0.1691278859276365,-0.12196837526993708,0.5011971023590169,0.8166799969826983,-0.8925870396694466,-0.6668866654167527,0.8162311174160999,-0.2009994488605622,-0.464353944528493,0.46503681448421597,-0.2667234734636728,0.0417378625304133,-0.9160942504708147,-0.34902874761956887,-0.14483274129944984,-0.007295891984917412,0.6148217225290615,0.047531822787517435,-0.29829211966105723,-0.3079270845297581,-0.7329775977319297,0.9339519520372404,-0.39884719266324864,-0.7784660716831772,-0.013519407942431637,0.5094815571519862,0.9141068165341975,-0.5731878088871738,0.8255334684242381,0.5749530157316627,-0.2052730801167177,-0.8060806143523384,-0.8707529014175246,0.0939757174351092,-0.632267443747162,0.5083374101010172,0.39893728359568015,-0.9239146985567346,0.4550426792822554,-0.6312984251398895,0.14262379456635696,-0.6441066666755902,-0.8874690689380768,0.67042611796546,0.7411983765923083,0.9957039810882055,0.8366592387171111,-0.44632801903409575,-0.22344805978495116,-0.7133808249074175,-0.31841185510954495,-0.7679888770548452,-0.8091423527706094,0.38356922403851407,0.7848581045587774,0.7540686616338539,-0.3597923280181117,-0.6663345583274238,0.49667724528339235,-0.7098265435004539,0.6428921877418022,-0.5633962674685785,-0.4141134278128358,0.6612419236755739,-0.6756686253998859,0.8367120667250831,-0.16444810259776174,-0.18578250392325157,-0.3500190377238772,0.5957379695053219,-0.012612119900901664,-0.9367447142511462,0.27498235710332325,-0.9157618254037809,0.8911884037162751,0.07908167869677013,0.4945143716123585,-0.07558778211361682,-0.25398580584980945,-0.3750921476839903,-0.07384425689352328,-0.34725790073020596,-0.9265504245130146,0.4871366606820072,-0.40613724692346975,0.5875188601891372,-0.29563438868195013,-0.6911509682184473,0.06436963238294695,0.47559281618847804,0.9893392270854128,0.2689876326225308,0.5433151040703688,0.23112820517875093],[-0.04540986178077564,-0.991491328791264,-0.3860929190452327,-0.710331125455067,-0.9300368306476555,0.9485999746431876,-0.01202541765542981,0.05321090885731859,0.2552986354494048,-0.8360843488172076,0.200739319612132,-0.4786389143784332,-0.11717394640275015,-0.9067189954856347,0.1250437836014218,-0.6103559325569142,-0.27349124733497476,0.6371949332972837,-0.779741627901495,-0.7139962955622181,0.7090857271928777,0.28984152972520094,-0.4641775636407643,-0.5083597595492692,0.7663267981844387,-0.2601692964374113,-0.4402497865049724,-0.7378275125536634,-0.6295210311617934,0.3618071622537608,-0.021505597131986555,0.21544010114120088,-0.8571454759289611,-0.2327084603120904,-0.7000676252412864,-0.1517947232161735,-0.35837244673211577,-0.6779361189280039,-0.8586842485396278,-0.15385249556929875,-0.06712698992019471,0.797450586336063,-0.4618345113284894,0.942064567997222,-0.15151988022668691,-0.07962198300534967,0.15843477329748823,-0.7466871552554544,0.1377443041014561,-0.4522291174612789,0.344300335780433,0.9923152679687468,-0.9394242641198357,-0.6821909399106791,0.18362515370072863,-0.9136930228255871,0.34370779809218327,-0.2303753288809911,0.9251086718455639,0.31086316525415586,0.6838953074819972,0.6938715313194367,-0.6112331063700018,0.15266815201442804,0.5074567934344226,0.13193997694243156,0.18297131847797085,-0.6731185528716384,0.6678825684103483,-0.41108777440956473,-0.30145960348473394,-0.5379115779440093,0.7924786696961721,-0.041394617421283614,-0.49141205896434087,0.6692476518277682,-0.6129068349280182,0.7884884336055374,-0.7123246172845092,-0.7326375816575293,0.5134767902634312,-0.6721542686782913,-0.3096937860917899,0.6258317856237322,0.7320508347004007,-0.7270625460602412,-0.7813261136019694,-0.6455552247587123,0.06573924093096409,-0.4842164590997263,0.423144659169157,-0.030707186891823862,-0.3589592721887556,-0.01625168407921598,0.9271514288661534,-0.14834130034991894,-0.23179412413033346,0.7437953384152644,0.4642542042878757,0.030040397242108486,0.4135877527552526,0.5685369918372453,0.721678700687519,0.6051280773885571,-0.9269126791855558,-0.7821689913386622,0.7311870151330825,0.23921786253617427,-0.20619214833316357,-0.04628004740387931,-0.014148631648953143,0.39780628203494706,-0.8828723839315511,0.9361990499496997,-0.01862444431876022,-0.1667966027438066,-0.03548909955611023,0.6579939568597556,0.7418591106376621,0.8150945018668825],[-0.5743594086311766,0.5960830007842655,-0.6817987501046839,-0.701671059956025,-0.9544521387875412,-0.5682124847184427,0.27852543161554283,0.08478436207582693,0.30203880797689364,0.3791425996986674,-0.08651339195327892,0.13723105621723472,0.13923579311861828,-0.7333217648754111,-0.1631043031219267,0.5200098926702779,-0.7646660474650817,0.39229566857605463,0.4946894687734193,0.9998214659041026,0.264181276384633,-0.01246629351928759,0.22061531116367425,0.24233846347059887,0.8554791961694996,0.754618396903117,1.078055214777472,-0.722747737022993,-0.144198813994921,-0.8667739468115561,-0.8315850865628482,0.9952663160513308,0.33552087493922267,-0.06527449438164468,-0.051083188911044616,-0.673598210541385,0.7359418455718845,-0.032778188501607776,0.5787185776539151,0.9940129522106422,-0.9440395961239024,0.860341618298922,0.3845249202378423,0.4782049990637611,-0.5049494767661072,0.24220961079287598,0.839822442551092,0.49356671998107354,0.22659763374543967,0.23555115299695148,-0.12841827151015509,-0.5683888834089063,-0.018032075994575122,-0.04232932217352818,-0.48543967313765946,-0.38428352872371235,-0.6842651990500512,0.9990465203097704,-0.22110002813127613,0.1707449364673385,-0.5939135772282574,0.4766085344554221,-0.8058410219722867,-0.1057722292457014,0.9768403706760223,0.26274112126035165,0.49310245284672244,-1.0034011008445567,0.7455970523323245,0.8415005720852962,-0.4403649483605927,0.29707753551686333,-0.9041428206622196,0.6790659638798109,0.3042839940957952,-1.0816215215270937,-0.37566626374416684,-0.043182304342858774,0.5977425319057353,-0.1577510430612422,-0.9679299507691526,-0.5557109825839824,0.11032138325576481,0.15043401434293185,0.9157881933009219,-0.5304648378572909,0.8095404498980466,0.8935951768827116,-0.15466772665480388,0.14934456013604672,-0.37010494320908094,-0.7686201186018063,-0.7426688970955502,-0.3975581784976731,0.06797462205900412,-0.06674491034890477,0.6527961692651439,-0.9510392088415985,-0.25913590907089906,-0.11256356044693344,-0.670831119071959,-0.7226328082915071,-0.26110105324793315,-0.8837514197464315,0.1347568388913744,0.7366097203975778,0.21080334131773096,0.6227255207951509,-0.27961519649735067,0.25193708132013043,-0.9553591337599209,-0.2681940844165998,-0.7036158798527646,0.6653256854440246,-0.4310192943107161,-0.41931467012483975,0.8251663120261681,-0.6590212763510137,0.2364263332491406,-0.4930540175382663],[-0.20601429064247312,0.7247911308370643,-0.5248746006742085,0.7120110196970325,-0.013025989920504553,0.4565616407452681,-0.014379285737964376,0.6003799425219931,-0.8002748724715567,-0.3905585474036124,-0.9341192472300043,0.43943747582528103,-0.42722192917998747,-0.30513878578531367,-0.597501873159355,0.07989750323581472,0.8438776025565607,0.9345120477019251,-0.17733914376440094,-0.6897844984463585,-0.8794979442140769,0.8184292799106518,-0.1655550967018472,0.16394179383501953,0.8860176037031761,0.21241447876114436,0.27626755103570305,0.12532533576418978,0.739409622837464,0.6035852123935129,-0.7495771796819883,-0.3199001769109968,-0.7147878989945596,0.5098732169593277,-0.19013746120240183,0.22384933704099697,0.8589922508333004,0.5735368745672368,0.3948083243288466,0.32202382920640654,0.6227070151979827,-0.6738417117506318,0.07529367084356961,0.09451488441603303,-0.5525711508382911,-0.4059141921798963,-0.5947135931995179,0.9275208429089181,-0.5390106581826898,-0.5049920695624778,-0.9490818206177188,0.3913010354131983,0.11600530120741431,-0.3339817620026807,-0.547044286821198,0.5220292385677977,0.13961185511982302,-0.507629057640091,-0.22321826733500938,0.42645082935583467,-0.451093456246138,0.8087825946426094,0.13316635701875243,0.3185839348867339,0.6026734527902787,-0.5793210076918752,-0.6449952469056275,0.02911134240034828,0.8470969925139655,-0.18868288502812877,0.9295228137276248,-0.9118153349459821,-0.10203270630831106,-0.3012794413007399,-0.45459824438422197,0.7550492361004829,-0.03603083083439243,0.8440752907035264,0.7693794255431567,-0.8476528312533467,-0.3784795133618833,0.054823340401820554,0.24976676510177678,-0.30847113444385316,0.01629090513913277,0.09876688607598531,-0.36586781005465724,-0.28784809682431645,0.3534401580929367,0.38064020157408945,0.2735717979456833,-0.7244174970194113,-0.2138850262458155,-0.35284651147581925,0.07814916734370894,0.029974461758771696,-0.6310246068097076,-0.6929094587329614,-0.2642599479693574,0.3080660056657691,0.7819762290791291,-0.7148842302638752,-0.32384267808438927,-0.8676586706325741,0.5415066594972988,-0.4093123669465101,0.3318786455473027,-0.6198316880416773,0.8517683232555343,0.47450525751760225,-0.533520757901787,0.8430896343568689,0.23428254433753287,-0.05512590926935832,-0.7728453395777329,-0.6861989574275932,0.5398634817696546,0.28678432448742014,0.621725899731984,-0.04668433919590662],[0.5524236520415493,-0.201294429659827,-0.3089228560193999,0.5074051089643149,-0.23368306625513002,-0.5025038367327908,-0.17776288076069685,0.6503186193796819,-0.6495840514225143,0.45218975831133695,-0.8742537033081742,0.24733565592976733,-0.759735428263068,-0.34827445046683503,-0.3977719188569432,0.054770559046375365,-0.35256539524038766,0.06907656335567589,0.9459431605689695,0.8083077195709769,0.717409827200929,-0.5469390034401661,-0.12448979678012334,0.35080582477674516,-0.6913860851884973,0.47737611581995865,-0.5992181685562848,-0.8122928997884696,0.7479065921625214,-0.6739308130185201,-0.7219713353182533,-0.6679976441412622,-0.4962202982074485,-0.17630361733131006,-0.373367274629993,-0.191094833537627,0.1658170651512235,-0.6935214530059746,-0.3660972738545915,-0.029668664171404083,0.33407920545358644,0.03060312681972002,0.19959171258227415,-0.7524882873223334,-0.7129172381149721,-0.7748825714962697,-0.2364447880293347,-0.49311136934567085,0.1964978802398537,0.9511572972803554,-0.36289853694126145,-0.8341204150085411,0.07116558352113045,0.28619668051970926,-0.6991678911025355,0.13975371760219293,-0.06585260482210094,-0.01050105082636546,-0.22129786410335803,0.019942558721484788,-0.24475398041264895,-0.04170804206909026,0.6431505463929091,-0.9041399819956363,-0.6250985212684431,-0.5960543491324952,-0.30184175508892164,0.7353810102944153,-0.8890971132013343,-0.29241031961766706,-0.13464805646010042,0.8361924025542639,0.3164469104180978,-0.46772276894785797,0.4839927590141565,-0.9816548881669701,-0.02359224886462245,0.7736010928828315,0.17756132815490944,0.22034529350128765,0.18477830563513006,0.6675348281820304,-0.9090794463718258,-0.25426908584050617,0.5396009530033504,0.8809773296140405,0.36947150332666023,-0.8836015298302952,0.6243796350207472,-0.49149805796062995,-0.33749450570445166,0.10594792227716596,0.30759974971154713,-0.6326487035005903,-0.5786934805368873,-0.9502118861191293,0.5367875577287228,-0.7863320756061671,0.3824240992728776,0.5999006440579537,-0.2801006573668013,-0.5601886586220138,-0.30624639362688577,-0.2519573226275696,-0.13892105470509886,0.46644942969880343,-0.69846205092406,-0.5866617260756686,-0.2614053709497473,0.9372454238512544,0.9947703963429524,0.20705933902428236,-0.9334244216970773,-0.6565028769461274,-0.6308927152696727,-0.33108566618480206,0.8675977757602058,0.9237879984985555,0.2911337385849503,-0.09734657088338514],[0.11047561749269902,0.6030803747834941,-0.07903713055957079,0.9862560869492758,0.7914435137501629,-0.9913078292672314,0.9789497215585842,0.04749184810325354,0.42752419796661933,0.6474560529198383,0.2213620663604202,-0.7049500748966449,0.560814996029072,-0.18301439678074902,0.7203993828004897,-0.16236493037327998,-0.06665176018948148,0.572822146227675,-0.5857524804193281,-0.3700038033004824,-0.9836303512903625,-0.10865523362161926,-0.3748612550218624,0.8901588566228833,-0.7991341806860472,0.19191132790950108,-0.4540192580101248,0.40113443525376385,-0.701823659474467,0.9360060410549494,0.4441232774306751,0.12391949130829258,-0.9780046351879349,-0.05701192324951361,0.5717268966824379,-0.676510692249802,-0.2974874656327232,0.48155668955106706,0.9626449885384495,-0.11921598078398724,-0.780650504469077,-0.40972973066895096,-0.2083352521974227,0.3858508557731903,-0.2666848158414644,0.38130276622831366,0.6535276813014413,0.6528519986487771,0.7594171162298782,0.6772172395706217,0.8108287780322994,0.9666587518837766,0.6690131991614561,-0.19059645688001964,-0.8861525493691439,0.07287873897673527,-0.4043368817340078,-0.807647553803998,-0.2803019006521867,-0.5235063729808662,0.3211539864508212,-0.37955506291419777,0.37857977105252394,0.35649813644194206,-0.39866448472941496,0.28089606835680103,-0.8506682879894334,-0.40653586551856263,0.5789678961249404,0.1651993483861985,-0.15245886097692715,-0.9564003592110113,-0.06883714848683359,0.4276388722020633,0.021285951987525035,0.7169817630928615,0.39034753973412856,0.14444892118364105,-0.22989051036440095,0.45394278014761213,0.6436600321141779,-0.14358736262959673,-0.8111618283277011,-0.6725976410471706,-0.6934493673735627,-0.41038335185094915,0.42740025186893726,-0.7600185991001198,0.2580907013889052,-0.24405353903025004,-0.1905436385556418,0.18479526609639596,0.07270311525718376,-0.14791572188384874,0.8392142798055978,0.6521049569329601,0.249555144351136,-0.07013321442524324,-0.7006530106699423,-0.9152917100615986,-0.3870661009937893,0.2950005771354518,-0.6431081203918173,0.03657880679214493,0.615287678408717,0.6938019288791165,0.9140629183148324,0.7494944112999224,0.12025426987342591,-0.11864196191853614,-0.19967819433254233,0.8841289872237319,0.37970606505574284,-0.8360326491464947,0.9163793933521468,0.7111636144431966,-0.891854301600107,0.20091452993400558,-0.36927937582365256,-0.5885593260936192],[0.8683930711106455,-0.5993644066041749,0.3752441872977252,0.19033294836995612,0.22612239112088686,-0.9572381033665877,0.5157633653883481,-0.3820130628553409,0.3688794812263906,0.8200798848811637,0.0071779008861686385,-0.5794172671005754,-0.5048865228262097,0.5198299924487426,0.19006748318299627,-0.5262982411221264,-0.013377989948193352,0.27200687474415464,1.0115262466899566,-0.9912487716308345,-0.724884491204076,0.9510966380810543,-0.5033585147924236,0.18287397760362428,0.34671052961346643,0.0933453914800198,0.500794540205889,0.817519705325244,-0.05394783234991733,0.4544108344279022,-0.789484046329024,-0.5159700413811734,0.24474905949301073,-0.7833154767601782,0.252905861466386,0.28045428088218854,0.3476454326463923,0.2907011637211197,-0.008660913545238987,-0.3761703706491642,-0.14846008256834814,-0.9461234195426086,-0.6847473633369578,0.46556120263781525,-0.030602352086800767,-0.017868429614146367,-0.6724559494869876,0.7127877694222288,0.46597228644270605,0.9322234843220978,-0.9097368990739111,-0.6719392248015942,-0.6165769401574727,0.3594218295175013,0.09679467521592137,-0.9744011709294449,0.39594773002394695,0.9574266971452102,0.6575172532150769,-0.5895927500369302,0.2066026976523546,-0.6107417257530112,0.37550983699081236,-0.9427181148845619,0.03153900251764134,-0.27667884339394927,0.8335790771103297,-0.22305952404780638,0.6786113710153547,-0.501976147645497,-0.45203762791346014,1.0202811271365304,0.9375738848915633,-0.325987343339068,0.5089715840941513,-0.9938840944114736,0.857809296108647,-0.23015802852926617,0.5748421897060445,0.9696773065632894,0.42031160785132626,0.48890069658406354,0.578998587132452,0.5982751462854665,0.27171141317801917,0.5277641955145626,0.23797160170656995,0.44435524277092925,-0.23680958532333618,0.46835735307172816,0.41750041633594387,-0.8894590537939514,-0.023088537268926464,-0.8419899206827451,-0.7598586291384691,-0.19399273541783082,-0.9779212382723806,-0.7984700874155479,0.3610821458960839,0.4797608363159774,-0.2978205295648652,-0.42263638497275474,0.09646889145133679,0.414073604556405,0.7557349168998349,0.3926750369469294,0.8547330349051737,-0.17762280077709114,-0.5615873180102566,0.21737385156822375,-0.6615388161052933,0.863273592470082,0.7845418349178619,-0.5121958886994615,0.461382288835816,0.7631997529190643,-0.12187809330468216,-0.587948675133738,0.48763413038654524,-0.9722692088898194],[0.08279530324353333,-0.5863964197511143,0.5254561256739602,0.6635906687701522,0.7918957672283065,-0.06175967180785509,0.10578678282001856,-0.7169052948176572,8.359340396822803E-4,0.6143938793579121,-0.765011802686091,-0.7422793221405773,-0.31664433696691213,0.7125308923247012,0.30989150954526673,-0.05003418572405856,-0.030331782843344077,-0.4485406216801801,0.8272770160923086,-0.8671555687239751,0.5827940564505153,0.20602842761025117,-0.35739544231916576,0.48737248827195445,-0.01759409815341038,0.13070631836131008,0.4185248483501618,-0.4449685644250267,0.11185207026828174,-0.7352093047381767,0.7418582708677164,-0.33865886510361387,0.2512315522401124,0.7477510646315336,0.5104372018623935,0.7623100332480689,-0.09165616766834019,0.4006078919816474,0.9785241539682711,-0.6371313628269117,0.933442102025292,-0.9483786455103983,-0.5417191299568271,0.5955076292944299,-0.6213030656211391,-0.47939694390044213,0.029600279950125118,0.2917833350488374,0.7512159628087486,0.5448939917477383,-0.371056575102346,0.5445767266073954,-0.883296251104066,-0.6023876856670066,0.21671459308640395,0.17126412681000017,-0.41833914354596213,0.25507112126983944,0.8352696598222816,-0.3173793248615448,-0.3794394877733344,-0.2563955695276654,0.47957443764813473,-0.5299202370601493,0.234109726530296,0.565016855177141,0.9888313691311955,0.16238814067461002,0.9256694400956089,-0.5831884008156003,-0.8085358649839804,-0.9601554919246119,0.9258610910280743,-0.5285532012071005,0.7872499834286069,0.20688271442756667,0.6134711441525211,0.15720480098831263,0.6040800347669352,-0.9129879001841935,-0.028688343674915007,0.9245954236266491,-0.36511429310512494,-0.22925669600948287,0.752298339069901,0.7501818291484204,0.5827616905604736,-0.6809128710627935,0.17126382621467015,-0.8896538276648643,0.9427263243202955,0.43942821644947033,0.8567888412992539,-0.21216633377523683,0.7042641435576408,0.05500317560525576,-0.7350023023228925,-0.7628557377256333,-0.22932246889354863,0.6519456805696857,-0.7735539755470028,-0.8146757892880717,0.5140569790969292,-0.4160612522891701,0.42879183068998267,-0.8758727378837995,-0.7584671530632212,-0.9449360282542026,-0.18891959847567102,0.6601922147762275,-0.37834075428455816,-0.8420884159465144,0.24397693706180887,-0.1800168685726461,-0.9335402116052289,-0.38928793991358185,-0.11599782128296954,-0.45279851800912496,-0.15893974731955965,0.2646433067031283],[0.17600004797867125,0.19163825145370428,-0.1318771160906183,-0.04194859952809899,-0.33514661226594694,-0.6215502096848629,-0.9173995415756808,0.2115988727334009,0.43795232432522674,-0.8824823907809739,-0.8452955813700002,0.35036310587673564,-0.48044322764474806,0.48602764084322564,-0.16568292471275634,0.8368108635566668,-0.14893278049064673,0.4721780679208374,0.2985665134593695,-0.4469846816218675,-0.17126582689899303,-0.9814916038743403,-0.35059916587135254,-0.5625980214027634,0.5196232251470286,-0.1598997485158826,-0.9688228761760329,-0.6941161028231009,-0.8562576124887242,-0.9620218982526528,-0.18405545345267496,0.19950776880169402,0.685065143090473,0.2595394726912159,-0.27334323913604397,-0.35648533861858245,-0.5307284224623958,0.8337329438429539,-0.6426760032514343,-0.9750644097914212,-0.04349886556389504,0.8841637392889116,-0.957609856545785,-0.6083813496633668,0.06323624694867967,0.5467490349717063,0.5082870374893893,-0.9512366917324021,-0.6836806154135744,0.49748698966220406,0.3123499019533476,0.5155462449283432,0.2969697075884454,0.34513566203478563,0.37538403648373747,0.7556567357063052,-0.29808342552797457,-0.0168080337601356,-0.6301109185645104,0.8162700263409391,0.21646313968850672,0.4209908442776799,-0.7683233136617021,-0.21966895721164392,-0.9487329052060665,-0.9333883497615146,-0.22409404411935893,-0.3411489900293487,-0.2704922914868453,-0.566118925384068,1.0481531907691366,-0.1145904233171216,0.712574225281131,0.3890133874439352,-0.7729437791579263,0.04382267494031538,-0.34588381226723075,-0.7479844440210385,0.9435083335214489,0.056782418590800285,0.083244184121586,0.7322862936111948,0.7939185423922063,0.6174081351629052,0.35019861115379664,0.2259032337218222,0.49224789543301944,-0.6367828572730044,0.1735786792553175,0.11816753658563398,0.7997631128293818,-0.7518408729300178,0.6879259519710478,-0.4624591221572168,-0.4792895770449845,0.26817746481078475,-0.992906313871406,-0.6152995471061701,0.2907867906710665,0.15808777293273957,-0.6791153133156451,-0.5000730370611046,-0.08438842738432292,0.14367289294449995,0.6250923702243385,-0.4315443345336687,-0.4167180085359131,0.011410960431062387,0.5956031463101245,0.021215083293387164,0.4910122625081433,0.5256297410171424,0.9516109194513895,-0.5608371177350897,0.796851059109098,0.4375637758594222,0.3348621804239255,0.6418961105042791,0.20810155081430506,-0.2709757677807017],[0.919987877987539,0.8890018435413037,-0.2709593754869543,-0.05692342427990822,-0.4645025516230977,-0.32576598747371077,-0.18144623940365864,-0.7350096665279878,-0.854585240118017,-0.3336912411245132,-0.08176782585058642,-0.008798226228373774,-0.1812530109221297,0.36489412713987207,-0.822151610131159,0.6456347839955578,-0.8683524064198409,0.5736210701374975,-0.8175527321311465,-0.8620967969360814,0.5937347454975013,-0.9028498266443264,0.7721007196373416,-0.31214350839747396,-0.9393772547095218,0.4949993653825143,0.21431593781327862,0.4745816843777173,-0.7427081229656746,0.5523742545719944,0.6754787553544234,-0.4938443832835357,-0.1783900971851903,-0.6320450211440561,-0.9651566411046665,-0.16382266792231112,-0.7857663596152161,-0.533958453421792,0.18198604119064923,0.30195579165523634,-0.01963945791187362,-0.8158523051366432,0.564264782007209,0.8468177365024568,-0.14590631376372426,-0.8299182806717076,0.34120573183237657,0.09359285887499309,0.45587519890367684,-0.32296922991218907,-0.445655477687819,-0.4659350634225534,0.8761871539995293,-0.6448721099097622,-0.770799366738423,0.10232806332398038,-0.7609418611114838,-0.9509275331820403,0.8692100235744316,0.42472962843577466,-0.5578206036424445,0.5187766140354665,-0.5540010179861184,0.7331426902743201,-0.6127612720497643,-0.06890361644349312,0.6259862976249999,-0.40203851566216686,-0.09784807090472218,0.752721139346992,-0.5630029560009048,0.3195655542897762,-0.4313660309328829,-0.12829401098405677,-0.5854321743857782,0.6937050301579202,-0.34766234680338676,0.06014346159147124,-0.46610395366544877,-0.5412466154171329,-0.7494670682930739,0.4679280990954201,-0.8353407162631684,-0.3738319060749644,0.8550198238486963,0.741135393419477,-0.9013523002696011,-0.23219749812531285,-0.35121502171414193,-0.9717156193423577,-0.5245456751282311,0.46076274595308386,-0.7479903700139654,0.6645686712221461,0.76760434447016,0.028068317767370704,0.5035566800959262,0.928610848527927,0.8063179865094741,0.4523583360067621,0.9370121961646977,-0.9443996805477135,-0.8171347818399043,-0.2541948580305201,-0.6189284706460146,-0.13310320037705184,-0.6040701882087152,-0.5886164737655384,0.012494449464686863,-0.21225722509832856,-0.25811887855715565,-0.21936680435947956,0.960490175243147,0.6744149271927166,0.9733790893339002,-0.6373500123999715,0.020305680597939867,0.8687258980796299,-0.2925309802749545,0.2818417141289748],[0.2972049340303423,-0.2264966096871604,-0.6610246392271419,-0.8182729297613,0.494743158171762,-0.11673271184265124,0.08672814005973353,-0.6770219810200072,0.9574072540506873,0.4805256146014908,-0.6456819718039664,0.5305061252226,-0.3133407918476108,-0.9798437286704746,-1.0246541393843567,0.8343667982400829,-0.8944443752418368,0.6150373548070371,-0.31572696527970356,0.8740552577835073,0.2846064306661674,-0.09009567567648144,-0.42830794450635906,-1.0054267412466245,0.0010364638295536934,0.01621982113843341,0.30283042417206063,0.9516330845545238,0.4018727138343271,0.42059626760347785,-0.062046089020783415,0.0845066294285706,-0.2361481087657072,0.7393183392628947,-0.14471226885996288,-0.004364947115259809,0.3343542259455746,-0.7740701961949512,-0.7422609756316404,-0.14894021933333484,0.3525424380747657,0.10413956972232721,0.6011101570024869,-0.7612476095820541,-0.034683238790502655,-0.4561284952673352,-0.4796409199784406,-0.5147737548809009,-0.5765482502978049,0.24440691243491106,-0.8481628271707505,-0.41620809148718246,-0.02556311552371418,-0.43034282648951944,0.9245892354996439,-0.5472748223105319,-0.44704596811319314,0.7422638119160218,-0.5001114214217124,1.0133983438886953,0.07499403929707057,-0.8727851966376884,-0.5482346725529561,-0.9249655547206236,0.3339030801424243,-0.9351747152345165,0.1614820157948922,-0.3619485109424053,-0.49767136781342497,-0.27588413245629717,-0.18501414680811018,-0.8804499895730169,-0.05979716761950937,-0.18258883611664387,-0.643413781111191,0.48202752308208047,0.46771241644516715,-0.10581596505175025,-0.6289453461121245,-0.09055398507243435,-0.2703355571844728,0.2773096636808388,0.7557415766266369,-0.028398387120807906,-0.32332060317001704,0.6709898646197489,0.7398525242742489,0.8323502087294534,0.7384167493114707,0.006554654002624259,0.7641416691755577,0.7075867107901929,-0.7608178847434385,-0.08364092225109743,0.536877187196111,-0.6234988606988271,0.06762493979211148,-0.7489578484749075,0.8276916829661767,0.6785583661062508,-0.6387984976927992,0.7752326848008104,0.2814601798122132,-0.7631751530741593,-0.5131364021514275,0.31271324363317,0.8967645732349128,-0.09675563712019586,-0.21021011294355227,0.8313741203524718,-0.48701164323873347,-0.5876174003188458,0.3827263498964428,0.7990222555940454,0.645453991000173,-0.11660540619576687,0.5237443376187069,-0.5530836159310922,-0.6885140195534725,-0.29198852941889536],[-0.9026255419538325,-0.7216400763548956,-0.2487366327588852,0.5441247246943537,-0.5113495682534074,-0.6415801520511741,-0.8381555523738643,0.7978565404107515,0.8464404791363526,-0.20813645934900524,0.9394695819115823,-0.03588972728364853,-0.8722741827805578,-0.22155823205572273,-0.883778049250071,0.9986617507447447,0.3324771464534019,-0.7845330242551483,-0.239559198128376,-0.6025780958467132,-0.1156757231038961,0.8798984926563204,-0.4462611275415929,0.49898109568155374,0.5267491850022774,0.12734783709943256,0.4466880896473907,0.9435121117309632,0.6518367899439635,0.7646917137648809,-0.9390802905617435,0.5918189537393885,-0.7515123247768859,0.15043099494918147,-0.8437227628024793,0.20778615234383954,-0.1375636492423393,0.36398503292244927,-0.6632218807575767,0.3817715699635573,-0.7940398931632487,-0.5969646554270661,0.8862633776961159,0.393294335256361,-0.4429581852052004,0.3255846725992235,-0.5629404831447903,-0.7276255129998457,-0.7412996491143098,0.7172678410449439,0.7304137976215156,0.9004981509554212,-0.6798553567334986,0.3827170221289185,0.8437693037432308,-0.9679218228138284,-0.03125551569402376,0.9129052968792067,0.8011930165115653,-0.9658645578891514,0.6721369320087254,0.7686379891473643,0.5594442794580196,0.6135260886495264,-0.3458197446311759,0.49003606771455976,-0.2653953103358929,0.6119600401269298,0.6580891088987427,-0.1487743575565168,0.7237216570048931,-0.5710283107753445,0.3604890866859673,-0.32188616722440405,-0.09659848382441204,0.6400878968816635,-0.2726659124646306,-0.8009571891662821,-0.954591889430375,-0.045923666213066455,-0.053849874056701955,0.08727499548469898,-0.49997264647614537,0.19010177582757934,-0.6486013428842557,-0.4712768132520367,-0.5575362518720297,-0.3482856550943406,0.5538442085187698,0.940228149548528,-0.37885491561577295,-0.5354055603358676,-0.553717369032554,0.30068840715747003,-0.2599016496283805,0.34370385635199746,-0.9843505233058419,-0.6278214464256224,0.299330410043672,0.6182861441325852,0.5475819396124106,0.8785338002517122,0.32335485312510803,-0.7437351582425434,0.38346170281468156,-0.46095182611007757,0.10571767927982723,-0.31343609490571966,-0.22700866296822272,0.4029732132143118,0.6981933586563361,0.5431569069988735,0.6187261063673481,0.7458964582114591,0.9178589542247333,0.2126538126312912,-0.23409366909087817,0.6649431628992541,0.2662780259374714,0.7626489598839254],[-0.4714897511405709,-0.27315457283102484,0.17620584741619486,0.7811636636355986,-0.5851128107611696,-0.3631486764694876,0.6287894653049445,0.7001847847726597,-0.27251910783348393,0.17865652995653353,0.7301174707194369,0.01904953461584784,-0.27891450750430313,0.6522630589235818,-0.20028395467987312,-0.2634591428253193,-0.25410134540802115,0.57278967605397,-0.3245772243462005,-0.3859705178248486,0.027436464365822512,0.23262428632803175,0.5240521394084934,-0.09781661071039671,-0.6980373019939399,-0.24153161106127988,-0.05912569163341617,0.6285956328811753,0.09891237564783621,-0.33481384126149755,0.05773645092164214,0.2866482609967331,-0.9243696089049555,0.8885932819183238,0.8766103724103244,0.9095909172617415,0.24549204373851552,0.8142074735914188,0.08397949742491785,0.5927728166658792,-1.0312312260651648,-0.42882342450398026,0.1147719136558784,-0.5374034903538641,0.981756546682226,-0.044607490545202806,0.9773655095289425,0.03020114966599623,0.5980634040825336,-0.8542699434099236,0.835828132589622,0.8777468501062718,0.8705778877963684,0.29896689958400385,0.6534025190332196,0.7218817406026279,-0.3618108422473224,-0.10774008106617468,0.9073356708032102,0.7668055783706266,0.6243576983122026,-1.0544608376201359,-0.5180083767099314,-0.9653238637696748,0.5676844263166885,-0.5349920747784205,0.9181600760600948,-0.8131640815050422,0.9744307964739137,-0.6435316920838566,0.5557933188677805,-0.05708623399446766,0.006147559442123545,0.1353030193940168,0.8276541685284168,0.2018842076914425,-0.8764627190955392,-0.7872818713320283,0.7609884464616165,-0.2757809297113319,0.41575114836928606,0.8698072630155383,0.7775540020112306,-1.1292133585136628,-0.7222212271093822,0.31811504670874735,0.6129437314939938,0.07064469406150987,-0.535143624026187,0.0017423698143715061,-0.9638230452611491,1.0432915897391566,0.13797210913698324,-0.7533648371206924,-0.8437564178715007,0.6209270899637456,0.7133872394631887,-0.4423453372532511,-0.8600231529773272,1.1645635726673642,0.41979567779086985,-0.20358350487803756,0.6582254424028697,-0.9319221580749688,-0.4530704470664491,0.18485861412372348,0.06195829715531741,0.13692696881680383,-0.9585694613207175,0.2718859214804165,-0.822971860101316,-0.05628617782519421,-0.7181831389134359,-0.4986648664980537,0.26594491333908066,-0.28158780862252686,0.46011302502193574,-0.5819054469179238,0.4100742983296736,-0.8853764170212077],[-0.3691627721790133,-0.0035777533594167983,-0.7410757844876088,-0.502346938866732,-0.8216012618546813,0.7769133126018902,-0.5926818428802774,-0.8271462520954509,-0.8302318952585573,0.19120414798897217,-0.42305295742575977,-0.4882860308746471,0.7343913178741619,0.9859067079536321,-0.6316774187640231,-0.9090914084440164,-0.8187090115172406,1.0505582583970658,-0.970176872489402,-0.713832905798573,0.9007293833952423,-0.38003297115090373,-0.8150362724450431,-0.8861935999583055,-0.8157206645819246,-0.8191105211621416,-0.5657304449694935,0.9282323555932591,0.8920568776844208,0.34236808920194334,0.5109417990417091,0.08969798519471586,-0.1896459547249872,0.5635685839647543,-0.9261625373134944,0.643256366714576,-0.532633783834917,0.5259091179763131,0.2277985052185059,-0.34704986285500544,-0.6133327830410671,-0.2126487755787254,-0.9497115352782207,-0.4262600276516578,0.12409978018141825,0.934295352366546,0.17668883647282727,-0.7542486501153834,0.13928118175127485,-0.5767014298246184,0.40037272382908196,-0.005334556990043457,-0.10882695259219846,-0.2622911825339933,0.614628477920609,0.5940527982714984,-0.24270984780945432,0.7093420252748729,0.2666154340188433,-0.6016917805624938,0.7639830776568802,-0.8945181457178099,-0.7515647753521463,0.1055782529420491,-0.7513621607669422,-1.0509135311321853,0.8305560801688835,-0.559540200544399,0.001929289675648911,0.23395251855504817,0.7230200954237315,0.38221698206077853,-0.7816861473899449,0.7747050485374571,-0.6331409123387273,-0.8173404540321696,-0.0031071117312488207,-0.7732224744530997,-0.6184917900587104,0.4794060052374512,0.560175522798887,-0.6805362456698556,-0.4434439114961915,-0.019781882965933445,0.5030075457687597,0.7505392048094293,-0.3959565919054206,0.13189324420536175,0.06929573381381841,-0.651139011348432,0.45172247682324196,-0.5637270963090651,0.9634559090297502,0.24413606232211577,0.20099966649768897,0.1952935663693524,-0.9242712111378003,-0.166469097405113,-0.036695153319930326,-0.014769415287117291,-0.6513954796484915,0.09180408362000199,-0.02961662316406008,0.3701078998506103,-0.5228622708385433,0.6851545889002026,-0.5796491216561213,-0.90895541985935,-0.6182461899733068,-0.919449827249483,-0.03468738691298841,0.11115832424540124,0.03529174861973658,-0.6887104626277978,-0.6764666786866632,-0.4686782678216217,0.2559503086780303,0.6992571037123257,-0.34963303508712057,0.8059363948007537],[0.7084400630803122,-0.5673429610958518,-0.74663384256491,0.5744501829443357,0.25148270731296807,0.31811869297852435,0.9671817297994856,-0.01754422436734672,-0.7195629666433576,-0.59196413782673,0.4860822836663168,-0.8543961805799273,0.6424488184177289,0.6545727705257103,0.9224535688078139,-0.7703462653977673,0.3333915603867448,0.6982223586791673,0.10103309677672699,0.9750037798297023,-0.8236497979731082,-0.5035998582923975,0.10528217412787437,-0.1962250410531699,-0.7797519290435244,-0.12109115326662977,0.8243832271702051,0.45371500505365236,0.4026432245307102,0.5443641053748033,-0.8116498465362074,0.6707704807005123,0.037561200252376525,0.7432715760698678,-0.14836274946172526,0.7921214195444054,0.6054268505993003,-0.30306180257265825,-0.1743303620440514,0.7614576661470146,-0.1541963883866483,-0.05152814628666578,0.37396858886417633,-0.25050865093283453,-0.7681497507293044,-0.15469382797200495,-0.8107078153419134,-0.5714309513137005,-0.7755893741496044,0.259860793579985,0.14368152342149879,0.3438815388792608,0.6159784144539378,-0.6553050011783856,-0.3029829620393387,0.7245453192443111,-0.8098613091823114,0.5394872282711511,0.7149163105613613,0.10474896600791124,0.3883121310070647,-0.8863289462143272,0.5328855631320517,0.0961694749026268,-0.3302053752255445,-0.7353351660931639,-0.4243857043790129,-0.44098346534915056,-0.7353755650307597,0.840238870444192,0.6648151930934241,-0.10512760008025829,0.6851665286246795,-0.18324904910842574,0.2670624170371214,0.7879646236600945,0.8198421664407737,-0.6374386786094497,-0.05856114442348039,0.5038273011551406,-0.006970236513717059,0.05050867145163092,-0.11333185390942635,0.3701554143066101,-0.8768080196031358,0.12027184302227442,0.4757655413150833,-0.643717056073482,-0.021810126064757067,0.3816865605801609,0.011731401866296183,0.3749465538186159,0.6697688369865079,-0.39215330598266784,0.5905582781534257,0.47115634539630585,0.21918263519872272,0.5978321360988386,-0.6434530687182299,-0.45618903319524196,0.25786194158119863,-0.34935352310771967,0.8250689667142836,-0.20997774959984833,0.492039538322308,0.4737713299960665,0.10694645825011452,-0.9248843603089143,-0.7605833505910518,0.9322758108630678,0.7857446224803635,0.06154131227784244,-0.5703926432567465,0.39352775581515775,-0.011853977241605352,0.47209527990905525,-0.628198491902291,1.0154969020416185,-0.7735383981842812,-0.41151083995212456],[0.8004254842046652,0.20797761930904743,0.58344297749029,0.4252215343684995,-0.2482178851284102,-0.8595853973870592,-0.09105759512923012,-0.7972701659955524,0.44542975565808335,-0.19561900298826207,0.49498846406499636,-0.7470922880165647,0.9011031154082482,-0.06004513170544855,0.7487986216449742,-0.527742285558496,-0.004773435927878298,-0.2852099305181012,-0.08995538458858585,-0.841690134775349,0.3763622453328838,-0.8925620021827905,-0.8540685653798576,0.1684569580394731,-0.223482760261438,-0.3744692980067778,0.6302934511165422,0.11125893845934581,-0.8912479934420101,0.5048570130918206,0.8371644109671708,0.940843933678208,-0.0877673183495337,0.46971512257443576,-0.8850484039841886,-0.6249597133747671,-0.6046184832778574,-0.00861953135155728,0.016029375842821665,0.5180110528020938,0.08999009923219775,-0.22340258218641318,0.7664938799238353,0.16057597496971743,-0.4413998451116452,-0.9663561969277862,-0.5596982483194708,-0.35758154555056204,-0.8435872041415952,0.7236505789398548,-0.7106829712170819,1.036942830404431,-0.923480855165736,-0.6307156091816831,0.15390615654527967,-0.18070903470825034,-0.36992114440020907,0.9215882386493706,-0.06687578762644995,0.9941401243270297,0.21004643144249005,-0.7786792007324335,-0.08243888266327878,-0.5103353626553546,-0.8808050797592056,0.206248447691973,1.045692074275773,-0.8520621675793353,0.5566655788543375,0.9729458374098349,-0.2082598084650042,-0.5498591512032425,-0.095288904925179,0.3235044820425788,-0.6421207100650906,-0.9483128637768201,0.2832921718476962,-0.687099374603975,0.5245033497602807,-0.8154188670030401,0.5185588064040346,0.43334858241898044,0.9066170399037516,0.38692646708167167,-0.9781767484743237,0.043797882341181274,0.5244679547452904,0.29584595302399175,0.308462220357146,-0.8003872182941831,-0.790548884445726,-0.44579201295004683,0.05386733617816276,-0.8177977516226397,0.07017015493991875,0.4380298968913609,-0.5103195131782619,0.745633288504409,0.2509045436123032,-0.616410196075781,0.8347663649999862,0.6913114236067089,-0.6568243108965611,0.9096928711539359,-0.2785772415312725,-0.9224738057868357,0.7071206925559738,0.07439892284535563,0.4334940201651511,0.14095336321261873,-0.5351796210172125,-0.9051158861581547,0.7239423623390667,0.4583880859733762,-0.15306174991311405,0.35501304459674704,-0.19349960448828407,0.2121429951440632,-0.02540095090214197,0.17380486182786056],[0.18908614501964108,-0.6682025999252785,-0.7781637807210191,0.35536043509448534,0.27296538175084567,-0.7788935428679835,0.4546269071178989,0.9609403149274158,0.5076169854861401,0.408057197970155,-0.8401209770091016,0.08673302436760597,0.7489456978545844,0.8591181587599593,0.41736200294336984,-0.30703266939800783,0.7814834315055924,-0.021699299785072353,0.8593360888198153,0.9048065832011783,-0.7220250925968017,-0.6519739455973983,-0.7117637900550938,-0.08547703380073356,-0.9245532016097064,0.7863821916412607,-0.6378679378392911,0.6084265507936637,-0.7530373122358813,0.09398155783547144,0.20432875970246567,0.3489033042505723,0.16505537273605891,-0.9031728026692141,-0.0645949594011919,-0.3476289643462173,-0.18082714527712057,-0.09468270780613008,0.10012072768133086,0.9319280443007423,0.6681735514607858,-0.12902121923501494,-0.5010801407362393,-0.20067702850059982,-0.4971073243017008,-0.1810490564129527,-0.14045734991233438,0.11048063112653113,-0.3127917736252932,0.9446073253445582,-0.4893205193126455,0.29541321600884884,-0.6084449042857633,0.42174254635090974,0.3876143483329686,0.769601755182227,0.003875446525483977,0.730126378224076,0.8363635277214848,-0.9162036144953636,-0.5991454721325711,0.9187552864297958,-0.29504660989055304,-0.4342628694354516,0.3340616496601046,-0.9713390533006411,0.14182110927815192,-0.7142727699911295,0.7678127052049744,0.5584878546341412,0.043173653264857316,0.7943016388127919,-0.5734828963952314,-0.03952229668696589,0.2297098510124944,0.4287566459053418,-0.871449117725249,-0.67987538424994,-0.432283753301271,-0.26744463464162205,0.03538265858679062,-0.4372407303424678,-0.9516069272863575,0.6864426841913301,-0.605259873672598,0.9955433766645784,0.4914936159217887,-0.11990358687460288,0.15269560345944758,-0.5028990335218289,-0.7666574630700692,-0.6388373245115452,0.253427211062933,-1.0667040268938714,-0.3563522108120702,0.3611971044970709,-0.8603103059487531,0.9136152199932477,-0.2757830173974476,-0.04190722004605637,-0.015097233784765178,-0.4138172218187551,0.6589199456203196,0.5730224752313605,-0.8223526703076656,-0.07791438054847383,-0.038055693340235834,0.8199346638097453,0.9306200489487659,0.8970290847108685,0.07169422816811347,-0.10159740874271757,-0.22449706368335998,-0.1684254451641237,0.9938201236227597,0.8237376513094429,0.4626120611545613,-0.2058313218141486,-1.0253216224633663,0.04754706719516864],[-0.8806095995792587,0.6299970409937902,0.8285952350410467,0.5730618389871894,0.3218174066506139,-0.2979917767195229,-0.050967919140440694,0.3164176241055127,0.9629088814255838,-0.652858729169396,0.5307473713951807,-0.2520043934032986,0.5076619940558199,-0.821983749971674,0.1674969144977535,-0.5554116676689401,-0.7504158922784602,0.055329449385040114,0.6130356449934596,0.9901609680581467,0.5147614807533243,-0.8189589271589113,0.7731798592876067,0.6226552211953377,-0.04005896452364931,0.3196377028595492,0.6829700497718195,-0.0982140667024981,0.7868314019931648,0.05687378390469836,0.8742089091003793,-0.769808649707077,0.20986303476126386,0.4854457523716085,-0.7191995065405826,0.36213672887803894,-0.39721949596139433,0.09953414521956575,-0.05252010487982937,0.10833453052550383,0.05585932375379856,0.44939305654636547,0.09995875432751156,0.020979556137266746,-0.1911016216286404,0.2014988902450761,0.6080669996826681,-0.27364431133324574,0.3433880900385249,0.876503428646785,0.2069885397839454,-0.2971341017901173,0.3914456776691354,0.3543428414239724,-0.2664757882128221,-0.2546343654757948,0.6071646954095279,0.35153713460627467,-0.34864496945084794,0.024146469546016076,-0.7933446601924224,-0.2843633768526139,-0.9027948922106692,0.2285641865803033,0.36676154648885545,0.3375750697359231,0.5025780297418649,-0.6369917106474227,-0.9269558609046064,-0.3200672290696283,-0.5074751292678953,-0.14154240762556305,0.6934073515834195,-0.2721088144321324,0.6311329104646659,-0.25990105563981175,-0.13879781686931145,-0.911583227397537,0.37454445634100986,0.13014900980665844,-0.9272509763016062,-0.688530364676103,0.5970973256826856,0.6098604482202248,-0.12745101163727446,-0.48809616860333,-0.7776462732214016,0.7329142108199937,-0.19740487512475946,-0.9362833184097856,0.5547652596103362,0.5646078889449744,0.924310175886487,-0.806134110197366,0.2085088777909315,0.049468262829886596,-0.7742868655295398,0.1087654983778613,-0.33205911855220654,-0.9890304309907776,0.6649496681863497,0.7019388550384745,-0.7974962857544308,-0.8755303796272025,-0.7177324507048903,-0.26835690155325753,0.09496779981005342,-0.07798357042047796,-0.8770014044287096,-0.40467288510101296,0.6736506827080752,0.27250813100579957,0.09869939754976732,0.3747324035437327,0.7465467143087374,0.9220696225228757,-0.49996128861268346,0.40081581053303844,-0.04709901897946439,-0.822583446255572],[0.5791307532607037,0.8949500361572484,-0.9647758388947156,0.9314708053904563,-0.037263266568060636,-0.6301225352593539,-0.1719813442362299,-0.5095233227478905,0.5008291458520878,0.8041859971065396,-0.8781656535968541,-0.2516778844539998,-0.2968515204660664,0.9015254009923893,-0.1479778160672614,-0.4923107243928732,-0.9065578957249104,-0.4850617036451796,0.8290232350356628,0.8205238788153029,-0.5744452740882354,0.7981200952768742,-0.1756658088573472,-0.6234986638159018,0.18377373766635322,0.4696713420058401,0.8278166781898972,-0.7426333915604619,-0.21725280770709957,-0.19210187727542422,-0.8187334852246787,-0.25399504670466877,-0.8017553304756992,-0.9908980539984598,-0.3786118616887898,0.1879021135779684,-0.026359681485889252,-0.020783788695805452,0.7186753237499475,0.7653946195017173,0.04496095605189957,-0.3427168312580293,0.38865343694830634,-0.8967834754991932,0.08620520834679489,-0.12570423547361578,-0.8270488512920311,-0.6041997782921302,0.23645670180037437,0.6887607837215378,0.815854370128331,-0.28270302775063616,0.6484940442398182,0.46096829076090706,-0.4243420788827946,-0.39700709677443397,0.2577854025706295,0.09101568077863469,0.5281238159657126,0.5569843419999689,0.27424178045425346,0.40638820754205146,0.5617362538772436,-0.7375505811336307,-0.8576990626189482,0.13989454607262408,0.34822383032996923,0.863599275988758,-0.39594481260679865,0.1949099047073251,-0.6842875354639443,0.1276146787407504,-0.03104314051227955,-0.3062235057002033,-0.89026771281262,-0.8434778649125558,-0.4391461687590989,0.19653089053653058,-0.5662555741216535,-0.03554334326530477,0.6448120241388396,0.23999037107266324,-0.6764919695812476,0.8549940939865632,0.661251139458048,-0.7743657783230112,0.007513328980565221,-0.8894846099779948,0.08681591366254784,0.02631583318463005,0.10293390245903491,-0.6832627774683172,-0.6345329446730494,6.855895075874139E-5,-8.038727782761178E-4,0.642300232212258,0.006240702713947398,-0.7533143165494816,-0.18042409480846489,-0.7945614338373038,0.37599786567736093,0.8423161138037996,-0.9514718703781637,-0.9628716654825492,-0.058804005601141435,-0.5261154274835294,-0.024007478675159736,-0.14287347361072153,-0.3842951687280917,0.8577276502698614,0.3101565989981528,-0.9367153020458865,0.9874282894101701,-0.5958314991325351,-0.21705358094021548,0.35025589484211334,-0.8297092948226201,-0.6657513650163962,0.874359085850726,-0.676964318692698],[-0.5174601573028865,-0.6150483952255118,-0.2237226758845526,-0.6091743622082412,0.5518212357402097,-0.6371641191925806,0.5967792207753573,-0.5827946641672274,0.7753577365702876,0.8489782905284524,0.8825882220178148,0.3328426116667355,0.9570842224630435,-0.6318378827384606,0.042452671215762135,-0.5543027552802383,0.46022389405510217,-0.20571572553859016,0.6852118466565116,-0.9547362153071558,0.39647492330457373,-0.5343366584951498,0.9642066848464935,-0.05480092701570409,0.03547684638335696,-0.34105530930651906,-0.16626130047974227,-0.8310351648632768,0.6450668413435996,-0.1980623985151565,-0.3770255327894964,0.6008341132988962,-0.058820655491466686,0.4004257276653232,-0.3849196718342001,0.41304770075991404,-0.8302523435221089,0.5969430286556276,-0.9022232673525632,0.26396722378409154,-0.33597489123002877,-0.7792573503931138,0.5641530757551496,-0.4912044202691318,0.289789209461582,-0.6483955468002578,-0.910548029976655,-0.43088848934763574,0.595334691647099,0.7196512566353077,0.0040979304154761045,-0.8507855655872564,-0.6012598824779449,0.7467440114837869,-0.017203351404844306,0.20447927740969774,0.9407068906068644,0.35666617921724403,-0.3762397785140739,0.8260782881692544,-0.8464289663084239,0.15584450759038068,-0.44639710110685005,0.4587117830677459,0.8951657177739983,-0.29478811056330895,0.24968767285488155,0.24247300348694334,-0.4539725238928217,-0.16756477032045258,-0.2291542302829076,0.606345456388011,0.35190030613375983,0.21345024587117575,0.7686270271587067,0.0580373561452929,0.5310951067768525,0.18328774828716876,0.31121612356773604,0.88223560045764,0.6582871921423032,0.8686603171293104,0.3709073132662198,0.021663117522073044,0.6936713918230282,-0.3526922495590528,0.4852083006569827,-0.5136107468908028,-0.3372986375564428,-0.26224066089653064,0.5489915217073013,-0.40427205944909206,0.10969172167542739,0.5768044073358525,0.9177402562155921,0.20746596450220045,0.2623836568845019,0.08808275856427336,-0.5024203749515624,0.5382321065648678,0.9009830265928185,0.6561749594569114,0.1166052608762685,0.36320703498751594,0.8120344843882158,0.6425708286709142,-0.7194806516431459,-0.14428002424690917,-0.6886320813991749,-0.012283447437524273,0.42175216277095323,0.45780652772485786,-0.9576799213925334,-0.37476623183362184,-0.5381809648666286,0.6210940881158916,-0.45027469608722803,0.8176499189781441,-0.8140291679836851,-0.40960088768584996],[0.04217959654412039,0.07469226389123003,0.7193594256795596,-0.8992467868303425,0.33125007938893686,0.5214642396898065,0.24886983598361748,0.40529971961284894,-0.31648281802982664,0.6004501307307686,0.04406834148097832,0.6372170280630723,-0.5472018035779321,-0.18577421799245392,0.04998334597747712,0.33977761230669323,0.661088535300052,-0.5641629299521205,-0.6280302179902247,0.14302348962458647,-0.10549724502930864,0.07134355139470375,0.30219217954056177,-1.004410221611008,-0.4036075916784192,-0.4477913806076546,-0.5241716695105985,0.9237447688123553,0.39877027961375944,0.7929339879040246,-0.0018577746662497639,-0.9251162268415559,-0.6485714026439281,0.8899439621019911,0.5932300885013255,-0.3491250962945088,0.730618059786593,0.17378204587260238,0.37432516767126633,0.25134392281511597,0.25879798895785533,-0.4327969462540898,-0.6377529910333122,-0.6087943657981907,-0.8836010342679762,-0.20729526308109097,-0.06305819258509546,0.9654552660469647,0.9203864359091527,-0.48752680315732855,-0.03292625533961758,0.9129350126992629,0.030223964990674538,0.617848106537044,-0.96564745218227,0.5598870950660798,-0.30616301064442303,-0.5336667040423271,-0.21431225178000027,0.5314881505033351,0.04049848568218452,0.4786473839811194,0.8340145482839539,0.09810029343400488,0.4161958216927099,-0.4257074189937726,-0.4118881532768055,-0.5084887135178724,-0.7594537972014388,-0.269880710820783,0.3447534112820069,0.12174888501357313,0.6196650156324072,-0.3672186874557604,0.02284819462820756,0.2961921274613677,0.8791420793121859,-0.8773238591790925,0.9796162395575034,-0.21958109449564972,0.20263265162832564,0.2597556942433007,-0.06130651367009032,-1.0267470080162795,-0.6662010326021737,0.6126199042330457,0.8029286067996612,0.847466861922569,0.3400681099546325,-0.21742275618164877,-0.9744508362358898,-0.2468340771438909,-0.9362863213093084,0.20811904550007074,-0.18897470052479953,0.39776189521082567,-0.041680013747893124,-0.291491390983527,0.5604567542180701,-0.6532127042647463,0.7781238880077367,-0.005629002941134698,-0.9943390888374514,0.005464010199781199,-0.27880724780918925,-0.43967814652767245,0.8718607274211043,0.8280881331858736,0.5095710072099853,0.3506985547415624,0.6789792404827557,-0.8604663417698276,-0.2668342311397162,0.2593053994773238,-0.3459647033361451,0.2488604025975817,-0.6755479084636092,0.17094790403004131,-0.2179682660945872,0.5026176322149835],[-0.4298536484578683,0.7551064054055046,0.9869496538135372,-1.1043643991949779,-0.13769010290451578,-0.6855913795314365,0.8019855739416691,-0.8444547492724579,-0.07007008778305523,0.20781712110854844,-0.5435970022204658,-0.970316007331104,0.8396374666415721,0.6064999689165363,-0.07630275291739423,-0.8822657244213463,-0.4282554480932413,0.5561035679264105,0.3709890993371566,-0.04161398571856475,0.7236984391627683,-0.7240390546231267,-0.13373973391567803,0.6979666275437624,0.44380249822542306,0.7961537440476899,0.12465002212908162,0.5591462136939304,-0.5089106430480598,-0.3585758714898784,-0.2642526172511183,0.5634830526193368,-0.4896017688465239,0.6722510024899864,-0.3209766008053933,0.956512424145336,-0.842235422418909,0.40222453024485477,-0.6758632370021688,-0.3453930654351291,0.742694634440266,-0.7073029828531292,-0.845078298515198,0.4298013200748899,0.7675206321485224,-0.001753540071410827,-0.4788831425085237,0.9220025897808259,0.05780559316136909,0.9459668264751349,0.49470362251190547,0.5696215920687047,-0.138760792638131,-0.4301858555369683,0.8869407791171662,0.1903786492669627,0.9196435169014049,-0.2838606213776265,-0.5971380285474676,-0.7144132569086147,0.36148517203015385,0.832353967469093,0.7111724899728324,0.0334423348356411,0.28409857049762083,-0.8804677066332002,0.2352080347715809,-0.9401490634249755,0.7956617662651719,-0.5735421774142831,0.15843800918344178,0.4163328375953552,-0.28125160320303694,-0.05358679725831882,-0.7066300984486078,-0.5417766623679541,0.061627406284179835,-0.028928259791034628,0.8685378390943856,0.40761633110490986,-0.49598419591172405,-0.5629369054153313,-0.7458744944830459,0.33724032038913393,-0.7607317043958529,-0.45371053788549137,0.31127438885496683,0.6524017227817789,-0.39881038140385805,-0.3082933886716175,0.7563432570308917,-0.8514578298576664,0.7893806509834983,-0.7077889621127121,0.8635246235779905,0.8011529086247783,0.7777125491448944,0.4812606269409033,0.8900108213051616,0.31479821567475624,-0.37982537396498695,-0.732316787683246,-0.7881611748429315,0.6403868517159305,-0.7719102000490904,-0.7092366456240836,-0.2871012606198955,-0.36303670048584025,0.8670166040239237,-0.9119749202878923,-0.14503712365386218,-0.437829073429653,0.6049522525503644,0.8904187767603639,-0.29514934257394465,0.9984457929159616,-0.951271879187643,-0.6210523718513596,-0.28483905760881756,0.6620055034520496],[-0.4069238598512504,-0.683912899571601,0.31211713004020214,0.44974640516273273,-0.2190105482431354,0.18757938135141294,0.2726709524961009,0.3825232547552615,