{"inputSize":676,"outSize":10,"studyRate":0.005,"hiddens":[120,120],"weights":[[[0.11579138529168223,-0.36990650467787967,0.307658281348651,0.8080240565255429,-0.013477523822485788,-0.5502681314446626,0.3108832085080467,0.8541947599891851,0.17640808353101553,0.45797883407808426,-0.11671399123529402,0.3753328275078513,0.5017657421633444,-0.8014197268753022,0.3114674978660703,0.5531208811141116,-0.14083903267777367,-0.479964039134185,-0.243553028999224,0.9007865698376023,-0.14216473066147045,-0.7110401668505856,0.7400603695254974,0.8807944113327861,-0.7480145773878661,-0.8195958522404976,-0.2030645991007872,0.8220979578965064,0.11939939400914368,-0.01930190217142282,0.5832155794054922,0.8569531971706909,-0.5462483552111284,0.9243926605306924,-0.857648553735056,-0.11088729566345497,0.3370059465415928,0.37403793418772385,0.9983359917268059,0.3734289797014742,-0.9658059649919385,-0.720729256168461,0.636856893196861,0.09208982557885166,0.20332114576288107,-0.07772654071287767,-0.6078090980992403,0.059210992847896986,-0.569354340930474,-0.621625541244897,-0.5683028095058589,0.9577082364367037,-0.767719047478903,0.5553957882876672,-0.4333073761621982,-0.9793526722846507,0.9528526276378153,-0.02805184767277082,0.15025357902797287,-0.8032965492032742,-0.7233425995811825,0.006269250255009895,-0.8778186129555563,0.5270631408111961,0.8622529573099891,0.11749336101572659,-0.21641756351153632,-0.8838122661889474,0.5758794365655213,0.5589252172563552,-0.741304446310806,0.1642570866546122,0.5135844739638709,0.2606035086321956,-0.21004994509364547,0.3403764442691292,0.04988767313563219,0.378578776005702,0.7137569472969313,-0.12119623442627103,0.14348830772226154,0.98787599458833,-0.5019449397260407,0.8836606936095782,-0.9760074632998982,0.5755802088989159,0.31582674563743734,-0.868251369603267,0.892772630552168,-0.5830552362502203,-0.5433640340179613,0.7208797843378227,-0.08166941628146775,0.9103470510713777,0.8685355618519143,-0.2914051786336231,-0.13971449724182,0.9700638881019575,-0.22042032903711156,0.7981665484038946,0.5328588835756641,-0.9334527601017998,-0.33070003540060594,0.5312181212900899,0.9796047094774462,-0.07784704335556768,0.8048276696760578,-0.02505193876637232,-0.03629229504813952,0.4235109716859745,-0.32051260103838836,-0.24487282964220441,0.2553254583481039,-0.5229423206090466,0.6814630458437995,-0.3271177531100457,0.06207953363710681,0.19240743818636746,-0.6464416900070766,-0.3310792703430622],[0.9203406425048879,-0.6015623463199773,-0.15159335014409916,-0.3506741909345196,-0.42121724375729774,0.9401546930200474,0.24479529376930884,0.7216032391070214,0.8056332979008363,-0.6614948460122799,-0.07518699617189992,-0.25778333585477337,-0.5518426311302147,-0.48668352643354224,-0.5829760135692259,-0.9522478005722091,-0.21212524172230945,0.759608124110616,0.32216188613432917,0.11070021301693615,-0.11331916494430584,0.6035626735301555,0.8931162495974634,0.804245798143957,0.6736158088010096,0.42674794818252076,0.8056211480013804,-0.4171000509307361,0.43645682544640785,0.37868321952161244,-0.10849797549953331,0.9366431158550886,0.8878211367890749,-0.3670993905493766,0.40427665991339096,-0.18077564170496063,0.6755224172777519,0.05829921307317321,-0.7553742171844939,0.460136004466433,0.8319617575488735,-0.9948344759088054,0.014928199303935548,-0.09918949051466056,-0.17569897521401903,0.34586985035531587,-0.9859180640986471,0.9312632198857034,-0.6954812089425784,-0.03910188050550131,-0.058132813577973175,-0.11722723372927808,-0.07650135459583042,-0.8132484776470505,-0.9651570480061995,-0.8903275444822253,-0.7254570003303554,-0.1726991424760409,0.6556643544289367,-0.9060462895635933,-0.2792203106512931,0.7187854982264082,0.9825152236284873,-0.27706923007289896,0.8836988508070653,0.6913873367892376,-0.7304817223263899,0.8373648635653655,-0.9263723687673815,-0.6104706627155536,0.5969695132865039,0.10464130936783844,0.12837447507853048,-0.1636790975930216,0.9717241974443543,-0.2857721943796308,-0.029674390180021142,-0.3045314826815028,-0.47982576846775055,-0.22279814170152323,-0.4978318620885973,0.8583761046426936,0.5030745474445573,0.940281708801708,0.8748913599450406,0.24117152790918256,0.2685428816185994,-0.47127301729702553,-0.5808711091283105,0.6056703254826672,0.40877038069455185,0.5417065085196169,-0.3257352241955572,0.636721112080757,-0.8563028870581065,0.28448012913961274,-0.04661210555528729,-0.3667743977770447,0.2278691233634948,0.5956571162063362,0.8274643391372476,-0.41878883715942966,-0.6230301934522929,-0.6616677100595305,0.960360099618128,0.5042395322425811,-0.492064063146034,-0.2204164701591329,0.904257648941172,0.46417971917244,0.33040313532957205,0.9602761044955124,0.8869545008181119,0.7401988774732262,0.9020006362464883,0.2339065157719548,-0.654611247142436,0.07745062217090577,0.10849244114516145,0.2171929688658123],[-0.9378714113266392,-0.48474139480313283,0.6944507610950711,-0.0975498085304531,-0.5428045955773332,0.6699551838190819,0.22913858381779562,0.020758737839000452,-0.5788803280589164,0.03001221135960978,-0.36839673532976497,0.4834906600034122,-0.5027156914406589,-0.7305257889873821,-0.9403439390129699,0.9771661659549967,0.9945773357238391,-0.2598467403466152,-0.6608629774106365,-0.7963796773871348,-0.15529932524123363,0.4491347432121539,-0.6124683329660917,-0.6693317855985647,0.02009926443681023,-0.8228138765908886,-0.561113024463837,-0.4845719818673577,-0.6762404055987247,0.020369878340960622,-0.3257327977251081,-0.4919203585205783,0.5132719621329445,0.6551408292011739,-0.2812821231296524,-0.5029963097842954,-0.6518346486102993,0.7417665934077535,-0.09724509631289883,-0.5906607508318535,0.6810422250597172,0.6406973563298182,0.0811674897800364,0.9552798727633351,-0.025176204785228893,0.3585681229913548,0.1811329853227426,0.2661855231847144,-0.8381451217054218,0.0034382924571113344,0.8427111077342678,0.27492765404126984,0.14150114710146214,0.2858207992134878,-0.1832457488602793,-0.3083649235143509,-0.381172974140171,0.8721227150426843,-0.5367742319655137,0.9876555435885921,0.23048490343340078,-0.06946942727037425,0.6345915906096444,-0.5849861292330554,0.5038245194645679,-0.5627496207648172,-0.5045055924720123,0.9166272113810835,0.829168428041796,0.48714992412440933,0.671264050339478,0.7116703064099079,-0.6195938331500649,0.5069758489381101,0.39114387162942915,-0.2721084727913125,0.8827861520699655,-0.32481287949185095,-0.592222759435608,0.45149071672721025,0.1446236209048498,-0.22238627353578516,-0.7930540689784833,-0.3225140129858215,-0.2783607334644514,0.3734668794706563,-0.5969999977578325,-0.5000437924144495,-0.9500634920606539,-0.9568853060334138,-0.10350304656768657,-0.033841425727517825,-0.47158245811328325,0.11184821089651012,0.6207323089812075,-0.504894653016107,0.8241338749822631,-0.9279882308466718,0.13245364004267826,0.46296768206887273,-0.47625195014010724,0.43341633585540545,-0.5817695859943065,0.9152829842053856,0.26008030316497927,0.45590235787236766,0.17322678168440292,0.3096488442483195,-0.6875121050619347,-0.9412231893897073,-0.771638000255164,-0.9522902702697531,-0.8078986186043159,0.21431915500137275,-0.8694071955959992,0.3875508702057062,0.08135222230512211,0.2562813974896729,0.0694803665280367,0.16748352699881827],[-0.7622765010467194,-0.7745155786748302,-0.15181995165964673,-0.4308230809006469,-0.15858119212261856,-0.3735634265930822,0.9756898874790795,-0.6201011150763734,-0.47352392672229066,-0.5300027222314703,0.7054584424483031,-0.7330492908288401,0.21043630221871462,-0.5230030969167441,-0.7508958543680915,-0.6555758253853153,0.4046169192360261,-0.7021963469395225,0.8924845612973317,-0.697904302211499,0.2360801107557567,0.029542904381161757,-0.03193093606574482,0.4729078519063811,-0.5119174040120861,0.401555053348909,0.006276398365129174,-0.19960770537019268,-0.28415917271387686,0.20446495242579335,0.28482221194196744,0.9534970174456096,0.3053941641497101,-0.38291976925779375,-0.035114012965404576,0.04600745940646588,0.4032735009748619,-0.6793916920421995,-0.8462416389271648,-0.4141561082114754,0.503027706652154,0.7805898569809098,0.7990345433147198,-0.3064615295684832,0.5544368492342654,0.8848627221555697,0.10786798075959639,-0.30684588585184314,0.9571309750620417,0.36027058181630706,-0.6521828687191479,-0.2898533191419089,0.24952244646552152,-0.9285449826651608,0.44128562091195367,-0.6958599274153092,0.17270474030649485,-0.9368342441269403,-0.4364065909548425,0.4985358706963647,0.06984516493705331,-0.33372946648160157,-0.32769105901839085,-0.8070592278465032,-0.42789272721355287,-0.008214821477151687,0.2795332168856336,0.9613829687427218,-0.73079661596897,-0.8592568656643242,-0.37039662535324963,-0.8353123456732406,-0.37619239276958466,-0.6118250969333414,0.368350093273697,0.41343187790526054,-0.6131137237296048,0.9555370819977309,-0.3166911347540363,0.7212951526676533,-0.46944476603233615,0.6933979526800603,-0.15437467809628888,-0.5198075722729201,0.007132101477870603,-0.8608771629824508,-0.919267560135534,-0.0791928369592436,0.6022642500786648,0.7329109748620167,0.04295009130472184,-0.3584679590370131,0.00502403127963256,-0.08406868295942739,0.41284083723693277,-0.7909901315962208,-0.021116699218166893,0.9382953480788184,0.4629272194108857,-0.8769212821447296,-0.12951617692445658,0.09463722408714494,-0.801745765434118,-0.6317617037554529,-0.5146442209504245,0.28360697424967435,0.1330994712630571,-0.1378166499354023,-0.6623595440883494,-0.13678984166183808,0.9741202080174942,-0.8614167402880122,0.7391842581142626,0.40470983269233984,0.6353058513007971,-0.2665248179145736,0.9513932239004034,-0.14834212827914145,-0.4661622986314977,0.6832179793518998],[-0.7136803588107643,0.6661410596404063,0.9409693036076058,0.44856112201142706,0.7225113123539652,-0.5459219798195469,0.8005622482878147,-0.43605977295688386,-0.7022168763232344,-0.1951452238442403,0.584766373017805,-0.1372162121916478,0.029436800636292743,0.6262964544874636,0.8569579730892464,0.3364996429944257,0.3985846173293621,0.09668667723354424,0.5759591739644996,0.2113193429791996,0.1180800483552036,-0.7190623040597064,0.20547873835208244,-0.735391022512381,-0.2970416535388726,-0.8572375917616327,-0.9839230470010767,0.2230126427709809,0.7037103263804151,0.18585390389685047,0.7966551725833982,0.6365354353369166,-0.6908079497170383,-0.1938256792891961,0.0793467760075921,0.6507884681861621,-0.679890206529872,-0.24595198996936002,-0.4353386697027861,0.8379970072215023,-0.5988504155138892,0.9841598177075844,0.5528578567875614,0.14920881539368563,-0.36425547096370675,-0.4653429816743762,0.22470906629601112,-0.15642586788542634,0.17168122123499047,0.5574627991623882,-0.6642904617300134,0.07970347721402042,0.10353760965056165,0.5462355271990516,-0.6654421487349588,-0.8874310389253376,-0.33109766950640374,0.2875031402017041,0.8035997178137351,0.6957083402294,0.8121978413983941,-0.305290989902855,-0.29938621071736177,0.7481108649281899,0.2054998715127533,0.6506427291402059,-0.6904113440763345,-0.6607240996151708,0.6038554811739912,-0.5387303163852268,0.6481920919374166,0.09910555362474402,0.4903097682097954,0.7536745105777892,-0.2410748596518743,0.6206284736014246,0.5881001957600326,-0.6118137272190264,0.2704032658601621,0.922839332869202,0.13409169169177107,0.4922048947928405,-0.9394681996773638,-0.8875132911607281,0.7027130093394562,0.9348414230700807,-0.9888680286848708,0.851755118663217,0.41613171167030466,0.34426267044153663,0.6121946742003523,-0.7776224056471402,-0.5512959295561689,-0.03896113647000053,0.27112785343478696,-0.46814425941023075,0.284157074327822,-0.5952193292916166,0.8018564439107932,-0.11206635738203295,-0.3610494784243406,-0.6025697759404279,0.37373022319674704,-0.4940429073873601,-0.5068053251913774,0.7186098352608862,-0.576997459991945,-0.15979056163015393,-0.45862864015866156,0.4755897210045215,0.8344755624289165,-0.39006527998736173,-0.11845955109201638,0.2688438787312619,-0.030527195657475893,-0.07553057955996241,0.8826087537178025,0.8702656124362942,0.17827442579353509,0.03025753923492735],[0.8128419280632535,0.3680056674577004,0.03066931958174196,0.6406855219299717,-0.6023899934589557,0.956376879814848,-0.8926833481527338,-0.7910393544342157,-0.27619100807089975,0.8318698727198648,-0.5306332334169627,-0.02677851394992257,0.6950150763738818,-0.49059462633905687,-0.855165291804307,-0.2390493084164076,-0.8923061303950358,-0.5122398475280779,-0.5264279749539289,-0.7131392364090621,0.8818463999824053,-0.8357357042029852,0.3203284405773913,-0.41033556416965344,0.3583438435359176,0.7782973652764348,0.6570852123774164,-0.14286816004370748,0.5208802099509559,-0.5032271382739688,-0.10756422781331218,0.9634733490486247,0.24284706269258408,0.23396162465831857,-0.9847830418647424,-0.11415221490947135,0.4005574330345314,-0.37198569177115215,-0.4504327718686241,0.5270869211709572,-0.35351961444944996,-0.6789557151705793,0.449879230706367,-0.24826393874143526,0.705875227164067,0.9594439672758762,-0.11278816764277405,-0.1651905547340011,-0.6250770835088866,-0.8127011239971212,-0.31352772223604153,0.8555356356307487,0.3122889032829631,0.700732593653737,0.2232003626448357,0.9210858999281425,-0.48848645301457616,0.8421448342947077,-0.47708802913605874,-0.43488764764724364,-0.0030581364859509656,0.5099526807706773,-0.08776390382144297,0.9673696552337516,0.36079204041712587,-0.9732391992910182,-0.7507299380954778,-0.5663813898905226,0.3220921999866467,-0.9659560979818023,0.3850737980193538,-0.12157768573077905,0.32151227409239136,0.6455483764364985,0.5226708691536507,0.6151447127573144,-0.9377046791532608,0.16115918632589593,0.5012608882786223,-0.5465839122544093,-0.3800191031137393,0.1901971987857822,-0.34056977213557876,0.09345349553068928,-0.9691672794941374,0.89183317282581,-0.16494390123993838,-0.3941812032472994,0.4195266742167052,-0.725601602432982,0.9146498551308546,-0.08485066196320044,0.6271560282698158,0.847137588869002,-0.292948172619844,0.7667910448491586,-0.6931028658069355,0.21589412623403192,0.2535626329724924,-0.41701935883674407,-0.33107649599889455,0.12121468362830415,0.9080956791941839,0.8529139850380627,-0.6130638175066941,0.2987418687413226,0.4151587125799434,0.3612969892062902,0.40219997472156205,-0.07612275682790429,-0.7189132813484214,-0.29070197237573037,0.9530792068358697,0.5375695703001366,-0.9943957410791041,-0.5214781477488151,0.09211550313673815,-0.3114917586059285,-0.1862610577436598,-0.40302702151469527],[-0.00218334959474743,-0.7145959696764989,-0.919796764267166,-0.31136815771127585,0.9080636927528385,-0.2150352644218702,-0.1275699566504377,-0.3534252996557029,0.5217620151145225,-0.6421584313719741,-0.12294578122497604,0.9021371411256024,0.42493354986405335,-0.38435289197557415,0.34814193340333266,0.7432344242354664,0.6832541051052504,-0.0011858080593407387,-0.5135460829360254,-0.8842017611942238,-0.7669109875867419,0.3028296531985745,0.6277111867205202,0.5116569392735211,-0.4862958439696621,-0.21917034341972422,0.1477685421391749,0.6349535735622528,-0.27491014749569864,-0.07912026489972515,-0.25889432540640117,-1.001669771150129,0.04390136237256887,-0.4192113284474685,-0.31625731290578063,-0.6254167045375248,0.22609154222145886,0.22313619061887202,0.10741581039565924,-0.9386563723588159,-0.03312562043111961,0.053188248096721694,-0.5000831741773988,-0.4823747590288549,-0.4921752116333847,0.94885548689866,0.42066583273529246,0.8228158175266647,-0.06103859950661239,-0.809729092623446,0.7388419146788782,-0.4458603372119019,-0.4148612032841353,0.5854926930441213,-0.7393661743050686,0.2880352505115279,-0.45423690910981085,-0.8112619338401108,-0.36773458317658864,0.10281616341917503,0.7108232579837072,-0.021838343803133077,0.7900262921866745,-0.692618857431365,0.9765565920149684,-0.373151951967701,0.6744546566075563,-0.18826487189150237,0.3263181178090716,0.8878651842502362,-0.19965969568319644,0.5787508922578023,-0.00802144377794309,0.503226100682493,-0.608269728104404,0.6797382942475533,0.2063009539887518,-0.6452225533850703,-0.5054250552038618,0.01983285450457601,0.2642148070982651,0.387245150334447,0.7547039068466393,-0.6464415519572709,0.9811864049687932,-0.3303860944260826,0.8562071002067907,0.3908232169828364,-0.05125226982532279,0.8186769213496656,0.05367367610568186,0.8896948335427338,0.9395652179718476,-0.7793786823482352,0.42402912453942243,0.5574966267506812,-0.1199647001387991,-0.2579634238672046,0.6676137219537599,-0.8972099377662058,-0.5546774649925039,-0.9580508139713653,0.9460583859733925,0.561232579459246,-0.5818008969248833,0.945634227175384,0.8473670014708675,0.8318448242052138,-0.995116043263905,-0.6092341135831548,-0.15327588408000511,0.12385148829552228,0.9617067730523853,-0.15601419145804682,-0.32024334345387867,0.814335471951746,0.6243208831837566,0.5895466095471077,-0.3965887877334813,-0.050799937184710715],[0.29147158479589597,0.6703689825954268,0.14458418796093447,1.0029270898334588,0.9267483219849441,0.08331263848099933,-0.2326635282185479,-0.5301409405026469,-0.7614195055111408,-0.3875953688913035,0.9892490469947129,0.1433840501046564,-0.8132358803848472,-0.9618122513217028,-0.525761495411176,-0.8745830170909524,0.4632236432247793,0.6840040392660365,0.8290251061098164,0.41889377246875437,0.08932734563366837,-0.5939968453346337,-0.576606473365188,0.3722043563444391,-0.013059820066514509,-0.011721262172423249,-0.10659580817240918,0.5411989755626048,0.7000110126290771,0.20139244747631727,-0.5396336667850535,0.9594588350037162,0.20851253801583827,0.7014763540116508,-0.3646934032334424,0.5168017555017942,0.2587716171691847,0.22593367930122776,-0.5310637377594783,-0.19519539247755466,0.03199928221649201,-0.8299248029935694,0.9346332254272469,0.6578325175691574,-0.37080119981464865,0.2999786093582287,-0.27721067819657735,-0.30193625967714016,-0.020541453724548336,0.7530682885572345,0.6730260507175126,0.8956702822187717,0.7228805131423246,-0.3286403847377436,-0.2280148051046816,-0.19530309573653165,-0.34812990308264125,0.5567856461776222,-0.7502297300582791,-0.5785728457135804,-0.3930642120990265,0.49798961396509334,0.8446477924555369,0.4553904768275982,0.7232040350832803,0.9679275821774668,0.6339708422304563,0.5721732207691682,0.09098564638060842,-0.4570913432066103,0.10597670246942834,-0.6215299514293305,-0.5866389723530538,0.04508612439794203,0.9076291258591641,-0.3360484753281618,-1.001309354110813,-0.9006766502786294,0.34746929164687756,-0.6878704530980463,-0.7597709913113525,0.04914845649156265,0.19181410160636664,0.09615917963640556,-0.7181115302839789,0.14200028336899448,0.6563959653633108,0.7259540301906108,0.49954556525922345,0.5808630863845808,0.8649823934730027,-0.18857474560681148,0.16033268035768156,-0.8271874971806454,-0.8613414887257761,0.42337277443693855,0.2933015900183808,0.6382275342553467,-0.5326810014256311,-0.44287894163296326,-0.17783038425525596,-0.1539980093345174,-0.8602318848047059,-0.6749169015437435,0.791433263466158,-0.29816403382316076,0.5488589523567902,0.4322519759257419,0.04238141148322808,-0.6889606572963911,-0.35214873161006827,0.8237571178638082,0.047137492632377154,0.826847549782214,-0.7554809608258225,0.8577231471781157,-0.76052603732829,-0.47026598612836246,-0.6004239700880455,0.24496830931623428],[-0.4494339069161656,0.5066221491282104,0.9628830876954851,0.4875949322436301,-0.5391795452624568,0.39946106964167105,-0.10032551252225029,1.0317320545411517,-0.5125610541926757,-0.6944279432935967,0.7000273578968972,-0.7000042699137848,-0.6099259936931654,0.2046643336655404,-0.20786024510389994,0.31455861315669287,0.43667389116785865,-0.32143807022903825,-0.9188210496908902,0.19925231879652308,0.4956682777528101,-0.7558010623063338,0.949642858190977,0.3742153123571006,-0.23163369250045182,0.05537400111180012,0.4667081810244421,-0.5921414465150692,0.290952514013897,0.23013106302228786,0.04513284331655932,0.4636507810819924,-0.8202228141772667,0.8756239886035314,-0.08637576539043752,0.41822539822464844,0.7000265771360561,0.05361268071494704,0.6902525049331002,-0.5938318416680836,-0.3547313045072028,0.7700925725570077,0.30038969024394185,0.05761500894719956,0.5451352434173469,-0.1351695448154592,-0.2606816302002697,0.558485317693242,0.8304791205278269,0.8040129735161422,0.12397757219653094,-0.11912559715479965,0.45731089149936205,-0.819887472315152,0.6465713042366782,0.4307395604702368,0.334358714932916,-0.6040316823665711,0.29150149542449344,0.3243461359912716,-0.47063422471304406,0.07122717533971722,-0.011463280469895127,-0.6584489983624282,0.7317401216575561,-0.4894126403911632,-0.9169750812088355,-0.9107528361260301,0.02583403492069419,-0.6380239072250988,-0.6808035671050738,0.1904906973868834,0.7925772377156285,-0.554835191224956,0.662393146141383,-0.16590920503663564,0.18329277493304919,0.7660469721629057,0.6971684539682499,-0.6524608279314559,0.12569325436317158,0.3896297184054452,-0.6211773628998004,0.7221254916272811,0.11011572266251697,-0.45016442160969566,0.5755035689083569,0.38909243258839893,0.25847393005029745,0.10302614929664956,0.659456565982986,0.4549526196919251,-0.4832669375784181,0.06419875731395852,0.32953519425803457,-0.41497764230455203,0.20551868956201524,-0.7158079963099021,0.8980308892540098,-0.664324216065036,0.5234242479981174,-0.38122441976569776,0.5779098799637086,-0.8381070980023732,-0.559655492206352,-0.8140207374190058,0.5461449318064624,0.21573619073745992,0.8194740818319041,-0.4389903783049397,-0.27939315589518454,-0.023758007912130574,0.3033570090716479,0.4778677952125025,0.3171612417772026,-0.800230403514118,-0.2734116794309982,-0.6791849059828619,-0.7909140673428976,0.7847019786755468],[0.6376518863261604,0.13281601980126465,0.6948760734215569,0.8849634090451693,-0.18229597981686663,-0.015326795539914269,0.7970029763782359,0.6180287586344223,0.7379487968074863,0.45673441499512335,0.5016128238872067,0.3553902922031007,0.8535921404298128,0.3469082454852425,-0.8596295115957107,0.4342225464283168,0.9964590619109669,0.5904844802788799,-0.637345628418804,-0.9800872568049322,0.6473887827054712,0.647423115435837,0.37560521553962695,-0.08466721665767243,-0.13747547010067035,0.20901743026048084,0.7099656873853686,0.8134425161318005,0.6028983568513481,-0.7508687472331511,0.754449103058683,0.5242043555326982,0.1729355566777309,-0.724491291419732,-0.2950493396719916,-0.4069994520105392,-0.7492063084688145,0.3975742996151289,-0.2912788750696136,0.44307234777775684,-0.5273493412086914,-0.8099297933482501,0.9353321017947248,-0.3398974880330127,0.28268614876631704,-0.8823750998999648,0.10880342927434951,-0.6119498152031494,-0.8367806299552989,-0.9746823833929171,-0.16815786143411687,0.7199690979852424,-0.9507244044096934,-0.7519423970749272,0.6914995544045086,-0.8095091554667313,0.9111250043555261,0.5774333424605043,-0.5529232953746621,-0.2200377982731849,0.17229637138618767,-0.8785929718470298,-0.29360262692671707,0.3818821407196232,0.2576563757939942,-0.2507747842096343,-0.1951812486614439,0.5743334800955812,-0.07178364030865998,-0.740267976429186,-0.06046532072441745,0.9103999991679441,0.991954123725706,0.9123196388351871,0.02303796162524708,-0.7094593290815658,-0.21855490798566982,-1.0694599008153478,0.3796428253962604,-0.7441278517974882,-0.887901972063414,0.6065479601161918,-0.46076827527070624,0.2061803565017931,0.07777570512433694,0.11182042593486143,-0.514096989019752,-0.675090149595604,0.9409191539286491,0.16303649204640594,0.23219569422342964,-0.5023329398359435,-0.2710968393827442,-0.11148544735700833,0.9700404739447871,-0.8901843277449445,0.8323387100404047,0.5347699094043079,-0.10319849961238199,-0.49662858462694504,-0.39057201857362495,-0.5090132749954689,-0.493743677985147,0.28032276154322755,-0.8540786850761954,-0.06874115427363957,0.06962722605696078,0.44614569917598135,0.44054242966351276,-0.8159980747638547,-0.1342808852741502,0.5490218794462363,-0.39764302363377485,-0.5047115328949329,0.5153365805701543,0.34473378413040034,0.31868434182783734,0.8436192763796831,-0.7316944283345976,0.8886031741798561],[0.7160285761458645,-0.6703714254380508,-0.8757032706059381,-0.10344925306708232,0.3029850039006461,0.4235184337765061,0.6456895605573304,-0.0818878158190034,0.6200202914029013,0.6358742317474477,-0.7858165987749933,-0.21768498654400725,-0.12428008511510581,0.02136011155135508,0.55817772289805,-0.7863412930644385,-0.6609496459222874,-0.22190141500354116,0.13118954856173712,-0.8600315802207226,-0.5244181835637381,-0.6995494460300716,0.5585734057777382,0.3948346330115676,-0.4677404403216082,0.9414368060028722,-0.36966099413341963,0.7867143448990654,-0.24414303046658714,0.06491429317718785,-0.6200387789515514,-0.8023795130730207,-0.7373611850945696,-0.10037897796052228,-0.7239413695922359,0.5836387078348048,0.2504472922957476,0.19180210385318877,-0.023864820792695283,-0.4180599063598183,-0.05454884870272093,0.5053456775156536,0.3985250162635993,-0.7858281768832073,-0.6357815353802455,0.41198951657103583,-0.5784593847186535,0.8076809875826421,-0.17962493863605047,-0.18768405347669043,0.6293541838519883,-0.859526448151425,-0.5436192280723784,-0.919744612922178,0.34047360353820066,-0.29521385383793103,0.8919702782600155,-0.899054759953604,-0.7147540629553087,0.33032358744932083,0.6857629365649855,-0.5501327999251585,0.33755492432096224,-0.9999355433775657,0.6547704906364914,0.997018098319698,-0.3606633899406663,-0.7824432294703989,-0.5238761240849388,-0.950781458890614,-0.8798509518599704,0.11793219223913008,-0.09592711702586777,0.25207398674118153,0.1826998801199746,-0.8247946225467708,0.5105773509109517,-0.7110260313667823,0.18826514987814383,-0.29729541520880276,0.6173747885635616,0.612680710341171,0.50215570488836,-0.7793736253360287,-0.193467970995391,0.019622974499431223,-0.7857837016757154,0.9990880063907969,0.3540841883261485,-0.45332598713231437,0.9621382908331431,0.7701240790857988,-0.5738412311009192,0.8506246103364166,-0.2164684774652791,-0.687034892973056,-0.05318222894252471,-0.01317402279206771,0.60174367766925,-0.5268070194964894,-0.34802998667531904,-0.8319132483563441,-0.4005898135345802,0.7142915097520008,0.2404371749374215,0.2064288694704616,-0.968462525955029,0.15455943744945602,-0.11994453882956008,-0.1284696797355317,-0.33069678120021273,0.6889960009533277,-0.2682832344041698,-0.6445798072110878,0.9272578348910389,-0.911255061512804,0.47884964797242585,-0.4028410954558596,0.029837767177492227,0.7374313497495228],[-0.7257631246640284,0.2821671303457993,0.7903554547145153,0.39338231216372144,0.07031336646176096,-0.15629061374356337,-0.6711635230521867,0.7448741724134164,-0.9248954946783182,0.6631397147342276,-0.3388934945149623,0.5326917768970253,0.1723824792550484,-0.4031059472930341,-0.7200960744552387,0.26719423111979784,-0.49559420676954735,-0.012755661795526521,-0.7074801912871163,-0.001919673582543691,0.09866761913260508,0.7630935648015399,0.3181112222586418,0.7440964117476809,-0.6693345886836796,0.567877359882344,-0.50229626088178,-0.850407367308898,0.6955167570845566,0.16317296719431992,-0.39851675142905707,0.09016703395425324,0.1409726860334518,0.5005942478226995,-0.14263269102298198,0.6287571201676285,-0.36686701174364855,-0.7127738703841503,0.16218161174092063,-0.25865115871295824,-0.24787924731990946,-0.3514637561666192,0.1204777555252891,0.3877082256199201,-0.7153710116690123,-0.7073577418229439,0.06505743334860413,0.5273107440084025,-0.0767031132244591,0.17971847963610219,-0.42433534441552534,0.3715578879569299,0.9461612624171328,-0.7767787167854606,-0.03526785345731222,-0.7960015431433821,0.8035176902309287,0.1956833187416093,0.8119933497482276,-0.004691684961831698,-0.25591638415609697,0.17359192332470594,0.7103298969576006,0.32930259954525026,-0.27498282801224366,-0.9751212522244915,-0.9145427506811115,0.7764705186327686,0.6014728768819226,0.025479395209681562,0.7933349365934196,0.68658143966087,0.364225541113389,-0.6753604081024417,-0.22422725151695308,-0.14160043314999018,0.784623812006775,0.5972095026925327,-0.3912763474515028,-0.27237202941777944,0.6144402049988844,0.27878321723336247,-0.039952106769052205,0.021883083419273204,0.6660151627580941,-0.9983519888205123,-0.1479983526292947,0.360991130806328,6.293124746862302E-4,-0.6084678954820841,-0.24662266089251517,0.8062934292380811,0.5204936332573232,-0.060813219539153335,0.13938730202335184,0.5635981789983543,0.4209144840458277,0.31305744769299415,0.5658556149973206,-0.5749323400166498,0.7764992631915847,-0.3129057793679039,-0.5975732206682732,-0.9664950706032014,-0.21072535308450263,-0.5660820113301097,0.4766551211360793,-0.909261917404319,0.06706797281788186,-0.5884543466425394,-0.11167844233300324,0.4801269088803358,-0.6279038905411697,-0.5070511690696835,-0.5432047045172235,0.3439738146403541,-0.3773696266032463,-0.09119268935625771,-0.6501762917987537,0.692735572305371],[-0.6814245373753546,-0.00536661753503,-0.8460586023609244,-0.04544308576633198,-0.6120003480028634,-0.00421921617378193,-0.5985004525683209,0.09044893365225289,0.438666088439095,-0.49997932660211863,-0.7542259106087732,0.31767277995603493,-0.7446038141136269,0.06870961518815324,0.7135913466951852,0.7101989459363662,-0.5621488323503575,0.9255611940485372,0.02337709246188441,0.5887727459239067,0.13979144861108467,-0.42551497751101974,0.3494553544920348,0.434784823837185,0.8752445222668886,-0.33228820957348965,0.05268850750488119,-0.4298149504463103,0.82256978036703,-0.7945765198710816,0.8755546139021065,0.54756061244421,-0.09537435943970264,0.7032657244652977,-0.13565777970224185,0.40752817656465884,0.7183120440332154,-0.20781618711198804,0.06305821040894254,-0.7797913801224436,0.19887224510245283,-0.4050725910988812,-0.6848749680353872,0.7561573204093224,-0.883483539068954,-0.9157189948748385,-0.633065213050423,0.059129506891733845,-0.05485651965189878,0.5126945430631816,0.5407735527817854,0.6927990716189277,0.4034281520776078,-0.020446509170951394,-0.8517505435175591,-0.6249752442249747,-0.4275190941206013,0.9373451950177637,-0.6943762692998999,-0.750039528843719,0.6349603634610518,0.04442332695031389,-0.29665196846697434,0.3479299302074381,0.6726861962908273,-0.09524354215752996,-0.4750609041320935,-0.6096938833231325,-0.22109457318852133,-0.9933600959214994,-0.5620712819032467,0.5554098187115131,-0.5800625264778042,-0.603055423799499,0.947059628143554,0.4548734961613564,0.39786336129527544,-0.8231726107177054,-0.22011147607031895,0.23589127528580428,0.3297378763952922,-0.5349507738502846,-0.5238550541287904,-0.44749917679576895,-0.05274110408526534,0.06626301458831545,-0.7151108257074693,0.7197554049320293,0.7610375023601913,-0.15288996406809585,-0.6541968817977888,-0.3850993218413116,0.21489416977181605,-0.07795610153447259,0.0060665391602744536,-0.7469999868036392,-0.3713311673336547,0.8215784146721646,-0.25682850775490623,0.6443146732384486,0.2630404546137919,-0.5833077910498777,0.8776890154950856,0.8402969615547917,0.5941331896372659,-0.1659690254475057,-0.3552882694366177,0.9035672433376459,-0.2728877431885131,0.16536584097570503,0.4506893544549668,0.22175868200752744,-0.42774756611105186,-0.5755841064238094,0.9746996825577952,-0.31170633828606986,-0.9618744873275691,-0.03048366270102902,-0.9256883296806726,-0.39284083762486843],[0.6823961593540416,-0.028965480396850426,0.4979359448869159,0.9630026439548507,-0.8605521030868549,-0.15842839017253943,-0.5892877985304901,0.3679670777297597,-0.2737064770668579,-0.6925852301041132,-0.32195708122920447,-0.7963514750887936,0.2210623053417577,-0.9791266658408483,0.3947815376179346,-0.7400184416790776,-0.9726742630286448,0.7991779601497165,-0.005633171249649823,-0.6466046924120812,0.3803123403113988,0.766927321627987,0.9504235105323433,0.17914316275387643,0.7927726346677307,0.06975356732343688,-0.19186888745880074,0.939465427582993,-0.4729991470762262,0.824709472511319,-0.8532403909338763,-0.5391261298006222,0.3830444584389168,0.8338126371541341,-0.7800146679393578,-0.0841173777129514,0.010433614186566327,0.1432508009747886,0.15791175566857463,0.46712409083321477,-0.5511229227606884,-0.008203018676403955,0.32245194353308393,0.6253909677751777,0.43086469000667244,0.9385011052038151,0.019662442806930962,0.25963625873736285,-0.652330320735369,0.5118334372036883,0.04038711797688245,0.987930968821428,0.875556059552658,0.3939301976255662,-0.8785992175451521,-0.5290185294486852,-0.09144275096339703,-0.38352310939638445,-0.16624841560061096,0.08988505121709152,-0.5263708105947493,-0.019708955449484453,-0.17470384238787098,-0.912431926921499,0.7766243308777601,-0.23286725676452524,0.743454055130583,0.0774964827737066,-0.893974826122249,0.45604849090466737,0.7401028803902012,0.09147020601378848,-0.5346212708190837,-0.9411650506712268,-0.8922927856481364,0.7766113576595255,-0.533774502423776,0.709092093724688,-0.5627572132052086,0.8527827094680986,0.5480119721303617,-0.6299445355770277,-0.04635363629287561,-0.020793308690826715,0.058450286302666916,-0.40142996585187257,-0.8904974181179074,-0.9546002547105895,0.8028682704539898,-0.022112886541289883,0.8248869029868328,0.6233376879879888,0.24381135647835459,0.5627012618681145,-0.7669834562849306,0.14335535194652158,-0.2150512401372034,-0.16766828229142405,0.11194043104687693,-0.9794339756181957,-0.30613885832771826,0.5072727260518382,-0.045307000361307095,0.3179864879297375,0.1840011671663685,-0.6111834165402507,-0.9078812293757258,0.033172171259131356,-0.8954583870257118,-0.056755033655372975,0.3386585136178477,0.4392920742958176,-0.5524169604803623,0.22233089510879558,-0.5277286704994711,0.7673455108232439,0.6489722966318261,-0.9626872170484357,-0.45692544079697556,0.39076763799881015],[0.7909664141034847,0.028169104942075234,0.06693165602896352,-0.5137211866065157,0.5386653126871007,-0.6510857653995796,-0.23912901705442677,-0.6757819050951718,0.17464592485557232,0.43348602226742106,-0.353901498085264,0.031107141146338037,-0.026240398464275935,-0.8284671443965854,-0.47450294691700373,-0.0921645074610489,-0.45622520258455335,0.4100745232654003,0.6563283976622923,0.0898260096854986,0.27520745930468166,0.7278156109745507,-0.9231545940893046,-0.9086732132088674,0.7519978321636483,-0.6573895391788854,-0.39970004263948594,0.03458624651661881,-0.6303267724707708,0.757787587476437,0.5294945199778273,0.9796210166871147,-0.9321704296564397,-0.30792478115021765,0.09109955578478104,-0.09362579920368712,0.19926556815295024,-0.5708522489413799,0.9892161010441078,0.8797578213086776,-0.25675728294834316,0.4638962076942827,-0.8782142202480205,0.2198197032819825,-0.6919515476487041,0.201038001085937,-0.6932509763348322,-0.9610393082439909,-0.5130276926659533,0.15915246158379714,-0.3667963070580666,-0.8474095977636134,-0.47130272215409225,0.4055889399861017,-0.19237017171999302,0.4393381266441379,-0.41666305679915766,-0.3756905634616924,0.9616653225410513,0.979214706895571,-0.4984905740680495,0.20515901393280664,0.9782046711456119,0.22690400794232218,-0.9027852704401261,0.38690692363656937,-0.8090640986313294,-0.9477362307504099,-0.84666859937191,-0.8385009954708663,-0.7418344450124119,-0.41455014611347984,0.14227157666116366,-0.10681851329351144,0.2195942692813281,-0.8848385682133465,-0.8434577941342875,0.39812645930367074,0.7424203143531757,-0.5704541753974228,0.837310020538055,0.15055161013307555,0.038859757383231275,-0.25562673982923667,-0.007292675555425017,0.774459452601641,0.46678121680826073,0.9552321571470055,0.476549982658112,0.5832006228586548,0.5516884156356497,0.2523595381316584,-0.08377823669437907,0.6799180419580613,0.47860860137776895,-0.14716816800009244,-0.16310294671532458,-0.0024918519442488846,0.39577857051142973,-0.14239231876721628,0.5961591379585706,-0.2313607075043582,-0.4539426123360317,0.5296752800490103,0.15322699930741585,-0.21957022872604265,-0.3944809184393126,-0.1883230309606308,0.2872026311149341,0.12061022355388572,-0.9138376749482722,-0.8845575480419537,0.625247682813654,0.5088683628885045,-0.8025259218307299,0.9190856179416709,0.8046827825279588,-0.028347688767041766,0.8303062730169082,-0.3166190500856541],[0.8614935156282273,0.5923159922641159,-0.8910855241605344,-0.7277743293297745,0.7763276518953847,0.03747632687148139,-0.397791554648384,0.9352076217091555,-0.6151522298299278,0.3125672744594266,0.7569294369031938,-0.3293546246294116,0.6162097877581506,-0.6796535626601429,0.07116461245355765,0.8711960435442723,-0.5862871860129025,-0.9741411006244233,0.4964049523715269,0.6065042723612784,0.6953432752803754,0.6857721537416859,-0.0014870359207305648,-0.46460160950185575,0.03278134170021126,-0.29547297901344455,-0.5511788825587002,-0.949226829570418,-0.9021275017802988,0.6545972167501428,-0.702938633519455,0.6725567414168391,-0.8574435592138716,-0.2506990380573654,0.8651052377081748,0.1737423832731917,-0.48831026403711536,0.348761649523332,0.8213087601775472,-0.7041832218646402,-0.8531945467130848,-0.9588583840891565,-0.5987601986398134,-0.8182708783133976,0.4932423572414299,-0.7103171859573878,-0.7600869795569251,0.7082795710184586,0.7003546757571674,-0.6850906117949664,0.6786543695931666,-0.9574554184956234,-0.11583223162447875,-0.15059462701918921,0.5874685726545444,-0.6820303701589882,0.8324009000648278,0.7842184932565351,0.3022917361262118,-0.9957163343679979,0.4228558009105233,0.8452702770041026,0.059723121556192346,-0.23813941253913373,-0.7889493128837004,-0.7587967878022368,-0.21261041513385537,0.22987185405310134,-0.611410498378639,-0.3997186971108791,-0.15411217524324816,-0.6426503734690225,0.4202883700753956,0.25147134168916757,-0.09723590670737296,-0.04433121549699481,-0.6808870423247958,-0.361512547496671,-0.9023279334821429,-0.07548765902196515,0.7429292329596077,0.7507170950762888,-0.918955148679128,0.704067668583795,-0.2658528471376193,-0.006625440321138296,-0.9109228246275757,0.41353717456904093,0.14406417525597484,0.07827474613048999,-0.962124817148024,0.07810831439028125,-0.21415760740037107,-0.7345838175448078,-0.9833043450374072,-0.1778242874536199,-0.6044570734451387,-0.7968471027939803,0.5108492938552814,0.5102618815518206,0.7159857148697213,0.26598239340146823,-0.5040941442281,0.7725117469735671,-0.40965027057349657,-0.6323578765719333,-0.8156547138958189,0.39234088747968654,-0.7191991322494318,0.16099613048200087,-0.6877609833326419,-0.10817772681616486,-0.5695255927624847,0.07866037518109081,0.8085685038472279,0.1757192493447213,-0.21778883603464783,0.8558664002611667,-0.9328265614367541,0.7972149325063935],[0.02720039371133307,0.4753217882041272,0.1331858414180608,-0.05279258746043465,0.9132646381154297,0.9120381996469263,-0.1826542392103648,0.6897071951693924,0.05505783539391183,-0.9831291223937862,-0.4708872268596565,-0.4764949243570301,0.2504695402868588,0.0825685022392225,0.05723877577334084,-0.8288131031447514,-0.2542835853267043,0.6256846665054745,0.9727831667207046,0.3773459160492641,-0.7007491993259725,0.801667902994227,-0.27747949168385505,-0.5872080782045178,-0.46595488235402377,-0.9264199159163845,0.7109939671077208,0.7310773036896339,-0.8890774600539503,0.5287440724816039,-0.2532573839359298,-0.3386136751747025,-0.8458912622306359,-0.9476586559132096,0.6494175379253357,-0.33641620321999005,0.47083376374997166,-0.264551200525779,0.6939395843330254,-0.6369899597707506,-0.42511091407146473,0.19062743933847673,-0.9825208287852059,0.9228309508779486,-0.548472548957957,-0.45425942668288355,0.14013348597913813,-0.3474506590318599,0.8093656099634703,-1.010104112112286,-0.23529062583431554,-0.10567024439602705,-0.7390267005298351,-0.027010345894041922,-0.7006048857904863,-0.5893537804234206,-0.8052830549301384,-0.17331754060169366,-0.5820206222529775,0.563275351086876,0.6037376914156672,-0.6386752760201453,-0.5833391841022969,-0.9313943975874625,-0.6409074314791794,-0.6398002865801862,0.4537783330633195,0.9666141519600228,0.3072378349029253,0.9380234868152645,-0.3288452127133271,0.8881836033883133,0.8324645599306388,-0.29136272540798314,-0.8209520669660397,-0.06436287680702298,0.903128571815595,-0.24853588560682652,0.04138068849844383,0.8733723070622955,0.2328317730656639,0.8269016533928427,-0.8906002548214949,-0.8786764241526323,0.7388929630001712,-0.35537359221997117,-0.4652822059339447,-0.05400357387693603,0.2762552325638223,0.1327407054594809,-0.19296626209913786,-0.8013244099314519,-0.06915361547953482,-0.10041993672439105,0.8745297566681403,0.26270296020666106,0.43846121834569224,0.11539275064351681,-0.8898243783312313,-0.32073683797471464,0.5037390919212761,0.5667438057981512,0.3697958503173718,-0.33810802655374333,0.30890621736656027,-0.12208463571537516,0.9653029802005528,0.2909187552327773,-0.4689459845111633,0.8761233449287207,-0.3533466622496066,-0.726219265959309,0.09015031788017835,0.5486166374487128,0.7086692797156918,-0.09189863309541348,0.18200800056547078,0.893083227236601,0.7216291885985634,-0.3067935026725462],[0.2171729129062334,-0.147359538981323,0.2355359140789532,0.8001185393228245,0.5550808017487349,-0.40445483474487687,-0.38447044621840654,0.17363940450486806,-0.30993728932392,0.4571767717313415,0.7763090822944466,0.3627720560413781,0.7726738987895244,-0.732608510419292,0.09646595391918718,-0.7232899396652502,-0.44941208966285184,0.6270152747920132,-0.512408798322072,-0.5265685931636115,0.07609045910877585,-0.894060417430103,0.7010084201578016,0.12194333400588067,0.6915525312451302,0.3462661791873611,-0.30551275085961455,0.5327883503831775,0.6080656645041507,-0.049641929739670326,-0.08234871551103999,0.1321463859708563,-0.7530808268171554,-0.7428585506591008,0.06195647990668262,-0.34404110616155964,0.07773654472393908,0.1619748293940937,0.41291491984092554,0.7392624216455059,-0.43139606612450804,-0.36139821441932346,0.060201980774296324,0.7867361354666993,0.48761971356981476,0.47529200042680597,0.7304932768390597,0.6627739456062361,-0.8234206965721179,0.3358827097696212,-0.390958014936957,0.6352935080628588,-0.7494737272651911,-0.15666812175770992,-0.29041893692158,0.9221517350453856,0.8298395740783086,0.1541099961074715,0.6686698616476577,0.6272714044248752,-0.15044338185840325,0.6792395016430036,0.538773273838881,-0.0030343375568246504,0.9513861981098548,0.27320952880148647,-0.6296898665232765,0.5730312013184016,-0.03507454524540552,0.8802802401613659,0.35907800915667626,0.5914883272704778,0.23587404355973102,-0.7659432785643104,0.12895212845760654,-0.6525245438790159,-0.8887291221562134,-0.7022874985924389,-0.18671348367907378,-0.7493652725909734,-0.6055146940535249,-0.575764898967669,0.5396737410193696,-0.7836993298749326,0.23733100472948307,-0.10297372373665574,-0.6176075610559627,-0.47074361846980317,0.33322721071008454,-0.11588610948323806,0.018919112337216628,0.7718052522270741,-0.7817872115497086,-0.30643473176652786,-0.5671070312967639,0.6027590034640201,0.937150794283933,0.05234761336570607,-0.0303902821679415,-0.9497851592315296,0.9108894479698821,0.9548787404236437,0.7330380954866029,-0.7738107474177932,0.5207634332559027,-0.09444042052609644,-0.6275709202732496,0.7196405468093312,-0.9222085334396465,-0.3715368018068222,0.6170973855083944,-0.11305544097779982,-0.9539155234025475,-0.19900498186774657,0.3983410866952959,-0.63829296609881,-0.13315782652296035,-0.3741704954561684,0.3709518151897806,0.17908673571976894],[-0.7197543638791338,0.6254383590133764,0.8379262416492516,0.3462414621606046,0.598851524973705,-0.24282882716655785,0.9315134575015344,0.9171975489026984,0.2340143766391352,0.9890894712847085,0.1674945377760638,0.9041843843835197,-0.2722303614764976,0.2951904012456129,0.6653609966968316,-0.4271827615223887,-0.9187035023812516,0.5818637438105517,0.5943876028908782,0.16474477917034522,-0.6085231202110004,0.2536715289009747,-0.1848689634899983,0.9442118141398089,-0.8263181865828046,-0.49885415210110834,-0.43326402765531535,-0.2300714003295369,0.13362703875408702,0.13617009074837497,-0.3094865606761965,0.8751205133175255,-0.5044851086701424,0.13064861161063632,0.7570143934538879,0.11653075992434156,0.5944252142087726,0.07814170793442089,-0.5028555148221089,0.14597945806160348,0.7977374098336255,-0.5527468417820808,0.4062251211398521,-0.46566060176332,-0.3984623494755711,0.39925330020743444,0.22811469481780688,-0.6210434624789829,0.5951548277732128,0.1312568134138347,0.734415689669732,0.2855713668266878,-0.5836698800498628,0.7110627684673075,0.6432267876184141,0.45375234129716524,0.8593435862052964,-0.5225872861919244,0.5785980086620444,-0.9394209522596564,0.2427896739854415,0.3798767005338659,-0.4203426241057502,0.44759930131765735,0.8958394606038368,0.5904519361446495,-1.0189363598137902,-0.6086258168210094,0.07644086422120908,0.4293121468398676,0.5762333937820743,-0.023214090564900782,0.0918858209971631,0.7607233263126062,-0.6800792184998513,0.2253768517334295,0.08867581851935535,0.296614939609766,-0.7734876309789125,0.8954262647124142,-0.22837370905997167,-0.2958164475489988,0.9133243704136771,0.26045423275504653,-0.5294570993103805,0.47114240210542435,0.12034506667049588,-0.9353816608680677,0.05884386288866961,0.8351578258847856,0.2161490014762291,0.9048253676332866,-0.5523433250352123,-0.6915790422001993,0.9398135205082854,0.9822819012747744,-0.040518508558868134,-0.7379570849852427,-0.32811095448280564,-0.9479336512281511,-0.5790658136513216,0.5171114895722223,-0.02793326534607125,-0.20593491190187332,-0.34158487540390303,0.7872995302888952,0.22655102919575296,0.6562946166217388,-0.010058742727953353,0.39680881958279474,0.9922715540914572,0.7442218300776705,0.7035559364933935,-0.5431903076808566,-0.7619980774549324,-0.5790032460384341,-0.2949568632294157,-0.09487601023313573,0.619356577433802,-0.7865713286172528],[0.2294457867314013,0.7587055238601279,0.5796782779743487,-0.10750989517576943,-0.4572060197325203,0.11007453597053796,0.943721743439374,-0.36656861426065035,-0.9210189572685594,-0.6310388613308486,0.23155069584002358,0.21235963066774977,-0.5173286313209874,-0.5210895416380023,0.20446524984076983,0.04022255513173159,0.21520635082119477,0.19350570763131675,0.19365828566348914,0.3060395702280145,0.9324960645884982,-0.5764235430448411,0.2981632663932058,-0.9187984887063262,-0.1400080130549114,-0.2971147734082632,-0.09155911797211223,0.0038026614164579937,-0.4262238713065749,0.2838362830075595,0.23013385845074094,-0.9273054708775138,0.06425787187216514,0.9091485153881,0.25017674736496825,-0.08461142235896868,-0.7771068300507705,-0.7025404856110682,-0.31366105765087055,0.15003306911190295,-0.1793773208588389,-0.36861988734621515,-0.9709549845364371,0.11103654581981445,-0.7060853994917913,-0.21681109704165327,0.6583330340238195,0.6958593298368381,0.055312015945942636,0.8226124980058996,-0.2712680930539284,-0.40799699114151644,0.8404408016493151,-0.5930083103018455,0.17077382594032034,0.40837091638532985,0.12996046365454128,0.4326882705155832,0.9707989263015493,-0.6878209419123095,-0.21255513124586436,-0.1682493700787938,-0.6798933624617244,0.7428833157320136,-0.39553798215866665,0.2276257298732828,-0.0036554000072718824,-0.6894947780247311,-0.5774184690021411,-0.15060214898521382,0.9546492371527705,-0.18154808105154643,-0.3793728859045416,0.189855958155739,-0.7513036196970084,-0.4590602607821945,0.3515454095934728,-0.17449498910252295,0.6517119082743222,-0.6999443802011581,0.5866469421333543,0.9831092938926087,0.5338181768126558,0.42986313902140355,0.6217981692998014,-0.5602029788882343,0.8460589538576154,-0.5174539795139732,-0.5208692849340174,0.052152647753663794,0.2253052629728621,-0.6302923108406852,0.7554918595652739,0.9854937147067058,0.1446603545577649,-0.8226486813496924,0.477249431898696,0.21400940469353444,-0.7813959244895887,-0.4232473036005812,0.4352912033909844,-0.579123263334223,-0.6804849265324234,-0.20270201858624787,-0.10603974934807307,-0.9280893049536788,-0.738573501132111,0.10022169643337638,-0.6830722621124089,-0.9591887490905094,0.9529742114550291,0.4390672990322123,-0.5068165971876698,0.8764515614755267,0.32522698241595227,0.659092465392267,0.6538186868116025,-0.16850532952555897,-0.31399021870860394,-0.6357003278846926],[-0.8065096745488497,-0.6017566909997846,0.354853185005009,0.36104472985457753,-0.23087377780451498,-0.9431792716400573,0.018800500092553636,-0.5313914012332923,-0.6855100895815401,0.8455628245779067,0.7055240039661569,0.29545887605512605,0.851608521011698,0.5752562622356242,0.6185368998522687,-0.7099141387978313,-0.671998540930969,-0.8151094067175373,-0.38376190726665954,0.35076607978488233,-0.8940336684100487,-0.8085800555181843,-0.20384263770479966,-0.8985225239929205,-0.02472887054764288,0.8444863878481604,-0.20590709718141606,-0.6153608946709739,0.40369297122486925,0.5384024629857062,0.7000121477982548,0.24857316040583785,-0.1345911749312676,-0.19861240971841818,-0.34916745358114465,-0.6611148547790308,-0.04246427318485244,0.4084592624003219,0.0749134301720471,0.6155430113909302,0.7138547794693905,0.9188710117292795,-0.1395320502835177,0.2459277546194413,0.8775152169480347,-0.29309672856051855,-0.3155997584292664,0.734054632194157,-0.08088424725873655,-0.24059445087341214,0.3926065161925466,0.20503477527781316,0.741012893952966,0.7776477595251499,-0.6866392650337441,0.858851497947943,0.28835749691721013,-0.18682701875298718,0.12398867447974465,0.058289869796076574,0.1114448829289859,0.6092202490551494,-0.3117098723400574,0.5292591551496015,-0.8087938947030324,0.04819590923386715,0.04520762859678184,0.24534046490816186,0.5145445762767648,0.6229573282819257,-0.22214270446046727,-0.2207354571193417,-0.13736622385657032,0.918436950872379,0.6349288272416757,-0.46766660492699924,0.6845518474201424,0.5009360474489287,-0.48357274252317795,0.9769138337134338,0.5619441433351219,0.3709970099659117,-0.7268710006022511,-0.03530138391614377,-0.48048726137023634,-0.683385800949563,0.42470676698882154,0.3490312373177627,0.5220148088026659,0.6325991742277293,0.9299983872040414,-0.49087014457572303,0.9077646122076568,-0.0884922584342085,-0.5950248732688654,0.4860532461601619,-1.1545364508789817E-4,-0.927822325544265,-0.9558077681638973,0.11455041523727565,-0.6187790364322292,-0.6906809254369625,-0.035173952643249774,-0.6494212693665252,0.6170563064365816,0.10656651687046807,-0.2908238938765874,-0.17948143575191847,-0.8382267184028304,-0.28481564435830936,0.5557253360324144,-0.6756667342362893,-0.06352127218288084,-0.48358238941617815,-0.2109589203610645,-0.14386662888864107,-0.41433193575524707,0.3112496143554223,0.7402841247879332,0.35572795864488743],[0.6811962195894837,-0.8517523927407072,-0.7926484379671869,-0.42668117183892235,0.4733977869246673,0.9229950071984999,0.47259828617919014,0.6293455017393789,-0.23663397003651274,0.39437363874282666,0.42999575421261765,0.0710880638354746,0.05857806604669726,-0.5720589651730242,-0.7555250439614466,-0.0586740914851487,0.5510327114701414,0.9697568179569125,-0.6718678840101172,-0.7289506389272288,0.35344379205535703,-0.17520534708944416,0.5799363349094255,0.03621608156607434,-0.18525425913900073,-0.9409935643772501,0.35503655618106444,0.15375536115864652,-0.6573639741130743,0.9211187086237709,-0.039326534023381356,-0.5769087620232132,0.38298359711600055,-0.806361405860034,-0.19296468841530778,1.0070348950459593,-0.8357745995517453,-0.2982942401378159,0.31473673654418255,0.32455924833217253,-0.7255067638850503,-0.4518104711997078,-0.4534107570196768,-0.1867800732804904,0.6704733499852635,0.9907474894923788,-0.7084516443045183,0.3792246637475673,0.9476839664431038,0.7091214504220195,0.575720652601028,-0.0831160924043171,-0.2610515135399144,-0.3088481910022379,-0.8978106380075577,-0.784822802805968,0.2739318656814629,0.45336294259230075,-0.3606869161941258,-0.9325471924789744,-0.9167515320760504,0.10041256588829169,0.6179611160947054,-0.1908457358650921,0.7069121716689669,0.16291482435414412,-0.4436428912538025,0.46894271348747474,0.6492514171575976,0.8333472830110775,-0.7344302055965084,0.6693630909961793,0.9483047592819188,-0.25007491317333974,0.8890009309690843,0.44134074709622917,0.5002023825896449,-0.6774941845036851,0.26648827074702863,0.150680974320294,0.14402281528150035,-0.9162787746433768,-0.663008748427405,-0.581533436977926,-0.13647182076052441,0.18151681321611607,0.18396546162586014,0.28597694506731647,0.21461911641383924,0.3757786464663775,0.5137026482995769,0.8309113410118979,0.8528008565822275,0.9104637779414435,-0.4502180775231984,0.132804648250322,0.0416422417785993,0.8847085792115522,0.9063195134238898,-0.5908096707172641,0.1264096725506858,-0.8389438256461133,-0.03909938699810352,0.8033053007605462,-0.5415941815861265,-0.08053115264021676,0.319628093806784,-0.36456323648385697,0.12441815673313371,-0.06291612743905804,0.07571833830588497,-0.1554107312007927,0.309119609866152,0.9190645540295329,0.3554284464178516,-0.24196249997996055,-0.7929775770098692,-0.3045178841334276,-0.20193085326131943,-0.20542132940365623],[0.0010705437516421853,0.780675460477785,0.41609642648165807,0.34532659923716397,0.06947873246527568,-0.4385036143779514,0.27572247732301974,0.4681440138905992,-0.4427452202763775,0.7775239931045343,0.6390549559125333,-0.03145947338727554,-0.8165611659976547,0.14635103806395058,0.6870440490701769,-0.48440821197568806,-0.07936426398146748,-0.21487674792875885,-0.354622372015386,-0.5642285779404428,0.3800234653882169,-0.21014286263366128,-0.4708314738491439,0.8516202533492854,-0.9682181556345012,0.19415722656669365,0.16384189106750505,-0.17631233603531807,-0.9643583512178452,-0.7698926531665647,-0.2294253501809212,0.0851080820621396,0.2675256818431555,0.6763333700255256,0.3775582387964664,-0.8555427712001702,-0.42358007264438163,-0.6973285251424792,0.05848351283535683,-0.03505721933165431,-0.5271220336027896,0.16484757255731042,0.818351090150473,0.4881556669880262,0.6310445801793103,0.23792149748716274,-0.33129279726235206,0.14689927833152,0.1020198098438352,0.5778225756805687,0.01286396355783166,0.4240181583549748,-0.04774315693655782,-0.8669408293711813,-0.9398575029759336,0.9017149509916336,-0.27527975218610273,0.6142074942723006,0.3548415653959891,0.6554193810549808,-0.9109948200936903,0.6299837993965989,-0.2575717677917729,0.012247948469194097,-0.0802904257222135,0.9485972936753866,0.46549042393534906,0.5398478999107845,0.11263744827372384,-0.11577846831086833,-0.11583240597584762,0.5309200975982445,-0.387590161912813,0.8106719675895483,0.5098662547498396,-0.9536841362011435,-0.9174890932621161,0.08281397540444846,-0.38280590364829475,0.013300552747887148,-0.4455025081192757,-0.38242198384416576,-0.7069464997497021,0.5939125105492299,-0.819253230956678,-0.4117440101050426,-0.5440822553270136,0.5299629863101587,0.4941328860087007,0.3340058353392565,-0.5630676115064527,-0.12344442342963206,-0.3662826102829348,0.2791165342031367,0.8613075253536464,0.46191356935278816,0.06019016548246241,0.715317038363915,-0.40609569973771237,0.08263077814779134,0.34770077453418463,0.43067733008391934,-0.5248250102902271,0.012626889652906545,-0.4337454095183764,0.9763286688615621,-0.30772787039805455,-0.4068178088655374,0.7709472590599687,0.47873859674636915,-1.04501136274408,-0.255940382587387,0.5699263845152804,-0.6568510538516267,0.4722231251164991,0.606311729237407,0.6375612714751743,-0.8800305649115119,0.893120255024062,-0.13638793730554985],[0.4615078125635143,-0.8716230100479652,0.9638014846913372,-0.42133167196919663,0.22264184279165303,-0.8800906989951643,0.1837189021451955,0.3751250667315061,0.8786570480058103,-0.5177499249078805,-0.03993704528243873,-0.6730712894466349,-0.4429367746840335,0.5920886940949793,0.8879907749664152,0.7126237205147725,-0.7837000474293169,-0.9798434902658393,-0.18781073557940886,0.5852995931541098,0.5063204083459762,-0.10297718865754726,-0.6937288685427988,-0.43657783849715215,0.8649894464798273,-0.9349398889348937,0.26812399735722586,-0.6235730295046626,4.632614760372206E-4,-0.7393826237024745,0.8199245639971895,-0.07437845340150054,0.6599004182688064,0.4557228744920733,0.5520591053195554,-0.7746536087667848,0.2956444343323133,0.8174585127383328,-0.7909057047996724,-0.9018806418336641,0.35491769081422303,0.36886602258877954,-0.03751129958346668,-0.3216219433492673,0.5918711909126733,-0.18628654819073012,0.4266951637272395,-0.8660496806729898,0.10435173131015411,-0.5082716766439944,0.9569936463123405,0.029741766166004234,-0.8777725489335843,-0.020114194365363564,-0.535797121478801,0.1342029981684711,0.829297936365552,-0.3471942216620596,0.13723509866067013,0.3152746749100951,-0.42250649771267323,0.9802165919712935,-0.11223985416580733,0.3509704637212289,-0.47066219915379837,-0.27686519557314426,-0.9237531843769337,-0.6118741767594333,-0.7125609973259451,0.9317390710249165,-0.0016189077272933477,-0.6633295296133443,0.34630444917266645,-0.4861769411461858,-0.23483740065461542,-0.9927524117218329,0.1158283460381047,-0.5829506763462108,-0.8484452724693873,0.301122193241612,-0.8533102881490012,0.009542043870539063,-0.7936359693322769,-0.7350716802314226,-0.9333444934806493,-0.03320304865992851,0.37865445204519643,-0.3918302116169397,-0.23375528430525958,-0.6429405705523084,0.4766679257225065,0.5074604072416664,0.06587374345273285,0.6688961025755261,-0.6566132231233093,-0.07383546963664506,-0.8396101100049943,-0.7851816712832252,0.4431896010885053,-0.7945822113220343,0.520525337065923,-0.0803237485214474,0.0180954340546435,0.5432862550439759,0.5032692890572602,-0.0482398447215113,-0.944656501502812,0.5844323214592264,0.28467596157567066,-0.5967799610708397,-0.14062766120383877,-0.058364687359984894,-0.8090935822091111,-0.2862449054909391,0.85707824209673,-0.9446997703348105,-0.9712533664073846,0.7906465683137565,-0.015062714887162083,-0.7139201210313723],[-0.13051962811427853,0.17025291723648386,-0.15382673759638701,-0.5120284706896646,-0.5890436725097876,-0.6522788515860001,-0.5346369191218637,-0.7724420670383525,-0.33893377184886314,-0.810083819571882,-0.05631670723937722,-0.9643876523672417,-0.3821180081037313,-0.39111356179710616,-0.35944169200179765,0.9995570072679022,-0.9547832764985021,0.1952055882278691,-0.4591719053858391,0.6205020781619972,-0.23086289336949573,0.901189924834719,0.573314660623699,-0.28090453116372394,-0.7285757738121583,-0.49580423167917226,0.8738385411673105,0.029757246049765936,0.5199611483008357,-0.9000776379653527,0.9482670518878444,-0.05798796141957831,-0.5264021464528074,0.3937385015870723,0.7279338078556876,-0.9895542842111222,-0.6711268024766249,-0.39783047942531535,-0.09786432327948025,-0.06203398819497591,0.07114881617197323,-0.0023682694397257104,0.9607788106090894,-0.7818227607662036,-0.19320594050159262,-0.8839666923181471,-0.2513424200827318,0.09555737363935439,-0.3249339366655516,-0.9362418590159606,-0.07957722411758708,0.24118354719939172,0.8365332802871417,0.44395105444389427,0.47598641189110125,0.8571113894078987,0.40644639156995915,-0.17745200781792256,-0.0612568531001146,0.01753446975171633,-0.6469110668710708,-0.2973768412353111,0.5854646673285853,0.38498342818690634,0.217116069388246,-0.11551812468205103,-0.047407831048206145,-0.32363189646804125,-0.9921174578601953,-0.3921654920141896,-0.34074709155682387,0.7217698022605727,0.09127155290618583,0.38259063576725855,0.42351587770847027,-0.5278379715474574,-0.5511016496734947,0.0234203477962738,0.34281005518724983,-0.6038157033512958,-0.5690227813721253,-0.47409810139235714,-0.8409323146848061,0.006618241336976289,-0.9608799691241718,-0.5775647509100941,0.5287528005174771,0.08235451719025583,0.9983175760950865,-0.7325029828899497,0.11438876117162504,-0.34037881051012275,-0.661255932682252,-0.7625617380482674,-0.25794220248593625,0.7482431560939239,-0.9122777620687936,-0.15135598430341954,0.6382307877676433,-0.699651962304142,1.0140766359067188,-0.8027424556178694,-0.19075893351224438,-0.40913477399723025,-0.03883212029418751,0.11647666064600928,0.44493431274689016,0.8127879478264347,-8.588543984192466E-4,-0.3664913390511283,-0.6365733115032511,-0.002125880082334115,0.8549420438484013,0.05440604169763956,0.5535697660874843,0.9189788256408349,-0.4806843911161389,0.8970510218074983,0.38039383243328756,0.26218359469193636],[-0.7510323611865352,-0.22947993929260163,0.71114201402856,0.3828222346606819,0.8054281552317021,-0.7457182313377091,-0.2872892650185029,0.10351301586514183,0.714907719824208,0.9480821356177276,0.36508400649722056,0.39278293147416943,-0.36972862728352845,0.8443139317042997,0.8478861697310509,0.5355348689999445,-0.9248318269396436,-0.3635959731896055,0.7251667221049937,-0.21564691369356923,0.7378032158242042,0.972540403803975,-0.12514207059686625,0.48798580146094883,0.37172030518930554,-0.36466109008924524,0.1262570540167444,-0.0859158296029966,-0.38635763688522773,0.4813603396381782,-0.2431496269003198,-0.5337765139631118,-0.08032321443070715,0.16913799533761736,0.9884253822868642,-0.8292363121088823,-0.7435991285595751,0.856449577174681,-0.07476046263117819,0.668688559221285,0.2811756207951588,0.12119678835288744,-0.21039010966552177,-0.17948654412464643,0.07236666020692228,0.8148133087103457,0.3715321134865881,-0.9633851826945078,0.8684176969437885,-0.32340978473612253,-0.672799257149646,-0.38831221540655536,-0.24975720366176102,-0.7570161167441846,0.16047543170939524,-0.579561574238655,-0.24206844779492373,0.4936762628088686,-0.5041790737490652,-0.1720540742952789,0.10893665144892087,0.04506984816341902,0.6193487225516575,0.4947001156219338,-0.4390623704471119,0.23591533873852916,-0.8842147062585334,-0.34146448312510247,0.7521858061988745,-0.9818470994488225,0.031149000022580815,0.5326955370915918,0.9340493751756422,-0.21954453877999788,-0.13085351725242805,-0.9323815708352355,-0.32565673649864807,-0.9914430762380811,-0.7118250884001165,-0.23223405447200646,0.4347785544641778,-0.25503011047368074,-0.06774532258246163,-0.7584664451582972,-0.41973492943306395,0.5608453349437027,-0.05708232832526739,0.20845147402611122,-0.4514395071414911,-0.38227981291414737,-0.6543765597273777,-0.02246522010012675,0.9641024494363939,-0.39731238024198257,-0.46822221191221797,0.9707196015905403,0.3396276537728713,-0.6599966207612276,-0.23833916858844906,-0.26299942507972907,-0.18577064590688397,-0.0863897109839891,0.5702980132186818,0.8355155279541507,-0.3190043723757849,-0.5141763885961022,-0.4947456489504739,0.9875584881871038,0.004020116014766433,-0.7988772250825289,0.5817288285068889,0.9415691221093958,0.5611345987833436,0.8405530735146884,-0.30261921723502283,-0.4982923671299856,-0.7656105690147149,-0.4633493749746604,-0.7422030248850997,0.5843305637022221],[-0.6973063510066472,0.7358208638567273,-0.6472781421301179,-0.9144085303838556,-0.5721555791884744,-0.10640086862982967,0.7211102120975686,-0.117709828325832,0.2418326940622631,-0.4595685443723887,0.13889754922287176,-0.3203610930418765,-0.395028063945397,0.5213002772172302,-0.06589908211709404,-0.620650008429636,-0.23030351776224112,0.21715450987872312,-0.2899929060438361,-0.9093910920322228,-0.7732531612960211,-0.12833997156194682,0.5601850034003087,-0.8820668301809201,0.15655842704324602,0.9708494189864066,-0.47686826741275823,-0.7041850202766484,0.8209187435777385,-0.8877203255167685,-0.10593968722517777,0.5402099154763341,0.1639179782300252,0.7431385302342775,0.583264991718299,0.8311935306992486,0.8564474202394882,-0.5414378844321474,-0.4992291615026909,0.7319112954934759,-0.11293197243861053,-0.85012397027075,0.5346677294645035,0.7867760873044769,0.9253887052373917,0.7929605091067347,0.19135817880037365,0.9513832764224742,-0.43890556019313665,-0.9268443263668451,0.37750983931203386,-0.7819909075283422,-0.838617280233054,-0.5318396526430064,0.5493188815070807,0.5313537009070881,-0.6714351598919985,0.7908368617264683,0.8548165419988553,0.6188289302073666,0.6100441704640263,0.8905369087555071,-0.8814870601048493,0.7864116974289711,0.10916553565683736,0.7473296519311661,0.4224915209974565,-0.13219107544125192,-0.17135905610450541,0.10595868127469113,0.29467596760099024,0.9126978692390826,-0.2569785395092823,0.8548843388415779,-0.6202345140058902,0.5153733853931847,-0.5744461718879265,0.3575134669525013,-0.9874369156459909,-0.10928908852874178,-0.007500297793678339,0.4953695386906688,-0.7454900365754495,-0.1055126008530166,0.6146202428992611,0.1594571213687713,-0.7890084415133904,0.8827974562797705,0.9188856002714219,0.13037038910278304,0.9831011332303525,-0.22367532485555844,0.5937632606496114,0.24105105729487541,0.19042719872631875,-0.36756334140294844,-0.5416444844125743,-0.5236460407236581,0.0169537670100098,0.22922678659942045,-0.08060813821543039,0.9591704647515009,-0.8637769286776485,0.02068383615057093,-0.022858152223921478,0.29262663755935436,0.7830961749929707,0.05979848882273256,-0.5156200168163467,-0.46749157305520705,0.39521067913268576,-0.6318211693233496,0.3987226787762838,-4.0095110382637976E-4,-0.18107234914751913,0.9730608943967807,-0.5649745731168473,0.2067793752155309,-0.8451747242519264,-0.3119564014015184],[0.43091972269124806,0.7727777362760353,0.8785480780710392,-0.5724420281975854,0.6360573506134244,-0.5220893932849777,-0.8688552181711666,0.44984449793103,-0.8884210717587552,-0.734566289769844,0.17702578265052532,0.44179343064068355,-0.1310325813494102,-0.9724447455824247,0.589402455483129,0.18480165623566286,0.6443155232255681,-0.8243663394202163,0.5745106975754111,0.5904315330517176,0.5341196424119629,-0.8135995243963904,-0.2805357919994735,0.9869864010267277,0.8670450552103717,0.3947482923257387,-0.6367178802371182,-0.9937355691294639,0.9240261174651498,0.6397159233227661,0.3247833688135535,-0.9680345057324383,0.6648528554803224,-0.2744459956108135,-0.6281420186581397,0.816881642067385,0.9441021975898494,-0.0465594051320336,0.07984862681686662,-0.27604526947191776,-0.7935232421106523,0.5362391062354391,-0.16974045476152058,0.9574518375005854,0.2775970141068909,0.20875707142928984,-0.6756441459073433,-0.6972369147850701,0.4847261910125908,0.8440873881641907,0.9322843447016228,-0.25267747442627253,-0.13466540957022566,0.7415550246009447,-0.6542024674607915,-0.899137583580005,-0.721611493615866,0.4296826257061894,-0.3564134190581945,0.8886309450008375,0.8058173557821452,0.5691210018670082,-0.4260912586438803,0.9870799258329865,0.6517402984630437,-0.8039790210295611,0.13644940934032948,0.780601417594301,-0.7738618531461684,0.36863704454695045,-0.7844290209428789,-0.7026386555012424,0.13839549522956912,0.7850442670717859,0.9015308742712598,0.20495144011864122,0.8164254582240581,0.8379510334475274,0.013501443843094565,0.5096806724456878,0.21741790285772264,0.46442125829172315,-0.7396991037702084,0.797405896418686,0.02814970594371455,0.9252616306616558,0.8440226644531846,-0.6794045803765697,0.6272118435674604,0.18625353206531575,0.12711748351490956,0.1726657109729208,0.6109442937528023,-0.9501859609722115,-0.9630383518391096,-0.7198943903541593,-0.8094602749925899,0.8657809236797447,0.8284742500091873,-0.9884597414557416,0.263462042975477,-0.26392309244479095,-0.9820352459835869,-0.601310659882353,0.3749357897204964,-0.027104256739203345,-0.22551310406763864,-0.9678144950064939,-0.013592784123398163,-0.28303447440369534,-0.09011249134780618,0.2921185724002941,0.24597409668357953,-0.5704930597233895,-0.09444897342524619,0.34180175308861677,0.5418613454535126,0.8367234871099115,-0.5631800653596392,-0.07224248312986761],[0.743019980399365,0.5813344763824893,-0.39324483112915587,-0.21567346766388362,-0.15808366549267494,-0.7536007882060153,0.8145011028769062,-0.19724388300344864,0.8955732377235195,0.7288523873720316,0.9564673210620815,-0.0088236089968425,0.03168884117857833,0.7084348344298448,-0.7301576391711654,0.17704633985083398,0.42504214582154004,0.6138411300526889,-0.7778557248573335,-0.17884176451119038,-0.7449486296897375,0.560509923941339,-0.23253174075517524,0.993318251008134,0.9935842258968817,0.6463972621148268,0.1577154153448652,0.37229399740045394,0.34705515402985504,-0.3587485567148118,-0.7972188663843587,-0.6362119727562046,-0.9714520336304188,-0.21609948942123636,0.3897981209381547,-0.6877130634429067,0.1163921365493073,-0.7047630901057379,0.16853997958296915,-0.8815052905275274,0.681852834758925,0.46539508503279314,0.17831235605830853,-0.6099607836637034,0.06160266932519028,-0.4331950484508192,0.3014198030237759,-0.554955303070942,-0.3785861223224919,0.20733916785069836,0.7269295434694663,-0.260315798249627,-0.2996744397502147,-0.7671679303515083,-0.6638713906343487,-0.02739600396433071,-0.39841809174994924,0.03869239776334771,0.7030610888266848,0.9256673958703608,0.573101844331013,0.8993479878218932,0.6875533301437716,0.4957116592113522,-0.9297921881103444,-0.18665714890394464,0.9807529151106276,0.7217485114620299,0.41271928602899294,-0.40029967695502644,-0.6496616190257166,0.17748309101835807,0.7602293121712747,-0.7099430888951244,-0.90812057771984,0.8787043075153702,0.8793704646493299,0.5541278719845623,0.8911986103520996,-0.6444905050781785,-0.7894623613562632,0.09407363874955935,-0.38995411133051366,-0.886983887789672,-0.5249261798390462,-0.8774593047761955,-0.6929316011840818,-0.9018124859929563,-0.6808035798301192,0.635635703382482,0.8618753862145517,-0.7787382305833228,-0.15533881417284237,0.8556492233356757,-0.9605428213426357,-0.6633741377014907,0.11003270423854916,-0.20127018082107842,-0.7572526841206049,0.6464753344734357,0.30604588216265605,0.49960317334654347,-0.31240347509091737,-0.1258518021283467,0.254005737956704,0.21865157567744983,0.5161509771873876,-0.4461150694362006,-0.7254192086724424,0.9858449340842828,0.6711272131310627,-0.8810249261851055,-0.05496093142589073,-0.8963148238925462,0.24002167599868166,-0.40116620793777696,-0.793290583095321,-0.797240740261009,-0.01748575640240635,0.7791488120573836],[-0.9385323769242944,-0.6675066762401994,-0.0457221207312998,-0.7966435436055728,0.24465353702377918,-0.0836104702973602,0.5266035222242301,0.29390182878607135,0.9905666499528389,-0.27870212970163005,0.1037736786876942,-0.8949921858720856,0.06419051440160294,0.710179374042875,0.5964413713121856,-0.6141168243323024,-0.931338137893383,-0.9181156897379149,-0.6533823338824946,-0.0554540656099839,0.5662021970624341,0.18402736081562407,0.8545197353033852,0.5334485843530914,0.3111211387657456,-0.5753671624764319,0.08411560540343416,-0.6746851355639473,0.36651328569778324,0.48478267089422517,0.017773701924564837,0.6530492275146139,-0.0892667215375358,-0.35723815942226494,-0.5523883658641802,-0.23769233686644237,-0.6228847711651884,0.22823029820207133,-0.27311006769746426,-0.4563640280119999,0.49860266814318904,0.592561124224977,-0.32926625450875097,0.7699993354504391,-0.9177884043793668,0.038673361788094746,0.41640830599023365,0.8360690920188398,0.5247585606972675,-0.2988398326328116,0.7054594009876688,-0.16739276385077612,-0.951378239155614,0.05221153611695066,-0.19344704771600452,-0.040727469195331004,-0.8837511312593972,-0.9295607624577745,0.061179498003625814,0.5887989350445564,-0.04825172302816689,-0.6623471392288179,0.05582682145127825,0.5229272116084247,-0.287056056536271,-0.3618582581565828,-0.49361316528490196,-0.6484474590603548,-0.39628045632757736,-0.20614193827038177,-0.8357955662946961,-0.2989022468146818,0.22643764288958415,-0.8406468295839328,-0.028632952929028843,0.7169721199021354,0.7212444647997571,0.3987867486752056,0.5151278549200924,-0.8105228528690421,0.43153993413542335,-0.10682906655702265,-1.003575672994306,0.062127834664013726,-0.8256932747975577,0.9065510289700827,0.6039531930117382,0.8179202451875188,0.6591616011502592,0.8884753513301447,-0.2810135424678474,-0.7323509907291035,-0.29308013074345435,0.6208832832750181,0.7200784580360792,-0.00501294793644138,0.40664145085170567,-0.20110769096087855,-0.09056589721893081,-0.901015593073994,0.9028428619819289,-0.970455018104951,-0.7465209003414771,0.07027681306768076,0.07041081696433187,-0.7398183807706455,0.0570829706834373,0.7080189935227045,-0.03666257135092391,0.41848175088682954,-0.6218095278897944,-0.6805556843297955,0.3450340584239291,-0.429485400330335,1.0082995510748607,-0.953230176392141,-0.8799652637353319,0.7324543819966147,-0.12175624344409083,0.21675073845611384],[0.3121600273111703,0.0383598391509834,-0.05076852093100366,0.0191683683187842,-0.36634113714469907,0.07030302096637708,0.9581077384117322,0.5033466281560324,-0.10559986829590094,-0.1526832950303122,-0.16086997753346635,0.3712850446193008,-1.0285507007449024,0.24223019249605104,-0.8131673226465185,0.23092228306460638,0.03690027224173757,-0.6589024344138453,-0.29026862324117747,-0.14382845331766755,-0.8220913908001783,0.5169830867424344,-0.714602581488463,0.7945479670258722,-0.11019487388807638,-0.22294839578528,-0.39806836197356327,-0.9694468336961795,0.8110199215421935,0.3629291557504651,0.020109307191992158,0.8386534412540902,0.7938312421655692,-0.09459327701690483,-0.02900969119425863,0.8535862940719501,0.5625177961787177,0.5897764796343208,-0.7962179711713051,-0.004400650042428471,0.07072879762706731,-0.3277300691674633,-0.2450779631637495,-0.9542381548410387,-0.24951967347048593,0.9828236059417715,-0.22539963311371705,-0.7696643095075557,0.5781329360429913,0.7987731610575532,-0.20359745975713697,-0.14610810310496963,0.7017806398750782,0.7427728785829234,-0.3366858935706193,0.5770950318189392,-0.8989465914475429,0.12441273041279954,0.43422554285538,0.898204768635236,0.6046683454575903,-0.3937303933843425,-0.7946073236980743,0.48879316733213357,0.6969198362131835,0.6414862773095522,0.885890681915359,0.7850679018897282,0.7862419437824065,-0.5223948640612743,0.7415226721763415,-0.2631250744928258,-0.22664172839128086,0.7776208152997323,-0.05216413366947229,-0.018780708350507106,-0.2910143452956261,0.17360886085667201,-0.703980685380693,0.2875853487063873,-0.24965191484286448,0.9308353314544078,0.424565981268807,-0.9054885416084715,-0.31435328764167486,-0.4503731756062859,0.6664514392255498,0.26596524400346994,-0.6484910953612156,0.4289367504266918,0.5438005855467293,-0.36265673551929595,0.08752297693931116,-0.5841933684408852,0.7122270451051775,0.7915888466092044,-0.354608226776861,-0.016057593116473808,0.7438068256854903,-0.22634705726525378,0.7370861814079208,-0.3503427360807095,-0.10428858262924175,0.039113089551287956,0.027169272508317147,0.9574254978896676,-0.3447396885420039,0.33673092867638255,-0.3511338784343886,-0.785413013620316,-0.7648994482781049,-0.7669021853949659,0.24410625281484033,-0.6215395970132104,0.7954206144334252,0.36318937937164103,-0.30581094798232483,-0.4748799164494764,-0.33402255776444767,0.004935420217228148],[-0.820229242995192,-0.7595789413368857,-0.9803362335485576,-0.3518685643086433,0.2030290419533785,-0.8759298876121212,-0.30220184951202905,-0.020865105908862952,-0.032135805324405506,-0.9492973918341543,0.527048656390676,-0.703170742573253,-0.713153248728566,0.1468434658933051,0.002848913713409737,0.5789734375758512,-0.20882202844460232,0.04950134734419858,0.49796174538116794,0.7284775334646906,0.38495973951752915,0.5453831751621331,-0.44253519436714706,-0.36433219699324493,-0.5019662392628662,0.8363827218617896,0.2177000833279872,-0.2804364064416783,0.4982002835951456,-0.004361406381341789,-0.37976736763745295,0.8349721751641711,0.09895447380424013,0.19892599927575672,-0.005749505919710374,-1.0278819899825227,0.6431800288471353,-0.6687501198721977,-0.21376540055883966,0.5982015628849806,0.8452729752246495,-0.038076408063234556,-0.5640789965645893,-0.7240054259666531,-0.04517217638868575,0.3131893892779763,-0.8560113341981793,0.3050171649248735,0.10102660760046238,-0.2644476218700787,0.922567193104134,0.09119084631783161,0.931920487542935,-0.29560680330972683,0.9992019363644918,0.7236833015437191,0.017290980735832923,0.6332657680425693,-1.0455889837362553,0.7831796236785713,0.7280893504325746,-0.35517288384318707,0.8176740584736121,-0.6336206532707285,-0.8809714066144088,0.3284189595735714,0.1942505267884228,0.7945390323408897,-0.7848682490740505,0.554444579178879,0.600672967749651,0.8628255035378873,0.9056838133728936,0.37396491184232894,-0.4367946311189558,-0.3822091980695482,-0.8837369206109408,0.6802632370099648,-0.9219709274699632,-0.7694539511216819,-0.67794010755179,-0.7674519790172337,-0.05677322448488809,-0.090318390287233,-0.2974981711939337,-0.5936106041982415,-0.6538706525680829,-0.9062161086742625,0.5610411674186571,-0.3373864472571301,0.4909783109833378,0.13437813959763426,0.3929542320480277,-0.3945690840058212,-0.03494516564576831,0.855321237445717,-0.2476005168003292,0.9070399550136172,-0.47386188741886315,-0.5411868429782783,0.08063406606619548,0.7783327678707562,-0.5465748221067723,-0.15254978182710863,-0.5410085425282596,0.823794905940192,0.8293462906621116,0.36498854583769974,-0.4134634311622294,-0.7391911303883979,-0.8061011428707017,-0.4277660653217636,-0.35217526266793847,0.030727625055277784,-0.9552635967697545,-0.9166740637063305,-0.6468473500544468,0.003466652576923169,-0.7815811885609297,0.15676337196168338],[0.5889698010703229,-0.10062148302677301,0.34124116653508896,0.300695552502882,-0.7215417172458374,-0.3526461321155013,-0.8755701965183061,0.08858541738655838,-0.42622416957424863,0.47286746495491133,-0.812771923204388,0.4910220581777398,-0.13205455891193085,-0.8831215354921601,-0.29979491355070437,-0.20596388769170307,-0.07948794494321282,-0.4706079704714024,0.35492016049801556,-0.39887656464557186,0.4419320510752784,0.42126118645059846,-0.17352178696066914,-0.24273929867878746,-0.6572965317908342,0.4798916930279089,-0.7495343454469802,-0.2529121986610735,0.968973206350488,0.8884188559907532,0.5001171606022995,0.7611194144527549,-0.29789851152846897,0.8275122290630661,0.5447616114753249,0.5163276701672097,-0.4630974939570397,-0.07735188256331255,-0.11800007776553319,0.18638342558443452,0.28444118769723165,-0.7202133222609813,0.7421189192203569,0.17914746744038434,-0.3422366169339167,0.8095709989139399,0.06187273999345182,-0.12205021785464666,0.24200613613779687,-1.1057301419925696,0.5552459813664494,-0.8394978258817819,0.6322955840891448,0.5532138700696063,-0.32150408408572656,-0.5328207864837459,-0.9297654416254211,-0.5935484418960646,-0.6478819433880839,0.3439552686332008,0.33263801976951,0.28050947916093283,0.2884899822470162,0.848829799862563,0.5314455695719136,-0.1516046073438263,-0.5212798434339021,-0.8067041070257812,-0.5131185727164383,0.6572006800257396,0.9880507963362207,0.43941125296606853,0.1266537069625097,0.811782118590176,0.7198359859527701,-0.061026706519076185,-0.40163090516083083,-0.8498220840847699,-0.6266042684925776,0.1527692736013043,-0.4173761718917724,0.3085218480442405,-0.855695629871493,0.3196147483303818,0.6306104255970221,0.4481053721616354,-0.8844644212828198,-0.08958153640411277,0.769924232449513,0.2095428072032169,0.3189763765302842,0.18489259464213834,0.5587530432135293,0.7968467600838562,-0.7817699361899937,-0.12596288905959765,0.6321193411907304,0.8899186540838063,0.2403353331644038,0.602076143961508,-0.3388985181472077,0.06209594879324279,-0.4540782540393147,-0.17369947578920153,0.9515479949202887,-0.3225679428909751,-0.6489386986537602,-0.40397493032785303,-0.1877972388384927,0.2424705598994641,0.489826885991316,-0.02310317064357491,-0.8367381905526123,-0.47457931785640267,0.5559091634767948,0.5151969498165867,0.59356761752656,-0.9129992670445236,0.788935353349097,0.24420044753506387],[-0.18665942937743474,-0.25091347734581854,0.6218053839550006,0.3545397790077584,-0.2274233251431004,0.7102035756929254,0.8732202118380902,-0.20262866599708848,-0.81190289871269,-0.9533775923776323,0.2411848660747774,0.10317421961552878,0.3808223631869162,-0.5534211086219536,-0.010515148492790278,-0.6471126692410111,-0.1785646723154534,-0.24265247566003692,0.13239532922435895,-0.4303205288367112,0.2512738337766574,0.9370239929163653,-0.24939588977238628,0.43075321923456517,-0.4249212920477833,0.17442301733064638,-0.8826525510216469,-0.7217460486862575,0.8262664260958065,-0.9265455955804421,0.5851587054447082,-0.707837528431413,0.7335718506131225,0.5499761255776168,-0.8296333547905196,0.8125701716731791,0.5649388356299213,0.731677640673927,-0.5519998981743164,-0.5398307771176233,-0.4956776793051457,-0.5121909875547705,0.7049237774279702,0.3656237274582735,0.3444443932642276,0.8516933131577947,0.3314188175638661,0.09726644136987646,0.6684842903985633,-0.5905667707019895,0.6163036409860462,0.4666280840914283,0.16384547473882355,-0.09834158204428954,-0.3557019349365925,0.930095560514374,0.0967776610025772,0.5378900064370724,0.8508350644915401,0.4223964895725269,-0.3474840643368565,0.4750317968734903,0.9077745230720966,-0.5269410540446788,-0.2918081052724793,1.0165570208033994,0.24132326422399553,0.6934557438739282,0.687667431564475,0.2390858454858522,-0.5622431859625885,-1.1326692448861486,-0.9439840785033513,0.05867459671698896,0.7408950636689071,0.7291731538055354,0.33713106080467586,-0.4167423772533206,-0.41602486918438153,-0.7838600110838618,-0.3646587644696447,0.3523338580649017,0.4947090017575931,0.42953080617931155,-0.07632804829914437,-0.14867041580276155,0.42438581782339624,-0.05169463954259031,0.37483030396603945,-0.19863180668994493,0.13918589232400683,-0.01896580319096418,0.26898898493041257,0.4184252401859489,-0.24368700701130108,-0.6756105244729637,0.32766613006551154,0.56653971941582,-0.6868307505629021,-0.04783416637347845,-0.45524236680340785,0.322114419017401,0.4639362554732522,-0.3049903308953365,0.2650215291807447,-0.11014312310834594,0.2506928087955846,-0.9532832509655178,0.6661253674876149,0.6296227756968843,-1.017206994755935,-0.8214746122659751,-0.8826197812208629,-0.2438919767907716,0.7379733919009038,-0.17275658921794104,0.48120507724492917,-0.7047132060127939,0.6505810996791551,0.0569110602711734],[-0.3370054425940313,0.8340912965738556,0.891155399785214,-0.9688735124643901,-0.3482855605923576,-0.39881022009295386,0.8290236179891236,-0.5022557892644027,0.2464853391008978,-0.7779113552235825,0.3287433836086217,-0.17765681756075008,-0.557785836100163,-0.34274758914545395,0.8544630653539262,0.5749891159198891,0.38710382469377735,0.6121245854508085,1.0738782889069025,-0.31754314453590937,0.25855808960685267,0.6230571675298174,-0.5328466294919941,-0.47998722953293227,-0.5452589877452793,0.6193299108827669,-0.29791339763808816,-0.6763782250561534,0.2520176328935534,-0.2554817092412796,0.20905462235833108,0.9739519090367129,0.7750097593131764,0.5442830962530049,-0.9293925356557956,0.549012237541352,0.7359227555963979,-0.381609855436906,0.08894344863086502,-0.1396190738556985,-0.33679215978198285,-0.6044091914149963,-0.45785799453740095,-0.2180686744677575,0.2187175051925713,1.0180814020727973,0.5797649927735868,0.2613674964204886,0.6399596835306897,0.3983078358826901,0.032933470525301704,0.6916744005386528,0.7006301990309844,0.0158693190934088,0.9700183666877744,-0.06679924207622467,-0.16959281929102363,0.740050855053517,0.7024396289658634,-0.8946110744234569,0.43889236169443874,-0.5031700655490796,0.30821054401118103,0.29895924995672407,0.010249132670392118,0.9700083342255696,-0.5270841495055358,0.43153672084308636,0.31156395625191313,0.405459958318337,0.6638541138628868,-0.5629932498891699,0.8855983508126649,-0.9415321026395581,-0.9797777350092366,-0.32914601071711647,0.6382119595928692,0.9425343499538926,-0.3699470222300182,-0.41831809725333197,-0.24501675686635657,-0.8148773335523495,0.41291614814077954,0.5254639959632235,-0.7632886397078981,0.519606200729863,0.32052965257996413,0.2303783719113155,-0.25642950836526873,-0.5203274619423295,0.3810138731596602,0.1286026384765467,0.3577374852443761,-0.5398220859949697,0.05759701471346699,0.7650455180243404,-0.044962621614833866,-0.28038145902209016,-0.29694739676817705,-0.8315767570556869,-0.34490083850138403,0.23229962038473057,0.13179833099310312,0.3069887238066653,-0.4953850014814067,-0.025211078240529157,-0.3393103909405191,0.4343458449203084,-0.48117028959098457,0.19375457196535828,0.41686065805602457,0.6134975997625897,-0.5656599462617532,0.6675462216179664,-0.7124571467651002,0.4300772054661484,0.7299319965819506,-0.5728663966259077,-0.7766975946852865,-0.17668657935078508],[0.7637282161320454,0.5733650920370479,-0.38792489732307994,-0.7056446827298017,-0.41225911399137394,0.3691688331488902,-0.6494803020841038,-0.8802541864445896,0.22279761949665824,0.022636742458554567,-0.5320816849173385,0.6688732908941293,0.04199741876013657,-0.08229904914005193,-0.6437316592850517,-0.0710833396766257,-0.3583053080493835,0.9527531853016534,0.07769466949589372,-0.6736825412356755,-0.6097242363129655,-0.11127469069117664,-0.4948473970881545,-0.9494571856734365,0.6914927437134485,0.9927263751305929,-0.47689504962105267,-0.06784856495049794,-0.027096003133803455,-0.27142838304723704,0.35956135849167126,-0.1128708389012504,-0.6775540341603848,-0.7167629759015183,0.49189528475057986,-0.5741555407052805,0.05162569662645016,-0.07089006697781128,-0.3601136705625226,0.07394208011540017,-0.13170270392780337,-0.3173872685765887,-0.24287921922313446,0.3206797049153006,0.1852359169179365,0.7162513025332257,-0.36425120860324284,0.5705360413702671,-0.5896975715269053,1.0284945223501856,-0.25371695823929014,-0.6846895418908168,-0.2104486264115399,-0.5373004910740368,0.7529765348772296,-0.49035942699339824,-0.22741523883452205,0.11479752915300069,-0.8442154558078682,0.20332332469488495,-0.8750148324271322,0.9143288793726944,-0.7054111288990969,-0.8180174111133771,-0.5790405710165073,0.49241545381685686,0.4540116151553554,0.6217891426688092,0.10759491383318709,0.009829641094476227,0.723779649454361,-0.611540219582758,0.6848772447740175,0.9122190262241532,0.616268130094413,-0.056413458348122815,0.48601958042739296,0.7561426932801861,0.9536364891119598,0.5856513112109583,-0.34035888251116725,0.1752636302460976,0.07246102399641301,-0.671128083535739,0.1707785994417006,-0.43256214006344834,0.9113853214104618,-0.8073216465959177,0.023137611339952995,0.6034079789458464,-0.3782349544128427,-0.47667356125930005,0.6706863453366925,-0.5937830359331335,-0.7163094094186673,-0.4374105586693804,0.7230007423678725,0.9928888279600947,0.2830956262047867,0.14677125896566565,-0.7798240027300579,0.10333336786718313,-0.055479019003439226,0.26433262573111405,0.41011067721086747,-0.4191167840483703,-0.0621571666347722,-0.6265329170227328,-0.14128636289245067,0.07801798127625445,0.32085277230909626,0.5304158012894973,0.2957235941867505,-0.792074001991657,-0.22187667037980896,-0.971193992675984,0.15155069523338677,0.7169157101709066,-0.2233356603643488,-0.23363183829773407],[-0.7420081848179052,-0.3545203569144401,0.1914955212562737,-0.3007935370972865,-0.014919287043898876,0.9471591415082468,-0.4706124480346094,0.5141529850280159,-0.1168764362774751,0.025242718182486357,-0.6496978044786578,0.7512056774620859,0.9531404130670473,0.5595033677747897,0.563297205916268,0.8228008114075622,-0.34343139678353407,-0.6715961649274375,0.137715451938411,0.561504181028879,0.8257236132883761,-0.007074833625305636,-0.9642883969947154,0.040989010807697894,-0.2156976342132421,-0.2407531009242703,0.8067884566183218,-0.34895110821282466,-0.7483032415176362,-0.7948506191386358,-0.5013263522878774,0.657801435864798,0.7936905938795632,-0.7498149076159194,-0.2539332455296519,0.1576064471990563,0.5741651082727705,0.519364121869906,0.25088917149612494,-0.5583081367606217,-0.3237097322697831,-0.7587437258294502,0.3907074489175237,0.11426851761417717,0.16392765826089592,0.8936101221009299,-0.5677124784650558,0.3773165347829425,-0.5057930260277911,-0.5827392941895836,-0.5072193097760203,-0.07796460031436837,-0.7103970582170508,0.008694282934834428,0.11572510001249475,0.362810851656014,0.940016782882337,0.9346087702300652,-0.6718627318813714,-0.4427835945690969,0.48789577956312463,-0.24547522544243172,-0.6782498420178715,-0.3548192111157628,-0.46144076913790044,-0.7626333260239274,-0.1624554351839335,-0.8526936633673121,0.30979860906809537,0.11889344375675696,-0.8514334983844645,-0.26617298816593815,-0.6325726112479887,-0.17751340011174002,-0.46021068909804186,0.787562657242171,-0.3138516003211752,-0.6427149290404798,0.41373780082913847,-0.6409061282962871,-0.1383151775208432,0.59890536985039,0.48415290995271,-0.8438634888725238,0.5990532659786241,-0.8257617796417189,-0.48705440358789137,0.4900300171192563,-0.9802363588424643,0.2050369779360346,0.14741711522555595,-0.632050023391009,-0.8696684444293673,-0.6257365064866625,-0.7331874391617381,-0.9491215493538929,0.3565393177675775,-0.34970399569029303,-0.878958866577792,-0.02041965505207082,0.35314528880927093,-0.3414104898916242,0.716454560424182,0.0732570441174248,-0.9387827425242306,-0.4763691674907577,0.8225186066325584,0.5443845002660805,0.4449441221974079,0.8152412775454394,-0.6878198309013116,0.5647226827391676,-0.27565981673910234,-0.06539521203059886,-0.2843453207140063,-0.6362488267465848,0.5443751893460747,-0.36215233267367775,0.24021007717064305,0.5764152575595217],[0.87295384179554,-0.9851484174364297,0.9737559489114433,0.8042819977119726,0.8348788281667678,0.7901730674546171,-0.7115712890896603,-0.5009899901136432,-0.8916696569473738,-0.6078691699814485,0.13255675367149122,0.31487168199332255,-0.1653214111461844,0.6079826462914012,0.014577661853939937,0.8590590035584066,0.8042251991857483,0.8298853319935362,0.6611969019655551,-0.5803999482680344,0.9467557515277399,-0.6654105726425068,0.021646484364720046,0.8655634636307952,0.8437541914580765,-0.7877377470742015,-0.7397330922785489,0.4763099525297353,0.2348466378014922,0.2521717064219075,-0.30652281221839117,-0.6546140913598383,-0.4909386812844786,-0.5986358058800236,-0.30705017815060226,-0.44869708215762155,-0.4930539848467516,0.6113911100476215,-0.600878342635045,0.8451100053827213,-0.4108984186884395,-0.38070847010092446,0.1351483605647812,0.4696386506307197,0.2080650447586506,-0.651282511907461,0.6109345680046758,-0.8896780722401463,-0.09414446670492911,1.0236723329354787,-0.8656887692450871,0.5198768190798786,0.5223619746545202,0.9564419237781581,-0.9673803370519426,0.3965147504066194,0.9002320072399227,0.851329565339428,-0.2863838572029573,-0.11974896590946227,-0.015869571130138815,0.7177148225397825,-0.2737886463184715,0.06436798215087075,0.5929080077067166,-0.13655550892516502,-0.13172407833303457,-0.24616915768798958,0.7991055428668922,0.5739781674312489,0.3832623816761873,-0.6633182409304522,-0.12460823792831384,-0.5769421758404184,-0.9033183810593193,0.28713314588376876,0.8791479098158765,-0.37360328709353113,-0.2441755149930227,-0.3150907050242174,-0.6423754987870237,-0.7565387469173663,0.19395327672438636,0.7107028270720978,-0.5708749507661205,-0.9842193356542214,-0.3155419454343233,-0.025730574092677524,-0.04379110682627287,-0.36254707741821546,0.4437003964386016,-0.33530999288093194,-0.5362677453106302,-0.4259867354797798,-0.9952066800609496,-0.5849690534222175,0.28256196628193436,0.9634516920459205,0.6500564358108463,0.7216726518082255,0.917928035002593,-0.932302774736974,0.8840725436896661,-0.7127039387989891,0.6117281084680073,-0.061366292643111414,-0.18185583571067615,0.2960294263694288,0.6440295502727208,-0.6866483324334631,-0.6298849654372725,-0.9940917506277932,-0.2980413116829384,-0.20838692790268987,-0.5065760711850201,0.38775535506406683,-0.24400350617953176,0.15739137142672255,0.2846750959362834,0.8925001414985053],[0.8932281229633566,-0.8340391850208637,-0.3133099019227902,-0.16296298613428653,0.557018272379106,-0.18143700475797944,-0.6816434823572394,0.18315179681609797,0.28817060863517846,0.5952844886665772,-0.4943187321585972,-0.7303958837158024,-0.827271281603376,-0.3336292627640799,0.9621915119885899,-0.759342881622782,-0.2472461317495636,-0.8325622158135213,0.48267770363793305,-0.4326367506489303,-0.952342917590293,-0.16715633129631313,-0.3170942535193843,-0.13556924554489747,0.847256141906598,-0.14400642885364534,-0.528348740285306,0.6321602323117407,0.1254356821009221,0.7539918395688839,-0.5608567639190822,-0.3769604589912292,0.5988441101821237,-0.867109318532316,-0.11814231732652816,0.4023077297546371,0.2106335843912196,0.13283962262914148,0.03314134929540359,-0.9051880330467281,0.7537697828491461,0.3305172007378307,-0.8817913708346496,0.9980329404396535,0.8673770156295331,-0.6580545954035679,0.3244525721099032,0.6836063735912629,0.11311583054537085,-0.8920048101957607,-0.1274802243191107,-0.2896401057085963,-0.35431872348951327,-0.29640830002473645,-0.1974893615128465,-0.6552508948506132,0.9164135862845368,-0.05273915761961709,0.5075985872319292,0.4612479875774931,-0.534748431653059,-0.2126878637207254,0.3822743645900651,0.5037894982183404,-0.25928532491877615,0.43402514326908753,0.7367694476662601,-0.06233982227263245,0.4850321758648911,-0.9757937188744046,0.5394416516638645,0.7203234579604947,0.3680568139401687,-0.11871837944803648,-0.9645026011511773,-0.15394308807760748,-0.09117158516510035,-0.14479189154345815,0.7936723801495931,-0.7521213679631736,-0.7850733271914201,-0.32754403493443873,-0.8549179712791459,0.006147684331617718,-0.04425279672226135,1.0210756108601178,0.1408928959111941,-0.7837834864816603,0.7175399951288212,0.8001040903267103,0.8460258108499231,0.7493177438120504,0.9754178670351616,0.23965161102100993,0.2789244799343544,-0.64914287632428,0.7214974291214199,-0.6312118373204172,-0.7143905454130014,0.5990809470699678,0.6143533876029535,-0.7398446960433812,-0.9065702757923688,0.15368681350099284,0.5364471925663796,0.24920888530955274,-0.3030618351333235,0.2671257729671585,0.6509200344914613,-0.5704761797059187,-0.4056151336742382,0.3628793977419694,-0.4651243348116127,0.5946015709099505,-0.12491123633812473,0.30459114052287484,0.10582480289207752,0.011796648976773919,-0.16861159339216725,0.6316151251016043],[-0.1535593290380864,0.5211230695809526,0.6939466792389369,0.6504159406796096,0.9657431424407201,-0.9293669953024419,-0.7333877663009868,-0.7142659990343837,0.5539732896198344,-0.0568669026001929,0.3227097101608336,-0.49175897648211625,-0.225278897133997,-0.9553964811349215,0.506552250021275,0.02270458249521212,0.0342318551829543,-0.7070291620254454,0.9670981565814426,-0.22940992555611037,0.8805966417223451,0.7925483787648064,0.733395477521709,-0.508178829388063,-0.27767306584934487,0.4413375845551553,0.8072581564062067,-0.9548945068830692,-0.415758152731146,0.6701113184393649,0.29164203099366365,-0.4192625640446808,0.10632719741713341,0.7249603176406002,-0.701494538228224,0.37995325544732705,-0.4525409802853867,-0.5020777243139251,0.3633538495318823,-0.7620290988598869,-0.2838308912568922,0.9989252457030058,-0.6674473273604009,0.8554348749760312,0.14438895927585574,-0.5841499341658906,0.043157512778159816,0.048068548660133985,0.43535749660376794,-0.20281843273384448,-0.8600412994446259,0.15370975501565765,-0.8759663548279905,-0.06913661539222675,-0.7069795543563535,0.7698645810893953,-0.3260718897768937,-0.328444510062471,0.9788603775671125,-0.7269086393370429,0.799252912694831,0.11371882156544641,-0.41109143460030306,0.5136020011244196,0.8159177675950239,0.6069479683609855,0.018753697801096324,0.6862880986434886,0.5135670240377816,-0.006636752775736914,-0.1352735529315673,0.8714776867580984,-0.023684242921920208,-0.42185365641921,-0.13981206523852815,0.3731092218598229,0.8073747865745563,0.3787329706952838,-0.1665893265021724,-0.8893348251576526,-0.1797883328180442,0.1482055842829283,0.6193942974085965,-0.9293985687718612,0.43379926036573074,-0.8184706564376518,-0.03396868996436213,0.22396894358926472,0.5921508831010109,0.4394919710150912,-0.5732357125596983,-0.3221683782840458,0.9432332485187036,-0.6936702403654892,-0.7166926163940579,0.8905419933563624,0.8146277157425386,-0.02051080065062059,0.2421301394334815,0.666827463459731,-0.67322337376157,-0.25549252786904625,0.18340379930297726,0.0321948994025066,0.575183450264827,0.9384560453623607,-0.5190522650528796,0.31867893802823,-0.179683444282675,-0.7102491814313557,-0.031702300681614795,-0.1470756390835996,0.9702415681143503,-0.6206705570421446,-0.15883314956466763,0.17382020385398197,0.7848013141815399,-0.9717709261909757,0.3179981127225313,-0.5224375417959697],[-0.6886438235534744,0.7231405243222541,-0.5914376674556145,-0.49957367376200057,0.6360128239308332,-0.5658759373516329,-0.6065967786285065,-0.20480282941676672,-0.9777581382360848,0.4682034297510057,-0.41381025820537953,0.17090089253494453,-0.31963809984974734,0.4525187583786215,-0.7526606611117584,0.6210470167132646,0.7195677821396309,-0.9836958973377946,0.2208497324466534,-0.9948197224182087,0.9500936254627723,0.12624647667375552,-0.07739161095629045,-0.33044377249479473,0.19960851375998073,0.7265304036389906,-0.12567177941550142,-0.2863105814704912,-0.13350720520252482,0.006405949780876022,0.11165163308709763,-0.10527393436192123,-0.7708275325263482,-0.8675942001338182,0.9191737624268381,0.5427078238462084,0.6458322326353695,-0.4997741249342689,0.30580701865687376,-0.6161550113931956,-0.45619772050253604,-0.5070760122141488,0.817346174538044,0.6605515638765158,0.5808906625225874,0.782456631880507,0.2854202550170478,-0.8242494476762522,0.8155803183178736,-0.5943165699915729,-0.5370464858029328,0.7945074631172729,0.9155715391489705,0.8523049366536493,0.5445509516750193,0.3565831898124369,0.6539190467207149,-0.19050064275670298,-0.5394215095703505,-0.2593602573394842,0.42103045815478257,-0.43740667303508257,-0.4785805361344653,-0.6614401859391223,-0.2777957307016395,0.09123012487214936,0.06492046562131319,-0.6455940543991728,-0.48275259810580645,-0.08630773664064467,-0.9921363228152857,0.596544898099887,0.9879873853923781,0.4982516689529201,-0.9476878055745509,0.6205705348866419,-0.03549345374412767,-0.6943022489551174,0.258659640429643,-0.4043835285769653,0.1397444658547815,0.775913134027393,-0.6257297188323291,0.5676283511104372,-0.9572942826586587,-0.6186686878118688,0.6414579078944838,0.14207398140420674,0.10715766804082945,-0.8026058859657106,0.49128742808880077,-0.355487070411701,0.03608452010628045,-0.7316142584437263,0.034095807880323806,-0.7876620944987407,-0.08014230159309634,-0.4076036446610647,0.6203465478840576,-0.03104014562805357,-0.5902937162930533,0.9101816458200191,-0.21144043310634386,-0.4908294217311178,0.7011659090428644,-0.09291277505053029,-0.4002893340716468,-0.6176219396079919,0.7377137887547545,-0.20190269484469897,0.6679791822148293,0.8547231143971264,0.8869668792129566,0.945932233595742,0.8378210846102159,0.7680265243625644,-0.5093196613660984,0.409173758937198,-0.1868531230737293,0.1887567457887609],[0.9560597422343956,-0.5281244568847268,0.3126936541220402,0.27478409023571004,-0.3370354149106398,0.19237534250853344,-0.8542910722253985,0.36519742919927994,-0.7588615522801754,-0.6617758752384113,0.15217400830190042,-0.895166768139631,0.6980500045632578,-0.8085620333053557,-0.5664396277023009,0.19727265278398462,-0.8962519143459009,0.38620781469538595,0.23542205398809044,-0.3975461398733746,-0.6185726550064239,-0.703592624172652,-0.9200915490097208,0.662851927650586,0.8425216924783843,-0.7111592300940519,-0.10323335411852057,0.8957975835837915,-0.03210131142565452,0.10053389298682319,0.03398434021149382,-0.21479791980132992,-0.5743346248743811,0.8116541248411858,-0.08436727593879488,0.7021037442459194,0.05242853602688977,-0.6141759589510735,0.20511657491398833,-0.7944494494891732,0.22507824314921748,-0.4569070220392934,0.8563026776893244,0.018479952978239348,0.7153566293479315,-0.6603768523747802,-0.9020940372806829,0.011577849786599361,0.8285331995872078,0.6793900127737351,0.11608361995840792,-0.1085101579475837,-0.9919162402607093,0.47887538631333054,0.5750911434797469,0.15999266627371755,0.5936772017419517,-0.40496758758766127,0.6192175569006598,-0.46706216296676006,0.9581164713687482,-0.24780385062045696,-0.4889396992548277,-0.24903401848159817,0.5219177076845376,-0.8187367828380387,-0.7522600551715957,-0.8349971430455527,-0.4272536159538762,0.2741922331038293,0.5155809108036118,0.1630310116828787,-0.12438340642274165,0.13699230820866426,0.5855401161073405,0.7036207683101248,-0.5599757156744067,-0.46734420919926156,0.3394099844191063,-0.6456054514378973,0.2134049632967326,0.11332813421487799,0.8048196009434293,0.5719765231265652,0.9855299168854923,0.42662317216371676,0.7462936927821691,0.5706208745388349,-0.7627819623326575,-0.1666406950118257,0.4980586739518248,0.7988107105075517,-0.7606598670821043,0.021973431792630782,-0.5204044239616311,0.6848297420152937,-0.18147298541630524,0.8416757110655676,0.6483341304760416,0.8572030206106921,-0.3880813527177117,0.07401899224041439,-0.33048488836783957,-0.7186362564568665,-0.3209862895427836,0.39442263769458374,0.5855984586905297,0.605411905093724,-0.7642886268548837,-0.15879362054266327,0.08304477579322883,0.07727768230440238,-0.708715670483648,-0.8232427547620396,0.41630685889990093,-0.7792626110139419,0.94942601962679,0.2627023452496833,-0.11181561552423627,0.9888929087523551],[0.0159982418731798,-0.22805078119042965,0.6649770362826902,-0.7138204035738472,0.5462515751199493,-0.8455263374998634,0.8258209470849127,-0.7382449278585892,-0.09325241564425275,-0.5346533270422645,0.8982507982217579,