[[[-0.708387984714256,-0.6701375250800747,-0.3417128536344177,-0.9433008960389513,0.9601046405586504,-0.3469598113778251,0.9022901745975613,-0.1120391823491753,0.9876477867462474,0.9566978245833355,0.31623914305410306,0.2629656244740388,-0.5189512087427626,-0.6544762189697151,0.3169399194895649,0.41208524301714883,-0.30859345578031994,-0.6525635407921163,0.8483238673133158,-0.26993265626685675,0.9639942407775055,0.5750881787633241,0.5904543303739727,0.03167994955060174,-0.1882877137148562,-0.9129065006590651,-0.5481700573679569,0.03977817930803747,-0.5453815755305997,0.13103178534948176,0.781711109264975,-0.5565659540656264,0.7661460837856129,0.7430935913097774,0.9842078761517784,-0.449438227866794,0.7163716552458551,0.15866898578944566,-0.16374569352432897,0.4881262416564239,0.7994906563117173,0.4378445647118979,0.24713623562781878,0.9361263205029658,-0.32274427659946964,-0.6657858963362016,-0.5921052127670874,-0.22360935704007462,-0.9122766344560888,-0.329978393212097,-0.19284384007283398,-0.18250378991634478,0.6328245858084856,-0.6546293337203306,0.7987492706201058,0.15649123569362783,-0.1148808082031221,0.7437370738616801,-0.7071119439745194,-0.8928722249106811,0.7923245483711097,-0.021256110976389107,-0.9233323564747776,0.5672771681123752,0.7738461029791369,-0.8116852843500647,-0.2531262917032566,0.1358794328397666,-0.874889299738035,-0.9950068467223067,0.007298464415671357,-0.8503894369350704,0.33348813624442664,-0.5448947805160294,0.7285915980291702,-0.2232815156643537,0.2882232552871992,0.868689372756206,0.08526794174582451,0.6753993874378185,-0.16813627176065957,0.4394770004276948,0.8931027285399283,-0.7691877183691913,0.5956721435914751,-0.7872246932759255,0.27108821731848337,-0.28229095415958666,-0.4655883875840667,-0.016878508246819995,0.7644373149924819,0.6001953837863385,0.3003468035146417,0.8272043890660228,0.8104463009430616,0.004901343140217332,-0.5936163098577236,-0.01068553457685159,-0.7140650197212493,0.7026783044804082,-0.9001648104272099,0.5393866856345378,0.35702781627649455,0.8207082975382316,-0.700371344505162,0.33955250102100437,0.005521942536861644,0.20863275884737556,-0.6997574777568729,-0.31230580680964526,0.4028482484024977,0.9511856606686484,-0.4272993346976018,0.12802146878248682,-0.41593467230393727,-0.8105474302327477,0.6442162075429839,0.974153112072909,0.8682984148193803,0.5128080135080925,0.9126781873437994,-0.5642335378509238,0.8775977715845492,0.0045284913892099715,0.9257058064091604,-0.9127855713779599,0.6976251961983542,0.8928394989547871],[0.1260155593987471,-0.7014123602799955,-0.8334480736895404,-0.4314227947932819,0.531443295710482,0.946453966251131,0.544032083976237,0.4095371635278664,0.3606052024288133,-0.14153311964435292,0.42970132629906227,-0.8616183676486169,0.6481277402364349,0.11631266532375613,0.30837549791309143,0.3366897934088062,-0.14079498750054265,-0.36134663095123903,0.5921184411074051,0.34842854715244875,-0.25080303594192077,-0.1537374737075416,0.23322865483517005,0.2717862701162305,-0.3044402203887967,0.46193992962781555,0.723475266884588,0.6940519317097389,-0.402226644079496,0.7879216993121949,-0.25885101739472527,0.27456312218157336,0.7940228291541506,0.5208888088696075,-0.5866830894177488,0.4554530702859136,0.39004868402053705,0.5940118267531734,-0.6389026856513085,0.057750278697102156,0.5933969916719134,-0.9870231782256365,0.512238761302014,-0.8758077618713859,0.3883933009175138,0.25042277677720653,0.502259019872687,-0.6778727848743373,-0.8178832762851673,-0.8025772900223135,0.41884242259080967,0.014354673998301651,-0.019068994805581992,-0.10453999053376009,0.4715876483399342,0.6052579951851242,0.5368057425521773,-0.9011893799319237,0.14010816137321483,0.64441235591414,-0.27498573581113994,-0.9336634615159812,-0.19830129465189678,-0.094005279033253,-0.8930738573814804,-0.5174601578855736,-0.732877847029251,0.2900568292877625,-0.8667693438943487,0.42886321661780413,-0.42232136803657044,-0.47880287053166765,0.7435510561073675,-0.9905542019196879,0.14673835315432956,-0.7921781419485632,-0.6239261027689207,-0.1602978729320668,0.9022114711224524,0.4302323742200814,0.9485146216656245,-0.4350584241384477,0.39418995922223315,0.08653118918604472,-0.46676346064335344,0.804030681332316,-0.7718211005591934,-0.525636210357728,0.8632956729604974,0.5372505667204313,0.8645429651495302,-0.7437023550325421,-0.10698231436737637,0.21541151643079562,0.9283773977450552,0.08080892459904829,0.6265701304199977,-0.1100158299150916,0.4761412159530349,-0.937676729547256,-0.17943719144003728,-0.6799728541057282,-0.8567254603694349,0.5408964115989345,-0.48368840957926557,0.18548521986116798,-0.15920665478526283,0.058377315305457644,0.4251491518475618,0.3130943235665094,0.4677248483115241,-0.03959543251971826,-0.5052625888645111,0.002708943481101301,0.1289800603960377,-0.6230256741040265,-0.1875891614431472,-0.5362465913057244,-0.6789056677984388,0.01919854896110323,-0.7470930066875165,0.030451680731805104,0.15966529234374607,0.8713160992256122,-0.4830453410785707,0.13303218493354838,0.867143052826791,-0.8465249184064569],[-0.7910726627333987,-0.459260186662972,-0.9375425162100615,0.5539534411923774,-0.11938177963545041,-0.47298556102266737,-0.8674023159224342,0.49169466092946984,0.016452250131032454,-0.9412438461093158,0.6367351867475335,-0.29195115212710165,-0.0089577801152659,-0.2569850793235519,0.9767668546220014,0.3185599779751099,0.9952062152264475,0.3824387801553774,-0.3942368562711035,0.4339973362253848,-0.48959233032331784,-0.3573585996047253,0.6681139632477847,-0.025166234037479054,0.35964214119158194,0.31776600560703666,0.9129726191432369,0.7927211094885329,0.6589367978925885,-0.6623429026856119,-0.3974812197059168,0.6891302528355256,0.03859494791558659,0.7131252303977459,-0.4155061956855702,-0.5832589062263261,0.7790217580474443,0.954263374694007,-0.0017633057879827495,-0.42813536847526096,-0.7580573509947606,0.14372194940408978,0.5152334745930374,-0.22289159622884797,0.35605075155668653,-0.0026926055023364635,-0.3794105685186448,0.7867205822465633,0.5070956902239868,0.21890716102647267,-0.36655700730310303,0.8992188398668807,0.6921120176784142,0.4375599374569104,0.9658494775101955,-0.401866063994487,0.1757823871379676,-0.41194960232045685,0.46654643508148574,-0.33360351316561343,0.5315889183616381,0.4739017968183645,-0.28149822001801517,0.07064035950332297,-0.8357737616995646,-0.6228524966783702,-0.10930931060203393,0.7676921192998041,0.8126345154410048,-0.38177911755385163,0.5060296295362894,-0.8001036550251709,-0.7297193568979295,-0.07479796836684104,-0.7270059082024178,0.24781999835411417,0.2812144912680579,0.5289337885681893,-0.21758931252451763,0.7880473497326225,-0.060950786242267865,-0.20131984876943118,0.9548981109401843,-0.6422378420877515,-0.38828280810515636,-0.864030198780035,0.7964549567389599,0.09775085829783847,-0.0515299168176338,-0.06143798932637269,-0.5716585604174509,0.5139744814945463,0.20869272852652224,0.34424091832203296,-0.18544459614245773,0.26400400509118593,-0.6690404325309192,0.6614978439637814,0.41386185948632487,0.29536099888915696,0.08568929149734496,0.9887524543002291,0.9333392712486147,0.486891684269466,-0.4211045536831471,-0.2342232963263935,-0.07818927350499301,0.567415862298595,0.19746478186918387,0.5896860393370018,0.6134029027529478,-0.3155420970942914,0.14085497974887345,0.1467673865875493,-0.37043808325052313,-0.27031010923962606,0.14729425290780582,0.695671985177193,-0.8151148423547251,0.49908524827771916,0.5246269673611519,0.2691169006104462,-0.36096032920114823,0.1883140986941921,0.3443696391818166,0.3756350620989814,0.0341795006166043,-0.4412037419416328],[0.6008261691328294,0.9883468109770366,-0.08160033007297667,0.7876422525696843,0.14360200064546064,-0.6772413258764668,-0.9072988966030042,-0.2444571687433932,-0.45798903941432356,0.9608206492840544,0.5965002711705106,-0.5798888637352788,-0.13932332744745793,-0.0012345898880602654,0.8460504255944149,-0.9376353774263831,-0.3049027505081792,-0.8022016541653052,-0.8349351868220187,0.007718485988779692,-0.5448856362235849,-0.583772807814174,-0.43135923856275155,-0.863174721585276,-0.735400658669422,-0.17610525022564052,0.18508636713196258,-0.6774432854191658,0.8666638150356464,-0.34324425108664264,0.5345519044686037,0.523663383965374,-0.6535776611250808,0.6068473535931934,-0.2228269547042812,-0.7193031059899239,-0.10431698214144249,0.30967695237624604,0.16944289889834618,-0.17828142838627972,-0.19904494036557055,0.5931140752694096,0.8828269759917707,-0.8986852506281849,0.5348331276097378,0.35380489517836294,-0.2529026600252116,-0.46051628883680346,-0.18394803775483526,0.7516256694345185,-0.9295588059878298,-0.3188586263353261,0.2704005382673482,-0.29402975544788656,0.6657443847860267,-0.7344394897938402,-0.704009304234591,-0.2833776115737339,-0.178936765386279,0.8301391196771055,-0.45783668164606733,0.17331749865111365,-0.06969812258879511,0.5824944924802342,-0.49548861828328544,0.5849065996096232,0.702502084487148,0.6819463109863839,0.23791078524816325,0.9387667232491265,0.4217784019592122,0.22543201908754665,-0.3771227742184077,-0.591175267374567,0.8532859395709044,-0.23998404868103868,-0.2858804840137231,-0.9512451107800332,-0.7809831434374205,-0.07333235396719126,-0.9738372185068717,-0.41135045109967827,-0.4865496792232944,-0.4529692199788844,-0.0731578126074268,0.13859667226979125,-0.928464667007522,0.05692932899630984,-0.5892006089988235,0.18218848167380775,0.677473383812074,0.950652519183593,0.9604732583883945,-0.5303194156908716,0.7054255090219391,-0.0053725567577665315,-0.931665684978081,0.5685605601518272,0.15807743513372238,-0.13172809792962445,0.9261948670795969,-0.8572883589178764,-0.23105590003876939,0.08890765649168379,0.86871027523882,0.8859337013594683,0.2640744591942183,-0.5424315536313438,0.1687396611074861,0.9659541582792391,-0.05404284880652586,-0.7702151695164391,0.1876006991378547,-0.29314355022396743,-0.4507202702738566,0.20934055905929577,-0.5342156238533963,-0.022500424144596853,-0.48789693709283904,0.8570484848051345,0.5936599461044532,0.7974966977092159,-0.6681171333206556,0.4859280020628756,-0.4444035347938878,0.5112354349093722,0.5417504786311271,-0.49307779913229527],[-0.06909236841700242,0.613192774481881,-0.12056269083968574,0.23117758182896392,0.636562195093069,-0.48973845346515277,-0.34704932448311593,-0.8679828546969777,-0.8274792731458112,0.07789490231777185,0.6185221154132577,-0.9711217894349528,-0.19449664806344705,-0.1911318953525021,-1.065545678983044,0.728198825018405,0.21255149599203071,-0.06576883297551245,0.3951436677815837,0.5809655330558776,-0.8950919772983158,0.08479070230502041,0.14363067184610717,-0.765177578118121,0.6656004752374383,0.2292285808299264,-0.7594776868535695,0.9211250438585349,-0.06740739123074957,0.7766366118166058,-0.8008960801999677,-0.8236637961738141,-0.6584978986377077,-0.032747680912763394,0.3377150815405,0.6170625697271431,0.36327295528170933,-0.6947607088159917,-0.10105051620361458,-0.7677565142154058,0.48920574853129134,-0.27451432485962385,-0.5429508915009001,0.7859092314559124,-0.37306030508477206,-1.0625224720541306,0.665411780540121,0.840182412332448,0.2859585894453716,-0.47424655642774516,0.44508900331665185,-0.4262616367479594,-0.6427532463799184,0.06177322090239258,-0.15290893085753166,-0.18382427541427052,-0.20848441579940793,-0.2362738990444606,-0.8135029102434395,-0.8917518587447132,-0.6216836879311762,0.06028981322566602,0.5555977716130114,-0.9142503417235573,-0.6951762034439776,-0.09550439239428923,-0.5340157158951452,-0.5868333526288313,0.4025513915663567,0.5600980819059481,-0.9009993430638661,1.041583085130804,1.0222235120393173,-0.15981698763255664,-0.6919563567303185,-0.9736988897058002,0.5958235721866624,-0.3695087785351542,0.9553855657030004,0.4869774505972645,-0.9026014992572772,0.7920558604148356,-0.15157744139404336,-0.23267581429983603,-0.8691618612384431,0.04166097827084121,0.7395246417898086,0.36245931585125085,-0.18742146816930189,0.6622711112170326,0.761705200232577,-0.2528789569161233,0.4413667234851722,0.31174853628782595,0.2345225340127342,-0.7200087417807686,0.3770390203862083,-0.581531377117521,-0.14873571643332056,0.06184852919240548,-0.9443623178059365,-0.017998373762617058,0.1503790128178262,-0.41139330831626897,1.009344466315701,0.9864644959834594,-0.9924610972107287,-0.5125192804992098,0.6696142352957125,0.5866551803750399,-0.8184196460260522,0.6579354492948016,-0.4068212626760667,-0.5403676434497193,0.6565187236719409,-0.19550288457750387,-0.7004870953365366,-0.556303037159454,0.2972519658120484,-0.8667502523591077,-0.20242110791426265,0.18899950858286985,-0.2948182287406108,-0.6057472315380056,0.31466805078145554,0.16340489131163918,0.7506900498156883,-0.4889018502792588],[0.32298730874619763,-0.5690522147552951,0.6468106718396807,0.08819993154880455,0.7011392035413871,0.15861876941866704,-0.41461900214964714,0.908358693474952,-0.19579949625704837,-0.8805975203910462,-0.24147792919811936,0.8090806049731689,0.6248646110039137,-0.7052848518248341,0.2967375566895793,0.9235284316866671,0.5774110060877747,0.6789933462648438,0.2012768207023149,-0.7693885380924487,0.4134775710046447,-0.18360425778255315,0.8247836770760373,-0.7844418944063585,-0.10988228246794246,-0.5889815955721889,0.06976367224156582,-0.1413315101435579,-0.878823160264258,-0.4643394232748385,0.7582213820066317,-0.16402318814757874,-0.9167860453112594,-0.9391920983917554,-0.3189996672060818,-0.12343820497143639,-0.6283118649607826,0.11449639854563105,0.8644468907823525,0.43878934741763453,0.6760172481187232,-0.48086927019420456,-0.772427306044902,0.9361134024916671,0.02045688762150992,-1.0131639635453427,0.8240847753891487,0.07480231589770976,-0.8072014896514643,-0.0494712144172471,0.011163332691413346,-0.1700806842646017,-0.8776710292364829,-0.12073996105659733,0.6498177378891309,-0.4630345475781673,0.7906206220081168,0.9764922255225191,0.9770028887834324,-0.6629881086730312,0.2949770935530348,-0.04553948114668138,0.6682715437557617,-0.4999452675970395,0.16748184880863984,0.8970556585521055,0.2984762936254019,0.5052786843495566,-0.4990449297183538,0.9812096837347842,0.416935669205217,0.2251164421576059,0.5149643387653993,0.6134401388905608,0.7675881572246795,-0.31632253552450085,0.07362597297610689,0.7805436837138044,-0.015445859456019511,-0.4468505677291429,-0.0433357445265917,0.20773350036030444,0.5189724287257496,-0.5224881726164997,0.8458591000970475,-0.6273502226007,0.6320153486981387,0.6750449772680158,-0.3931837817987793,0.07201904344762984,-0.21142073882772552,0.7643722250442523,-0.7237352320684522,-0.04329024265952191,0.5248016722855184,0.9926802973027831,0.8919941273453739,0.40506783436284927,0.6719987559565456,-0.1444379418122958,0.6521759146917161,0.1835239723477069,-0.7345441783768496,0.0868776264235417,-0.34979487893020106,-0.9016949485032867,0.5204292079951273,0.16618654924571505,0.710188280146115,-0.7464486885504816,-0.7900507553339627,0.9855260072606866,-0.3750862612804286,0.04236959421269251,-0.9495206890890755,0.5066860867074428,-0.7923980763096725,0.0029256324904120656,0.32669980002969345,0.3706544254157672,-1.0691091061234643,0.7168715865241115,-0.37853579331779574,-0.2405222474546752,0.7423454331162739,-0.2586817094994552,-0.9879480214125724,-0.6163544017123818],[0.43683977045617944,0.2730800720260813,-0.502696045608506,0.9375776392373704,-0.18669456590058467,0.4510516477540754,0.4958933700455954,0.688933052186412,0.9959023918142436,0.7743329906894117,-0.28856040013726714,0.32486571313303747,0.3226098019835833,-0.2573231117585362,0.29350635906597855,0.717853530286301,0.7407245637253392,-0.23774080358035932,-0.6816918593506528,0.5030504459519213,-0.4713651748383371,-0.045728891698017964,-0.5080484381316938,-0.15382216748101377,-0.9560962857003246,-0.443837324201531,-0.4591818387203945,0.05113467729783174,-0.9067183585118026,-0.08883158943483817,0.8864790767299536,-0.5713355440707144,-0.763961551091864,0.6332811853852458,0.26976042631034164,-0.8693980554090147,0.7428140036656702,0.48298521353798707,0.37821486518769326,-0.3299163684115835,0.9013845737099198,0.5702700844498908,0.40830728454823273,-0.7493393729395429,-0.1569685328415163,-0.6414324528858731,-0.5073409666051178,0.468419186134569,0.1962957021736063,0.2265269178758529,0.2780599045890224,-0.29426968458546493,-0.3072103776696142,-0.9022566894608108,-0.9243341600586298,0.8050901811545541,1.079671512273599,-0.6165816514792013,-0.9232868239436138,0.7311489924961857,0.6954966932985809,-0.4008661313525795,0.38601753520379334,0.053244013031008716,0.33529439900232705,0.3056445924763174,0.08654176922637921,-0.014688850791748217,0.7098384271841264,0.6373666914024946,0.3986934858898799,0.8006290834897685,0.6740247044704176,0.31612669969172885,-0.9588130669593447,-0.21386447602877176,-0.48445840975699833,-0.881665634530828,0.5599451866837002,0.6764750576350577,0.08107658782455675,0.07541906186916404,0.9265686926648175,0.8130648925349903,0.31086969419103433,0.9582234796005166,0.08582270669459353,-0.8136473595890155,-0.8737879148703932,0.5173737335287556,-0.206272203538544,0.4860147377129379,0.6360461211275675,-0.05603174361791038,-0.7215983121819384,0.553049968553916,-0.767479008737224,0.3190440896089406,0.8911801317045781,-0.9472802082869355,-0.4194399875192246,-0.9940594534812048,1.0514503511100113,-0.5101464703270678,0.6187761345994446,-0.135351252369932,-0.5897759606482396,-0.00675422635948522,0.003834474839510958,-0.5486428436363889,0.27069043670589077,0.18419174944520217,0.7973520562965757,-0.25798725610163065,0.12979056428677627,-0.6614051851397318,0.4450977068090798,-0.62918201518025,-0.6576750554993412,0.7488417585523568,-0.8544668670123942,0.7100621530038635,0.43629656057286964,-0.527433228875475,-0.08508227993127322,0.8102191324981981,-0.3066488273149045,0.11025750211189288],[0.5113333872105896,0.1277082130742716,-0.7322471571763223,0.5352710817522794,-0.4420737898371378,0.5650392841268467,-0.7044196588167225,-0.5921593774754793,0.963614344612442,-0.030483679266490905,0.9014041414555477,0.5945749539080599,0.12461070145401201,-0.3844483572371865,0.5724963829031925,0.6356550954813577,0.3424372892974551,-0.26274270245629744,0.27432786791758507,0.49735899311396603,-0.859028852204205,-0.7277629177202677,-0.7072837078459714,-0.6963003260605473,-0.7733165469641746,-0.8878702752038262,-0.7353423940202374,-0.949652389795534,0.023283664447531018,-0.5196932688147384,-0.24582201580711469,0.5181800884001937,0.8724024050615092,-0.08724714260298663,0.65858664833294,0.39240401923296014,0.8545942519340262,-0.32870956031874804,-0.669132275807877,0.9650757022874683,0.8534177030556387,0.08333327538633868,0.37960654765941926,-0.578259088675009,0.9351725914076702,0.6192176821651852,0.6590387165140351,-0.8073145141191806,-0.7947557587049032,-0.666161791786986,0.08169122699625934,0.47741917834731296,0.10160340448721412,-0.37595406903642703,-0.973909868207858,0.06695551886497232,0.7417984224031293,-0.037493692729075045,0.7809317899372826,0.5784517685433745,0.8623140074061049,0.6614958858691415,0.818495652526905,1.0621080688106657,0.5007723169004551,-0.20697978977492576,0.17269026135483237,-0.0054447413134922976,0.5148247078350136,-0.014329150619414952,-0.8137314147448409,0.1358406943859616,-0.128705856879535,0.613887290530839,-0.3699241413984659,-0.22618341634091196,0.5097629231763628,-0.5722697952254662,0.18089797161477694,-0.14742456088715852,0.8470078659533988,-0.18940065113698973,-0.7330005133336813,0.3395744941762196,-0.0034298798685199116,-0.07558736132500307,0.6987704025088745,0.6820423727965743,0.6160573630068338,-0.5641135928903679,0.7547478114677431,0.04373599985720946,0.1442488682240262,0.2398115699910818,-0.4003851587174057,0.24429915577542594,-0.9218814697562044,-0.6170155628915086,-0.18752136263884678,0.18204064993872277,-0.6661563726782059,0.24080809890194013,0.055184788771593156,0.5515649281278767,-0.04534221148033252,-0.4551792724035517,0.36270879275673457,0.2636301992940228,-1.0073210856930621,0.3258092496706916,0.5021082319193659,-0.8193066602427714,0.9309075589246366,0.6340813246203455,0.6206427819838959,0.33655885625671733,0.19739280461867253,0.04296077008775127,-0.09307071535629219,-0.5043211216469383,-0.09740681113926201,0.24659484605615564,-0.07604121045355021,-0.23498765183899814,-0.09845944628195802,-0.29778323175937615,-0.8579618289260531,-0.12793256069848982],[0.2789886848881037,-0.09203141323355689,0.35029860043745736,-0.07806091323232989,-0.4268312726750315,-0.29326668803789635,-0.18275031267884756,-0.6639559048859164,0.5660220030134335,-0.42004417090137636,0.40571368588724427,-0.014147910710495686,0.4811542372458614,0.5525720915671223,-0.9690940718193288,0.6527220447564407,0.8523734814543561,-0.5855717881384191,-0.5447039634099614,0.806785207297388,0.19509926754383522,-0.2812092830950428,-0.9842718393705985,-0.38142683292711427,0.36509562590275185,0.9909689082386355,0.13934729296699813,0.07299603653971702,-0.5987315601131992,-0.9260423888683355,0.028495109933812632,-0.5386584981207353,0.8298706503600743,0.621791317018684,-0.5657897559995714,-0.7416289517518186,0.7011759404779859,0.5119585240947548,0.3184844136136471,0.10938683332385357,-0.6227494518310299,-0.12638524682946764,-0.26489571050825855,0.8770366773911262,0.8736720298381765,-0.9115334628733155,-0.9498882210677684,-0.5999252343760173,0.5050624613873406,0.9207562088892854,0.4632751033787277,-0.5605343852347059,0.20503310976498723,-0.8333913554854648,0.2749148564711898,-0.14645656114688227,-0.6728173192170634,0.3938014298807321,0.837803711391091,0.25014408086860473,-0.8843456967419597,0.7326904051931675,0.09541825160803392,0.9454553411145336,-0.06435362170074335,-0.014723893755125375,0.4725208397325167,0.9544375161237534,0.40077497527390815,-0.4898433459871719,-0.9511309371136856,-0.06813342976886025,-0.03940901061186795,0.29310739274857434,-0.27823657532109813,0.4804006823292931,0.8622117120364947,0.6673329158436867,-0.4056945297732215,-0.4610885806464377,0.2928879450130243,0.17041052068942036,0.5583858999533282,-0.8916904967204357,-0.13463140435264515,-0.30512563899435685,0.6647447844201595,0.5238799455991138,0.33896727159103646,-0.35525263509275157,0.5862404297826963,-0.7973418416086255,-0.04122884426241287,-0.7722882380474231,0.3140540016421922,0.7911154530544827,-0.8721982388874814,-0.725347053781575,-0.16959177138537704,0.5897741523448385,0.9828145938963482,0.2596392841773358,-0.726633566343305,0.8404885749878437,-0.1576282946162493,0.015699729960682394,0.325508206232867,-0.7186846026742706,0.8974719772052314,-0.28897058966048456,-0.28954473148944443,-0.14302592248362217,-0.8763035638736584,0.4844593375980059,0.5538539578383305,0.5573791910469934,-0.5329442433312824,-0.6366580679110806,-0.5188793652929754,0.944912004270964,-0.7546296361195295,-0.7465441565413935,0.29226072605868986,0.7377436512745393,-0.25196610490673754,-0.12879065803535614,-0.2662088496114056,0.05572362876193747],[-0.9916133550142135,0.48364000882324265,0.7117821830297912,-0.5436148201198373,-0.4450293158463368,0.2806023662046121,-0.703611251849557,0.0559845590923277,-0.6552184171671003,0.76121866495747,0.024832814172046365,0.28772868925207845,-0.9434385426654807,-0.6404849673833853,-0.3307035727986631,0.20313644815855827,-0.44527862632462034,-0.1823019763103957,-0.9709559622086599,0.5557046796977788,-0.1296231090246578,0.6783170838640425,0.4604787630686449,-0.02780980070842745,-0.6245854185919624,0.5489007733854562,-0.32832275315575193,-0.053441905142671116,0.45284648621716544,-0.9176848962307359,0.8876426046127874,0.17060603593042437,0.12505548736324812,0.9574225063886063,-0.7301453740990721,-0.8024656466983978,-0.11168354205941622,-0.6045284942415831,-0.5113323395472861,-0.966033185050332,0.47338547793272406,0.3627378808927567,0.2285783959748125,-0.7964113277803808,0.9342650436361241,0.5312944282323266,0.2605008522990287,0.21132080809360826,0.45295834300372195,-0.6014164872744668,0.9877180378122908,-0.09493179777203106,0.6089141689744153,-0.7940899065113772,0.48016408245401754,0.774852507544932,-0.17349563595499637,-0.5744023004763958,-0.56675424060608,-0.5577522277776628,-0.23818706660571784,-0.6725023809875494,-0.6842372475679847,0.6010239441991005,0.40731574552569166,0.5645105554978895,-0.49448000206195125,-0.4917495353655855,0.7891343283166865,-0.15463529838198156,0.3868183113415787,0.2622658208457337,0.6406830881681108,-0.7881781011083024,0.19839511328278492,-0.8670895987936219,0.6008320283296171,-0.015237787582514994,0.8026652461089002,0.6441196283927245,-0.7202049557520183,0.9493020377288331,0.6280417291460072,0.892274462004543,-0.9885783705360217,-0.006869667216577922,0.27900456500839127,0.6419806079040948,0.2857227801288128,-0.6897215615911373,-0.8556550879583011,0.3885576609017712,0.581260288294892,-0.285859365475522,-0.535255985248539,0.024241868160749074,-0.8800742334252032,-0.7924345849716735,0.3915901449685442,0.3306077830002332,1.0088428693465537,-0.04471640519421575,0.516261501682098,0.7675233871679156,0.5987233786660768,0.7565456043031591,0.29315346017010985,0.1511264390383336,-0.42153429293011324,0.10920983856660474,-0.4315564610902076,-0.950193957355159,-0.24496139757566426,0.8191275625658024,-0.7213138368190395,0.060090057000234495,-0.8765244629367975,-0.5881604180187023,0.39842912224742266,0.4816589938762449,-0.43687132796382827,-0.41559890362519714,0.2208899176767421,-0.04828128641323924,-0.5753532620208949,-0.7170513788206205,-0.17718273216124186,-0.7388467582443541],[-0.5061697406850687,0.7121953212719444,-0.11788226492177452,0.7303056816120732,-0.5468384274149627,-0.4747386510763117,-0.15045952726954612,0.5099835834521647,-0.5138549827942333,0.6400444358440917,0.21595296720717955,0.6634274364391657,0.7439400386663553,0.013693579114306225,0.9596788824535871,0.17814713585944622,-0.5830240604539584,0.2202661335139816,0.9715782802379193,0.3784947689234233,-0.17186952913720666,0.7414748548082127,-0.8475096371508923,-0.6041691363454114,0.006351354775641081,-0.7958527776513326,0.4085828530234173,-0.8334117805574474,-0.348025065923723,-0.6772809064767669,0.01035111060701037,0.419513849546915,-0.2824306169635692,-0.38039118796146,0.9043009154609684,-0.5796712163718439,0.5882025377361961,0.22884249071435012,0.6565246878320437,-0.7169110893125156,-0.6771538225916371,0.5961136803573039,0.8305009172070426,-0.3599607528446743,0.1285858439724452,0.6336475825023057,0.4727048293986043,0.7039153070982802,-0.10785589566282917,-0.12197034494443346,-0.7045344092692516,-0.7981430676411019,0.9193636670121226,0.9817650465521021,-0.8660931411817595,-0.4746452423783154,0.3698263760377417,0.49227418461452377,0.18080517624967046,-0.2933930588001139,-1.021791160148895,-0.11545957960804802,0.5768917850340236,0.8362251660232316,0.23067680310248284,0.1483728951551706,0.3052484780178057,0.6638794309279838,-0.6301731160329684,-0.41501736520241056,-0.2794080690802273,-0.614672904163273,-0.8001781950295986,0.39592264782070763,-0.37676855946862464,-0.6576621485900992,-0.021826526960699186,0.7276463679079681,-0.9323064838031493,0.5405304741931423,-0.5855029725381965,-0.6278094320841258,0.127883406689005,-0.20188011826285854,0.03895237180691282,0.8415000002207885,0.3351664332030693,-0.4628987356701017,0.505269075214708,-0.03239421954753386,0.2253289920271639,0.649162415102423,-0.9418863676078463,0.9322566703853677,0.8089409316293892,0.14522681379381874,-0.18059520813929966,-0.14830423409370574,0.010373241884036587,0.26890345536779864,-0.23191506368266285,0.7634896294134279,0.17488770654413902,-0.4309704962738992,0.8181450720369694,0.8575091476905238,-0.23386821113229725,0.9207151630597998,-0.309975054427923,0.6926170447690329,-0.4353065999815064,0.5512363485594911,0.48988143371391746,0.9040508103721634,-0.5420164046185197,-0.04940331491424136,-0.13450118337237807,-0.8878230296837316,-0.13242943852036654,0.5951930934537876,-0.3821743305488475,0.9287462294087846,0.7721758258168648,-0.2090687842781264,-0.0627765285777896,-0.749801106762645,-0.2250752314822587,-0.6979480003742669],[0.14289889731309932,-0.4870440081622952,0.9526408658907355,0.55661141866956,-0.8537257042128475,-0.08280602819843402,0.8674995028248675,0.9506735390264803,-0.1626867716328251,0.6834052259448392,0.16823878914465035,-0.3122729033365778,-0.3436816872207623,-0.32633012784510357,-0.47031814721989607,0.9160466753843237,-0.8458156083866042,0.13034393299682875,-0.8920695724113324,0.43489966453847617,0.07911272300977838,-0.09067348391860144,-0.26294838926050634,0.49176321442756193,0.9754168771736502,0.9811720375017182,-0.06920027730965103,-0.1386127992831092,-0.9626308477753132,0.8919064967976824,-0.42307509610497046,-0.38840711005347,0.7146219237372541,-0.2201270797563112,-0.8742708071573352,0.9415042406713595,-0.41252870910139816,0.4963154596253318,-0.7371703847724601,0.2029934234210624,0.23748103685404354,0.21868131439874594,-0.31682479897648846,-0.5993968321101332,-0.820541215002283,0.6826723158275032,0.6856135137477548,-0.0998182213346622,-0.15189091076357097,0.23567968194804195,-0.4649608948449874,0.6763145167564655,-0.560715691280886,-0.515333906799606,-0.3312623596671795,0.8673781780195999,0.8045971638882089,-0.00521684516068496,0.14950426490516786,-0.9980211295535224,-0.9863769290085654,-0.2335063359482913,-0.9852326698938048,0.8213380960059996,0.30771839395512374,0.31307520295838187,0.5114495772215679,-0.3522704736358323,0.9067502223941071,-0.575583757101628,-0.28818299679865134,9.768479523699386E-4,0.4257486868261048,-0.006344312321940762,0.26848339210414907,-0.8706413806954416,-0.5313205289781544,0.37867753763184714,0.8829811351740873,-0.9586050543304093,-0.7804543163367329,-0.3565058130662528,0.522530802190103,0.39549450028063854,0.7227243638868832,0.5616944228369835,0.1528500554511691,0.358051061039428,0.8479280918472226,0.5153135251051097,-0.43704049324526534,-0.3123204612607265,0.9382558122587012,0.5383624633180703,-0.5182868883613514,0.1981309525828329,-0.959315552311426,-0.5981210701587025,0.27033696984678063,0.02441013882387871,-0.937495037511144,0.7159790009584884,-0.7920975171690027,-0.6908550674605974,-0.9419301923022543,-0.9775029095862507,0.12943732161347107,0.4783786878546003,0.5160766673265078,-0.6847291920605971,0.7218147314620388,-0.8915552493382731,0.2720982879096752,-0.26701201083857945,-0.9313645587233537,0.32734693118640373,0.21955722875516465,0.1661761569000628,-0.0041054340584346285,0.8506824465877333,0.5420936734984134,0.8787563130354132,-0.5004704202315545,0.03404684977383092,-0.7847866298382788,-0.21620354541504327,-0.04177992466619432,-0.8355072427067518],[0.7450443728896136,-0.2992258748057817,0.5835537659989822,-0.8963804186632177,0.6675548128839884,0.9251973143872644,0.7570714817380412,0.9537799496928221,-0.10492838673783234,0.08611772081841612,-0.3080710284266211,-0.700351166622416,-0.8956655959981575,0.6682669414674258,0.26428169929983075,0.22227593795858366,-0.48316992910103534,-0.7117543725894158,-0.9308186913437412,0.3978524136091989,0.9228892080756221,-0.6130754227971787,0.3364763003692091,-0.6264222584964272,-0.10943611462590178,0.27586413081490524,0.6936509360733304,-0.19449937760956731,0.15744147280796655,0.4942989501579404,0.252390691527798,0.8631432896744161,0.10364547765201375,-0.9006866449856333,0.8017686703672023,0.4486125463288438,0.25694990376044535,-0.7755536317459616,0.33566126162602905,-0.9984756069547918,0.7065900903876856,-0.5175221137110605,0.13168322390329076,-0.3559570725123324,0.5474696389383416,-0.4703348836169444,0.7171192266931039,0.7142971443967951,-0.29067634731708725,-0.8656964449348457,0.05115417427015453,-0.3029149384750919,-0.5566198683417372,-0.33748694870239687,-0.6502701691680896,-0.3424916913050135,0.2893937406545441,-0.8771701208944611,-0.17129940145725786,-0.6888181046290379,0.07336855626285453,0.2595841734187005,0.7550205151513486,-0.023041675164539924,0.00465247954752975,-0.25775071408286215,0.3224864190340034,0.003461060537477547,-0.9024090311349896,0.07011818510364526,-0.8675352335100733,-0.9173181573037676,-0.9852237029162999,-0.8093594656796906,0.05632679489031028,0.8953158113623036,-0.24577851997423442,0.5830277072220152,0.02004445646374389,0.42717579404366773,-0.14764402546899927,-0.4497305499049182,0.09847727851653071,0.01634437583892434,0.5848750473214733,-0.2288548750298153,-0.7967118528097811,0.7617452781676565,-0.8035746563663974,-0.7945456878062909,0.8274026049963011,-0.14910911349196734,0.19789885475286279,0.6218665260363605,0.09381424645277987,-0.06109458532811275,-0.4083653445262327,-0.4906664766018041,-0.1772494083543804,-0.014901192765961658,0.2976872304251431,0.3405987851438646,-0.8020179338744918,0.8822284333730025,0.14187568525875857,-0.4170186718886768,-0.9877467102272254,0.7174997617147083,0.19923255365131123,0.49538001688977057,-0.022939461154063184,0.4233420711434603,-0.653065603302932,0.0361713535846664,-0.5995651163061547,0.31195543676430476,0.5818126186665866,-0.9062290826394378,-0.253807325970095,-0.10862732236761052,0.06669462202812687,0.716874647289147,0.36096282878716035,-0.6793229281047406,0.1618663326319798,-0.08660247687792731,0.7372918594678831,-0.9326618954665065],[0.7294660632895891,0.16495292401550485,0.993365108510647,-0.2578761857290686,0.16767494212570813,0.9106695030247769,-0.8368226126374748,-0.5532954327298311,-0.175600572881708,0.5377561178904997,-0.6289980612319024,0.869027196706499,-0.33394926685710163,0.5137727019438024,0.2620224492114716,-0.6593584052417435,0.7747996920194209,-0.3232139400126854,0.24406976925995202,-0.5429544889737768,0.9990145896913714,-0.4007753558098744,0.5069791326068865,-0.14790060375708955,-0.7573385241572632,-0.28532776126958637,0.09414084223155707,0.4065280849204703,-0.06972875347526605,0.13983032602781553,-0.7570563834683509,-0.9564046536458708,-0.9803221972250602,-0.2652747719590026,0.8533222663266727,0.556736768899714,0.5629739682487565,0.9798983089862807,0.5956750678220232,0.7448400556375385,-0.6395592316077661,-0.7296299235236952,0.6943713129243767,-0.5726811913721416,0.3875048575440212,-0.17615624682823777,1.0024447102753193,0.16589405068270913,-0.9116065571629237,-0.08100501094500315,-0.42707269089005967,-0.3614406253831643,0.9289186818401012,0.13924515972254795,-0.6706515051588586,0.8279462541686815,-0.6463077579466753,0.012842444950909098,-0.8156179764980949,0.7592240156664524,0.18336798306349522,0.5740633194804754,0.8993524848883133,-0.12634548869384882,-0.7631235889958118,-0.08432885507080297,0.4963829351658858,-0.492694789957591,-0.8734630681098272,0.3059863762095957,0.8831838665444148,0.024188638360986225,-0.8080498867948268,0.318692707640754,0.6463811003293752,-0.571689074487275,-0.2487212462439534,-0.788820249374728,-0.513092782955999,-0.5721789086818361,-0.5910400647660403,-0.0894160404709359,-0.07751035975180522,0.20415599577635687,-0.028757289767573413,-0.6096321695975891,-0.5849798281310836,-0.9670542998748042,-0.8171934792716414,-0.35461933342160906,-0.3585818469767842,0.12940059522889755,-0.7047953927013615,-0.329693878045891,1.0159571367257778,-0.29254074686106474,-0.6271986624003629,-0.6958600506817706,0.354585371900862,-0.6997694239581544,0.5070675246068442,0.7305816868982069,0.4798028158395131,0.019422259201677977,-0.924162673907168,0.4432344096230067,0.3546490592832802,0.24123644957685467,-0.5768987644979628,-0.5645899152236236,-0.1347972341812248,-0.8466846633761547,-0.7900281885046979,0.3013430548894821,-0.9348388917307328,0.03901425834146822,-0.8253476226461217,-0.8160314101878278,0.9411560612853413,-0.5796507256611393,6.089386416840463E-4,-0.164938576676701,-0.22597503349501596,-0.1524359539990524,0.6776767318490834,-0.39187718809670546,0.486084093771399,0.43923233944744305],[-0.9493652608641221,-0.349472346856988,-0.031214155312711735,-0.8789762851018311,-0.09751387513572198,-0.42810240685161405,0.7565183395885486,0.6722964623162463,0.4505734281704518,-0.3384927761781633,0.42228637213005477,-0.8650910386837184,-0.90050292041961,-0.12019274196075264,0.9672222386371236,0.9851349677835427,-0.9155502057491279,-0.48632038475537887,-0.09373902938812625,0.3116459181005172,-0.6466231063889614,0.4054446581600184,-0.9119445373033142,-0.8772090856646666,0.4658256705707561,0.3565694526122201,0.4250549376423628,0.7240744363296615,0.8026942981997284,-0.7201495247643709,0.20817613562863035,0.6275237327343607,0.6009153754217444,0.3143646492364969,0.27583234525263806,-0.47472347219256406,-0.9180067318730394,-0.11877372409515777,0.34105344471213456,0.38399277187443515,0.006166000226747886,-0.9402342478730106,-0.908786952937392,-0.43695368336810037,0.5965248391709499,-0.17764300057860116,0.8268233841116216,-0.9346888796597017,-0.12628497089760007,0.6678321168495721,-0.9195063660729214,-0.08877095415434279,0.8532457099297507,-0.6493939702374893,0.6496771599319723,-0.6150835440423894,-0.047899494530186236,-0.40855123913366465,-0.41647017383538065,-0.4137995874767523,-0.4466966401889347,-0.1560913442299468,-0.4288854064284996,0.30041906150994574,0.488279513574555,-0.5626766043737232,0.3462605592829307,0.1842126827535242,0.8898386959934472,0.9440738739145309,0.0025632872600137597,0.42365532677491324,0.8597515647851547,0.8362970335304657,-0.6434794206692914,-0.07583935765476178,0.5864374704251485,0.25474885538564923,-0.45139804413855766,-0.7708028490777172,0.6265571699848287,0.8049905994848312,-0.09057552968527538,-0.7574818554548989,0.8267684498610254,0.636119407124986,-0.875350291763825,0.024328154710916188,0.4384424456651907,0.8191700296808552,-0.44377471755501074,0.13444225797666903,-0.8508311060501008,0.6123493040103168,-0.17526977004098093,0.6786492990970793,-0.726516560841779,-0.5738758928552238,0.643746656058589,-0.10354609686025977,0.3232613036899644,-0.4726887701439913,-0.10426191853814874,-0.7245378404323995,0.9211549754833394,-0.844295766966676,0.2522791820969411,0.6835614854716889,-0.26025640960007956,0.003093154909803378,0.8279070716535595,0.9106911479887088,0.6646814185909425,0.7145558738525329,-0.019602825032637314,0.677760702982503,0.08753078231296028,0.5492922614780523,0.3174559433114128,0.24869276793189343,0.8243711169558061,-0.7004028609252992,0.5840277438475476,0.5768262932956716,-0.3755545031216034,-0.31257149584926486,-0.41275176967375976,-0.10881270508084397],[0.18234022014149,-0.9489454602712055,0.8665716013018727,-0.8271160217320727,0.17985891542932717,-0.5908039851995964,-0.5943780820166036,0.207771543657279,-0.7429146025034785,-0.805608166165681,0.7665362624151397,0.2220537361750494,0.4010236606571061,0.6188478093296333,-0.019066059365087026,-0.6808254515884963,0.3430866271777891,-0.7553774347709782,-0.8808214790466881,-0.7994787159053035,-0.7120930326630988,0.9406086224442579,0.3259197900972814,0.13219496380206075,-0.12175346854096619,-0.37207354351674155,0.9919349983953589,-0.5429355573574578,0.6809762292195832,0.8442581240725165,-0.6449932792664318,-0.1159432915168493,0.02798091256495749,-0.031751195738902734,0.1177258202348776,-0.6063403382990912,0.9722356108245288,-0.3984793970073248,-0.4848470508599671,0.5953879601163365,-0.40763112915251726,0.9472794065474477,0.2286391732744451,0.9144212424334857,0.7840930259332056,-0.46262973374495947,0.22661680825476524,0.2801525390134,0.234252876818288,0.20610558728904005,-0.08370699593953046,-0.07124935819307174,0.9711415118136176,-0.41287181759703373,0.20950558900689908,0.4233843549203886,-0.5389806055981219,-0.3400054869150688,-0.15199077888540227,0.2472651667000145,0.24366246739642572,-0.8730412533597485,-0.09682929231773481,-0.8121226055392271,0.7123519589783106,-0.12478047445538257,-0.2788833633469845,0.36260830569778907,-0.48971690077341085,0.8587256278202384,-0.34850953339700474,0.3027372656548817,-0.43101613076795603,-0.6874708354275522,-0.7932616581890128,-0.03873745131976269,-0.37281514782030295,-0.08838713828598467,-0.279197418155336,-0.5314718415655951,-0.929820616672309,-0.47703685757015246,0.7775963056855872,-0.11585768394951361,0.47031854663397715,-0.9753237661712681,-0.974848316670586,-0.869148751123181,0.5398256873084197,-0.9341552198376256,0.06367020792243483,0.14496812752658797,-0.8524221400384248,0.808706973702137,-0.30417517337211475,0.6860666034779559,-0.768888930146682,-0.020382160238589672,0.5374967800973376,0.4612629681015964,-0.05339179159343251,0.9357884733892425,0.9309532090142772,0.03618066167983398,0.9779922405879208,0.8635966264134556,0.8839436149528772,0.5738188755426475,-0.6471107410716022,0.7433986876827737,-0.9256260976178396,0.2628569588518439,-0.20208625871266406,-0.7870112540128721,-0.6165167701695698,0.4047537914792872,-0.7564887243727335,0.09190708359805305,-0.5269630152222371,0.2572514497917057,-0.5815376411145928,0.13262253502043353,0.08839073482478615,-0.20957855105574622,0.7983219197414759,-0.11450126047199365,0.40124238661341566,-0.7498526905434992],[0.1347516158168798,-0.8488623822906703,0.5924662022690145,-0.8881848494322226,-0.5815233043071022,0.007389090137846912,0.15711216310966392,0.9638827522720606,0.3742820426865024,-0.9978431047617816,-0.9737153911416324,-0.3022955402329364,-0.20936906790293985,-0.23607866217142637,-0.7852049883112652,-0.03792647673299208,0.3959203622917475,-0.42596401473980566,0.749985021616597,-0.140085709489266,0.5648908644228123,-0.4853785656825287,-0.18918288812489456,-0.6087356793528251,0.7296251591804529,-0.6405009845288496,0.0888861288952101,0.9444133760196022,0.9492842032258157,-0.8206984954530142,-0.6467842839037375,0.823204484349266,0.5365564288652755,0.30088275738287373,-0.5019285324005198,0.009819417578711385,-0.004653806390082908,-0.645604934199614,-0.3143263770045074,-0.08651982216817293,0.24196875821211053,-0.3547276443445391,0.19455006564755353,0.18863727154628057,0.2759145138330101,0.5704408202171939,-0.06565530034002698,0.5813730215043829,0.6262537835976805,0.08903984118720175,-0.20651062120656843,-0.8691264954762049,-0.180919030446961,0.8337640503483691,0.7791703744515851,-0.8849850840625739,0.66593035750981,0.9235494878324625,0.24623182128578128,-0.6496721963721296,0.1991911124468344,-0.5951377773805518,0.007788747570649687,0.7832866995845205,-0.5664481520724279,-0.2524914914329871,-0.8700268195716961,0.6231473988950949,-0.7609689230811734,1.0104464310657428,-0.890627710503358,-0.03335923462735233,0.5295211059817496,-0.6155794411171255,0.9019326410138246,-0.49512776536371916,0.4320151064890672,0.5411708593458249,0.7665100237886132,0.24946850082472857,-0.8143892887344611,0.6108119339673141,0.04668047823561367,-0.6771296620447017,-0.4658907224607159,0.37135412749961744,0.08928788509051223,0.3873020205573204,0.8962718751332663,0.07391477953187245,0.6042151384933497,-0.9147226430694138,-0.8442132260800734,0.0182283269244969,-0.6192151904095801,0.2503444164906693,0.22650805234315188,0.5590098909468579,0.9108918315734393,0.44037916695035095,-0.8418087342216214,-0.32554107742534066,-0.18073101884761433,0.5228828617149274,0.7281847222137714,0.32675288949898745,0.7285134370509929,-0.7485398412844921,-0.7984073633305824,0.8752902977586129,0.4583072060959915,0.7321960859507043,-0.03494889330509339,-0.5191173231184378,-0.17417013911098825,0.4036105148938635,0.4381558516932271,-0.5007802705572648,0.8662338614523865,0.3897329103407197,0.935715887158501,-0.8361166931074729,0.008516913514411785,0.9029019909818464,-0.9666183852313536,0.9837514323018398,-0.6898161364844919,-0.4309468162670573],[0.4048111767455273,0.6594710904394028,-0.3639746970685911,-0.600082473471729,0.14912282775606042,0.24327774821640183,0.9104138485285719,-0.83652637921452,0.5924967104393452,-1.0047455688820552,0.4724959683773636,0.3904501784671778,0.6808377690850961,-0.4981746822384151,0.7584195406912068,-0.013675835861706738,0.5387590510162649,-0.6020001562845618,-0.5029272017450643,-0.4524466770286968,-0.8900038987527558,0.10714412046664533,0.6848206136574652,0.7427624284705943,-0.866476135128509,-0.5131062041495219,0.7171723521516364,-0.8144664899713543,0.4728198971206714,-0.13801130454791588,-0.5901346507396339,0.9125646498338843,-0.7969251050932592,-0.5937098189519608,-0.39181316189900756,0.9225106918647406,0.49760088688690246,-0.08458453577805389,0.07406861247921259,0.7262305635051342,-0.7819991721163413,0.4472557166683385,0.293583217776422,-0.1252915727946451,0.13511652102179988,0.19773763771451325,-0.4742179538728798,0.7841976435906826,-0.07887279533733996,0.6208716516569601,0.5388130579652143,0.9537299311848743,0.9088518167253099,-0.894645265434237,-0.9297901073949274,0.7010268336901144,-0.17606207644207092,0.8831705859844529,0.458708751922726,-0.5206659851063057,-0.24399396462008524,-0.4169137590820955,-0.953675700261061,-0.640320979897915,0.7742955828085487,0.665645214378279,-0.44792760134844606,-0.1697418501459133,-0.6140206018220696,0.24151290255729943,-0.20344677253112411,0.12348603732567869,0.6206887119732031,-0.10732788334077609,0.8289027949659541,0.9445168624802385,0.8013100126335175,0.6844468882308241,0.7087437752792061,0.11671923198323961,-0.12244740653575616,-0.013635225460900043,0.10956751249715235,-0.5751850055096206,0.027994465847045805,0.7889987952761662,-0.022860248086296667,0.3395277492026581,0.8443519438916027,0.9376389314510466,0.5214984506712987,0.49146049780888307,-0.4394608238413501,0.47634668668188174,1.0226824537613066,0.6843739245060241,0.22495998942020182,0.29479188271401474,-0.22567624920086685,0.09353357196887559,-0.562906321356705,-0.9116394230308615,-0.8085508989533549,-0.22933601568962608,-0.22534442930642098,-0.06785207920576536,0.370373600092598,-1.0166918347715659,0.9565777501681503,0.2951754229668443,0.49380395456739357,0.7962151382074266,-0.18533249156283244,0.9406202402059993,-0.835733132052532,0.8997269595478558,-0.7568431101082695,-0.6893903965121694,-0.1108333606437904,0.7234424523057823,-0.9900608845421094,-0.8677060327584241,0.5419192937424862,0.33145554546306355,0.06672198624157162,0.5254442508935113,0.7020638078967635,-0.9517224387806168],[0.11547630676080237,0.45523940118831063,0.031019554159622265,-0.2934276726761202,0.9651595878822794,-0.1999099055335006,-0.9233187423664546,0.388417963839329,-0.6240490963421395,-0.6092037986346986,-0.88432656678138,0.6956562197837466,-0.2510978029353038,-0.7923287811505288,-0.8947775861357847,-0.0824446421015769,0.125264054240314,-0.10107127355280754,-0.13972261763903085,-0.9455043108711627,-0.4850533739708967,-0.5183169566065623,-0.7504310174433882,-0.015218261544132293,0.17580396013201166,0.6013447326846411,0.9401491925738147,-0.20739554831144555,-0.35888027320144417,0.13673572354908312,-0.794192868368114,-0.3897772000362511,-0.5113182697811111,-0.13543130094930556,-0.31126390363553325,-0.49506584519165975,-0.5498078112996799,-0.4045088688747447,-0.5793960017721747,-0.6645714330140063,0.9546797604572943,-0.6993961235251391,0.9875753023591475,0.43943285301698565,-0.8710959169839603,-0.5016679569391037,-0.7661028194824621,-0.42512530222848344,-0.9454718276113627,0.7864302746668507,0.4622814427610596,0.8840060981771106,0.533989699524695,-0.1766278210030403,-0.40813618608087776,0.5244986640278733,0.26439725413154114,-0.062056836061303286,-0.37031703716402625,-0.421105832480229,0.7159612495988456,0.4910266003247062,-0.8868620082194356,-0.4159649459102065,-0.7671513952161594,-0.9813613552576098,0.5292772426937427,-1.0125092312424702,0.3116705791585643,-0.32389522028527995,-0.7481728450673593,-0.3684024513366923,0.3610976427680932,0.6726571578274895,-0.9221062241986594,-0.983650385969929,0.7539948970802718,-0.9399485171176886,0.8134225660540386,0.0809531315344694,-0.6542795449898666,0.4643282267529456,0.08673859758678851,0.3990848258538587,-0.8234920058655901,0.6914156346027254,0.3587092264153529,0.14425813878051338,-0.3359459763959595,0.04870730628261647,-0.8424934681638703,0.5742728498197434,-0.8811024946242502,0.7647188164712696,0.2610272803638659,-0.08261971390382712,0.2961401359705955,-0.2699587986679453,0.12663925576946913,0.38260538168556163,-0.3247459434838926,0.9810834423412025,0.38641572583380185,-0.33257137376657303,-0.15567446744487085,-0.3519032913520144,0.730426810422449,-1.0119434830241336,-0.9746455345112444,-0.43369144245394603,0.7819639128422708,-0.11226443735200152,-0.7212481996714288,0.7516099401712617,0.5836346371352202,-0.8902674495052094,-0.8623130077803868,0.7994596235671295,0.7297591264198334,0.3655090202026928,-0.11438324731192827,0.581566601848975,0.23556096864162052,-0.15877291092081786,0.6562461965394244,0.9625742631177224,0.9419651926096094,-0.8424934727398338],[-0.1611195131818655,-0.7393816081398498,-0.6030428509772413,-0.9102705276584221,0.581258055291272,-0.6197124442486454,0.9500604940826548,-0.47455608278684613,0.833154418399628,0.31149668766750693,-0.36722661451562016,0.28888428952540646,0.8634474303285006,-0.5599737331204021,0.8086214106584696,-0.2553105940155682,0.2798144212503269,0.4734098029411417,0.16594057743021223,0.6660783843303958,0.3411156091366092,0.03960244340591207,-0.761525570890177,0.3386139853110114,-0.210651652339506,-0.37293208567902436,-0.03151145709850028,0.03821510148388128,0.0867102319672811,0.657413364182725,0.9427812777639132,-0.008704934943704614,0.5997874423505682,0.7488983344545862,-0.9494001567230417,0.8819131568621974,0.3774006132877025,0.2643181794893979,0.25928268200625776,-0.3262255898759369,-0.9575267119795005,0.7427347023476673,-0.06319096862749128,0.32855391985143156,-0.2520431900073759,-1.005606846863576,0.06613767828063961,-0.44828425099550934,-0.6065234552592065,0.4121043720486498,0.1875373105947651,0.4106904041734466,-0.24244845652922,0.5413102489211433,0.7579727671640172,-0.00809394064530117,-0.7951354613582061,-0.6374985585074241,0.3481777608412472,0.645810713636701,-0.9061588244272263,0.8817375876378858,-0.6511154609280524,0.22475661165364666,-0.013863094214710643,0.39106222499907783,0.2807144839495,-0.39513100442690713,-0.4536986740373416,0.37001614183839193,-0.8614961256380136,-0.10034642965478352,-0.04757966464866877,0.7624007594038129,-0.573860368609955,0.8814565102080444,0.5209539145585651,0.5498552783633279,-0.3944823112630951,-0.39903715820720365,0.09967164848360219,0.5277031606636564,-0.027683896224542367,-0.937645961375968,-0.3045668899205265,0.7895859326727241,-0.5215265773791192,-0.40332599901752714,0.5202976518421759,-0.796611428912534,-0.24885603504849999,0.17588197564402624,-0.9117326830451657,-0.05216033823909087,0.4093192210445306,0.5943757541324814,0.4894831761068707,0.9185883279929001,0.061521078874060824,-0.9223046015117986,0.5222537608656704,-0.24294410814577877,-0.49438937019177975,0.916178724875555,0.8566906116511568,-0.9255927150800568,0.730443449640821,-0.656485687648073,0.48027318614907516,-0.07296192641406285,0.33666462596428404,0.39427226210989275,-0.43185966521050395,-0.22108150905163623,0.5731329237125551,-0.7215173964287235,-0.5696975865984335,0.06690819673263534,0.5169889534070269,-0.4878550653592663,-0.29185886015937723,-0.03206576249711629,0.19017811381373012,0.19070556447059944,0.5216144221012259,-0.06694061004036626,0.432895795622819,0.5311468657178641],[-0.24666720289659072,-0.21811587571390803,0.8993686014422134,-0.20500488000501155,-0.16569722518633043,0.9149060114734977,0.009888612207289227,0.8103367119224907,-0.2614942252097532,0.10819383244469112,-0.6060925726879778,0.27621807538851917,-0.8789163191376439,-0.08563501543908597,0.8272918554153117,0.9044865692711282,-0.21347407742544447,0.7504760484734224,0.5371795466444731,0.19936049723622165,0.7371791360692088,-0.6256983605155961,-0.24591371760050582,0.4197845524369748,0.8727636565909835,-0.3300935636821282,-0.3805666967789839,0.8332194821212487,-0.7226794246694712,-0.6326062990071935,-0.6895758151951292,0.7643146825974354,-0.15675089262234743,-0.38991852736327404,-0.9274032423411639,0.0051148245359351864,-0.5699311050067124,-0.6646096757928921,0.6172793566310938,-0.2871988641609179,0.23567538272161337,-0.07730434984494566,-0.0018209322985947975,-0.2200029531738246,0.2070263597089612,-0.8912200574760302,-0.18689353381744056,-0.6064187083520589,0.49850955008453385,-0.018759136120665404,0.6132235790504886,-0.9703736225565748,0.6335892073016968,0.5041105824162573,0.8720644260232511,0.5963272765693919,0.9549219802665455,-0.7343190337478142,0.626990847294683,-0.2342339199820583,0.8127728233857514,-0.5677227247765837,-0.10343695358801855,0.3650175502882448,0.6789151741606959,-0.7571622122901576,-0.537679982433282,-0.7112804781270536,-0.2775436510217776,-0.5787118619979512,-0.7434255167988039,0.5246092923249963,-0.7580336405214037,0.28074755134103563,-0.669031779565032,0.08070060726177689,0.5655478602119297,0.22793183226610636,0.8636697674512922,0.5962819865263717,-0.2293955921224112,-0.5069368104167908,0.5466403585099093,0.7767018729005274,-0.4535448866517896,0.09353610829228871,-0.10993354075893826,0.9777607983136568,0.44424469102644165,-0.4536523743092289,-0.5083925138733735,0.778393804712279,-0.7266397191345274,-0.50200565963408,-0.01448765245185947,0.09723976522459603,-0.07830010679882869,-0.5710818315791291,0.7465994637083682,0.7024497245503708,0.2151248741140099,0.33659595119920166,-0.7722555710662242,-0.9432670932188233,0.8797268561055687,-0.5835703383172912,-0.40336430046369787,0.8947193195364161,-0.8553232595946024,-0.7075260087676086,0.11113171157681276,-0.3414371345180923,-0.819685028358302,0.6760615589196758,0.9443738582619426,0.6812886504541805,-0.7204838612849666,0.005283932972698395,-0.7800049679849507,-0.5604102939632871,-0.35184578677167627,-0.40937357324429646,-0.1247446322605946,-0.597873348792608,0.314551846106177,-0.29876707673198927,-0.4556430214619561,-0.9651066510443224],[-0.5062148974215691,0.8000635258082403,-0.7217060240299035,-0.640675698489531,-0.39547296756561845,-0.7862848845554207,0.8426941222180588,-0.20584137112260514,-0.49376342430100634,-0.84406279678721,0.45096349691286514,-0.8602518205264904,0.8363081520343818,-0.4819419389430664,0.3678844838364269,0.2913819760990904,-0.7070088239695762,0.5965934302552894,0.9379293078796018,0.979127685531598,0.20802841902270425,0.4450421994364291,-0.5220541926884765,0.7874076835505689,-0.8142190343145789,0.36829410420097997,0.9323121387641099,0.7402513055914595,-0.2557900650694241,-0.2908623811924633,-0.4890830326332165,0.4467872602280974,0.6986856138355965,0.4890306556763282,-0.8010057118522587,-0.5414269847711202,-0.6564457996201285,-0.24266017721363073,0.22391474338730996,-0.9861582415591691,0.42210850432975844,0.6028953314358791,-0.7809113728327532,0.9286237111657448,0.44447115929336456,-0.1624992824828605,-0.998900079019236,-0.37564396022766416,0.31183909403056453,0.7361538520208883,0.9186419251491278,0.2574580419146119,-0.03245947310257269,0.7792992720835858,0.09857706861209317,-0.0933117405894522,-0.57319619751448,0.6107257713322961,-0.07944309184165137,0.22081485015848965,-0.18227699690263946,0.7434313021321861,-0.11494010313971229,1.03189529441179,-0.4723262423953011,-0.9406318188912463,-0.6704564492843456,-0.05165381513405019,0.5334038387488739,-0.014338832015135212,-0.47687694465834785,-0.48785812600394807,-0.27455721409850026,0.4280650248528065,-0.05084650059754687,0.5449930828778282,-0.44261449335203645,-0.7332291418985875,-0.388551960180581,-0.5661118469680494,0.49958823144029774,0.20337156393629235,-0.570117218652863,-0.7247992316786033,0.1613516633066535,-0.0854979600321671,0.5580717897254474,-0.7755141563122104,0.49268541656749404,-0.41516940996569907,-0.4853898076955182,0.5007115852905774,-0.12046116792853737,-0.6920245443783036,-0.5609988960613221,0.41537718546578417,0.7175548639907137,0.28218248085248676,0.4107961636782678,0.5593260886280698,0.45664516159660873,0.20561429479483861,0.7497639813962736,0.45079089083918006,0.18369022043606129,-0.5098716520007529,0.7200335498142604,-0.39527662977213807,-0.4266454958759816,0.2495109950156086,0.7220362986058738,-0.02128396130482427,-0.10592954633874369,-0.242318980866769,0.819808985191096,-0.3951988916758655,-0.31137953389662154,0.32376168559820423,-0.28249602893632786,0.5174022312854738,0.6465862614381401,-0.38126537153299306,-0.7900773087528216,0.5096264667526332,-0.3012564811398963,-0.3382518464354311,0.6698305689898506,-0.28380743469721537],[0.27285703487836954,-0.9552894033853834,0.8345960896866882,0.5842708921537663,0.8369749574771228,0.24556143930197202,-0.7293479252581553,-0.6416393484635554,0.240499708853909,-0.01840114332388697,-0.4341072795010917,0.771088324803759,-0.44956412065357376,0.33180114519362724,0.6429801749632441,0.2543447864289553,-0.719161563234865,0.12441643412161141,-0.8827880016627419,-0.13468385413429698,0.3763899918952738,-0.5725773160068492,0.12069888514621244,-0.7088654487749855,-0.6130437090593408,-0.29268111792673956,-0.3045886641585358,-0.05293086493737858,-0.11171402111969832,0.4782059610761663,-0.7580264124892161,-0.8087136614192201,0.45903793838803214,-0.09249316610820821,0.9323702981456703,-0.28605245408207847,-0.5412143263355349,0.0618899552913045,0.3910150159462319,-0.8099708513960132,0.6748897201568976,-0.8445876830580701,0.8231942330588762,-0.16281480197542797,0.11048765037530758,0.8807419914791571,0.9291677986946874,0.7899134168678578,0.9288622971688808,0.6458462030719727,0.6753338850417367,-0.34660651901053036,-0.6105505203586721,0.17026286425017498,0.4949940726585306,-0.4213635907695113,-0.17830706913834618,-0.7239178839434731,-0.8678707329470542,-0.44444519028281787,-0.046134250809221664,-0.6602952570029218,-0.5374471078632754,-0.24806322125052524,-0.8038355917834943,0.2729401996216792,-0.2241192527360279,-0.2578588395114092,0.7257321241733716,-0.7403131739946569,-0.012564871815117574,-0.8374351861408618,0.5587085759386203,-0.4365508327965936,0.12185596731806302,0.6180230099318846,0.39295593796861195,-0.8916010789196206,0.1261516496482061,0.939670070502509,-0.5441448147254461,0.6123325756594672,-0.9775811959512225,-0.9268750327397173,0.22522973681856925,-0.14316007687500576,0.7331283770518767,-0.21923569464500312,-0.5063078656495487,-0.8110439458600053,0.8772074187997542,0.12153038252918648,-0.3969545481444618,-0.31458199061930237,0.26564113653703025,0.4488317056700095,0.051978648972236904,-0.003607661336194604,0.3355774573562423,0.6978070027563339,0.6210061780927333,-0.5914241606742756,0.05665845488927547,0.3000740415803796,-0.8353016815209773,-0.2723043590672033,-0.40363243908575824,0.1668822006553941,-0.9604860223299073,0.06341718145001742,0.6491606877905566,0.6074249675538015,0.7707726538143,-0.8577742123133488,0.6306043789523564,-0.6635305401108409,-0.46772883640207974,-0.4886157780929549,-0.31673561026624464,0.16790941105541324,0.6586278202037374,0.03706409560482524,0.57698935417036,-0.15061542237238718,-0.7108596148520125,0.005664607353495165,0.19314141961520476,0.845495224700609],[0.8535925312335162,-0.8504131439651009,-0.5637836259332683,-0.47822813726631197,0.7338926009264901,-0.9548284051966124,0.04161678269808275,-0.2668753874484606,0.6612845170101288,-0.720176937849367,0.15464469979840012,0.43794803096423196,0.015359060439832244,-0.400528344018591,-0.49018320976996765,0.6027162062142962,-0.2256672175313127,-0.32160568029810394,0.6592479177904275,-0.7859757616528371,-0.5326322850501838,-0.2338914742333253,-0.881839842745817,-0.5845425441435378,-0.9165125701214674,-0.16734697048811667,0.699784859882974,0.29617820041524845,-0.7704600383992064,0.11374174886120225,0.7005267033649251,0.8642646525226708,0.603884162489433,0.8888445997481527,-0.15864313126432214,0.9442368199666915,-0.30707518795155336,0.2984131050491091,0.05910168953885469,-0.32180991807123643,-0.776202268618145,0.565502110553281,-0.7578253316948967,0.42430556966058514,0.582704516381585,-0.5453662477771988,-0.3524806997046688,-0.575615094408971,0.8593368287067121,0.45990114133229915,-0.29960578728892207,0.7624790282722298,-0.48713639469239645,-0.5888741970418588,-0.02600383512717236,-0.6669530955127052,0.6893849720621101,-0.07279382684267557,0.5905420173538162,-0.8068524465051097,-0.896947249241133,-0.33031189300484526,-0.2429224145470493,0.1462406294255294,0.9538221769794363,0.395002245291893,-0.854767054805605,-0.8044488546520352,0.3010835252121173,0.5416452272632001,0.8210362668682694,0.09063476232383867,0.6666091122449018,-0.8842600140020319,0.3767361386584054,-0.986175367806117,0.19978836217956122,-0.657014274177778,-0.05880748173586856,0.4058196150684071,0.35343691524082216,-0.015300222823438828,0.5815116793201346,0.912888318682564,-0.32461260837275285,-0.16909426151719767,0.25950373594871584,0.7201374392281671,0.2557920175947807,-0.42020880071382444,0.5922342087423937,-0.9539903198195658,-0.41914600664445506,-0.610893899787228,-0.22496348454795947,-0.3943826183250361,0.11755504895639364,0.5778239152937782,0.8648915407685167,-0.035945928704602316,-0.21106198527227507,0.5427093025369432,-0.4746655373358987,0.6288543978767963,0.36097885570886523,0.18388242437756205,0.16043217897366413,0.1864925506751454,-0.4747473801468497,0.6671419334654383,0.030044212302581433,-0.2472426592506108,0.1626787057909355,0.6838855503673742,0.13575474440832455,0.1870998270045123,-0.5267663888638595,0.8561539560138209,-0.15938708657782796,0.9480864085383632,-0.35527690983681326,0.741986105954071,0.7744506397516646,0.6777022863670177,0.6838561690987305,-0.12776614392713148,0.5100807734159991,-0.10745664187384599],[-0.4949210527864584,-0.12720993220562626,0.512703748818872,-0.49189564471085034,0.37414994641034705,-0.3449266837480999,-0.7621136587828635,0.46121378242948624,0.2056813001043117,-0.23843627340003687,0.37045227646575085,0.8126633978239624,0.22558435251407405,-0.28161631474538446,0.7044411316609595,0.5853705455020644,0.7648269473452131,-0.16738869158281877,0.9508387086204201,0.9126726433905414,-0.11438555579418101,0.342090385911948,0.8666364457775738,0.2139747511320195,0.8166455336196904,-0.4323369408124737,-0.46817530257654544,-0.7324783073965174,0.9786780825182497,0.13765331041027018,0.6022027627655488,1.0238593653763215,0.618655595417454,0.9273395283475406,-0.43661338827709445,-0.8511856264496803,0.5752373562246681,0.07278370533228022,-0.13666325845182897,-0.36983070277808877,-0.5651723721112688,0.43263851015201493,0.07908200238606283,0.5622454703671289,0.959659080073282,0.6745437450037094,-0.19689758066679894,-0.1669232220154069,0.8790676678494578,-0.4086284690413449,0.1457540904842457,-0.8279868560220086,-0.3711364169750888,0.8828832641074646,0.3318899947041987,0.997378560902952,0.1388440801813808,0.1478300121724364,0.06958567393001654,0.8665627568817524,-0.868237294596789,0.10565662028775069,0.909260124058351,-0.035746175461346744,0.6335525957668336,-0.21279094255016126,0.37869522798176375,0.8780937879882587,0.11180525519941611,-0.8731454823136847,0.33610743423410533,-0.6995483624826447,0.43861436948375904,-0.3007418617480728,0.9461660254872925,0.8375441321763362,0.31339935089294163,-0.2659423031286507,-0.16515862317880134,-0.44092428993579197,-0.06736101051264182,0.6085542854244603,0.13448487841821874,0.3072916616292538,-0.11369934093985996,0.04120853831197937,-0.8776632367967117,0.6980870941660623,-0.5358650294599319,-0.6428306387531355,-0.3808154453061511,-0.6708976401681104,-0.570288058284587,-0.4310124278430349,0.5302983531543672,0.07928164070225184,0.16081953583669759,-0.45376992444640524,-0.5846890229837928,-0.05450485709788368,0.3655643766887383,0.739024763053133,0.3891677684750846,0.29881584458857896,0.39666616791645004,0.48200293581110587,0.2428367239430019,0.21811893822851797,-0.3069206881877331,0.6732754117452368,0.6947954971289503,0.5777885286782232,-0.3115510052200438,-0.07286205497109666,0.3943245337020155,-0.4896729885657786,0.029020201332996542,0.45912421030892764,-0.4105101880101306,0.4330973427137904,0.21596512876761662,-0.45400597448651264,-0.9428511159143641,-0.29210028762314394,0.4885472518124567,-0.6913958491363188,0.016441175200506072,-0.4759848923656931],[-0.0017468703704614898,-0.18853499576533533,-0.9394177865552136,-0.8220390761521155,-0.9142398874386231,-0.8952989962081298,-0.09401585731587092,0.41405616911301324,0.9007539147618314,0.27125687678346116,0.9684827086208635,-0.06539036938384703,-0.652131604615632,0.28910921424040387,0.5200695138895652,0.9275473269311739,0.39280586520790883,-0.5990581204120139,-0.7710934121998722,0.36870198513907687,0.49036184172441566,-0.6717592822246249,-0.3814249899665094,0.5851742831807744,-0.057320810376024996,-0.1849163534759137,-0.9110491908295579,0.006832311810955141,-0.24289755357032414,-0.18670490487224817,0.1383063051892111,0.9509611957505962,-0.0030908346327547867,-2.9774113006972147E-5,-0.20105961078939977,-0.07050203561147061,-0.7673297306712162,0.5664019786590567,-0.04543310331432081,-0.030472790023756406,-0.14245990028424446,0.9561626306062686,0.13919353286708194,-0.16636945629480634,0.06647383002923402,-0.7008491645170184,-0.8603893729382481,0.5438244995611531,-0.14025109578185027,0.17724737044530797,0.5218750990730741,0.45688732617473704,-0.02165221287965488,0.8017738127515699,-0.7207282219653695,0.44770185599711304,-0.41600876439149453,0.328025482768377,0.7777983882829395,0.4798197396694519,-0.1371847848610973,0.9436640943293384,0.0765670222193155,-0.7481300947269395,0.49495276702163427,-0.001273664527118115,-0.9310769123133962,-0.12553602197261415,0.1889709629334439,0.3362690325875381,0.9559781943144827,0.024096862952435332,-0.07345528100887899,0.9533336825183857,-0.2802457368418689,-0.38230959102290474,0.29538502674966194,0.1678624734783579,-0.15514203742772809,0.5929757599899943,-0.5354700114751532,0.2478664146372763,0.5845811646118118,-0.9295502749507962,-0.09115799994178587,0.9894791766009201,-0.17426698201121238,0.9475378010981222,-0.16236295472708984,0.4825662366978022,0.8250167507329986,-0.3327578828318912,-0.6666680240105948,-0.1556652905541753,0.884510058711001,0.8112964848690998,0.42247896583607863,-0.17061391097872722,0.4919746521170455,-0.9849023601057062,0.7115949820286973,-0.32173229231511213,0.34748739761459796,0.9882939013055023,0.32820843430829566,-0.08995980650000387,0.007633698431801421,-0.2371046855410113,-0.909045902833719,-0.6416339457826182,0.4355494340863626,-0.7992206240167409,0.2756074512373908,0.17237528636560423,-0.2190160188129607,-0.35301122796158635,-0.37935956171727847,-0.7830072165209824,-0.6784389988020496,-0.6724539870169315,-0.8183781705517805,-0.06499724820242561,-0.8983126185220309,0.2852869363388763,0.1422194586115704,-0.5077409321466639,-0.9036992340152405,-0.38900955381660424],[-0.31553393106737243,-0.25493884472953754,-0.36202170882461787,0.38794307635189446,0.23538429522972187,-0.5380496866566886,0.3411694209708353,-0.19220419191093513,-0.5107365824313426,-0.14877478757974744,-0.4766155277293647,-0.7132267652133872,-0.16178344666312489,0.08669929625629326,-0.7152755630595635,-0.21257062695474851,-0.1946042175426643,-0.5606076469708342,0.4689300835559277,0.49860619326620875,0.4188837576495969,-0.023237160151566006,0.6941670288041063,0.664240437675246,0.8028318065456809,0.04719810780219834,0.8959088372910904,-0.7436413694817816,-0.37329899388969157,-0.3542237280089085,-0.969033794695632,-0.2574643841183858,0.2296151866392049,0.5913007278145108,0.3054546342298562,0.9501153734118932,-0.636370058271821,0.4642407555422347,0.21004082764114493,-0.41289582644917633,0.1788218570311405,0.9625631958798111,-0.5892797808324655,0.040128116760710035,0.4257592874136713,-0.41283164280581747,-0.21825786752049386,-0.15267753369735476,-0.7383611872977432,-0.7334521225254576,-0.4077041610806905,0.2442180460860101,-0.42435973993410026,-0.7430061851393212,0.34117057339184514,-0.3321520617705805,-0.05359522760325435,-0.20095282148321705,-0.608030664763955,-0.012239756843403247,0.8967024333765239,0.403706395677922,-0.6101660963743326,0.31210540352842664,-0.5624730611592923,-0.713845677651276,-0.717445546222542,-0.5291407636580939,-0.031105598902009642,-0.3721944351900829,-0.7681852494809829,-0.06024323297156084,-0.912133221075869,-0.37519670665323185,0.3182532847918709,-0.7669195045052968,-0.07440045815637461,0.7817121683579283,-0.7429361828599005,0.15566784078680784,-0.762204043946824,-0.08367949207199588,-0.4333313046303557,-0.3362011027933468,-0.5166759696796627,-0.517124189422678,-0.8317820470785513,-0.7409873547169629,-0.23119570903289213,0.2454308503454528,-0.9523614803150433,-0.5923326037505197,-0.20536147612869485,0.19502586740202713,0.5615423659417867,-0.6832664823500926,0.23318845646035688,-0.07611328207185317,-0.384388652571485,0.29870962266000156,0.4404512675311772,-0.42352201361567715,-0.06511263935781507,-0.7752448199211612,-0.938394340637579,-0.6747595921010429,-0.2245278218194194,0.9670806303392907,-0.26343288143294313,0.6851411995325297,0.496190954703572,0.6948262075060594,0.10490342327330447,0.49486916344009024,0.0023422834042601337,-0.040153267063699344,0.4531247892079048,0.8064024298727165,0.2976991837548792,-0.6341880296202148,-0.1900877196842643,-0.5190667126704128,-0.9718048890069256,-0.42465766723024434,0.2122251738713082,0.2375051203273227,0.1465741500995439,-0.743476980475582],[-0.5560374463801269,0.19511532386893307,0.3707020335534691,0.23891871508330495,-0.6606151836875572,-0.0030817232869105402,-0.12926950116377,0.17466915676476621,-0.6598986520655528,-0.4167422265645672,0.2042715091773932,-0.2917726740973714,-0.6759837685999466,-0.961428705905448,-0.3252703332417629,0.7997615140478814,0.47661983975663735,-0.7605093935199824,-0.47098802016042807,-0.2741381762892162,-0.8275732963143416,-0.9192630491677649,0.8783800436226699,0.3182051408100185,0.6235264332457913,-0.03137473555856157,-0.5729390231711202,-0.5619659311702179,0.16056794739210098,-0.43271405685692316,-0.5226270036692803,-0.01724985060104174,0.895470087573809,-0.34585084126412036,0.9166630249875378,-0.5690301955420127,-0.7078497956675913,0.018418159050966845,0.07366720850475425,-0.7733937874205195,-0.7397402994906352,-0.12142677284116161,-0.9276915513914089,0.5533635729356603,0.30644821411556367,-0.402112685592595,0.7960691408698255,0.025942859663551896,0.6223165375732708,0.4501795420009997,0.4374219899946446,0.15744476680873434,0.35799366998062837,0.09155694336912369,0.9600051560243563,0.7033841555755611,-0.5801990956033394,0.6886939314600891,-0.005664293704194274,-0.5279998716875363,0.11561150605272497,0.6295318553322018,-3.7703090285975125E-4,-0.4483187521841596,0.8449954803485964,-0.9263614261137456,-0.3126855601757514,-0.8486774678559037,-0.4753176491820377,0.4284757397509436,-0.15029354765900005,0.9643387760280954,-0.6527350975241615,-0.32062484876908853,0.02146203651907421,-0.01726089712333479,-0.7985846490820943,-0.18009193304681126,0.6119511727576582,-0.648087670985191,0.22754813641748706,-0.29944994897033766,-0.4113762048744808,-0.9976240465360691,0.11330740185150286,0.6220858241111396,0.4175563856049908,0.04348420048506286,-0.2775832186933459,-0.6630552412029418,-0.9420788381057087,0.5183868736482307,-0.11058398688632917,-0.9364536726982556,0.711652510760093,-0.08496515839807957,-0.08490347003984092,-0.207070395714712,-0.5998094388108549,-0.2996494012021435,0.9815822673112037,-0.7858301480823372,0.0711791346544219,0.35041995354766237,-0.2563350943647302,-0.7775963576617582,0.13500290571635518,-0.8589868826183752,0.5573568855433747,-0.7174295833959864,0.14613910719765297,-0.911611474515421,0.6603236793714632,-0.3704658403251334,0.06117862738968107,0.8461877938254239,0.6213935860137645,-0.27634660406624806,0.6060399221363204,-0.5976937096522871,-0.18220706056571961,-0.5611151667519606,-0.5956113745432878,-0.6389044125132324,0.18458498212503707,0.41698931456471733,-0.42054001835597205,0.730093483390052],[-0.3043788667918038,-0.1358924727718974,0.9485586509668538,-0.8407439708455946,-0.044746292026735385,0.9460926139148103,0.9911851553519282,0.3773703549750827,0.49158761326723555,0.6459763295983838,-0.1056193218022488,-0.5732175615417839,0.6683947375197148,0.259420956565803,0.6572484933338907,-0.9628732925624485,-0.5478492608065699,0.3197376921544317,-0.9389322323464844,0.01771423773112627,0.5845566943394302,0.5763680978007364,0.3062725229919045,0.9192741271894254,-0.47276591139092433,-0.2924757866738067,0.29292530996133687,0.6006404632921019,0.40107286571640177,-0.9259730970871992,0.2018946199915566,0.12419638665332108,-0.3381469250075635,0.6352085179304208,-0.4778336366508466,0.3916495358869294,-0.07422056105252217,-0.9574190735582555,0.6379910093281946,-0.6157673173852845,-0.8903449355600375,-0.25314275587317475,-0.5051972598259278,0.8183307586475883,-0.31480787731714016,-0.9550297919771994,0.013237464926528235,-0.6615151248150729,-0.2217599113633828,0.1469390293100306,0.49191303006354975,-0.15672058691729107,-0.8974316281225655,0.8998463113241683,0.4510137380440379,-0.3102306670802119,-0.2705773978680395,-4.5504963437515523E-4,0.11287160464407855,-0.7172969750428144,-0.8329224424943048,-0.3112508421539058,0.06787326274315965,-0.41158046978572954,0.6223060177766296,-0.22855676269210617,-0.5375779772564613,0.7008464658502658,0.28434451008494216,0.2532387486826632,-0.37509495915106245,-0.6217881904327229,-0.19902991295896955,0.07350823351814394,-0.18981491241851386,0.5508733411954361,0.35327756814827277,-0.24474346329261723,-0.29796728606593614,-0.2654857464063571,0.1819312681006559,0.9859027848238093,-0.042411900945682326,0.5797491127478974,0.5616197056887359,-0.1918848169996727,-0.8511805158342617,0.24088201511903945,0.075468259854287,-0.21171138878124354,-0.4430039095885899,-0.3786209067800488,-0.8887573078152229,-0.6822497542552812,0.012039528891838685,-0.3828910180190232,0.8364802187800328,0.8403926037148768,-0.4662616284746603,-0.1119326063290316,-0.7049139802515926,-0.07087062256397642,0.45120902263902896,0.5447537285399575,-0.2541224374885805,-0.3067653420723121,-0.2511020297706391,0.334617668260985,-0.8563331667966108,0.4560507490814293,0.29630667619592094,-0.6351550115473518,0.7049917042065127,0.10092744229358931,0.2810925766026802,-0.2798609891061431,0.016368718362350057,-0.7436993198560368,-0.7185980410364723,-0.6410798092051518,-0.6051979803790039,-0.9607388693161392,-0.763109873254168,0.7460069487142962,0.4594532296967519,-0.17871044918715479,-0.21507519260340108,-0.473064743857945],[0.36349121922384764,-0.6042104524748445,0.6220510099888555,0.8451806243624875,-0.2814673202253139,-0.5282231928219493,-0.6099646577036133,0.62329247802619,-0.35874225306869867,0.36215230167539686,0.17513460880226608,0.09271621490896946,-0.04011198139787124,0.03682434045331045,-0.6475563498393919,-0.9624705732531916,-0.21896082338367182,0.44570694302568414,-0.4858138918238883,0.8408662171303555,0.8941995687353859,-0.21505452219621563,0.4481237133626988,-0.4244464967722876,0.5620074677640311,-0.24953502044183556,-0.06819912237301703,0.436390867845241,0.8303733524207044,0.9288414898375469,0.40984076936686714,0.3181229283582438,0.12309674293967922,-0.5322186763945796,0.07589471227518406,0.6352845975099828,0.7606888512104409,0.8809595822973927,0.6482881954500422,0.3748913963033244,0.9027449284916321,-0.7789971263066834,0.22955463593303374,0.2105168163205465,0.25938323267471347,-0.6604961211079838,-0.05918444270963844,-0.0027924362987846157,0.8662746417512514,-0.5254568782971102,-0.44987289539093916,0.9683706378311795,-0.676082796183336,-0.8593921039824366,-0.024554788170370746,0.839393388747773,-0.05964537528855323,-0.3684980548664896,0.7374494789901893,-0.20277176143743114,-0.3392280426823995,-0.4272331326270444,0.7322598594066173,-0.6921989600276336,-0.8087730849460225,0.7153009476779775,0.4001658815452417,0.1865245065085991,0.7314548167875106,0.6868528293510466,-0.5145542817542723,-0.1853483389724916,-0.7236573878841872,0.9146915713959137,0.35834871931062023,0.0068269936390061604,-0.1790417810289084,-0.8054478024681367,-0.43579262621868986,-0.6812843994263147,-0.33906179016821264,0.3777758807831345,0.7810467373663454,0.3322443346898601,-1.0007794767056557,0.7410918014896415,-0.7795520544849631,-0.5686746342663908,-0.9530705845034549,0.9881704006714812,-0.805347744250239,9.883607577984132E-4,-0.5544537749396414,0.2335125850823932,0.8025047219230658,0.09734977563374458,-0.586705009616758,-8.869645406383029E-4,0.7294786884769683,0.2852769405602204,-0.11362851934598117,-0.41990433991426646,-0.5837987801538564,0.8184095955901434,0.6045017435209066,0.4466383067090407,-0.42309439538875704,-0.45113858534447476,-0.20140180729080884,0.18353724918137754,-0.3203909511650843,-0.5373714083516791,0.2816925114075766,0.16523529350404745,0.3029658308865889,0.9900378641064146,0.4575808152308923,-0.5256916338604324,0.1373061030214641,0.22276658839784255,-0.9443173855608124,-0.6461392876427413,-0.04855754502846996,0.037303165148902154,0.5001747310251231,-0.8241462196101079,-0.8389782277051688,0.36164109369044534],[0.8823410734231615,-0.6733721727240425,0.21003755465448992,0.2257446437035559,0.4078213067374583,0.02383139367837426,-0.2679117199909034,0.43477692283011005,0.12338569712795962,0.09181347580363836,-0.7031446700020066,0.6971395730445922,0.48781911746925266,-0.17218539579296963,-0.9265418173729982,0.789286663387183,-0.04173078674495971,-0.39383776858011976,-0.8125981254761797,-0.806850098576364,0.5241174070392562,-0.6311525921878925,0.3663646496928664,0.7768207498679437,-0.31165780017006217,0.8933258188754494,-0.4653119928170916,0.3039559371822394,-0.6134012057800492,-0.6086580942606362,-0.18354100947047058,0.30743772737405584,-0.1756405571486239,0.5574917380120198,0.611153197970491,0.7244514015908857,-0.10231762633280227,0.45751836697741605,0.39708735383427646,0.3234209613256055,0.9649125393345732,-0.43651562949320416,0.04005646452931042,-0.21047516576767392,-0.5430239413933932,-0.3883489300799372,-0.12840472158850755,0.25507883090400335,0.4332693380869504,0.3045316508219325,-0.44772710553509726,-0.7946451044880404,-0.4755326707032104,0.14535493706376296,0.6402227644216645,0.43615384102064453,0.6254162381411328,0.269622980776156,0.2548800216579615,-0.4118398646831113,-0.5822996325834762,0.19684990024870513,0.1465992556683458,-0.24261503797597,-0.329327515525598,0.34151293519574977,0.9553161910675033,-0.03453552833203229,0.4163246038872295,-0.7350213946453408,0.4996826167363911,-0.7318309193789222,0.10020705728756182,-0.5086375745197275,0.011016571666712757,-0.15582862553435045,0.2580931132368083,0.9331908936376918,0.49430016491234724,0.5688198058618469,-0.21466661424778716,-0.12140433356924374,-0.9683059194584931,0.8240778772521137,0.9031152241269355,-0.5812130569695407,-0.810583921903519,-0.3184199682426082,0.7416050095632155,-0.27824224292128313,0.5404351519772818,-0.44817286549984,-0.5931362071042647,-0.4564079831001217,0.6937425080202385,-0.12668437668997953,-0.9626715221352515,-0.2873367541404626,0.8226526583519678,-0.8766867831244226,0.9847619617870818,0.6252245901303599,-0.19045929936233302,0.9987660704244158,-0.017546133303942172,0.812502279583762,0.5341782031384561,0.6455496253337892,-0.4816256822658641,-0.8832015536720156,0.37374874382677764,0.2752404237082747,0.7212712442368122,-0.15363128603189136,-0.9252499142317439,0.08785450945107304,-0.5268121652499025,-0.6993998986529109,0.037519937213901136,0.10058834948992561,-0.3542687340785508,-0.7829442073533253,-0.5138451860094215,0.539297094420575,0.6315520292973745,0.11348681983318826,0.12017818944342067,-0.8774631715690191],[0.30973587555775445,0.3405419005974529,0.09217028067976889,-0.538228027884945,-0.12648432053068628,-0.02003711328142705,-0.07659086023995228,0.677648997318605,-0.030100310323325604,-0.5012783075476788,0.21215730447008155,-0.3233161318713281,0.7787458572637889,0.259152450637335,-0.25212505331632107,-0.26402411511394425,0.44062372708179914,0.03954728374655023,0.16514514136726632,-0.4266030607801312,0.5330337317349157,-0.8235076339400287,0.2718803433122535,0.6840050219516182,-0.23985436413821576,0.2169453508314268,-0.5314549360168237,-0.8399675634075778,-0.3654816895635703,0.047449311426655684,0.6357147443875727,-0.40472322632125796,0.6633320716177221,0.816402704728943,-0.8035216123902654,-0.9621303927961425,0.040938696927895146,0.20531826294851402,-0.10504546587707594,-0.6559561075919841,0.784699895128433,0.644521738092785,0.8528063630723529,0.6179544212106629,0.4169612659068984,0.5378389017307912,-0.08275823766838955,0.09268291132963428,-0.8411693350722658,-0.7979701527442288,0.8436610583598803,0.25586982940882413,0.9631968356150948,0.7292094581520525,-0.6408797987612502,0.8616699807449748,-0.5492252056659299,-0.48152044361366547,0.535380135266405,-0.6184654950460541,0.03252152875339346,-0.5999142105152279,-0.5217768438392836,0.07820726928695092,-0.5617125502525363,-0.13418721330967234,-0.07437951903361403,0.5670503189673722,-0.1174707974127669,-0.34453721438709844,-0.1390372850961803,0.8125985251143999,0.31289824807547895,0.08706179839986243,0.8213476929782383,-0.09792065147952839,0.564191010217293,-0.017689107349862114,0.03706647894817934,0.4098871756135608,0.9187881085318819,0.41252369258972577,0.4311488809019691,-0.9074608827603065,-0.9166887294189361,0.1395209964806593,-0.3314532850328756,-0.3376230728668003,-0.703448922520335,0.08778024623196014,0.13451727891141094,0.8377257225764774,-0.14586693155322322,-0.6338111190686525,0.8631766693988837,-0.0048153353450436165,0.2105998939008273,-0.14921055842938105,0.663511498828388,-0.6403391994285476,0.24888749437017493,0.04405588483214067,1.019034778389148,-0.2364208999975142,-0.3740542599832086,-0.2891300813917305,0.1373234268011763,0.4583097478441479,0.13008266013011247,0.5824385471609537,-0.9999303821075208,-0.3485809264570325,0.6336189560757011,0.8109846395998535,0.8635626505546204,-0.5162774456222222,0.5519620989714019,0.4093191891148823,0.5268043822217103,0.154318284121684,0.7505107840053284,-0.5504552690397275,0.06995841208713659,0.7554332050820979,0.2896702665678938,1.031012936037235,-0.928874822423799,0.9210971092275075],[-0.8312691479948945,0.984649371998779,0.2186735356625981,0.0742108264325586,0.06064119516228135,-0.24710801754662734,0.9815396749255365,-0.4749924849467166,-0.16265780542765237,0.1893586575161176,0.5659036813956495,0.8397889483288331,0.5880936111541673,-0.85341753860836,-0.8535277764502416,0.780733922087945,-0.4505369575970363,0.22032820017905844,0.35540227960165116,0.005454788564148136,0.12178073332560513,0.42988624375820944,-0.168958160557478,-0.843926875340351,0.5263742838982642,-0.585766963453369,0.992729911732432,-0.36227911378295385,0.3411322454566639,0.09540666996199454,-0.4034513740948387,-0.5877634337632167,0.2978739188009351,-0.3644596951134339,-0.012532896094576074,-0.3986221161497491,0.4688391115122097,0.13034063600364545,0.7170629764601413,-0.8115103867060621,-0.9932011099938298,0.9598014923981896,-0.20134931200102074,-0.33352993273038983,0.0012969209116588081,0.46188770025529624,0.7872654242122562,-0.340448938793291,-0.01181356452716729,-0.42084045520200974,0.1908379950221127,-0.15458329748850475,-0.23345692743459223,-0.10886896167630022,0.9482298548377878,0.5647967178091726,-0.14261600946089117,-0.13874217136769573,0.8589732753421792,-0.024083089455212245,-0.9481709807305145,0.9452955630354196,0.874386391755912,-0.1236352373863826,0.6171419474439201,-0.33663842758713575,0.804884347047791,0.8497114183151819,-0.945145646109294,-0.4215451302641681,0.8816839168108637,0.2748903583044775,-0.18447965373969716,0.17707367381891617,0.5295972524486335,0.4459703151523077,-0.16252093710614235,-0.5551070077933881,0.9965338834869827,0.21860428144981703,-0.21275857183379188,0.38270683741287664,-0.43692225982492805,0.5666666917653953,-0.4463383219720131,-0.5012400283822663,-0.2593617864036233,0.7784901452037674,0.6722793865588133,-0.430675374876223,0.4348455768732059,-0.9586023364396475,0.2106488535401344,0.24517895345660917,0.13991593145285516,0.289823712957281,0.41292854487757513,-0.21295773195408163,0.18761413889549297,0.7313080554680834,-0.9752191355424957,-0.6562979951744248,-0.6206373710134856,0.60795778082103,-0.40468734110899596,-0.3129379212872045,-0.2539178792869302,0.6082078697555655,0.07108292305857943,0.5810646787805231,-0.7554694745568609,0.394820884530565,-0.08618029687167655,0.5490453439113715,-0.7547019953669939,0.6564989514371105,-0.9762420406607374,-0.7348933265219871,0.1189269175893649,0.6272165325270794,-0.08288571909982159,0.6707127788654271,0.5152039892001299,0.43966508768640694,-0.24495775722138086,-0.45476010063842626,0.4200491870816079,0.07401077547920976],[-0.47988792422051013,-0.22664139499955335,0.10095360778493573,0.8116249644833552,-0.912185117825689,0.7819069097032798,-0.9541269718872628,0.5000665214292553,-0.940252636750248,-0.15528429726104304,0.7000520042824948,-0.6058578679032424,0.8767314017513582,-0.5312998939815843,-0.5638221666783548,0.2803094253918009,-0.6628085012465192,0.8449860686484104,-0.5285694239252051,0.03755284214601475,0.7460689438619158,-0.40488421667713687,-0.041988806019424,-0.6510627967833926,0.6707692230101805,0.3439600537817144,0.31265136598005655,0.0019537475937222958,0.02553817890869365,0.024870438678522552,-0.07991930492855509,0.7371985301269018,0.40977839613795053,0.8902681257732592,-0.7922063971222751,0.3739903870696549,-0.9310151951595053,-0.22584379656562867,0.09607061902978706,-0.43023451651759775,-0.5649049445349976,-0.3952261470416645,-0.811853268542945,-0.04781598341866343,0.790663218100188,-0.35265257320837085,0.08346248585758931,0.9976735765022392,0.23711354911548682,-0.5434606894346319,0.5593754998841602,-0.3033421589624366,0.9151849799497701,0.20166104656117084,0.10817296865240326,0.07942027857697348,0.6112169163008044,0.6081104673111912,-0.03663449404847862,0.41632522150686835,0.07060316714401066,0.5194744538138406,-0.5031936981728151,0.7872812712365003,-0.24388198490290808,-0.9069086701999945,-0.3343141544875006,-0.009444097619154627,0.6077901036058256,0.7906632163264022,-0.9891180115682878,-0.5362199447981317,-0.041076894537194375,0.3488236404853018,0.5562558423180086,0.11750456405814194,-0.59139044137107,0.6525753560005895,-0.5825118651588292,-0.17405955512551957,0.1935252144863395,-0.6204737401265314,-0.21538700031551222,-0.5991071862191877,-0.03730439838172768,0.39244224151700197,0.8815423113629351,0.826408465648828,0.713744191433265,-0.9805781372315575,-0.15764229591032786,0.008361678330861334,0.3402578897322319,-0.8162291048117363,0.6143223800654894,-0.7068854354175813,0.19933601388808925,0.4162655427271623,0.38932809858712797,-0.26057943717106796,0.26630678253654994,0.5962822864424744,-0.2827806596570458,-0.1400820668606076,-0.03952307563355981,0.8942214779570823,-0.9989772310812981,-0.3631357414729633,0.5053478576568208,-0.21273796461116792,0.8738690422948291,0.26428644933300544,-0.2597387747884742,0.24851175498358613,-0.8726514679005638,0.09320873762537256,0.03295892251482671,-0.8427719967427275,0.18686943240352247,0.8167428916877073,-0.49532830725526916,-0.5956589457945201,0.03470271730582651,0.3824120043640836,0.33134596549215145,0.0022979196492268644,0.5797001300471383,0.10025211264662413],[0.9792061208048116,-0.6830458399385289,0.8135965049328407,-0.3393230224435464,-0.95284254442884,-0.3786441548457639,-0.6705368453331287,0.45905295582655653,-0.38655135662325285,0.4162996066680695,-0.37556160456447996,-0.08576566251224901,-0.17077489796758225,-0.6198746786363787,-0.9299081611054802,0.036892318423894656,-0.4137681921744876,0.8656207906926532,-0.9358361110332484,0.7193349746006761,0.4099010443450451,0.4905686058332481,-0.7311716998914088,0.29448328861986917,-0.20474878156438067,-0.6996476390669554,0.5809756007130614,0.15961849863453667,0.43538752918114737,-0.23704355427213408,-0.6802623030672131,0.1636401053163628,0.9560661179191196,0.9440884128103066,-0.8679129100584567,0.9201269491908444,0.3259686246164593,0.24400131208563,0.9152509329431776,-0.05016955634606411,-0.9670361087161182,0.2865796525532022,0.5313331824947547,0.09446349372911808,-0.9069008239773517,-0.2937641164453661,0.06875048361159541,0.05027143254809714,-0.5037321078622896,-0.33191282110542125,-0.7748429054969197,-0.43847140762288894,0.2601783667497195,0.12734341911012256,-0.5901563124417536,0.015482795735651854,-0.21402067402107625,-0.11181785189094241,0.02121288105159848,-0.22864127275581794,0.5222840285658797,-0.26703208965857445,-0.49968669976686253,0.6042426479374706,0.028453240625433782,0.34785106486089235,-0.8962294611573656,-0.649604086324396,0.6964181082570471,-0.935972573039237,-0.18339072631113462,0.66967575432634,-0.18967047763900002,0.25045365025460414,0.023918007656705563,-0.04061368727772784,0.8178667596473793,-0.9306439962415487,0.6043424380091903,-0.47755334025125273,0.4688754051349512,0.16815846894836667,-0.7012215124552673,0.04555987950957362,-0.8410817400910219,0.014078516761001839,0.9758635735199317,0.27972278383844884,-0.7595187266355574,0.6355216852587312,0.698760606253594,0.21436637561614452,0.5961524201595702,-0.4329708495538012,0.16354767962377317,0.21768392536442902,-0.8773875169070893,0.07827671903084155,-0.6603560064154337,-0.33705492093889,0.5255057279737737,0.41371490820941886,-0.6729042531657898,0.6766672026097285,-0.9607682488362305,-0.9029675426497635,-0.18953573842016236,-0.9635599621254516,-0.6093238183259868,-0.4576165086688201,-0.7732035056092107,-0.02666778502172916,0.573378608363527,0.8426432156503921,0.7108543334740656,-0.6939760511063718,0.553009305013062,0.168646459403781,-0.9477810774689341,-0.8603065209167516,-0.10897891385122176,-0.006758640886154214,0.25127703815419183,0.49252483537757585,0.2950691039166006,-0.18513589762975238,-0.046173320406683066,-0.2799694466612454],[0.6695025667410289,0.12873833712907054,0.9934704094352956,-0.0821897103359544,0.13430461864674859,-0.23946789065515564,0.27914294215174057,-0.42513965429937217,0.15063009255013526,-0.14803632447588588,-0.9396203508237726,0.40293074830275666,0.855582929271035,0.21202028611932236,0.6810146921650757,-0.6710862587790768,-0.06206638030014226,-0.5425190625372116,0.47048373627509765,0.6391769066924632,-0.6309674434252588,0.2125981697868545,-0.5623670659227233,0.46619074710041986,0.36055386634634273,0.9245230667265654,-0.2263687489263428,-0.3372394574194688,0.9992053181423827,0.6564811369475939,0.02902229938080208,0.069915170000689,-0.35348947582252777,0.6394611506178435,0.09458340974942644,0.7174709488720464,-0.6717061370545098,0.1744192109135328,-0.3901019167965095,-0.34335987692918896,-0.08060491614263098,-0.6732734146438494,0.5179508320048777,0.8269983236986325,0.9279463626799319,0.13960006284507728,-0.1582633207252338,0.8079031317761896,-0.4001965332233448,-0.2481216584984382,-0.16689393897642535,-0.7867721755813518,0.3906949924117816,-0.13301456984153237,-0.6993784293854842,-0.9305331651910861,0.8884548987405694,0.7942576605840627,0.6388300796598563,-0.5994917282041503,-0.048506333370958554,0.12014420962861097,0.06648194768340705,-0.4368814186790039,-0.9521389851408181,0.7707368438456057,0.35385698294711926,0.6493974746259017,0.18929787329903955,0.2582973277840652,0.995900948891185,0.45345320214330975,0.09834891288429863,0.6508006407713622,-0.2676160057631134,-0.5964243308688089,-0.17161068383021338,0.3874718928881886,-0.8863527389280009,0.04853973470884424,-0.07164971290354814,0.861620352771992,-0.8893231133833461,-0.31425543558783203,-0.7241983671104144,-0.14310004402743562,0.22924361552221442,0.12071004649130272,-0.09983989444993145,-0.022850250522505087,-0.7088431551678749,0.7852769121345543,-0.21818079914862032,-0.7725879067955468,-0.05896789171962092,-0.9980375360399536,-0.21020142627177343,0.6121834319158779,0.15122772286712172,0.536552677591404,-0.06634151501033231,-0.0346206686638023,0.38058583593824874,-0.9504724015426669,-0.7744611083145784,-0.32417014687857326,0.17730484485195805,-0.8788469442068139,-0.6717325761079981,-0.12370320435043047,-0.44768404941200374,-0.8081450037958579,0.15776384579164102,1.0003599736890043,-0.4758251310307364,0.820788558029403,-0.53428751886966,-0.8211494203810281,-0.2335503290057716,-0.9366894857915192,0.1688404763686916,0.6374450872951086,-0.761654827804323,-0.05865689926736632,0.8934082507823902,-0.8450351776843733,0.9638636254562634,0.8701156857992228],[-0.7251862069300945,0.772688037753878,0.8473876421296174,0.11078480713105762,0.7578705594295323,-0.1389478805628436,-0.6816472081508893,-0.6462987307447519,-0.04338758309106679,0.22508856976459418,-0.6029343902078569,0.23537447846676915,0.5783556672934917,0.4662083529168549,-0.6924542992693642,0.8583782348435788,-0.3627546422257981,0.029939864246697877,0.8596521350507386,-0.11205258663905462,0.23857638661726238,-0.9006677720127866,-0.2858992264152625,-0.06658758070838543,-0.21482965109555155,0.1713723055987751,-0.9020197911829833,-0.29235684374705256,0.319424826135361,-0.3916812968998023,0.7634171878631131,0.46733785525344784,0.38535678811622137,-0.6792788494613302,0.5117936681361175,0.8977085392351615,-0.2820852107818137,-0.22205464248698756,0.30556406148599996,-0.14183294646851086,-0.6191147596219139,-0.34193353950367417,-0.9548696527060736,0.5457325992523728,0.047055211504649384,0.019973424049844216,-0.8480169481982999,-0.9019129194986658,0.6503400929423853,0.05832518697537572,0.2604800672549063,0.44121365519348227,0.929496032041343,-0.49125290229052426,0.09479273063739725,0.003560967264957361,0.926645149467243,-0.8074189445384686,0.8667390054109763,0.5793733554433416,-0.1195357026206263,-0.8606522114739502,-0.6550135110985262,-0.27432480907275825,-0.987024631123369,0.6436289440773967,1.0322573648410536,-0.2624730690280625,-0.6821468019158374,0.28255734759881457,0.3744598817497745,-0.16496653977784362,-0.7730676795340352,-0.5347794375398689,0.17738381309233447,0.2750641761856224,0.4399444282850717,0.45593357987011585,0.7481115214694322,0.6030444045786483,0.5314043356437513,0.7609858844638223,-0.9449408981516129,-0.13519139692876742,-0.19096507731926315,-0.28858283838252924,-0.7477507821913089,-0.02405912890770542,0.36307526346293856,-0.02065129352299029,-0.16346798579101188,-0.5197222858508391,-0.8043191972960769,0.4212149797505011,0.7351775106442926,0.31090165161632827,-0.17458647314185646,-0.6433924864379826,-0.9860732091939798,-0.8154122405174121,0.15015029619596545,-1.0007089482527773,-0.6186895901235112,-0.2098094949650038,-0.762507103894559,-0.3847967759875839,0.3541923240177963,-0.877130778716442,-0.29830726744308267,-0.5215251245611374,0.7459317146983583,0.5429060751049307,-0.480732009110897,-0.8572618463465682,0.41000720808034263,0.1783905336688744,-0.5913454344926006,-0.12925386483116472,0.40116591400505797,-0.8081757159055394,-0.3167176698383139,-0.5588874768621522,-0.47184674653748354,0.8952311509655505,0.3103250437867234,-0.7803959316325906,0.022289053279162096,0.673926855979929],[0.9764325526707647,-0.2626131650233059,0.14276992454285192,0.07093321937039586,-0.6668249972041842,-0.22707410226316266,-0.7386812063336072,0.6403192695627918,-0.9870946090196681,-0.19387971113059826,-0.2687399939282033,0.1885188013725284,0.8514781161274277,-0.19767444540174353,-0.04805832937558329,0.811663933390973,-0.14581562510558643,0.24496789538920238,-0.7721183640000606,0.07370120866385897,0.028573446256050742,0.8721582481898614,0.44257687475993485,0.1637796465019863,0.3855762341189971,0.4699283917009783,0.11517267555919988,-0.8804347170213268,0.8860895229461214,0.7177861045822389,0.7767934365577804,-0.8787721804093923,-0.8426813651272272,0.8068208312144936,0.8577227430113449,0.39461510139178607,-0.2130611452659998,0.7787454209550406,0.7410741337204032,-0.4508755167830744,-0.16746726235546422,0.8242821304081287,-0.825004575772876,-0.09247772158177102,-0.09303828781246337,0.07000901972512039,0.5926210361569336,0.8331989850972836,-0.868187404492607,-0.4120608076656316,0.8284158944836848,-0.9483223240815587,0.158110177575809,0.8015784344321851,0.007079746791518902,-0.31625922318883554,0.13829484054105148,-0.1355197093194205,-0.8079235449565613,-0.8989331306462218,-0.2197001098932249,0.1725839141693254,0.49674979277823234,-0.30131186757699385,0.657149160946915,-0.7730806612782735,-0.5104468663565562,0.8272422748125839,-0.7705732243746676,-0.945630323098437,-0.08130956283408859,0.054777148691062996,-0.8922024897625673,-0.2873070091904837,-0.45313653611823734,0.7852011600644044,0.8528826074996777,-0.7149172990109928,0.5669229856192806,0.841072923989388,-0.8690143292899349,0.23198235596767885,-0.2515526796183672,0.792690698926077,-0.3376250922928162,-0.3299827706762411,-0.9821441216159905,0.028063757552437927,0.07985640794250358,0.9203102348844753,0.507885032314159,0.7095624416560051,0.5029755753348994,-0.17549147399514528,0.5914081311936195,-0.44992701112694256,-0.10235626634408934,-0.8595470138949657,-0.8194076418527908,-0.832037620158521,0.43378141040823603,-0.23541645563054617,-0.21741139933059248,0.5564502208718142,-0.2489241357990421,-0.48423198624824704,0.7436109425002247,-0.8630957887379512,0.5596981339412925,-0.27814764117161533,-0.4739439402457369,-0.39403911514307605,0.9705829443674305,-0.6398695108821584,-0.4899153640361122,-0.06630190201306518,0.9153160679789302,0.7166467826146209,-0.14986487803277942,-0.8708852763968864,0.328977071690203,0.3438682623513106,0.06132423247756289,0.7699012462350016,-0.23602954237148624,-0.09922900130293305,-0.4522345703592533,-0.5197343710441814],[-0.43573491049776725,-0.5169802478148178,0.21517811071499665,0.8740425695674293,0.35557890757108385,-0.012516856660977245,-0.32002028693754303,-0.4116620796001166,-0.07895672432621703,0.678083053618114,-0.19989872742943848,0.3849810963263085,0.7307247352725645,-0.9048369216083539,0.19806753591272278,0.8258954984577629,-0.15230005620542705,-0.02602492066191881,0.3656160639200742,0.33335017873568173,-0.14687879806719975,0.5929746320899024,-0.26344513749648635,0.5688202922302567,-0.6603434691258057,-0.5465757453403491,0.08303831062630494,0.39513392265840186,0.3591293145149903,-0.3446253465276699,-0.23043534026109175,-0.6468004353594126,-0.2973705890313307,-0.6053128228967596,-0.3289467264386146,-0.13335797493333798,0.40864719454877535,0.48619597969147443,0.25397355584038317,-0.48055103973163416,0.8985536617725851,0.9780478797413195,-0.8241033720856722,0.9237536913685257,-0.2883323414541717,-0.9685722156090651,-0.41361522077159985,-0.17912880743449833,-0.3423909302574617,-0.08340461554363462,0.0598429596912202,0.8493936348982899,-0.6918627521449024,-0.5032524998209381,-0.8621095164697291,-0.9659271254732029,0.4042983251957717,0.39903704013576674,-0.485082388711386,0.4300149426433324,-0.8418502905433071,0.5257262179759191,-0.2815141552658267,0.08634499095222975,-0.8194067904120234,0.826174225829207,0.5657468987822311,0.3462299502682758,0.13084682705736325,0.5520416299978931,-0.30531498021323744,0.6243943241401486,-0.5264963281908533,-0.454885934613468,-0.29882061272285765,-0.43240598084633936,-0.49769442863191765,-0.9818176606611986,0.87197801160114,0.8593421333072726,-0.8372851121070554,-0.8611487953000363,0.6849639653948851,-0.909444915329855,-0.6989731872800783,0.11886636555557899,0.9035314938162962,-0.975081834856193,0.5592091649176515,0.4904854633310111,-0.618578139994633,-0.47742833390958905,0.048331017755394376,0.5429806950166207,-0.6008726272052298,0.7512995041480502,-0.30411374219399334,0.21924429484201824,-0.99581188762222,0.8454922181260284,-0.079607883596702,-0.8893357507514775,-0.628777494192727,-0.18664038295017135,-0.23248855322946152,-0.4130772803557345,-0.053488700476261586,0.37416482289992375,0.7626307960801387,0.6475538764093197,0.3730132857995157,0.9151850469451991,0.11146839108510469,-0.4417873513695482,0.2966811493295246,-0.2801093200770502,0.4072074738699896,-0.9959144450267898,-0.13722622629210166,-0.372714475589515,0.3478855170406393,-0.8797503996620414,0.27571407525442704,-0.04208367314097395,-0.6233026963884459,0.5973356970954135,-0.03866275682180295,0.8215478679860779],[0.24970536347829003,0.528980656261652,-0.04210714182311097,0.8957931734658419,0.4470974924704848,0.31536662122123804,-0.4492639336917435,-0.28365174416041894,-0.028095933546241618,-0.45114469372750204,0.13504976369956287,0.4371746202435353,0.5270256249245477,0.35905576197441325,-0.346035293662838,-0.03191039876520348,0.02051291213803609,-0.641270089589123,0.8543871945975251,-0.6883321241138309,-0.40037960780899395,0.421770002129097,0.8742895808323119,-0.05400887629873919,0.807914142597952,-0.7117299141994314,0.6672021989106234,-0.3557389139365112,-0.118150704689711,-0.5078160133763423,-8.795032125806069E-4,0.5637358539159798,0.13484508964220318,-0.10779793316169704,-0.4577013466116226,-0.07531798642089468,-0.9828600954262184,-0.2645537708581913,-0.13708524173342707,0.4193198488200831,-0.6963140679385307,0.8879262085986198,0.5003133585743965,0.0944074894392749,0.3494566321046213,0.6747147810463161,0.0029659343627916252,-0.1903287985348734,-0.698930005229011,-0.18887625813241019,0.8315880039672424,-0.3056096347727703,0.4105194243701667,0.9203310107304168,-0.6041670657443643,-0.9257004477714955,0.8489141826869875,-0.6806552102277398,-0.7466329714582596,