{"inputSize":676,"outSize":10,"studyRate":0.005,"hiddens":[120,120],"weights":[[[0.20015008936576856,0.24241029643335252,-0.9303411740129642,-0.9814680469408803,0.938064396761295,-0.6865310463565077,0.5593949226754619,-0.7157449080217089,-0.5095732451058018,-0.1734386289429924,-0.2537576057267463,-0.7197291471251711,-0.8819591535193764,0.43471932246722345,-0.8531786420066938,-0.10912740182273735,-0.9559979888471949,0.4093458668370002,0.1325212284266793,-0.9499271271161522,0.4458555233224562,-0.08989319330460561,-0.06799496731960887,-0.6088066195610262,-0.16122273054829078,-0.3985465994585692,-0.8976399445018941,-0.2011722132660928,0.08627426065406264,0.8245143830856726,-0.2315898706448674,0.19814764566216334,-0.7889836507412885,0.17459959472310096,-0.4723407634603316,0.8193144256728411,0.28488491626013457,-0.7645837396440938,-0.6920060923555483,0.1520742021959143,0.5519855887818252,0.8099239416247491,-0.3966310130737635,0.04939678514152347,0.43772067679723836,-0.13782273943900136,-0.6432297864878141,-0.578097498073921,0.9801041343705241,0.6719033226752441,-0.570405934566141,0.2508777103396083,-0.2818475163753341,0.06759585881767742,-0.3165328692911648,0.834596402967614,0.3580998122593662,0.31600146199002044,-0.8219052748834876,-0.31786020537794374,-0.11584271224029478,-0.35574300985432555,-0.9621546970949656,0.5755489243605588,-0.6402863828052605,0.3840746513621382,0.03274201236995673,0.21167550094778864,0.17607419204430672,-0.8552866292645737,-0.8631679505316436,0.7261902877727633,0.9304867720530657,-0.7200003722378208,-0.9133213350118643,0.7885675352994928,-0.8811065779755584,-0.9222265086722018,-1.0004687439641693,-0.28644611452392965,0.08541003572413068,0.3517222830401856,0.2783598112428133,0.541956868542736,0.04139488680903634,0.13836545244461368,-0.7326005840731756,-0.8043509517657385,-0.8748439836371175,0.9627459741066124,-0.11950462124032235,0.12571629820869365,0.04378325185815062,-0.4845154112397254,-0.6038535136388301,0.29344610464443177,0.3296745324321758,0.741641253521294,-0.69599866623597,0.757390974244382,0.46009600952922564,0.3997458794282109,0.9774900071505682,0.7732343513171305,0.35616436249322225,0.5359951349387971,0.7925146079780713,0.5663594062213988,-0.61459311336883,0.8908008531650332,0.8976029469965029,-0.8779147750661949,-0.9076266783305951,0.22439116204251386,-0.0482255027335899,0.49796965325973025,-0.8210537148545071,0.4738576036049375,0.25090578821781323,0.08114306613729444],[0.39137691812002273,0.05820350519269955,-0.5315333280998444,0.7017421465824776,0.9063845254393829,0.9887057699812102,0.11811522001264502,0.6895749140019511,0.48238029418115075,0.6997058826334558,-0.9290363021770677,0.510877843205486,-0.7269515354576641,-0.4668815008913143,-0.904175399046377,-0.06408492984852991,0.31329124673933584,-0.5996253209886979,-0.883958508597799,-0.3091621204633831,-0.9013494676864758,-0.8777196928459106,0.37938138780564845,0.8676718057868087,0.6921022398840899,0.7573537290070099,-0.2944185501736994,-0.43870365941397205,0.05215463238910226,-0.4848662900021381,0.6310866597525927,0.8516621631449631,-0.2947192921493487,0.35422797818967466,0.008301253565543905,0.25007770995697665,-0.6001355469347915,-0.889872805606672,-0.7535911374373635,-0.7696486331628978,-0.2734300864607637,0.6599005166467342,0.25008386366688196,-0.14473978930735368,0.8618277329700444,-0.8037878745495202,-0.6865067566422486,0.25068140227742813,-0.8486765572687806,0.7434981084079635,0.46067220554220534,0.8635703754360803,-0.12717008022280482,0.6102519855141634,-0.27341497972291223,0.6368310352882978,0.8213321138167313,-0.1602379328950107,-0.7093178790861383,0.25962190779779487,0.8729628518830594,-0.9988251420393021,-0.8019316599269457,0.9878072353190492,-0.9628584160790754,-0.3851137377514011,-0.05427297118714504,0.19780831818539213,-0.5620663377914564,-0.27148470506680417,0.030846222230179056,-0.5933518347493779,0.7940295360373709,0.024873587518502615,-0.42745165193317064,0.13940992503774285,0.04917337649249764,-0.32838352109596997,-0.3813195472110911,-0.8037402724021411,-0.5123405685710583,0.5596913034505587,0.0011677752398435476,0.6919049464462176,-0.4118304840313747,-0.05726001396715855,0.96710930426466,0.7949417095916552,0.04428136988796809,0.9455842419514181,-0.3075911770654792,0.9469702677132628,-0.14434157673312054,-0.25222829930513996,0.5723498267561677,-0.1666466369761705,0.673090561600224,-0.030226123440237784,-0.9104514065435051,0.402460751413447,0.6158055750727134,0.4104642379799997,0.0716075411828516,-0.8998629391013294,-0.7680584784345402,-0.44674522136708705,0.7144240404174022,0.5124323656168454,-0.7545952587704985,0.8659881317331256,-0.4500789271696649,-0.6976582632765113,0.2808538178019576,-0.4300880698302726,-0.9001969711014425,-0.11046732435987346,-0.5743580688490005,0.5071703329690194,-0.7888010122362767,-0.997270666055719],[-0.11962739202971717,-0.14460705451592284,0.6876144728647862,0.9804008364906489,0.4006143437457173,-0.12118149774828484,0.4986209865607881,0.07407523148991195,-0.6715611824386469,-0.2489487888577442,0.13905568279837338,-0.4745307125897573,-0.3634626708826787,-0.1950963739651169,0.9233274489683791,-0.4027932310906469,-0.36069222277953844,0.33467191054810164,-0.0420197071740706,-0.5024121884408116,-0.2525759392429373,0.8074357089473159,-0.2645708995213453,0.06281106652023993,-0.8025111591157198,-0.7587628645290665,0.8086878764814264,-0.20465645421679288,-0.5096849643591413,0.18823000913556048,0.41845999023943503,-0.5105110065326744,-0.704553976969945,-0.14800766809535532,0.5959966703061572,0.5130421949404844,0.6960261084874938,-0.41795074931211523,0.07163565291603176,0.14542484257703026,0.9223979976054141,-0.3039894858271908,0.7043871629706866,-0.1130807043334634,-0.015496274375761157,-0.46373340854648526,0.1408734145602174,0.8628616785058254,0.6162338060550114,-0.7647174287584174,0.3627220117579843,0.8903240092527811,-0.29366145487143863,0.6765166938304346,0.15021363512453445,0.5014290562293505,-0.2772526752474444,0.37616379605934064,0.40328255825646164,-0.5106448466270095,0.741290842825673,-0.5676502646440843,-0.11711004157755953,0.4954212645861827,-0.15464833367357633,-0.6718860333290854,0.8015803851296561,0.6093026021654531,-0.015433762781484867,0.418512392718945,-0.08504915441563103,0.9537196749093877,-0.1777596068069284,-0.10269647131689114,-0.16901239485400488,0.749056868470626,0.2540236102108651,0.5315315842331791,-0.14290296565789354,-0.45959537576897114,0.06777155276074473,0.7697826580529908,0.27009157794735467,0.26697188894019425,0.5846014365775763,0.29223161287068533,0.913054542456086,0.2690325841630037,0.5517927726666826,0.14235713525210375,-0.036060655562292994,-0.5810724683914119,-0.35586736459131535,-0.07861054766466212,0.9160915080656196,0.6239372279514551,-0.716166195254059,0.08773907351956496,0.5478739413658497,0.10437564632658934,-0.8315829457266138,0.9545890375138005,-0.703140890685922,-0.732706003716632,0.5940482762616264,-0.942532071286462,0.9826812092072419,0.21751830806592276,-0.9744072844838285,0.005941375364512359,-0.13167234728807434,-0.6306535774197554,-0.8687048377468285,-0.3345543941437799,0.659865449983981,-0.06569104452913826,0.04592072714251011,0.09126683194741027,-0.6775161998730187,-0.9029615233817515],[-0.3659011602164938,-0.3037695915295743,-0.25213899905440174,-0.5452229356190847,-0.8097038332970904,-0.3702610368870578,0.1527977664105722,-0.5721229882806523,-0.3265536017635078,-0.009938684094276777,0.37325052168371203,0.6475830331854219,-0.012029937609636134,-0.8625165313702038,-0.45435822564663836,-0.6596922719133215,0.17714006293868853,0.24953925775863456,-0.38839698350064156,-0.43114276372789545,0.07022518695498653,0.6642288966590276,-0.7654586764710641,-0.014540405463286577,0.428977438891833,-0.30441824938168527,0.6603126753411622,0.4245210553372431,-0.6085936108955966,-0.29277914351996964,-0.32728889316874976,0.8826290090710808,0.6094053698922642,0.19084285029467035,-0.12764844545803083,-0.5770633488859797,0.4325756361081235,0.6082564398371683,-0.399591414742591,0.5571046824689863,-0.04608269127775886,0.07312224023573889,-0.01674746814833991,0.6028438990936067,0.8420277498719255,0.9468640615256815,-0.01281135472113031,-0.7155065450559998,0.7104479275463473,-0.6283109685399612,-0.8191431412897129,0.09997200333795361,0.24867269466868014,0.7761233367274016,0.39455836035148806,0.4520900043019018,-0.899348456506167,-0.8369713695579635,-0.3689089097297872,0.4140398707741178,-0.5540736550183388,0.7683908448914876,-0.5137666065166538,0.3040751406172905,-0.05843191654482225,-0.6377670531053881,0.6975524506243542,0.4207651170673121,0.50108300697252,0.8399692612135689,0.748473590924134,-0.5525291914374523,-0.8638369528288257,0.3727831554072767,0.674377074193696,-0.8247040147048562,0.6376152039017539,-0.26378262303394506,0.4388718484999268,-0.04315644324351573,0.6930167162875732,-0.225536728106339,-0.4211507828459383,0.46496569590854614,-0.35512146368286573,0.41460042468063896,-0.39097982054390035,-0.881152439196072,-0.07332977618621801,0.8187942486429368,-0.007104436423617749,-0.6757796535197124,-0.9248843949555547,0.7592477112715088,0.05420471359342012,-0.49398008003903204,0.12488162005945178,0.6108924540396655,-0.4976816025040588,0.2148438331681347,-0.7372007234613224,-0.8034881722881186,-0.5666365203391365,-0.556925379485852,-0.029509603917889787,0.02530616600910902,0.16380712070084025,-0.8775098704442458,-0.22011026409097406,-0.09402031311790707,0.10579196517940291,0.003053030359406318,0.717252871001889,-0.22872736200475435,0.17854208102511632,0.5270393269774901,0.5572627587523687,0.36895033077552875,0.16196118656643577,0.018803241136519537],[-0.5193255674715657,0.31439879379804886,0.18028584481316764,0.0771363573752048,-0.01564018060418967,0.6623439204359493,-0.12075123487103638,0.1243316235729596,-0.12126454494667313,0.5574766567759155,-0.27120523655042317,-0.6936739070742365,0.2465755220589981,0.3325127558750698,-0.7340796080576092,0.4683822030194719,0.7820981478939142,-0.10605438046182471,0.04836783819462418,0.01288189554416785,-0.783412854342342,-0.7464312633031813,-0.8837126815865056,-0.16643207651167874,-0.21222134954902422,0.2951536915507135,-0.47329270312843175,-0.28290288631270677,0.691022587204981,-0.4350450909965196,-0.045597623551571834,-0.25810659622629917,0.07928735620327446,-0.8170617555046943,0.44558323562799085,0.8027548236456971,0.2497432226341554,-0.3714056777285567,0.19690265468967494,0.979393018908007,0.6603325574748488,-0.9533001201016675,0.8719133208056885,-0.2846193921682193,0.19511924499359198,0.2908768533578631,-0.6172636427104826,0.22502868643961985,0.3790505230089777,-0.020968791067905047,-0.20958365046834135,-0.08534775698204276,0.12519634843863908,-0.44318617412977523,0.3821771981410421,-0.173920628902394,0.028923753578842144,-0.6781748608034682,-0.7937764660885686,-0.1782030940614507,0.9661839546846069,0.8562453277224765,-0.5575837007773099,0.9855634804769005,-0.7095208249286213,0.1550788449967534,0.8425425486897522,0.5928811336267282,0.1796151932925452,0.02000693893650027,-0.7502898713710237,0.6500889488950641,-0.46341196157570186,-0.17069309347256437,0.6293766402779891,-0.05951732643982901,-0.7250353315450758,0.8879253181366406,0.8289079123834291,-0.2072696493287406,0.9982589588630612,0.8588781141573966,0.7595443764211515,-0.3132390354911567,0.06460419373493578,0.029611163311657366,0.1482551186633195,-0.8458540948936095,-0.19312419903402095,0.5767738200119762,0.18402278663088864,0.44395149108288784,-0.20668546802377175,-0.4916654692618194,0.3653055684966587,0.2623952032473667,0.5344360687682482,-0.7446901215135736,-0.004484591337239356,0.1655533889990959,0.811540741578497,0.784665219996381,0.976012164205277,0.7277135666680102,0.6895134913086491,-0.4542254223180671,-0.28438102910777074,0.5674264741026243,-0.5415781226931288,0.026681684818009022,-0.6809546306923023,-0.17893795106598195,-0.0012502386308777347,0.009767630409669806,-0.497625241920105,-0.433410734350452,-0.3233278730226916,0.9492124027125944,0.8488848051988148,-0.9743535046446355],[-0.32271269342786707,0.9670841216281703,0.14701382850109945,0.7862514792280813,-0.04851763918929832,-0.04873561346086136,0.7892680921398735,0.5034434161499461,-0.4693346704671807,0.12952997661200225,0.2558993392615306,0.7175521981055447,0.646842205662219,-0.4290518585138263,0.2308641015131536,-0.9808400772750568,-0.5397726240547038,-0.7242831979436231,-0.873695468143142,0.40775092178706684,-0.4128235894735088,-0.9039251851790143,0.6047768611617181,-0.8771829173762806,-0.10079177156223777,0.5047712306528311,-0.994628330110323,0.5321848768994377,-0.13640796094032168,-0.13147083222340103,0.7421544425103361,0.4689681816351837,0.2435102937082015,0.3416440796229571,0.9462921113108231,-0.19561268968996928,-0.16720703294104988,-0.69478485389693,0.6898610197497517,-0.19232998771665857,0.24612162818834143,-0.9838373799868515,-0.8671575888754526,-0.6612955425306152,-0.6960259059487306,-0.8943903315505997,0.4725871655253719,-0.17216106349513502,0.8012284245544771,0.660592724924294,-0.03308646774896986,-0.946180044932916,-0.9396872186899924,0.3280367404051351,0.34839938535815196,-0.00283015767880664,-0.9269821541612308,0.1786120234165862,0.5977188518426648,-0.059867443979835434,-0.546110334711015,0.626861403874057,-0.48478517263840937,0.6584164404678291,-0.3788978275107102,-0.2517675820255898,0.4058483453903557,-0.5148216822377836,-0.7552680620763013,-0.9230067718415439,-0.0644342550427899,0.9326111880506441,0.23147842506768848,0.23204985986581983,-0.285504922320321,-0.7710362036664853,-0.5489845150214552,0.35173666113589086,0.038796084189732814,0.3890793664023819,0.253878017697722,0.4792163751926991,-0.4753149061702689,0.035379989645671656,-0.3028723189344078,-0.8376870731053238,0.32413902993830523,-0.3196353976672896,0.7697819280858311,-0.8002158497003248,0.16027889536567028,-0.2204091866032469,-0.6955455370094836,0.10343613374665885,-0.8122604839824541,-0.3602064567097825,-0.2153794350948903,0.3713669849604978,-0.9379451536300067,-0.1558693047354353,-0.29300171754198934,-0.2611709342695481,0.9846416911995801,-0.7570320171649663,-0.5546813496122542,-0.004039362589797768,-0.8685182354091704,-0.1398763007901466,0.9124583954091229,-0.03329612361012414,0.6616819094732743,-0.05282963056274683,-0.6224087948741366,-0.4994462335452179,0.25739041681595165,0.2506822544924671,0.36786885133805974,0.7589314742307519,-0.560854693457641,0.6213684809077119],[0.873659625762009,0.5268727313009349,-0.7122764728257077,-0.6324131870872711,-0.8739776991287574,0.5507408455611607,0.6784919228226503,-0.29223875616172607,0.7893666813106388,0.723134294363601,-0.8253056367090794,0.8406535042110713,-0.7281100403089329,-0.5473672770758546,-0.06844514246237633,0.937854518718655,0.5105582820218666,-0.9630453274574404,-0.256756687177161,0.16793432412164067,-0.029132404199368394,0.19945497788747618,0.9175669916973466,-0.8395059311283722,-0.06896686676124873,0.47785030779833493,-0.967877044876417,0.4004743920598609,0.09547390220549593,-0.9229877338178395,0.959271155667467,-0.8206873441009597,-0.3355311722212452,0.3444705204391666,0.6741115977224503,0.5446824885697258,0.5810344690540976,-0.5579628762986396,-0.40758164997797125,-0.9552854834081355,-0.9096527112518368,0.5419809781877104,0.026633141571110783,0.7311708930220174,-0.303393501513003,-0.5377104001283249,0.07365371609563409,0.2510183798671699,0.9036697871410928,-0.6468249935709652,0.9105198358524109,-0.09004386521501971,0.5319016562611734,-0.6084434905630783,-0.18272643822626558,0.3885159023660397,0.14647412532698745,-0.1714123039964057,0.836675680805864,-0.8751995102003762,-0.4867126658640057,0.8174458885801782,0.1666046307567979,0.681839532484633,-0.926945988752453,-0.6380767213988395,-0.31154512824300096,-0.5005544423767376,0.8695707557932308,0.40032456678805217,-0.1459331575285128,0.14083829635298067,0.07630710872727803,-0.9003295602700373,0.19814355227521943,-0.9103652781661317,0.5747293274285389,0.024595269520348833,0.038402840076207194,0.5111820150363807,-0.1467349007175452,-0.16026912499563545,0.8266815362538679,-0.26560027147274107,0.23721209246153246,-0.799705622668719,0.8624646768576215,-0.04850644061490933,-0.19079264800932422,0.24797089334682965,0.8201841461913931,0.47244480700066827,-0.946532645525902,0.8371620749655583,-0.9351018990692607,-0.9755543618992201,-0.8821350270500835,0.5136044131549241,-0.8811475853384577,0.9520384734234809,-0.9297184538133503,0.3645781634821646,0.37405611880551737,0.5157910114347029,-0.7092731045244324,-0.04591653592555772,-0.039862222974133346,-0.19569296129017946,-0.7704835394366994,0.8185628764524737,0.22745011156029082,0.45374611429970846,-0.34920338974313664,-0.12087573496039855,-0.5820998442445386,-0.5246007830934014,0.6916987377080888,-0.11971714900741287,-0.9093097920905339,-0.6746913118896123],[-0.21245783515924374,0.011528525362523714,-0.4901983619386942,-0.5298610097614248,-0.7769383307566163,-0.3056946818189556,0.8924945716408164,-0.8760200975918035,-0.30868126562027987,-0.8950741318072112,-0.0696708808273599,0.7803865997564604,0.6592352641859857,-0.5807730596560842,-0.033362571360151666,-0.03185791970446906,0.3031167468160792,0.31984261330517777,0.21910272950200804,-0.7367870634643057,-0.23513717136130083,-0.15864329644219258,0.0806771143040686,0.006751702914614486,-0.3502742576267301,0.3772725016771835,-0.4171176305603046,-0.5910182591177449,0.5495442806097419,0.32207546334595244,0.02807458734441651,0.6301194391077116,-0.22348143188632774,0.265538259510257,-0.19210187798762265,-0.29129858284456495,0.021192203088922154,0.10279843167696602,-0.39387061296303333,-0.715395080207244,-0.8954081057055017,-0.4811473539912773,0.5785745653495528,-0.7367477490970955,0.7244480537650404,0.9695547566027114,0.7245193527281503,0.42165635650914635,0.8740348126130616,0.8620867292039377,0.4301018367748691,0.46831113776156746,0.29622563756172443,0.4105815396562119,-0.4377315532232991,0.14775498286631703,0.47586870991237296,0.16106491474731544,0.45231323476176377,-0.5487167447514458,0.8770355733091612,0.7469533377789601,-0.6488490539376482,0.7168982106555106,-0.7056240214206565,-0.7329697558922367,0.7645874729766199,0.7925587732974574,0.11993252786876561,0.765295826529016,-0.3053347632891585,0.3239773289990487,0.1626766119652255,0.4321853598185758,-0.9556807531788706,0.9500654628184836,-0.22777377513449487,0.49980109366163356,0.19314374792238842,0.21797944718473491,-0.31812000733448714,0.0875796924014683,-0.173118289582891,0.057020209808435196,0.7410266514693682,-0.36400446743446824,-0.7973313889021248,-0.6380140540366889,0.9667710258541705,-0.43766930565685114,-0.20190653970493627,-0.8156832705937915,-0.9056225611693538,-0.7063836315995885,-0.6957707787029863,-0.5033761972740016,0.1506872055420657,0.8749872477267213,-0.028227165489560013,0.8728265087141324,-0.7281358655407089,0.6099073149017373,0.39881839664790286,-0.36347197065241493,-0.4250210390217968,0.48025238393345543,-0.8651551092149294,0.7102282751252389,-0.23204359745554656,0.9254141364478597,-0.6114266868357253,0.8233202304392937,-0.47634491750084285,0.8975400114193187,0.7232237628024882,-0.5329105621680797,-0.8939123323487347,0.438745418746422,0.7653900083553211,0.11567915272040981],[-0.45525705647407017,0.5242129512342193,0.6703729302791555,0.4828480349465471,-0.7456535077395399,-0.02458187206327016,-0.6736229160858416,-0.6797953139102567,-0.03091255317819361,-0.41241530361316747,0.13498071631282355,0.2330208354445902,0.4525645399127098,-0.7349124822346684,0.7312366845414136,0.8128723289298764,-0.6411657652012849,0.3950928937347697,-0.6196929021367484,0.5606641643931588,0.7885044603172386,0.3991619543402776,0.3012193090809641,0.10618483377200348,-0.8097789714410999,0.3158722665826299,-0.6722930671572106,0.9629557763175203,0.32375923955148117,0.3673772608891174,0.2839815418333838,0.9092110983306526,-0.11411833636428637,0.8447503187387666,0.5508279335706974,0.21602863974474415,-0.6444405245194024,0.4102284855656544,-0.9496199135097937,0.2268829341345994,0.6484511236609004,0.20819036215388345,0.5167164130395084,-0.504442630965783,-0.6978768041023375,0.23493453179625096,0.611841864285009,0.7690462237541481,-0.8269810771289098,-0.20905698316577084,0.6012963768590774,0.8058514690134704,0.26361619234304184,0.054253784493903626,0.9480029097733566,0.34572332363636743,-0.3949192156159459,1.007402581131903,-0.9926134403736027,-0.11691766128326447,-0.4536962043879328,-0.6539459365592056,-0.521770823250089,-0.24800758594053463,-0.19488416987178758,-0.7683287982290488,0.8209636372665737,0.06367556718250855,0.23279223891012785,0.3646003861664968,0.3969500002116905,0.014912434484567215,0.42470932734310685,-0.18417570485773532,0.6348065319560621,0.4077472926909005,-0.547121087929758,0.4665106535882729,0.9124061574310052,0.5315800532940997,0.8394534599807957,0.4145338376642894,-0.7109468454666833,-0.15111649752963158,0.6646234768461998,-0.4692301750861637,-0.5428687716262498,0.1428193949338829,0.5039213781080655,-0.48507856636680663,0.32852632094931555,-0.5732014785691526,-0.07441709166044634,-0.9201668887486316,0.32556544483148103,0.7506180610665538,-0.5835755665446122,0.6956018271445378,-0.9115899892146704,0.25413166449126573,-0.060936822777069376,0.8823770740688002,-0.5952381155040373,0.9208963094247459,0.9116320214306725,0.37160836753129006,0.5350859117774397,0.5692934153830627,0.665866328331154,0.667172451043206,-0.5490099369163882,-0.7818747711417481,-0.7964329991522575,-0.6065423797044528,0.710170188672813,0.2445106142130019,-0.4052892345503341,-0.3249667766055509,0.595968554423008,-0.4876731197621516],[-0.20743396915363654,-0.5334504083014265,-0.08579137836253005,0.09682816300188746,0.8264357229209349,-0.2770145228120349,-0.8846687619028939,0.7992438550436588,0.8620786960420803,0.44927102713944306,-0.1718773349435336,0.08685828185367836,-0.14180520797916127,-0.3647112886633308,-0.7721489639075786,0.533150199685971,0.6509356533926585,-0.23528867503674225,-0.49584621905127996,-0.6526454723886794,-0.7436883501623364,-0.08560166725035376,0.2845774372925344,-0.31795513544168846,0.34163400617642914,0.16820250764795688,-0.5295963287726454,-0.21429270792504748,0.5556571376882292,0.4348942042076903,0.6283718553484522,0.9376678939273987,-0.8722870156132957,0.4915825349669225,-0.7673754877986861,-0.4355955555877122,0.9583398413293437,0.8038210570603769,-0.3720393576776799,-0.4671206715013515,0.32859248969412735,0.4639667220930917,-0.6801234883093539,0.7105106832005705,-0.18051885947503588,0.9344842380341515,-0.9277169775295594,-0.6326021170803944,-0.8590275608815728,-0.6091934228545008,-0.43005661375815296,-0.22370390611272734,-0.6447479122352913,0.24653262808562956,0.6118428298149452,0.07065684110276782,-0.9098241130752104,0.5983128900717776,0.6112789436743897,0.20020991119882944,0.0561135147211155,-0.7987872241042593,0.6346339472483797,-0.4711562644719684,0.5409597623166694,0.23123735790787373,0.04956856180860412,0.9026211012088985,-0.864644602525506,0.28247105222098035,-0.9453360943985636,0.22301920906198058,0.1718750988581075,0.3327700901063823,-0.4437740857790927,-0.9150506120290917,-0.5198851649227413,0.341182887019372,0.1649588745858063,0.8006180627894146,-0.7058254163456746,0.26095852294202365,0.787605000271708,-0.7386713810812473,0.2325910040860227,-0.8676784516709806,0.8333180716399363,0.04969241660306864,-0.10405019486304518,0.1862247682243903,-0.1543373132861121,-0.718521903004101,-0.6915320487003762,-0.6037566779027593,0.9469484941124422,0.6766479578864022,0.5150308565354057,0.6381963018317373,0.5611226797228352,-0.37195608758894116,0.6151937898767125,0.836736629761383,-0.34897650116010187,-0.4420743797252764,-0.2930015653669444,0.6281234964514096,0.22042965894104768,-0.5461846979367103,0.19079965828407766,-0.42101084920703025,-0.27122739848819827,-0.11645560683301535,0.1671359790086481,-0.657952297652756,0.039985208203453665,0.5431643766060323,0.421506346840878,-0.9975397033192609,0.8432172758055304,0.9943116820125181],[-0.03435248201408107,0.17817334541911617,-0.01690774561128902,0.9514233454478624,0.3852641382918736,-0.0542197874100251,-0.8793104487016997,-0.4934579117757532,-0.22210955883555933,0.6766580565057136,-0.020942109920644218,0.814731386908778,0.9082987044933587,-0.04419819409594773,-0.38051932018487244,-0.8501846736133973,0.8367887836528691,-0.9596229543683468,-0.6285056804298988,0.02946182770205177,-0.582772688846267,0.16847472149420212,-0.08084023918357383,-0.20990408858149573,-0.9506563935574984,-0.9660515916195188,-0.33843952710227715,-0.42993370087686306,0.39969139824370054,0.15748005109628258,0.9288260609116414,-0.15876733959808442,0.7628629162096775,-0.6849489530539655,-0.30397262998326663,0.0062127243114365105,-0.945804307022227,0.8387653450387882,0.9196870267722767,-0.23460167360797157,0.8336616776473617,-0.16158116581715945,-0.7107920653798666,0.9739601231173287,-0.8785545327806846,0.875997573499443,-0.013511150890726097,0.11672428680829282,-0.2751180880926473,0.6367588590917632,0.6215887995160849,-0.014155045189722604,-0.16235511326618177,-0.925510867782007,0.6974830456691005,0.28281889182462894,0.8589734593217868,0.4199838044635663,0.31612485322660266,-0.7739044312559366,-0.5580379891229882,-0.46095472379004543,0.7344007498002455,0.23558403213442208,0.21934129513229972,0.7249202520443595,0.8957381424476416,-0.6600160105239765,-0.45204142196485947,-0.6468745726755825,0.16316978255409753,-0.4435314338088148,0.24422327006770578,-0.2028755685376417,-0.9582732555075052,0.5959574970543181,0.6863135621882648,-0.0318342034524601,0.35322977027440744,0.03681910086328912,-0.7770918907562648,0.9860205704530338,0.625021455637238,0.8884285430597414,0.45534708579808747,-0.2969353849760622,-0.1036365892341373,0.7826538235310366,0.8664778558162949,-0.7861273402399561,-0.7395287203145114,0.16095268689236478,-0.7119855156567069,-0.9965833275393976,-0.2762325215370836,0.9889402517699187,-0.6837832021345496,-0.8669081629941208,0.669152261916901,-0.3192426162895694,0.7013623102754786,-0.9001383646271779,0.23278148222862108,0.04623586190406644,-0.6943962567344456,0.7659054171354924,-0.7483465761847438,0.8401709438983547,-0.38521083155196,0.7345773111354272,0.7898219115594528,0.2438842135854558,-0.43944873071483204,-0.767223610893179,-0.5305973637194003,0.6016268035752191,0.7692244932399431,0.5332438662148434,-0.6942405756521511,-0.5169202077097356],[-0.26260536210047497,0.8179004346074426,0.37576043811244303,-0.17221059512350137,0.16915844665890956,0.7908027709261358,0.9852633085879164,0.3776282645075625,-0.8931563396641988,0.34799290178824743,-0.2901462549398063,-0.25109140990979417,-0.12330950919063424,0.9345382484824332,0.8226431539169348,-0.2480453738463608,-0.6586847881169104,0.2828487021744197,-0.10878846377659665,0.8768688625086525,0.4945708848570433,-0.013121840728454766,0.651981001906414,-0.24970239099503125,0.1071574417280101,0.5489733177494398,-0.7301644488335766,-0.014213470570328113,-0.7876303942740319,0.8227817790272393,-0.7681513386779844,0.15471040407715553,0.8596171945604545,0.8981798030711512,-0.9619090365162579,0.10312412599696572,-0.6416749703791752,0.4440356439468938,0.1408061758637467,-0.04959344637719752,0.46006396942551864,-0.20414616303241634,-0.9081792797121522,-0.96252556955041,-0.37191496345529945,0.8654270739826916,0.7610357723035127,0.12928474794634592,-0.5979697347317068,0.6365850480395392,-0.03686857700450204,-0.228522726078717,-0.48349948190035064,0.815569271247895,-0.6087199108972192,-0.2030171670357355,0.8639934710482835,0.21089854508555264,0.9772293126695615,-0.500975931822703,-0.16474274617265938,0.36236374536448684,-0.17346550989176315,-0.12758812522188678,0.4914365727598491,-0.8071761657353597,-0.7542279215205759,-0.6185745529215781,0.16996792524136087,-0.014023140223717846,0.9863224372769157,-0.8454202015940033,0.13920766494861975,0.902371481309554,-0.18976939892648637,-0.972880196476417,0.9712682334512887,0.3114884715699374,-0.5359191566993564,-0.8234506090537642,0.5171884952154245,0.5516280189035548,0.8732826890988975,0.8519590805230837,-0.4254902961394527,0.011392132168989167,0.32953968869445494,0.5848855496322631,0.9125527183521795,0.5749698763642167,0.43658798709490154,0.9751241832627624,-0.011610817289690429,0.3994649303179372,0.8412929026722661,0.7856496076401327,0.13939118404118855,-0.47821453165212513,-0.4900608084752712,-0.9204941537765302,-0.45693055538518423,-0.5719401332161795,0.9546881474292134,0.8339911662548296,-0.6548202246774537,0.38852614253029344,0.5470596338909561,0.8863594964095917,-0.9403396325095159,0.8546071172454189,0.9838583781548779,-0.042479804804005664,0.4005784663304052,-0.4596580302372037,0.8138030761159911,0.46740647684555037,0.16309402520845875,-0.13807762400945087,0.742298320532628,0.7420866534858315],[-0.6218094222026669,0.694080036528721,0.3401772264881948,-0.4996773229110049,0.10859977981986847,0.19419572244927483,-0.29811090776547877,0.8614689764549497,-0.4156794767928913,0.33206835511349514,-0.9161817160817363,0.8944984458012223,0.19079518196087855,0.9542620626106555,-0.33235793368153177,0.5093557707320902,0.9068884530788502,0.04064585756336845,0.16365232746316913,-0.30242666007402924,-0.7671719124723633,-0.5707088221127183,0.376051098152686,-0.9184381374220617,0.7807161238647095,0.7771941206771018,0.9009766821014198,-0.4685706994650292,-0.2720009049509163,0.5951072774527267,0.27562515834294604,-0.6733964559716673,0.6790043261324371,0.07426752149668531,0.9189135755055363,-0.13591853826226497,0.1799623325493222,0.7386715202234325,0.27255784105937625,0.8462649755479814,0.3732198556866018,-0.19562282915519283,0.6935452489100936,0.24131276181612485,0.8534217133954648,-0.48672173479398967,-0.33394183840718694,0.7366802192250727,0.8397938746024391,0.7476678895013162,0.5401269160865156,-0.8103402564717275,-0.18188301503948712,0.1464795907525142,0.654938127279995,0.260481315964696,-0.974253717028438,0.35298294410967507,0.26070574414391134,-0.9899507810008634,0.3695364452459872,-0.8335086258114508,0.19169957164983714,0.07413652377601535,0.43306541207020965,-0.8043948611358365,-0.9772035296978028,-0.47010312225791473,0.6596060021932719,0.7901559374239593,0.16078571427752067,-0.2928024737042846,-0.23347265629853406,-0.6146407953290256,-0.1198650230264872,0.45747898606784404,-0.16490278993625887,-0.02927292992501673,-0.2287073710334952,-0.3227792557235363,0.46880117955634454,-0.7267219025314245,-0.11930745334735982,0.9415033123570503,-0.7350810895078973,0.47405739122010726,0.31756308004637657,-0.09952196967233624,0.4435559306222093,-0.9316795834997387,-0.2872875658727148,0.6731410497533702,-0.9090749684374083,0.7781157461258199,0.8801602592752893,0.3728518612160637,-0.14394301302474372,0.4485764283196086,-0.18178973560575765,0.0951574998827253,-0.12472312641464235,-0.6959032186062438,0.22138765737596328,0.9266176361624409,-0.6936393181717742,-0.12826339766640135,0.6854219191026114,-0.6863377504761916,0.012484833548907245,0.7680044834351107,0.9468796760964011,0.380007802485301,-0.9222913988453505,-0.5024826964654746,0.8457635097762737,0.11111588637330397,-0.21966153556025622,0.06174519161012849,-0.75958350586679,-0.5558723915460292],[0.9835786672748578,0.8260933216872808,-0.35192455295536257,-0.3164117738732169,-0.1869706174851458,0.5961455505145812,-0.1448983913441681,0.7600563424308827,0.5614577560114434,-0.42254778644001445,0.9588468646745244,-0.6452708660390873,-0.045526641153776005,0.4254659134008771,0.9414436848475118,0.7207696865520787,-0.30586695821235826,-0.07958384709562949,-0.0050745897232261,0.20384061324793085,-0.7755153644287888,-0.029983723307789475,0.5530534504549932,0.2937131553380901,0.9265200265807926,0.005922715230246108,0.7464523945138108,-0.3210645648795805,-0.43024422091216735,-0.04541969981065312,-0.864643603520772,0.29577849669976675,0.5502635717541838,-0.6093252667987037,0.6185442361693335,0.003661541184767636,-0.491162839995954,0.26534368006370856,0.5808952649458805,0.6972307889612608,-0.062231703294047494,-0.4337670172263473,-0.8892866745851784,-0.36073897881002237,-0.6036682341533552,-0.9827679852365736,-0.9476772773680002,-0.7510582954386303,0.3666609147168365,-0.7746191290106111,0.2832982138350756,-0.3242198875412384,0.7788341945443512,-0.06637742235761883,-0.7520860214756608,-0.5068931049414434,-0.9434813694603978,0.34005886645331,0.4729029749369558,-0.8738525223795568,-0.5894164534889033,0.3588827692984985,0.5469434094373535,0.7669507866387391,0.576488985730794,-0.29642625692530145,0.2889250681107169,0.2715573354021599,0.9859591163719404,0.7029605332524886,-0.7257775392786406,-0.9183825970856219,-0.9634175341409341,-0.8320817562161964,-0.7750931225768702,0.8816412214103009,-0.3691483466514546,0.67758582314541,0.7043407017574318,0.1356723577921307,-0.5574577356655924,-0.025865457824803477,0.7621370778790935,-0.49382088817592346,0.37707204259511257,0.48306525855893223,0.268543334697928,-0.6253285858820521,-0.8994498645889429,-0.3585938518719717,-0.12882513192388428,-0.33395402116319467,0.05038143906655719,0.8772908494856418,0.24612457971075857,0.2601562507829364,0.45901228580184184,-0.28279091113854327,-0.9970284231687198,0.11065573324458901,0.2737715925990415,-0.5459415866410401,0.6337211988275561,-0.9922631136402329,0.8881993430512708,-0.273290331771138,0.10080881906200477,0.04681968962307606,0.8527668208336349,0.2251584022565898,-0.6820935978860679,0.5033375450352634,0.18301290071224613,0.9400676858582543,-0.5744262870829698,-0.6090034753242356,-0.21921481477991975,0.43038203776884787,-0.688396692181559,-0.2877072242273708],[0.1732194667709065,-0.0951922032249409,-0.2637158695872643,-0.014659115491891481,-0.46769064782646724,-0.7581614534614012,-0.7419834581833397,-0.7723651305996038,0.13340354520073938,0.712151313802578,-0.18552226259922103,0.997328010784308,0.40585923283118996,0.6626560854566141,-0.08277189583035413,-0.5869317151148474,-0.5825462627398977,0.7975805619942078,0.5627902035538755,-0.9027045266481816,-0.2912440953623849,0.6339332167669136,-0.3633109893210205,-0.5761384582248789,0.06765900473461321,0.09252078072971885,-0.9863145398688614,-0.0757753696608801,0.8293674185677684,-0.1829149216167447,0.7916697347614996,0.4788693495623386,-0.12772661281835365,-0.3912738420163145,0.10047349052278941,0.48479784386111546,-0.3596406013476836,0.6458172561652381,-0.7427572049719928,0.155752536530483,-0.5485096868712224,0.0764915528640653,0.9218530419025293,-0.39446205797939515,-0.3576217702156316,-0.6044379955767779,-0.5379928069849207,0.7446723119066044,0.7652450374795638,-0.13397526441228413,0.11149265803710094,-0.5126829102700892,-0.19734175014732322,0.6857923001639056,0.4795608564572707,-0.9428125291501019,0.18014545518928518,-0.3909049395045316,-0.046685798559205176,0.29512835714465374,-0.05753161963330628,0.42672759802847576,0.7785839775486287,-0.24295848624677702,-0.13373621693891943,-0.07839634252629442,-0.8304520277989417,-0.09005134623509936,0.5045490023553187,-0.5818229021602556,-0.455183026952684,0.7415411108879825,-0.2797717843877603,0.6664789298279611,0.7879356319871179,-0.371930950861045,0.3244357265608911,0.5096623405541765,-0.20404228740715383,-0.4844419489423441,-0.8372085335086036,0.9369712090369275,-0.005554320875331583,-0.8828274555117586,0.5458241036460397,0.8643738155833451,0.01644259289508402,0.13486030269748164,-0.7544039092289228,-0.5532599119399777,-0.4067370349982637,0.33245566440301394,-0.7492246130726411,-0.9600991720266143,0.1941333241623022,0.6694136519179805,0.023997294511475482,-0.5815038995713484,0.7291589095347702,0.6711509907652164,-0.2641971879213327,-0.717522781411491,0.5035126247734616,-0.2446474315030054,0.20325272425724467,0.5888238206678289,-0.41477833147146487,0.1669877701734664,0.2086697068867185,0.011794674776390447,-0.7281658340715044,-0.8360898026284894,-0.7168417843864178,-0.5657411348768506,0.9681568010624568,-0.1712594991480445,0.6719769016539398,-0.1601072985509151,-0.6494728714703756,-0.03920031960122655],[0.10019880742027497,-0.5551134624163969,-0.03314978681263802,-0.8879579291715495,0.069440064996525,0.9164043235025777,0.7626135897162716,0.34651805475666647,-0.9734444531844437,-0.7517021869192406,-0.042619387382255784,0.5312336465997115,0.17743017562967467,0.1440388258185842,-0.4384006471259679,-0.7619331117678838,0.6196209064878462,-0.4847474983913016,-0.7272983989593093,0.529843114616331,0.20272132000098084,-0.9688476301830916,0.025805895811253445,-0.5309818431680194,-0.8752237514485681,-0.35291965505475476,-0.660955989622577,-0.6838843410998617,0.11122311569234211,-0.434086096873608,0.808755757243792,-0.8994548449695539,0.7588250698997477,-0.15930348432610247,0.03505949522273092,-0.03083271167883256,0.9835562857316353,0.04377168740270343,-0.7781287720223771,-0.3167052954367179,-0.45231518582172864,0.7952681393461463,-0.047056088714658224,0.776008507468443,-0.06045608972379283,-0.644875353743105,-0.37813114043656326,-0.6273041798449095,0.5045099121038225,-0.4572074910544969,0.013374537308720931,-0.3916863576164445,0.7282679408275968,0.06900476097771431,0.6897245512491184,0.4242744885366629,-0.6271147783064059,0.6440665031093078,-0.3902955969096972,-0.31134407585417007,0.41930287891043044,0.6489571857943229,0.6407253252443732,0.11704265503645073,-0.3244080351585817,0.37228968649890853,0.5048980219282994,0.3280255091542832,0.40135008214841356,-0.2511690146316093,0.30661878326666714,-0.5984297915630282,-0.2870358992815347,-0.0716012262291696,0.5104880863783595,-0.991132215551772,-0.7733412574586886,-0.6424659523460551,0.04093560637071536,-0.34777643678963543,0.9058683674347912,0.4085181474339008,-0.6724231022934497,-0.29147690338204896,0.45215311595812363,-0.02956079293173042,-0.6428927469263477,0.72595786143469,-0.7898942212378035,0.735086611604901,-0.2744806940422825,0.35785618545565223,-0.3048891093877652,0.5544476429715358,0.19408998434422156,-0.5843312668989048,0.022790551978320733,-0.18768441915634138,-0.92452338750537,-0.4936806272088623,-0.4577767170528411,-0.2905836106570055,-0.0648099486593961,0.8352740957239364,-0.6194907496657187,-0.34784800174498604,-0.45773435650680566,0.34130144101659166,-0.5692613605368572,0.11309292574912069,0.1071501296672238,0.7904651333201994,0.6489537762719935,-0.5295035877553376,-0.4402045090878043,0.9091572177305153,-0.40986438768648265,-0.7497959192559875,-0.7622892095944799,0.5580295063917329],[0.7485814943265179,0.3986966884433421,0.6254909710646366,-0.41716951286008047,0.024453720025783658,-0.15043283173499727,-0.4161909564254652,-0.8994174848983146,0.02392321133886863,0.04762841587989478,0.09371135089738265,-0.5030522946946827,0.11724744594736636,-0.26960236640399654,-0.8771992732250325,-1.0045303502779879,0.6210938237410637,-0.7347645372348247,-0.9628761310078443,-0.8922666464328858,0.7967726157668812,-0.3347035078304671,0.9093015840667835,-0.9873137811634017,-0.9847648442882625,-0.19759246943936704,-0.22522964500622877,-0.09991613982245916,-0.21317661098248847,0.025691890832862246,0.6736991926783094,-0.730487494762,-0.1713386497904822,-0.22977583498116283,0.3164289027771655,0.2311472108490171,-0.5870791951893859,-0.6064594866147178,0.0445839846171725,-0.44096391450937056,-0.16831865398809612,0.6478363958085177,-0.9204612982970615,0.051324703795847325,0.32785818379582454,-0.197694428520511,0.2600653098882628,0.2961671420793231,0.9117412045908878,0.1525452264602054,-0.6876125595929089,-0.9093008213672943,0.6628563129695663,-0.45697215228681,-0.14161745201884984,0.6058633605061041,-0.8966999738489815,-0.7843529323612205,0.40462862108243675,-0.6788447301628658,0.2731412579014615,0.17219230248402936,-0.0770366349849245,0.7968156869317791,-0.5805049469168481,0.4591215889784691,0.739327961353167,0.6744908957119924,0.16973565100685056,-0.20343637876560586,0.4830300750395508,0.45776423557571994,-0.7438917791186079,-0.06863713336282902,-0.7378836965911825,0.17481082349441102,-0.7713230740226091,0.6467024442509214,-0.0341109352498401,0.5791509148479658,0.7073155467746017,-0.1365386921147139,0.07294088274267944,0.2508243350433342,0.055142183599482975,0.4344233985788888,-0.3031296726192594,-0.5036810114056545,-0.6434017424823978,-0.5816018838754324,0.3601050056451907,-0.34722470534751615,0.9213702003478206,0.7888882728213419,-0.14590473621988254,0.5575561316698149,-0.49478825130863113,0.13802039844019956,0.7470325139639828,-0.5762967072750464,-0.16588536358332814,-0.5942110490931871,0.7282429120766013,0.40371194112502273,-0.3769515736794593,0.5398945219429062,0.9100155231889805,0.3186890147064655,-0.008658846471124627,-0.8836865685732169,0.5094113661153442,-0.08285815728687991,-0.48042140452626836,0.9323527971498108,-0.3627232980851953,-0.0869628979442667,0.9025562600069061,0.4398571915062812,-0.17581358090566027,0.8774926132896241],[0.018376602764160047,-0.06427569791561025,0.3187696470730276,-0.5164380148129898,-0.9105132954998891,0.7159085152371977,-0.1392583632267048,0.14796374032615953,-0.6331937776302461,-0.6132667356185498,-0.39775925427936437,0.4482072615751492,0.5721774490983841,0.786963162333438,-0.7385432548070956,0.7180977002519326,0.2225229134081294,-0.5893508858314073,-0.8468543651433587,0.947202939784303,-0.5286963177649604,-0.5685277372349232,-0.5908826648592512,-0.16003316997681305,0.6311287520813829,-0.18070067754053357,-0.8520658678001727,0.5065116767375547,-0.2874246619269832,-0.10883446767164914,0.3333778699755754,-0.5324370792602608,-0.27317033116562994,0.38543625460084474,0.8168410348323016,0.25659691238985755,0.02199152946450285,-0.861682583450239,-0.1620890727496593,0.6842242036823536,0.5154877649239138,-0.8456032987159431,-0.43247399218255234,-0.30347250742040216,-0.6854710384794511,-0.23460777257894566,-0.6146710231361722,0.3131057497235345,-0.6240787144662505,0.4920982746514062,0.15548594574503902,-0.41383989035609614,0.13339921306017044,-0.37668078718848835,-0.03389569432156132,0.6150980126869602,0.1410581289220795,0.8977321210353176,0.2868742831456467,-0.07452822322994201,-0.27960091249255903,0.4263094476164593,0.4070168805258878,0.5142806957760453,0.8599782358137384,-0.7360683337481978,0.9436869407322469,0.06369272519744962,0.6151332120918409,-0.419424552620863,0.7221061180614088,0.9432320817868395,-0.07538167714472838,0.6963923997672039,0.09306880965649644,-0.9145731393571103,-0.04829538472009439,0.8811300501942255,0.04309451919561167,0.4005402643892618,-0.14630387228625888,-0.2911372573975984,0.07549546575393794,0.584360544818367,0.5860566814873949,0.02511313954592541,0.11324945555818447,-0.1315357006010818,0.5347062526281358,0.49270896629943556,-0.9161801082401014,-0.08338593269316154,-0.3060447473812444,-0.9394590259965049,-0.6005504578889929,0.6743888200361527,-0.8776023004430201,-0.6813500010879285,-0.846577408338091,-0.9108753471140629,0.5037299222803064,0.9494205146481783,-0.3633935291697468,-0.5123088798566965,0.26583582285793017,0.08960575052135154,-0.8113963797489966,-0.3651554370907073,0.10197311419062915,-0.4807064715591216,0.7418725073162776,0.16469508645666894,0.9105329765177099,0.5856596531137747,0.029018150047663716,0.9075483770037508,0.789892874494371,0.4180817079592849,-0.43107499502537455,0.9577610153147263],[0.8702174660049777,-0.4474215641690622,0.5749409773498946,-0.35887315262049285,0.7054730554753462,0.0745759722640427,0.1857083723788792,0.22788336206578858,-0.16086977636986197,-0.7260723087738163,0.6023292817254635,-0.24266141303365465,-0.7120601705875506,0.8233677648198381,-0.6122219759036751,-0.29921955346907375,-0.3336269105533692,0.9616099422398416,-0.9879531449123756,0.966825649969762,-0.9471135428845906,0.12624360154331346,-0.39770282332258206,-0.9628696893315325,0.7379828537047416,0.17961328054056253,0.09696947584110654,-0.9876154052094367,-0.5353062941933877,-0.3341385205525636,-0.23195209754233312,0.2053929563080976,-0.6325105237138988,0.8651119490914436,-0.9717223123584043,-0.9780233760916979,0.444647946665316,-0.02872714067351462,-0.935732716233235,-0.896364520209644,0.9566364217172619,0.273633727271259,-0.11378254240224583,0.2289729547811088,0.1928629606555161,-0.6480977153969876,0.6494007368387866,-0.6752399451968278,-0.9046764196012719,0.20223422305207234,0.01716130185182489,-0.8145065529644409,-0.8496007952725126,-0.32182089622871385,-0.5576803451194463,0.6269706578396338,-0.4260941967511282,-0.17905742824269405,-0.5005605034682894,-0.07771607750334752,0.14943603361714303,-0.17539444814912314,0.1970954358815034,0.7693754347341613,0.5323953351092374,0.8218829833331035,0.2849975557765878,-0.4170457561883118,0.8089230567096128,0.8644958454436399,0.3614056301556619,-0.3897851712335019,-0.3476610017375458,0.5646921698273678,0.7502137965354575,-0.7381929644519568,0.8794020144313808,-0.32784739773815424,0.48884742868300535,0.1455112869338807,-0.5269995225460463,-0.31335719380019317,-0.35386219312236666,-0.41500539550156307,0.6258363710554027,0.6243359602080886,0.2619328932907081,0.3596985355907696,0.9050683287961613,0.11643474912341191,-0.5516486912013064,0.5504172379076517,-0.14981850782682749,0.7238871825285198,-0.8908375303709569,0.08736281592955089,0.69838722388715,-0.5324080573959699,0.6538852681092818,0.5969929429038789,0.9571546828856832,-0.20918157793148798,-0.7002066879686972,0.09172281068710182,0.9080504748983002,0.9833364179182656,-0.49676225672681,0.10941342519580388,-0.5824437556234905,0.6912479240074374,-0.6237123575362529,0.49047252484293663,-0.3677024618001925,0.8634436745154547,-0.6420459089660214,-0.8282866296198775,0.2562890088161372,-0.6347426139981512,0.8325596658774556,0.6989583737372059],[-0.24420126568350178,0.41708284535999623,0.2765224800345236,0.2143372291831611,-0.14127166624484405,-0.6893279921805784,-0.6879162106300489,-0.3958520973254781,0.09333269784246521,-0.6656213013334309,-0.008673415506033967,0.30870402899656385,0.14298576933541404,-0.6002539188121824,-0.5712714225042834,0.23180242061053216,0.9432650648245555,0.5052312586250681,0.49400869497138095,-0.9557452956402362,0.3069513272644438,0.6713284409573529,0.8490645358551784,0.324363086592048,0.5361216340352405,-0.418653121586868,0.378731712891982,0.5828486960140912,0.9151372928169392,0.33536253784759695,0.030853450516138914,-0.7419469073618178,-0.9486511222740203,0.9936038323700831,-0.6697072263475429,0.6681254471565734,-0.26440440070582866,-1.005305740909612,-0.738272645188984,-0.9416444556769078,-0.10942728991239528,0.4865418103283527,0.42048476199682067,0.11200787120894681,-0.23484051709827758,0.5267612942307764,0.6849237525685974,-0.36517195737949093,0.4919276261803338,0.7857374785442733,0.09818183310744931,0.003327675247401589,0.005032942224741225,0.8388659775725075,-0.16893909318910375,0.20448913800367707,0.43863003514618654,-0.43475456005272284,-0.3409053896998448,-0.0371519337090049,-0.509613818409915,-0.3514233069752866,-0.607789117925936,-0.5860343280435327,0.5888779989353108,-0.3950973824589072,-0.8105943245521787,-0.027715200614042083,0.8374262578135196,-0.00340060098366847,-0.05876371896137857,0.48300483820146556,0.506177441820238,0.28376158159957837,-0.18818708142122972,0.3867226355958604,-0.7176581202805954,-0.6304939636252984,-0.36110895176495694,0.5166700478409066,-0.23165272880825183,0.8777351628641628,-0.6966724332230771,0.1712951002300054,-0.943782393118181,-0.17154324522884393,0.45198347435198455,-0.3411399579829615,-0.17836773882105647,0.5021528535853388,0.9065730002082059,-0.9109762445682864,-0.9188210622412329,-0.37973811353131376,-0.7391274485075151,-0.9837921774733644,0.4913168264764477,0.45815396767298594,0.42919947913075085,-0.6001727810833818,-0.7222974081598861,-0.29689274766146484,-0.49407870355416517,0.4522228292897639,0.14782596375593887,-0.2712109416012956,-0.8737988736419118,-0.7098914788868249,0.9844781539702865,-0.5950024498142996,0.7682397638695415,-1.036350264960528,0.3773478201337416,0.6362132007510005,0.5503498172445319,-0.4820087774504654,-0.778218945537781,0.7452304550373409,0.2277068886387809,-0.6684131053906476],[-0.4239350958255986,0.13661407308409604,-0.665164389407351,0.8044249226376103,0.4444644207690874,-0.19244982512694908,0.9645888746902292,0.3834516686042809,-0.8302919840845975,-0.05519452367415027,0.6781678135724144,-0.3463383605996323,0.6592250949638571,0.11464774501210925,0.6553278041997022,0.5029871603889914,0.06014409529687419,-0.22855442809837903,-0.2043594846836373,0.10597810287147917,-0.893643824511905,-0.4801683281380153,-0.4494551168437158,-0.8468149478191813,-0.6205061249324818,0.3889015401320797,-0.5836745330940031,-0.6495195136766607,0.5684024024282543,0.407677594042692,0.44076204853668244,0.034656593281072436,-0.6161979652323791,-0.4467446535762556,-0.549666671094079,0.1454742646343041,0.8706948960884766,0.7881136033569389,-0.45458759492624445,0.05915134385297973,0.22921485994247962,0.47865568328473534,-0.9848881074628173,-0.07495258291528223,-0.06715359290377707,-0.6559908557657442,0.3960858317964362,0.3350505930199235,-0.25184803907991626,0.8866684208544613,-0.5339556669185597,0.8261535285031253,-0.4012481437756124,0.9857569398112307,0.9200867708544317,0.456721666598436,0.17123899080744678,-0.6478933149260475,0.5524112825777756,-0.6926195518704188,-0.6728227874712778,-0.9519577859868276,-0.5515744688779334,-0.016046071737528037,0.2846317461714648,0.4696584823308178,-0.7540449545005268,0.7078429147164856,0.36688771436731493,-0.5392635838607931,0.38842346511905457,-0.7837275303295455,0.5755643128903006,-0.7729328619308717,-0.47407737963923535,0.4656688673599162,-0.7797316927981767,-0.4963997561605808,0.38514416059997125,-0.252817107180235,-0.17309699125253197,0.46399528903954756,0.5852646743433878,0.3807127046271506,0.19803374613675326,0.14420523456526632,0.8639037000342679,-0.3150546309917867,-0.3654105250921049,0.47048448533369097,0.36698528463156443,0.2779991475076879,0.0855877321568336,-0.8454261106523048,-0.04230626533903781,0.8290867652571525,0.29753463512669037,-0.8301077548990494,0.830680835979219,0.5617975024927119,0.11604773028760403,0.4774147620070319,-0.08780049553498759,-0.7684711843537112,-0.9919040288776005,-0.7788691473257776,0.39713643096310314,0.4325751136916154,0.42234970509215664,-0.09131137286093435,-0.010323309113488015,0.3500194357656062,-0.30712386348894766,-0.7447952917659373,-0.856179398751444,-0.5143014964279039,-0.8632198060563038,0.8826399379045784,0.5417874628418841,-0.5970924482681301],[-0.14177354986485916,-0.4109490932167006,-0.18325000659515042,0.4763103445772444,0.7719377743243763,-0.1573148171830474,-0.5430772295267807,0.09094062957204202,0.1987578295868556,0.9303163110499907,-0.8008379125030065,-0.30446368963351433,-0.7019866978526123,0.2883414581721839,0.808460372860224,0.5178283575544048,-0.8475881765440988,0.6101308753654118,-0.7999325379126894,-0.15666884515699595,0.2922122267453421,-0.437626682253379,-0.9109739571030043,0.9858549254638753,-0.4163353044501438,-0.05935709631945562,0.01126744330984297,-0.23363191323028962,0.3862608154735023,0.4399605597963083,0.4882800227085308,0.14546999209977962,0.44912288905987674,-0.5747637809060374,-0.09503773759973484,-0.05436201990450399,-0.031394658390926686,0.5753524981216085,0.8173285716362025,0.02809427286277147,-0.0784026210722062,-0.92735030366593,0.7755329198656445,-0.700439431591057,0.38349124585594135,-0.33206731258129024,-0.4184293925228801,0.9392880838669324,0.6654165099551281,-0.7421701620118314,0.6617985751249302,0.32030901341544976,-0.08293373302655774,-0.7569596190411731,0.5912176917689245,-0.5023902638054975,-0.7004846319213249,0.2735047569304381,-0.8613572037569961,-0.5543597121901529,-0.7925466975678218,0.12135477509268244,-0.18599331687420328,0.356687835442973,-0.5189803601627683,-0.19008978167683327,-0.02326889059510187,-0.7778692768610366,0.40705202122378153,0.819445469527523,0.6014790012214324,0.8445394769135889,-0.8004932555466339,0.22466132639707415,0.6292453800985655,-0.19572787708722514,-0.415017113388308,0.47885435135283,0.8701985723153812,0.5730072173636335,-0.022318291874806356,0.6044025839161915,0.7693380968245214,0.07943431539685929,0.9256946237923227,-0.7309319149750592,0.08858270706188437,-0.00415515821335119,-0.8434432385224189,0.8007219330552077,-0.42410407498957964,-0.32357065961162595,0.4562692152346836,-0.9213598133727136,-0.49894566008212243,-0.4549420093313623,0.020005710335828913,0.49137795393211525,0.14407828974827042,0.8218053769469443,-0.37646874061330954,0.5958467809324716,-0.1133345825712574,-0.8931550785428611,-0.432965120782112,0.5030963854221756,-0.5401983538311951,-0.8546601229123171,0.5295906245678436,-0.42664231897918165,0.3390800642834267,0.052352978007022044,-0.3739154531403729,-0.42351538121998267,-0.29442758028012583,-0.3363278428376145,-0.1413695137869545,0.5084956286869089,-0.645726351538877,0.03749986061000214],[-0.3121232118647745,-0.855804439880363,0.6014122970525803,1.0169405711004862,0.9484087062113048,-0.758975047267025,0.34598950106493986,-0.6304716953048722,0.5327169713689611,0.4824751000860475,-0.22619810706799057,0.5981787130513981,0.3471052685724854,-0.7585455628718147,-0.8921978838715877,-0.43702195584995945,-0.7907746103665466,-0.3767898846628991,0.946478089222214,0.007962197438461714,-0.19748455408461368,0.5406595319150337,-0.5898418307337636,1.0035450030613469,0.5733418736784041,-0.6776555526214384,-0.9720296857931582,-0.12741955863939985,-0.6731047938969358,-0.8190725361949193,0.8803527946778025,-0.7599633664240059,-0.1416262146189203,0.5348838204402017,0.9812508160970993,-0.9603526805896248,-0.6648675498576613,0.3476601927073603,-0.36931892937545663,-0.5828814897346124,-0.8923785465628139,-0.1375288805221447,0.060378949561422916,0.8742661516793504,0.3981551456081217,0.9082014518748047,-0.2636555538181897,0.43516694024242886,0.19739785514638825,0.21101796408284249,-0.9299768894893841,-0.8471675333495733,0.10615361505322779,0.12139347409141732,-0.6570719148367935,-0.9292002573764622,0.5577166230479379,-0.15876187044601547,-0.4633681294693133,0.3763878399777578,-0.509261092761516,0.5943714727391732,0.5577621156431194,-0.654046585631715,-0.5025559654445357,-0.8644183550696178,-0.9920519164500946,-0.20349324982632724,0.9243511204611691,0.015587585256562933,-0.4086772948570154,-0.5002189020030746,-0.3545205275644997,0.05333163161817266,-0.8902225335876364,0.6536103579803332,-0.015552503913084452,0.18686519680597022,0.33044372839135266,0.7171938456275603,1.0187567952953143,0.7414647141302059,0.4319094000290703,-0.5645598795271025,0.09315737325864605,-0.5255803971904991,-0.6003978292675323,-0.6383182334167902,0.7956077697546073,0.2130709494771028,-0.6109091235649913,0.9938351896180783,0.14903468189108657,-0.4249391882679807,-0.6897456801630428,0.6730667816253979,0.43999950384368297,-0.34522889379596056,0.8042397022250799,0.06181882508105375,0.3697416607158929,-0.3030735104951842,-0.3293307523813254,0.5108638237102647,-0.11179764148782619,0.7852472534215468,0.7523228937922344,-0.687586612314701,0.10777188416001247,0.835872423636997,-0.7922255057781041,-0.02797807088890744,-0.24619622992538148,0.25101669336912563,0.8671133517255987,0.1721184240345632,-0.9592856757349981,-0.5630170410513252,-0.5070883808615341,0.9501970911038173],[-0.09543265873493699,-0.001226887921010097,-0.959312207177535,-0.9121103850160222,-0.7518866380708051,0.4053271869837579,0.4717308252890538,-0.8562145515020496,0.22122998749807038,-0.4008203293362583,-0.798039552501663,-0.03698152684171583,0.1969839835840863,-0.16766842474543367,-0.5333738390457188,-0.3754267721166889,0.2899711174753088,-0.8404978130487525,-0.22847392541313521,0.22265522337900892,-0.5833618466113846,0.4216154401726507,-0.7195754377089306,-0.8352639882535632,0.41622372164619525,-0.04104657387386025,0.5522790110641664,0.3516641937215355,-0.3235072399803704,0.7751334566554746,-0.6782174468617747,0.426574880767184,-0.37984297103798026,0.4673017063423618,0.26823415319586824,-0.3483070838360741,0.0841093509134359,0.7057105798958537,0.6451732440031568,0.5556471107914238,0.14580835936168815,-0.1518464347798539,-0.9022454051633584,0.5302864240543599,0.14221163931360223,0.44619911193995376,0.22168346173624917,0.10093581896972667,0.9175916458791934,-0.31226567871189326,-0.818034186806721,-0.704166915649504,-0.3532248466052563,-0.3309804511429677,-0.1461078456975664,0.7105893205443979,0.8668683458496178,0.7167495854575681,-0.404567069054538,-0.24865878183701226,-0.5936369161732705,0.3316941052871088,0.12727836405559856,0.44340030017746535,-0.5068023616400685,0.8491744815634179,0.27898561797811866,0.1264590728951308,0.6057128942970214,0.3518655182174088,-0.15008257234310304,-0.062394469357871456,-0.08139556209467001,-0.03803777231460453,-0.5171800937724904,-1.0045310237870246,0.4174947151895952,-0.326627458242413,0.8328427645960053,-0.4032267454796454,-0.06369447692523852,0.3731171042867199,0.2567433334714594,-0.2810795673129637,-0.9445549722629442,0.5596713073125006,0.7727792454330614,0.9270215331200885,-0.16196889303649423,0.1652676157612683,0.42729682776745403,-0.7323993716026966,0.532361021509175,0.5644863531782881,0.9654816988301061,-0.6058231700742942,-0.4941258514403954,0.8615700930412545,-0.23106754423413353,-0.661587706411641,-0.347294594106313,0.3626985947300835,-0.2603515864234911,-0.9807847535479651,0.7747576765551655,-0.12979049718751115,-0.3143683059179017,-0.5773114350279742,0.40603025681534466,-0.7488846947523304,0.24372309815598026,0.8909612837064441,0.6856047163410983,-0.025541467587428972,-0.837674010190245,-0.7681329879164347,-0.9204388548527775,0.4242868123365454,0.7118456306749626,-0.7742309581409045],[0.3372496923286953,0.9886087168289008,0.15716028526119155,-0.8732137651492604,0.477570413027757,0.32501039693920786,-0.5710031342034632,-0.8255447313134228,-0.004322231028110009,-0.2347899479884681,-0.44951211200156865,0.9664529248708523,-0.6591280566350358,0.8734521436336881,0.4245709921493955,0.4924841088678335,0.9078555065893512,-0.03967915448062924,0.39541373165875093,-0.9772705611151776,0.8892198067965351,0.0913435578930245,0.29059243406671026,-0.6487687189183766,-0.15398183049924963,0.7027026584011847,-0.04953092291344914,0.10305585411371433,-0.9745062809112702,-0.8708560333183737,0.5412441996873455,0.691808859607796,-0.47613798606453767,-0.9573666608273649,-0.21099591269559534,-0.018962342754897863,0.8748461705949493,-0.4231027316477131,0.6425928953586426,0.38024495139105124,-0.6425289270159147,-0.07727179757842138,0.14043560991276602,-0.049772398378937543,0.42702080561193234,0.5856646000849859,-0.17451396196331437,0.6975011493454493,-0.1404426664280878,-0.19419389589981026,-0.9717808178193377,-0.28152228807476376,-0.37697317081834875,0.581355944809549,-0.5771694305641305,0.30207708473187594,-0.7106749196858548,0.5245225331369912,-0.10708058074942821,-0.4932077130866283,-0.8240427987396161,0.11743316325257441,0.6745282276215311,-0.8277184787059338,0.8541618341020437,0.44487923280147024,0.011226078570479267,0.3564817541742338,0.804457037715227,-0.5871025101190465,-0.8320516267909056,0.4475303193827463,0.5923678096278463,0.875133975564255,-0.6940468472195148,0.8063571497164493,-0.6113065335806106,0.318532675201789,-0.5408182708320127,0.7338276630705878,0.9705098886880967,-0.5645391564029112,-0.5588621737957133,-0.34961558596352865,0.5728282121328224,-0.6124958613029706,0.39713391523779035,-0.19124701314923498,0.9194580019402693,-0.7730279255960163,-0.183182003936552,0.19090126874177402,0.9289957033297277,0.609617062388877,-0.6488963383700747,0.47102204832884054,-0.7240606663869272,-0.9955712047677755,-0.7944065355466657,0.6720869378293094,0.841727855039311,-0.6982880676087999,-0.8071461236169852,0.13226386727182832,0.42177369020867456,-0.07063789936321291,0.423925832649255,0.9070919373406496,0.8623976348576707,-0.8464219015749593,0.8999333846787292,0.07675156146444091,0.4457546998963595,0.9426809359217923,0.6055843998215011,-0.4862238322569149,0.46095777260312093,0.6158753452020465,0.9304661781477832,-0.8688138258143936],[-0.017025900310578948,-0.6489134909978372,0.3707727033300026,-0.04927779158973746,0.7884669077935643,-0.2895663259341502,-0.869851054530621,0.31733034794180165,0.3049275701949222,0.14749002969423436,-0.0397614246015461,-0.4993352333570179,-0.5471385982593298,0.47954822644814743,-0.8699033601223696,0.5409749891371043,0.5394911539108478,-0.8114398225667501,-0.7990907953326273,-0.0307065957647679,0.055952068560050645,-0.9582122076519416,0.41754957322757597,0.866769645153761,-0.8333782841820699,0.6678934791035337,-0.692568689542926,-0.8256769221975209,-0.7393019681493151,-0.3735085949193482,0.49523342431968587,0.14323085682662037,0.7294125081656463,-0.5579680779530237,-0.8662558656516477,-0.5288959451627653,-0.6643977774999198,-0.5089824079799191,-0.12374248091205352,0.8159577319786651,0.05553840246111372,-0.6641607514067598,0.6065014156849308,0.8509738675299205,-0.08693056789561683,-0.006800044227381627,0.9356982348307226,0.7219856306272027,-0.20606291737157723,-0.930718489989198,0.9551652923331874,0.19076040256326948,-0.24587868317227382,-0.05418677729292578,0.4365564892278657,0.4123024434118877,0.569010211923095,-0.04936213006047831,-0.4153533611002614,-0.9666633535021181,-0.604792064214577,-0.73110430264501,-0.0890638905634694,-0.9663597509354277,0.6973348503612177,-0.10999004576865318,0.13028885028819331,0.6228900445251655,0.49349032772406776,0.20270677545383375,0.5237625718462303,-0.6617823189066123,-0.4646030220513917,-0.9560137844277489,0.47516257552933117,-0.5788576318162986,-0.26156796553022793,-0.8114951769439903,-0.25532733867851254,-0.3701363425289924,0.602323315447852,0.4963817725506074,0.4076845451835276,0.8365206060175483,-0.06092256205970965,-0.5339314587351983,-0.6255276558377327,0.4537813812159727,-0.5764379057437341,0.2532842413368991,0.6587095322556165,-0.38407574896425417,-0.5703723902225791,0.6593862019773891,-0.7883914719115356,0.6811920169590212,-0.5630125000157473,-0.7657760570650248,-0.18567882217023884,-0.6400791019298188,-0.6921860555930601,0.3161165775725844,-0.9824947527168048,-0.08775564345098277,-0.48393710158329867,0.18809431091831344,0.21202760251176986,0.6118047811145266,0.5769051375728854,0.735979277604992,0.09041003415336815,0.725163472870343,-0.09438391208374021,-0.6635563248008635,-0.06342810402735258,-0.6464866581977148,-0.20985133432565822,0.9538766180860738,-0.1336259202730135,0.7970692307016106],[0.8489851826945306,0.9095822332054062,-0.718168136172126,-0.15933535793522322,0.2375198061986726,0.37227230694245755,0.08986576904240301,-0.6362835439362237,-0.3377831767673199,0.9882133867005908,-0.32276939602709936,0.9888249944383087,0.23554889288684783,0.7500944778351155,0.9470353929011883,-0.8684392883258965,-0.11260495223699749,0.02321470753635091,0.408754941157115,-0.946288626104413,0.6729920676297824,0.0687187614859068,0.627557121981283,0.9355962461152675,0.724005837692817,-0.43703769479612903,0.3399088901402636,0.9305731576672073,0.2735658226335483,0.13434654048602507,-0.2819209371046391,-0.5703341382835658,-0.030391702555918863,-0.7365886576479274,0.6564782007461182,-0.23009309730097424,-0.32483267657180515,0.2451647319672276,0.9463873535934773,0.08095920014503905,-0.7997078696979446,0.9286466211786609,-0.8689607526255306,0.11930351220462525,0.002721379758393728,-0.1680246958220046,0.6421742685852897,0.5791721360361827,-0.463880982263542,0.6740437795394567,0.7150151137677312,-0.4728180432482068,-0.2026354212108292,-0.5072075631199938,-0.6914012606463655,0.25540148111917266,0.14235724844066144,0.7571750325767505,0.06160630829609684,0.6338887188019459,-0.8494412464237061,0.29605505238669105,-0.8468558601164495,-0.7451038620537914,0.025437424538651304,-0.61373905814609,-0.20139905246570886,-0.23558225252882084,-0.26437704907360493,-0.36163027064207015,0.26373127553962583,0.29600070683874147,0.9268365533133605,0.957495290375474,-0.8646727405411476,0.9184331677317712,0.8034931801787207,0.6585001443547783,0.6518760895827144,-0.26111244097025776,0.6854130944078815,-0.037489135383983435,-0.49317139276427385,0.42819493981963697,0.6221329851995059,0.591528686358412,-0.8694309261248535,-0.26090759463874025,-0.34138880212477435,0.18328374239219744,-0.9501724694892004,-0.021057784951918436,0.540138937713678,-0.18166880479639372,0.6728556060126198,-0.8076069563652089,0.9717809790441738,-0.7427531593379135,-0.5067010672397214,0.25657178562859684,0.27611700865876115,0.11247242095564193,0.561598454647818,0.2787389182272239,-0.1782901774045017,-0.6355016080267523,0.17059627880023234,0.00769861767658676,0.20953822712595663,0.9554992207877061,0.009538990571959333,-0.6163211092486227,-0.2026431955871457,0.9458326335784807,0.02870931483787248,-0.22490143916049934,0.6787657325366764,-0.746606024680499,0.28760504788784513,0.02662475402459759],[0.3578612136791857,-0.6311066181104406,0.9567731224184249,0.03574825563102828,-0.9786587190401492,0.3462971518098788,-0.6319942055701143,-0.15559316739862847,0.5652378899524211,0.48268910899398343,0.5717303666579094,-0.0312787664613942,-0.8759333880031971,0.7719799564622265,0.9167714225238087,-0.1353439176828762,-0.06431611602404144,-0.3215308723186338,0.7436945565773131,-0.19856445266997425,-0.6305259962950247,-0.5160220999148043,0.6169017375014534,-0.4928829843072122,0.8441396849920902,-0.21352608343778112,-0.9972896868448298,-0.3410369646976035,0.7838020500652918,-0.7836138711792044,0.9340872399283664,0.45455142310650964,0.32482839087198667,-0.8278204313610696,-0.06678330110602833,0.9798777851910598,0.07645363033841761,-0.5268461678746382,-0.20969760917021626,-0.31573542841961166,0.02942791984492586,0.4013500878700838,0.9451470549868024,0.6040915390736287,0.8426565745543177,-0.053428220945988196,-0.16674809078552344,-0.3276901575153589,0.2970194577700348,-0.02948285537133402,0.47626779053486856,0.34286218886206693,-0.046421345216729956,0.8752101895456367,0.5077510929674326,-0.3383764006505051,-0.6454145256395305,0.23498935139928318,-0.17673132487989401,-0.7845138197865227,-0.055353410570984654,-0.019413247561583802,0.33604407630305366,0.45415374681204274,0.5561757328864939,-0.6821888749978055,-0.12718380081239133,0.3028700364640462,-0.7709397680727839,-0.2430703487962271,-0.7618602358298434,-0.35755505944955424,0.14569398714104864,0.8885644390301946,0.8928263986241778,0.08433783566395235,-0.2983140047991,-0.4888910240269128,0.7626659216174615,-0.9788096397340849,-0.9266734514049572,0.6364350836583614,-0.5111719363131193,-0.3882688706018345,-0.7846545703314641,-0.931778369374376,-0.8008933786530307,0.018433891933599886,0.4997796175852828,0.5422593423295081,0.1371163777749718,0.09189103348098666,0.8110483182272704,-0.566469146772828,0.5824877268136477,-0.27138501580578467,-0.4513489467825333,0.4891258452361877,0.21789738716588047,-0.7532596458152778,-0.46397606143424924,0.42639516561972785,-0.3927764812905891,0.36122551293991606,-0.16239010995770062,-0.5725362368036688,0.9970591091554889,0.28830851119826856,-0.32847957660187466,-0.4345600444690004,0.037811768926657316,0.0957844996514228,0.31566652418178587,0.7804228571901127,0.5825338228317306,0.47759342138034505,0.01115404932456137,-0.8884903205318846,-0.0032283433356422794,0.5824074980405811],[0.20122428831579114,0.9158932935303569,0.06244597973035122,0.40361415665194805,-0.42186467475932693,0.7356090849820437,0.8818503165120845,0.6566551030573503,0.26722133869911097,0.8862378031768309,0.17512566956528886,0.06976921930775319,-0.25907503513909597,-0.5136247340851554,-0.27132861499625827,-0.17866917789469497,-0.6886477779277989,0.961334926694971,0.5298373308875434,-0.7659370515916819,0.3118584017854493,-0.2730723728820426,-0.6766588054011826,0.7771140597190767,-0.7595350744739453,0.9694351319370952,-0.3933439075420156,-0.08439271771739591,-0.9721324894998299,-0.3533659120057655,0.47612896212136274,-0.6855624831088365,0.3538589652061943,-0.5414241804170539,0.7329905296865288,-0.679096076287071,0.38275427226238984,-0.07847591415843701,0.07706044863893974,-0.5558414478989526,-0.4022045643626812,-0.7214996489085003,-0.4649439119575552,-0.4763430125874532,0.6301619521828012,0.3584157800147752,0.16400684566833046,-0.5782966385592202,-0.3373748935938933,-0.13565258629933924,0.3347375741647328,-0.16361917845440946,-0.4030209058903245,0.8646037290134452,0.543251167724878,-0.0832905218061873,-0.11172852572108863,0.5745057402928545,0.5427046157672151,0.9554197470251911,-0.4771573247448862,-0.41645507827409867,-0.42468528381155696,0.3383316396543919,0.815730184519509,0.5754375029405655,-0.43932862927569644,-0.2295397206534834,0.3082714443603682,-0.25230281106561436,0.0867558929164786,-0.4828974407648148,0.23740469540406145,0.5833761287824043,-0.09601638984417624,0.9312221212571531,0.23813998052285737,0.9653551715887904,0.5781118540042811,0.7589571435999006,0.9669158735073788,0.811980866801958,0.24675797021316684,-0.9135365373572664,-0.9869283047027274,-0.5894864182675208,-0.5562997263683505,-0.8624302863494007,-0.5593715191908503,-0.42880865243612526,-0.9104307607929423,0.9780495126031505,0.6858713239423672,-0.20566138759558322,-0.8964744422795351,0.8867116336914093,-0.4493253142352526,-0.015788516908364657,-0.21270648406741788,0.23804849163276312,0.7082573381236821,0.43769628523949095,-0.5901503943069907,-0.22922621387532913,-0.44665347549605916,-0.07085802579186912,0.48847378306481104,0.9282976338503928,-0.5931838317811607,-0.5947847819636584,-0.4389305380396863,0.7093196710845983,0.9414275826006603,-0.13354403353925398,0.9480918428674319,-0.1739140940794584,-0.6940687125813252,-0.008500592297241597,-0.6093723507637042,-0.911725182253813],[0.9311397372083416,0.8666683623076675,0.5585497093776159,0.55282536136438,-0.5793526252113524,0.6612143302465644,2.2647185230364073E-4,0.8828658314556284,-0.19607054191532672,0.07044048463692214,0.6398782663467577,0.5022986941941159,-0.8126487654480608,0.45390507036695804,-0.5810156541901172,0.8556653003328201,0.04936463033679555,-0.8038661637799641,0.3789791988676934,0.40813984253670704,-0.24122299426725288,0.06922801612933342,0.8608250854231496,-0.9122620658271422,-0.02651082973597835,0.2690831293370361,0.3637434228374541,0.9091561399763795,0.5951783710709926,0.8099437130240064,-0.05185024471830522,0.1956244447851218,0.27599505478761505,-0.8718104122453217,0.4683871851417669,0.8270514782447256,0.751888487937897,0.7180556051019881,0.6877552220069799,0.6904460982736542,0.9813557024465329,-0.10350674626488421,-0.009815976792442671,0.17799217074822368,0.1356558429519622,0.12126003590165141,-0.9052674046187245,0.3210021558661916,-0.74704273157601,0.1354443117103494,-0.7619737178355668,0.1946055992301096,0.14463249225625557,0.18710781033433188,0.5389667196551199,0.8385045922362065,0.8509157632398437,0.5265085285308676,0.6767111841691132,0.006947974508502617,-0.9762967935812185,-0.7121617642253092,-0.22255666291187107,0.22241346049410057,0.6048956359446549,0.027515955137063373,-0.49334927714093113,-0.7134236933757017,0.3423394713876192,-0.7570764379440011,0.32202946245087577,-0.5830607209258037,-0.8577892375047826,-0.4073429723320104,-0.4714647515039218,-0.26812975603350575,-0.7412704762101608,-0.45556074576963673,0.16725061718172632,0.316877484823905,-0.4729466376618543,-0.13830732787386232,0.6932122927823471,-0.9080238658901981,0.008884438309718738,-0.8703198488744719,-0.3222092676325919,0.6915099751753391,0.7228564765481543,-0.8925851744796289,-0.5339699439813458,0.7479417995559685,0.12793811859727275,0.5027622501944052,0.10725466328605471,-0.518272029865737,-0.3144428799761682,0.1702560780841639,-0.8771706642989062,0.2749721307812323,0.03758096741703319,-0.006752007947771417,0.33862366866730875,0.1472975166540312,0.8732472961124477,-0.6825025890136026,0.3318385230933397,-0.14108238766210582,-0.4340731493023347,-0.7281030387852034,0.828255741088872,-0.7615643537713779,0.48083746848658965,0.9922991871693665,-0.05107473872562813,0.5459992426879806,0.6436124788822206,-0.1318826108793806,-0.9511551223603308,0.31093942545250886],[-0.1508716724229095,-0.25670965002184337,-0.2381898593299458,0.3229832914865077,0.1264601769018308,-0.4312585541708736,0.7378188200665293,-0.3309669504772878,-0.5686960723616697,-0.7191810800171138,-0.5292255800668185,-0.3788265132235569,-0.42458661084802846,0.7798932411082123,0.4254950116072661,-0.8763271646205089,0.33283102940028364,0.7620199321305114,-0.8940514272982363,-0.4276709941227395,0.8559089157985328,-0.9439016924322154,0.025461846721848116,0.6334959659579622,0.21787323123236477,0.12011845806450142,0.26581414811310233,-0.2823715187303459,-0.6610816666404015,-0.7450699377890232,0.5501047203003882,-0.16183929952880127,0.595334986904637,0.9347057333163075,0.6258562372374403,0.20310102611646985,0.581767739640225,-0.6672887546826847,0.2412648283211916,0.4439329226589233,0.1607467767121676,-0.8608352197877704,-0.01894492797801251,0.09338792850852556,-0.8910813657157863,-0.05045096814207611,-0.713231373763867,-0.4562150467839691,0.5747070931512237,0.8757414878454695,0.6273394164623765,0.5762323227693411,0.42252744526703234,-0.3438886016086879,0.11114512637578242,-0.04235665822254507,0.7038198188703522,0.9791550937744381,-0.3450995778237802,0.9525980151278155,-0.10026491167684719,0.35363095367242836,0.706693134858577,0.3264943178331802,-0.7560409164010655,0.3642930150133278,-0.4463805755423183,0.14157068863764574,0.5781662873989307,-0.17876502404597325,-0.5679962889199616,0.5625629968239889,-0.07234660629603246,0.8905837733923007,0.3588375339154529,-0.713874409342091,-0.6348807531080939,-0.5742834627635328,-0.4093556157573732,0.3218144648147797,-0.5376781896984579,0.5858396155070281,-0.8003519548903931,0.18473168222154204,-0.3717183253596714,0.521137351098412,-0.31526949394053594,0.4159967182075969,-0.48044307839455946,-0.027574363698639144,-0.19123712879021748,0.09330964353478895,-0.031218839224253697,7.508365054019148E-4,-0.2067515308179842,0.30781401094286026,-0.31649141172528755,-0.600224747355285,0.297571985936028,-0.15201892293098174,0.2696027069597324,0.6362939269276608,0.3068075543383822,-0.11388094150577487,0.7679803080845029,0.440374899179476,0.07963313100124525,-0.13056889217712928,-0.17126440302130003,-0.31538921102321654,-0.46003111980618866,0.7114192355714276,-0.14541713132765283,-0.4262832381731757,0.10425066981544312,-0.9524308340184605,-0.2906465074089417,0.4800086179600088,0.21173928581734966,0.6901004044596494],[0.6698472483405277,0.21227355687033794,0.32907390807952785,0.9026414155274641,-0.1414834878142773,0.017701191857592183,-0.3447706077062813,0.521143678206913,0.8547741768764837,0.3105174970556081,0.6693058654168026,0.8268221290332817,0.29611786318396816,-0.3725681964995783,0.211030855703349,-0.22775259053193375,-0.8429236829740966,-0.1217587565085209,0.44746072859443986,0.5434925118997717,-0.24746370169629567,-0.07284425155208864,-0.9202760394794508,-0.23044201169234335,0.6575222857402183,-0.30669601121641754,-0.48736233510362,0.8562490080680962,-0.49294284459350635,0.7292282126557036,-0.6982413599008983,-0.41283171135925845,-0.6319869790255922,-0.055958417310173744,-0.9505628894015319,0.4100437192380444,-0.40904939104490473,-0.19280996663008634,-0.23623724159316473,0.29756130960128147,0.3847248593153562,0.0834710849179177,0.7953028667457128,0.1114761442075288,0.6772932420930076,0.13392225768780386,0.3583139699649466,-0.764246741886093,0.21662857777485503,0.7533932303067058,-0.8799706442449688,-0.6715299408273132,-0.7663498226640575,0.60257490818889,0.37792665017828464,0.171523008337959,0.5830837864832842,-1.0009852388798246,-0.07181230591179896,0.8434135531645349,-0.17083273500908594,0.42046102542883174,-0.12533838426615532,-0.9358415690608527,-0.19367837544661087,0.0662650974672334,0.0900463310185153,0.021706577816278206,0.5713819222097369,0.3709739947924384,0.6540703647962111,1.067368061222232,0.23619133934007816,0.5943993394340201,0.11032754171139988,-0.5347617084558219,-0.3742537668549588,-0.9471769548926757,0.6489883362127342,-0.9360572526040043,-0.060473649372726944,0.7323057511645288,0.8850689403455395,-0.7923310265425477,0.9917004751834179,-0.018962417903731797,0.6608042532678318,-0.9172426955191122,0.7193725408703394,0.19629301960075796,0.11557936747768179,0.8919512135482377,0.786253814250798,0.2559391204526434,-0.9158146913466962,0.11378461526864514,0.6258049899471214,-0.8047826161704508,-0.02880687958475347,-0.03865588767681956,-0.9207770809008505,-0.12372983190516401,0.6298829512848237,-0.6685563138435893,0.6716591011601121,0.6672306923180383,0.7468511092707047,0.2899210516633618,-0.7109881019894957,0.3878870180882385,-0.7111743071439887,-0.8107230357134204,0.8398635970859357,0.5308896531208818,-0.21074810892155232,-1.0022139623190676,0.6043733993689983,-0.501067825563657,0.4110681547696448,0.45339024330315414],[0.2605525756960975,-0.5077800600839856,-0.20173801559684038,-1.0181198743720077,0.3818091460849643,-0.48600383297325145,0.7495781459123138,-0.10414131914554123,0.013720236120390554,-0.08900272731792218,0.9767695731418063,0.22759277827184404,-0.26952226210926394,-0.7623142925457234,0.12454138505758762,0.18366459247358666,0.643017618116604,-0.9605504061526505,-0.5523716964461881,-0.502183380698164,-0.6037319649434818,0.7651543183020555,0.5855094671471062,0.51674364746838,-0.45715170275342026,0.7795060860281593,0.45002269418206353,-0.32241009977523527,-0.029933349635149546,-0.06748283250250561,-0.9554630319639744,0.5824500933993805,0.9368354386818548,-0.08068457127148743,-0.5500315504339729,-0.8337116437805286,-0.6137390693089848,-0.9195851515610939,0.22704651961959693,-0.7963828286652033,0.1333506984852056,-0.5512830781204068,-0.6437909378298791,0.7424197685376016,0.12519507680408296,0.140198507863495,-0.5068666683408616,0.07535653988776943,-0.19540200977002617,-0.5377356337755624,-0.11893718293963666,-0.27221374403653265,0.5092662544543427,-0.0033841755255000694,-0.7049759862971771,0.7354891273928308,-0.05548489606470744,0.5500899090116552,0.9610917591055905,-0.09053226454860118,-0.6023334776226087,-0.48839455292366313,-0.5955506722641578,0.7117777267726537,-0.21867776246902004,-0.25499480350323056,0.6399804570095041,-0.28493452080167836,-0.8961370132853957,-0.017127312514678566,0.5897743107741124,-0.7783794430651223,0.9157667678458484,0.6652096758268515,0.243907162295967,-0.2570790340569137,-0.5953718875927475,-0.26400354172308105,0.44206534628329075,-0.3700498413256723,0.6756557588813303,-0.8092128567402936,-0.6866981828461042,-0.17029974365133876,0.02251047529980012,-0.18402666170450308,0.03732503509043679,0.7722715884569561,-0.48540669272323117,0.6766277509882859,-0.205673565152991,-0.041771553569013485,0.7682314695890514,-0.9112065690770291,0.9022329110090196,0.26297075396923847,-0.08928233763789162,0.3793681759140169,-0.40120138212390555,0.37953706488862554,0.42066099114160255,0.7785552532162827,0.6495630613474705,0.4136990653929703,0.24294261557228908,-0.792683698604869,0.9543169558034715,-0.28110264535153656,0.08120900306829583,-0.34316480169298297,0.6570703701419446,0.3509812461865227,0.08050987630053015,0.24846301367279844,0.9156072464938486,0.611576160345737,-0.164974964563357,0.8289183671758793,0.130708569242675,0.92113137392057],[-0.6330739056520407,-0.2153993728467052,-0.6207772328148969,-0.09081661789472951,0.7374422689837067,-0.8964878910595668,-0.4433770117510372,0.4547947608718019,0.5255913645761848,-0.4092576173904033,0.7565348767944328,0.3215015111924961,-0.20689488619779536,-0.9624828233661635,-0.30429154703036254,-0.127121360573121,-0.11558742413445368,0.6949074884100761,0.570375439133161,-0.26974466637822136,-0.5184645074082658,-0.21405037094023524,0.598588203184154,-0.8571418197300643,0.8716926049422216,-0.5759881527839311,0.5564602517506126,0.01769718910637999,-0.09844750753391558,0.4423667253968431,0.43554145315386344,0.5850071695930794,0.31029160912381576,0.3175253523001065,0.2956529599807462,0.928984741344618,0.09072870338041597,-0.09839757961032858,0.9269014958420534,-0.12981898084241114,-0.6513505895813579,0.8807703026329894,0.6645675381720466,-0.9884120338329155,0.14599951172962602,0.7869576680508178,0.5031102276611726,0.6890266366365061,0.9045448381290935,-0.18987712993129077,0.3906321570206586,0.6822458552053469,0.7775108537861177,0.046629805919309146,0.310833280918453,0.9609663159877877,0.21883367827618855,-0.4564280864949832,-0.49608808256147935,-0.3772007357401454,0.23077082810292804,-0.8261407874464195,0.4354662892515981,0.8775771633607087,-0.7298118626853743,-0.42507388833292525,-0.802976789694293,-0.2571585770139417,0.7379820382602073,-0.6058851175324832,0.3854199863472605,-0.3014906903317467,0.3053250696527092,-0.49421911138555236,0.85609937424658,-0.31410626126399877,0.3441369948674039,0.04391734514489457,-0.6156279514758617,-0.8439333851469222,-0.880024713517092,0.8101984994148357,0.5186757779421247,-0.9632447301236131,-0.7944422933914811,0.057392757938850306,0.2631635883210208,-0.10948669488757169,-0.9487187990053968,-0.34137863176490835,-0.15474562836407157,-0.7918040785709398,-0.4115533849843743,-0.8814467384942976,0.8835470030568744,0.8120074852835745,0.5610375772936236,0.897717171957474,0.4140902813114247,-1.0508339998853091,-0.04964418066306407,-0.731455995164623,0.5259792385803193,-0.9920174843921316,-0.012059725893915702,0.5152537081156204,-0.943422789884204,-0.2745448660579951,-0.8557610181496277,0.5110548596243695,0.0448450412071369,-0.8150270035646915,0.644298941707151,-0.538176427374811,-0.45027191525858984,0.721460123615891,-0.9022846748321222,0.625507352096724,0.740595436726192,0.548984276432976],[0.8981061530826632,0.044323668072449654,-0.795203893738513,0.2842361513066535,-0.6721914187162313,-0.008337151365511122,-0.3320402278830539,-0.1484439169684038,-0.6102768907622187,-0.4073211500625244,-0.5164472951459914,0.30961447205067133,0.34722054225722004,0.8247073160301674,0.01530001782344463,0.9037114112033375,1.0020245793007434,0.5374801208458531,0.48853959450906587,0.3891943389068612,-0.6550060557891841,0.1438873080400606,0.5440613738502951,0.7106225759058181,-0.7325085024512424,0.9427574721105944,-0.33382859758895495,-0.017393633817254738,-0.37841943573911047,0.7979057694535824,-0.5251873122353101,-0.9984130089777237,0.060900765372747974,-0.8977313902006995,-0.8073806078463202,-0.4726182010829226,-0.38552994386939254,-0.2764619945558484,0.8308174319059604,0.9915744683857028,-0.47895447244456907,-0.9164743779793031,0.5762418324243153,-0.3246569855880141,0.3640705680135722,-0.17668726075881994,0.601749495918203,0.16672780143027996,-0.6622051554260702,0.31449543119363066,0.2827912298942399,0.6448304871724865,-0.4833221978076028,0.6251922700354862,0.2939214241982767,0.48752975458633696,0.48608871402325465,-1.0182961274643938,-0.8458230381311812,-0.08275219809959887,0.7160416467315177,-0.7185278182732141,-0.09232194010763826,0.6498003937298181,0.3607419358487985,-0.9021551800050941,-0.76286654752852,0.8504537675549331,-0.8464389738231348,-0.5789048393411118,0.6081706882878516,-0.545875385769294,0.362923368472854,-0.05124569664243836,-0.3711252453593992,0.036136847547235375,0.87182172336962,0.7121056912278321,0.7907641590755573,-0.6157562264672568,-0.2719252521416371,-0.7593984660112967,0.3499979440115842,-0.15414509740828178,0.2646726668386761,0.28395576435117037,0.1299762345162745,0.7512247516083023,-0.4635039630167285,-0.33553677721909536,-0.09746270721858949,0.6513164855583206,-0.46101359035223327,0.8874834514469885,0.19282246233581088,-0.438266008848825,-0.22035075128947992,0.38301185259803844,-0.13701095200861574,0.3617240803792576,0.9110271287086387,0.26903703211572133,0.4232459180366558,0.9063749142915445,-0.1713516893957955,0.8616283143134902,-0.8318249165243171,0.29087677884506974,0.8745737607138393,-0.7177978286746624,-0.07618493167101498,-0.795901163957424,-0.4581495423902033,-0.6938403520133047,-0.1654248031111295,0.4806688045460597,-0.6520524780313304,0.26276550701218365,0.03129925794632657,0.2910815397249431],[-0.656481816981876,0.5350065294572321,-0.4260098911954228,-0.3912872843792456,-0.04860643164802431,0.7561690181061625,0.7589895445714685,0.38238948917200916,0.1791866118500583,0.2874574676817992,0.19779450880269348,0.04054668356661358,-0.33985961386317814,0.3589096697083855,0.3863773779428487,-0.2631847051140675,0.3977680572282033,-0.9518755860962034,-0.34818122661383366,0.22005522144805822,-0.5437355541963562,-0.2497648673071589,0.2981559099332302,0.8468610391908399,0.9098410036027358,0.6454045498569256,-0.8318235748662945,-0.12677797123460574,0.9767934529041878,-0.7793068104759122,0.1993287362431466,0.031612375974313454,0.6293193961109903,-0.8974461664656849,-0.17043086873564212,0.9521011253744041,-0.7444424064362898,0.9289850658315868,-0.6440200754575375,0.4830677063030039,0.4756963911312368,-0.176602332352549,-0.6366787650539859,0.43390520320652687,-0.6122581616738866,0.36862177293283976,-0.8432349519021475,0.5201896696254997,0.050648734961949785,-0.05693977587115205,-0.37262983218662404,0.9812437525567298,0.4202081652021221,-0.05269791501387616,-0.6273770987294658,0.49571008405117256,-0.27531474548609114,0.38912274202051356,0.48610037361310116,-0.3125742264551818,-0.2626078171067633,0.266019296563035,0.09953901470483054,-0.5224511036692068,-0.4646815324766208,-0.919749414065087,0.8923270176695781,0.0447314515560064,-0.9163041287825966,0.15524669978900096,0.5347391259401455,0.19606377198730932,0.03389100573433551,-0.12323571357951348,-0.6899206537182649,-0.25558584715022126,0.42231655666884393,0.6221835769296056,0.7387754779451565,0.7005693846539804,-0.40165097592518983,0.14505166020415816,0.5580508121231542,0.7389591433536864,0.6462681373427505,-0.09123703939382147,0.05191417842634397,0.2060506423721741,-0.8261767625268565,-0.833869642011658,-0.037968238881374294,-0.9670076126195793,-0.9460615445710152,-0.009467210317542725,-0.14092846385994132,-0.2554275238455354,0.4485602333349741,-0.4469164559412713,-0.25317650348338494,0.27404244079736445,-0.5223337103914921,0.03366617201392293,-0.929306265755365,0.784781247208562,-0.8505112959545547,-0.8850407075628552,-0.4617414210250513,0.07980618592709754,0.06030250564215474,0.5445091392588,0.7703914853614482,-0.782235204303639,0.3260975105108248,-0.7533838506438078,0.9976382316014283,0.20619457393356408,-0.8933158446301299,0.040072441769739106,-0.4146101756163542,0.8006240673923877],[-0.6430143981153671,0.8466197435037758,0.867148281252439,-0.8219869161316535,0.43859794322698087,-0.6395385785286788,-0.4133217097692424,-0.5651583126252558,0.6702166162564965,0.7423369925962701,-0.05347821155124562,-0.6777957781586765,0.05186552157157845,0.7596101634733706,0.9730734852708047,0.7429669771649513,0.8004757373378818,0.5880206478638177,0.4930946322815489,0.8926380788349211,-0.11972292310996405,-0.9337724293777304,0.5497373860963266,0.992058267132267,0.2140526713273311,0.9572476736217898,-0.9185551355235859,-0.883427065770615,-0.015264512269591137,0.0382144525447456,-0.3171178979672864,0.6704258029126026,-0.3718010754423372,0.16519969467644682,-0.9220880124701225,0.6024924589449252,-0.1282574867636965,-0.4859099845208405,0.3152383758338721,0.17953648969099925,0.03790150928125589,-0.41663332947037146,0.9788652193427807,-0.16927402259209298,-0.5722908448183456,-0.6397239330431129,-0.5487099831163387,-0.403555481307508,-0.04684021212887969,-0.5202200046728613,-0.481840042897048,0.6358851138829344,0.2603142639981375,-0.007241396102202559,-0.9690210913633573,0.7247545814563391,0.6447672129043711,-0.2989102898952783,-0.15853262728381365,-0.80289270093093,0.6225136469029365,0.9030275079327891,0.13638271079921174,-0.7452171060859679,-0.24328586948268838,-0.249932701936829,0.02215042563894025,-0.3404749544412115,-0.8095215696702203,0.8009110323233549,0.98851004445103,-0.3846629779149083,0.6165944373126779,0.7614168025611516,0.7414163819981313,0.3180230748978724,-0.1365008353981796,-0.23274897236254147,-0.7520489467566888,-0.7715470040681711,0.290229602631088,-0.06807748087360903,-0.6512322949386008,-0.9667480875768155,-0.9831242958355264,-0.028877074284047878,0.7680653107918535,0.003985819605820956,-0.18836093339894686,-0.19552894423518508,0.23689201701351226,-0.6371616872496845,-0.4711326173849829,0.9118616914318769,-0.41336950946944107,0.8302437912930711,0.9421800099866241,0.15984283829063858,0.30560665787913605,0.5811795261241869,-0.5928079838125367,0.7231664879527903,0.8461372177409459,0.04888864666454114,0.40667194761945064,-0.19528710691620396,0.18657111659294717,-0.95813909254066,0.6938936177410093,-0.889473172263352,-0.7538707662002206,-0.07466528525957063,0.27158186494380476,0.12840393430640096,0.44189909755630546,-0.30307693656051093,-0.21708019111645727,-0.5646267629087729,-0.7059027123695208,0.28774947264443473],[0.29456687903969103,-0.036594827155881866,-0.23484107582344937,-0.3388050127912491,-0.18570334763706464,-0.8642416168887516,0.8269395787124725,-0.9591625284392045,-0.12165661052087146,0.5854927774142475,-0.5532420992810565,0.679855700015614,-0.10609348245742072,-0.437209717079446,0.5232456232784076,0.18409061160673915,0.11550882556832509,-0.24267378543165533,0.7488303750690474,-0.13998276679671856,0.3771145738554869,-0.5839468968672128,0.11882725533097536,-0.4675810099021545,0.4034132868994307,0.1938292545342507,-0.8363644944495026,-0.8204568177046357,-0.7634070576084961,0.23154181022086937,0.444767897710294,-0.7364191110624136,-0.7776285059148926,-0.14488555836241612,0.009789473332884427,-0.6070255136569551,-0.424003352801996,0.29837478731653766,-0.10883404160424408,-0.27193435446814795,-0.9381510541640777,-0.8291345358211512,-0.5468423482076656,-0.3322922200088996,0.21684565466450675,0.9543398488280858,-0.008592566768284987,-0.8691754542134943,0.9212000087860266,0.7780542496111853,0.014465959916691569,0.9169762122029321,-0.3258960280132023,0.869106902820115,0.12246191643800367,-0.3309981537748508,0.7031680547917544,-0.12831240821926546,-0.847239014911987,-0.5753619162468265,0.990539467774832,0.6805320851360466,0.2609234108742841,0.09126897385277405,-0.5928707536102718,0.06353084578161859,-0.9221160406266937,0.2880676299946452,0.5744528107032252,0.9876432746236865,0.47398620034727945,0.33687434259964616,-0.4139193262601338,-0.9468369673150852,0.8165629101069962,-0.39314732964045923,-0.45311504276292236,-0.9380847079001975,0.6146932180762166,-1.010941812518668,0.7557227136797909,-0.6480291852150349,0.010745522738329264,-0.22779392882474822,-0.36009465475498786,-0.12926787762937322,-0.9705725411859765,0.46882205515103853,-0.6129053980745793,0.24481111863356989,-5.058793669865192E-4,-0.9011316536611351,-0.49783577848378424,0.44384454335366225,-0.48265226850207205,-0.6824716238550872,-0.026243096389476223,0.9778992862445065,-0.2957077299953379,-0.36188995111991185,-0.018265517119775292,-0.26898989676339097,0.4866198470304725,-0.12017108811586993,0.8392368673507472,0.15746280729269296,-0.763175028422451,-0.35494944349298785,-0.7204345365826165,-0.2577689180673332,-0.13551486589755893,-0.24469634874210533,0.3137041581592022,0.06892819524323894,-0.1362944274443485,0.9840240744915565,0.3104970179284788,-0.11711948677059247,-0.5404145391120139,0.008378355815119752],[0.5744482943009768,-0.527775729721989,-0.11827353319746012,0.7399179798940722,0.9089078671806108,0.7324693832534356,0.7791805215764879,-0.5483671193992792,0.5688717921077041,0.16915004896132738,0.15592292788570913,0.20363218127578483,-0.7067123248267204,0.1235907537908328,0.9839620080903421,-0.6914944763919755,-0.33051925718101594,-0.696394077239355,0.7764632725413038,0.694177650927911,0.05499212256045463,0.8923676515812474,0.5133630082428718,-0.9256347579997528,0.2376318635959154,0.8058206032954645,-0.9316876166890836,-0.11304283193403615,-0.4321074397563585,0.4396599271044781,-0.005028590449887782,-0.609334753456691,0.3495894756933385,-0.027394789213276184,-0.8989025476683135,0.025906052922582516,0.10444667400950436,0.23572564327221385,-0.37727257361198113,-0.996262078575038,-0.47646928025200813,0.023024214557408086,0.3594398774596909,0.5003861753439304,-0.11064654479158377,0.09227391735461803,-0.06482411937061279,0.4084569918049724,-0.5299204067378244,-0.3909011348999173,-0.4831469257885296,-0.9668289046706778,-0.9585717550861566,0.782474609339897,0.5937305480073537,-0.18654715923425355,0.4476083131181424,-0.938066685130287,-0.2996697129955817,0.027050042125268615,0.9474014965433682,0.9013296082345014,0.878096242103932,-0.5635536050622716,-0.49390995969012397,-0.6651251138589223,0.010195563042229816,-0.624675225028197,0.5131300919633469,0.05125402679339427,0.7100788842608811,0.7279627367307655,0.35734998767125775,0.24866782298626006,-0.692182957442588,-0.23235631791946973,0.3064497206518,-0.1840665351674055,0.11640887050848199,-0.743856210671693,0.6408509662109679,-0.305439381783282,-0.3061821169313239,0.2316253580397813,-0.09617320735762304,-0.9363939315848525,-0.9251234985615217,-0.8087193496236783,0.6075819456574728,0.5346282133101282,0.0517015717208887,-0.7387997449263651,-0.509743645385531,0.2503541501554026,0.5510465939823069,0.8439688798930122,0.4519362743678923,0.11544854904903876,-0.6601446502679907,0.14306969937021982,0.20547955236326196,0.7484367114590166,0.2962489840056034,0.35690912227125166,-0.6645184031245339,0.5924317390036553,-0.1142698004019081,-0.7965987757347458,-0.8591354238389316,0.037186410005765336,-0.15624866893376624,0.055259761589255794,0.1255443373578259,-0.4417449260867987,0.19825980926360817,-0.3027622831075244,-0.7391119343587307,0.298799348692906,-0.9345787875674507,-0.5876168167720027],[-0.17576886063992295,-0.134815607107594,-0.24043279503333395,-0.04590318539077164,0.351982991615148,0.2175410023857517,0.5874531901840715,0.028130557334812244,0.9634086215120479,-0.02735336978628112,-0.9924732644608248,-0.49985890942764144,0.5313949593112705,0.3362620714709761,-0.9271184892002902,-0.022266954198071447,0.8999401423432669,0.260486118830633,-0.2128301800235771,-0.16975991672525217,-0.553222090374951,0.9649346754835988,-0.01732430388033547,-0.34398663688940484,-0.8902814082071672,-0.8246223961857272,-0.13484827760342713,-0.4891115813434936,-0.4848477049806982,-0.055478294857621596,0.8021081454886538,-0.6622771667955712,0.5884417714663105,0.5672665418806876,0.9495503882161658,0.9277734569372736,-0.21507201615018706,-0.03149694271439168,0.5491080254017527,-0.08517386366700762,0.34168766828531344,0.397764618704816,-0.231911643488887,-0.5979350632683167,-0.5889240578803424,0.38543913816258324,-0.2707371463228115,-0.2899443596835038,0.13333406907650058,-0.505854194448181,-0.9008227633850278,0.9013139231878492,0.16405097025518425,-0.22808510467700763,-0.43368621697816184,0.28202176124747846,-0.48449032095328187,-0.6418867858302604,-0.7566483059307187,0.059580822435837934,0.454738646841572,0.8449765690139236,-0.6128163929841199,0.4447126372510074,-0.7971030641505226,0.8840166327431818,0.12114953878395658,0.06782273171765922,0.8263514368170494,-0.0361682200556551,0.2991362744238347,0.9505416042784692,-0.1551485729663384,-0.12166790225452537,0.8373155695098529,0.5543704060015631,0.8327163536236774,0.8386853834188294,0.8117123337550389,0.08521155066399819,-0.630900628646475,0.123011986308097,0.1500978195785091,0.6532366878354926,-0.1230114953519383,0.2406430939489549,-0.22809078981698377,-0.8484987921515392,0.8236764981843648,-0.8238824265879175,0.41867123342435597,-0.09502835162405572,0.9346326461938372,0.36062995560060374,0.9931837504944522,-0.5095732537289039,0.869623502246443,0.41140694112176057,0.30273816115766994,-0.6603577296324769,-0.7647563146379064,0.026255418343568697,0.10111179747315101,-0.9527994484157245,-0.013754831430266495,-0.39568863735553883,0.4120817316538724,0.5088965510798441,-0.7616475360579312,-0.830365803245491,-0.6992367634163253,0.7808880840428734,-0.47882978786061714,0.32616417754137217,0.3619711910137276,-0.2504405899688968,-0.8532387904748505,-0.6760429209117204,0.6422618196822574,0.1794618203121042],[-0.5819584716210447,-0.022476797247505134,-0.11070350058046291,0.2679820299208501,-0.46665402190499117,-0.4006018516165708,-0.47777590746611276,-0.5979934635821049,-0.9192414685791933,-0.7908418523843616,-0.19413567592621206,0.48793878186292367,0.09661600985925328,-0.05843492600687723,-0.4810049301751019,-0.5939040081008043,0.015775883075301665,-0.3943736175445925,0.5690368744059584,0.40548830026378807,-7.001704935515785E-4,0.25767107964304353,-0.6163987448624462,-0.08511041428789833,-0.3105129173063438,-0.13066454798753424,0.8961757887020745,-0.9440853631622431,-0.6653941162236888,-0.044753863898646426,0.07913259704677539,0.7243691427980374,0.46794460938917043,-0.27602454183182606,-0.3581443230267082,0.010175699099824064,-0.6536524926920309,-0.3246620658014392,-0.13885507871240338,0.9200975067146171,-0.3045039541691207,-0.7788312997465902,-0.36760345358331203,-0.8743640052616536,0.8302514436364551,0.6232002456346944,0.7116554708684314,-0.6066446056298502,0.09713394634321072,-0.42868164046505447,0.6378367946876126,0.21223763330965048,0.7977390468698943,0.5784343288859112,0.10301316196975964,-0.24149742015372277,-0.4235552890280147,-0.009311389642463757,0.480873861448478,-0.007942802412478564,-0.17046378075416863,0.4927407128125293,-0.5574467320680452,-0.09302712745793627,0.28574132961489107,0.013421791664185716,0.7602144904668181,-0.8782289327644145,-0.5989826015364331,0.13254139809301002,-0.31865658220490634,0.46354875500502335,-0.6637899016536118,0.5113457306426596,-0.8890278891186392,-0.7780506238072885,0.744461640456502,-0.20317343441015048,0.2067173713226512,-0.39544341096509367,-0.13684467564886862,-0.1442640122073208,0.9238959214227657,0.3925074044652302,-0.9245411962305854,0.9325203773766322,-0.8344994518584159,-0.8220107588608602,0.011947877525709336,-0.3365810497438841,-0.8982794477854619,-0.5744822707456368,-0.12657999315173682,0.4216130865074453,-0.3434914173952081,0.6611267927455413,-0.8224654775704261,-0.5243598996893226,-0.3382995487003113,0.6117130279846608,0.6640037529486427,-0.1292123088809235,-0.5855023225915775,0.9491223660260402,0.44563539269656305,-0.2616000416850728,0.18909186257962546,0.34217537145562277,-0.8368901338632683,-0.07928614975098128,-0.5447246910566225,-0.4165778539413948,-0.3302722682656656,-0.6736318820102744,-0.3863447120163426,0.19834655444658328,0.33567401678887815,-0.26564860616716,-0.5071974517830636,0.21585778836304],[0.3377356644739327,0.45861564938741,0.8538745088413315,0.995552590615662,0.9218661490096146,0.9225568536392704,-0.30264271450026237,-0.7745808654749632,0.7447632657826379,-0.26179480261246246,0.6404287093336215,-0.8681862775382437,0.41524521381164414,0.7675567956736334,-0.8131601441174604,0.5810442879944994,0.7359485294039665,-0.8161431851659493,0.26753586109314614,-0.8682347718760761,-0.1769027206711834,-0.9914246917544727,-0.6746457709622173,-0.01805915379047075,-0.0634988819677319,-0.5135179212372952,0.9433535222844396,0.3378981030941726,0.8395631316976313,0.7777423180575693,0.1530225528703903,-0.2764653622228171,0.2826935082178174,-0.13182956374880306,0.7098706483095909,0.8774863437424018,-0.6289137658054917,-0.34766431736326836,-0.1578459924028356,-0.26354293899076864,-0.006423551068526579,-0.17027751372558556,-0.9814503586658544,-0.19193556727970115,-0.806113869173009,-0.4714569739540287,-0.1445595003856814,0.41400735776644676,-0.8151387738182273,0.42090686228360097,-0.6153859651746219,-0.5162705969957173,0.06350205579296662,-0.23451339063018267,-0.14534914594132214,-0.9467262010882718,-0.39252169986903007,-0.8348224358620452,-0.7408566705781809,0.248157450937966,0.7140296491159027,-0.6023175050176305,-0.2554632798926576,0.5327835257186506,-0.40413375099127286,-0.9821685537202125,0.2504771454753582,0.3054457121464066,-0.08979106675002872,0.2233508115622417,-0.9302040252195247,0.9993347642782111,-0.7007408428723368,-0.8332146193301148,0.875493136688383,-0.2846836380327893,-0.008066323269600413,0.3905890064563576,0.7346543409107401,0.48272475074788046,0.5213367459007442,0.3328966792249621,-0.043460185487897374,-0.9649670379873023,0.34070702492462535,-0.9465787722762563,-0.4868058089831651,0.0832733581596566,0.42204136341409004,-0.33596565676490814,0.3976870528827886,-0.2833556805311796,-0.37736100366542624,-0.572716652675065,0.5243859624391153,0.38502725607672084,-0.3381414140511225,-0.9010999759490176,-0.5033346563875696,0.14591698369094053,-0.9045383047324208,-0.17886542479586692,-0.7276274556824941,0.06832942706309228,-0.4203385504841732,0.9022169601591357,-0.8948610629837817,-0.0010756254905739367,0.7342631372484687,-0.061302349766371715,0.03562065102438682,0.3036729276951785,0.2223719026362327,-0.39814034417151667,-0.7228191662739384,0.4350250884883456,0.19745798035196166,0.1612711929780372,0.15746623837595286,0.7521181622435087],[0.2418565711029288,0.5845708110425964,0.3699778954968219,-0.6880435910855134,-1.01297669633194,0.11154108683526157,0.5750136980820587,0.36925988235796875,0.03983477040188832,